1118 128
72 0.30877826 -0.030237092 0.031993646 0.20266218 -0.028042462 -0.29646555 0.1576687 0.0033589571 0.32292974 -0.09492217 0.029119559 -0.05303538 0.24783018 -0.4612542 0.017743343 -0.10372545 -0.48786628 -0.17259248 0.11057599 0.1328137 0.082524925 -0.11407313 -0.112434864 0.06116143 -0.25690338 0.5764401 0.21708095 -0.12909846 0.29759994 -0.10480579 -0.32843912 0.01787786 -0.52388537 -0.22235626 -0.237436 0.16664916 0.16864285 0.56476724 0.014229385 -0.013155899 -0.026964292 0.3696239 -0.03927857 -0.30784827 0.12739345 -0.2977932 0.07574633 -0.3956423 -0.3791485 0.5953239 0.07155589 0.12165646 -0.4803731 -0.06506046 -0.013257508 0.30357414 0.081676215 0.031647988 -0.15787388 -0.23155463 -0.2996873 0.08427894 0.4632281 0.34669235 0.2090832 -0.2322357 0.17909122 -0.062982075 0.264643 -0.20640671 -0.23514943 0.104089975 0.058423392 0.09923194 -0.20799609 0.043390855 0.013087797 0.20891294 -0.14900339 0.24869171 -0.009683981 -0.026447868 0.02012 0.29324916 -0.017949723 -0.31677747 -0.10227196 0.1801139 0.36043417 0.029023625 -0.20672798 0.07983443 0.061621305 0.19116828 -0.056130823 0.15499067 -0.09534284 -0.08268166 0.36714536 0.0627343 -0.31623107 -0.26293606 -0.15082373 0.07591023 -0.18688412 0.055799697 -0.12789002 0.034301963 -0.067306206 0.18110679 -0.031416394 -0.014426105 0.00685007 0.030167565 -0.2921963 0.03933237 -0.055297133 0.5027158 0.45022228 0.2864901 -0.007044938 -0.08219665 -0.30087492 -0.09828055 -0.077945225 -0.15268299 0.106024444 -0.1737299
142 0.12801568 -0.6024005 -0.10345199 0.1749997 -0.114818074 0.19620737 -0.26984897 0.111866824 -0.32593626 -0.13450274 -0.06588016 0.19031784 0.0012772634 -0.068989925 0.39426637 0.39551425 0.18462555 -0.11064252 0.05284485 0.123931475 0.20727453 -0.08673688 -0.16110618 -0.5909778 -0.30525047 -0.073297046 -0.29231882 0.5429203 0.017657077 -0.089529425 0.27148646 0.052712075 0.07855579 0.059041467 -0.39629728 0.6255727 0.29388425 -0.49228638 -0.27040797 -0.3128194 -0.25615394 0.01302295 0.31524256 0.052598756 0.03720391 -0.106790096 0.0381266 -0.47406 -0.59963566 -0.27712503 0.11688364 0.02153844 0.89921016 0.036007702 -0.26448396 -0.06472098 0.5853641 0.07735553 0.19437882 0.18970291 -0.3164457 0.05499049 -0.2752265 0.24162428 -0.351711 0.11191734 -0.044398557 0.058508173 -0.069490604 -0.21012618 0.3126968 -0.12880823 -0.26591274 -0.45762652 0.03108788 -0.11820211 -0.2184133 0.2902359 0.025792878 0.3796318 -0.21903619 -0.099925056 0.18863703 0.62142736 0.4990481 -0.15705094 -0.2147281 0.09461312 -0.19514592 0.074936114 -0.47381914 -0.0007208974 0.13632737 0.46314222 0.489233 0.2062372 -0.37038934 0.2986862 -0.15631862 -0.41869286 -0.45240852 -0.32262984 -0.5470602 0.10534839 0.1133232 0.00018682628 -0.16253676 0.3964024 0.13921851 -0.3873097 -0.2674104 -0.47272745 0.065493435 0.34207916 -0.19664252 -0.3141752 0.2666509 0.062394757 0.11734609 -0.0076119797 -0.46095315 0.015928578 -0.8462006 0.23182629 -0.06654624 -0.31601125 -0.24642944 0.24084802
1739 0.2917269 -0.009075604 0.0544472 0.21849428 -0.039136417 -0.25016657 0.17559448 0.02457327 0.34035036 -0.114891455 0.069258764 -0.009039617 0.19845742 -0.47296765 0.06851057 -0.11461685 -0.53848416 -0.2639351 0.08026561 0.16463523 0.119931035 -0.015301692 -0.09523097 0.031991225 -0.29835862 0.5002833 0.27250302 -0.15994626 0.31022197 -0.094579734 -0.21390787 0.06429529 -0.46159527 -0.18271533 -0.16575804 0.17536317 0.053386237 0.51495606 0.06313622 -0.016407099 -0.13105932 0.3774937 0.005501665 -0.31269583 0.13812539 -0.23338714 0.0054633413 -0.41466823 -0.39344755 0.578666 0.031809404 0.14879134 -0.46752387 -0.056736898 -0.033466414 0.26324087 -0.010796077 -0.0049800915 -0.18070619 -0.2830785 -0.24190214 0.050594762 0.41842344 0.3535798 0.20431422 -0.20028627 0.16661705 -0.05973037 0.20770863 -0.16155681 -0.37744844 0.050608937 0.031742416 0.077516735 -0.15985215 0.10037418 0.029479569 0.16556148 -0.22549365 0.24642123 -0.05089203 -0.08493509 0.043086044 0.19400138 -0.03233601 -0.32513016 -0.0892592 0.3237987 0.42029533 0.122747876 -0.271861 0.09322606 0.036864758 0.23391922 0.0013900758 0.16545635 -0.06220898 -0.083092004 0.33750808 -0.030153744 -0.41926572 -0.259884 -0.13999578 0.21993412 -0.23524581 0.08915382 -0.11863799 0.07306872 -0.09876704 0.113411516 0.027534027 0.09344697 0.038738 0.050628588 -0.28969955 0.018027002 -0.012909128 0.49946898 0.39895308 0.3327849 -0.017211089 -0.109023124 -0.21343184 -0.106364615 -0.09927424 -0.12655586 0.15592067 -0.22945601
247 0.39653677 -0.045612782 0.052426383 0.16699457 -0.049829382 -0.28124025 0.19600081 0.0400599 0.3208394 -0.116728246 0.119952574 -0.00767619 0.24673477 -0.5756561 -0.027566738 -0.1212482 -0.54387313 -0.24129575 0.22570434 0.1678655 0.0926135 0.0024940337 -0.18076012 0.05838792 -0.3459725 0.53700006 0.27647403 -0.105458 0.3550397 -0.1264885 -0.3144896 0.07461785 -0.45952556 -0.23215653 -0.20357199 0.14443852 0.080625 0.54888433 0.030072499 -0.06560588 -0.012810446 0.38913432 -0.0007363676 -0.2975707 0.09889459 -0.26133642 0.04442766 -0.4242294 -0.3823332 0.56983024 0.11893037 0.16216658 -0.42433843 -0.11690404 -0.07221849 0.25636292 0.085748486 0.058026843 -0.17219141 -0.3052465 -0.25989214 0.07445203 0.44052038 0.41664127 0.19184522 -0.17637593 0.1285699 -0.051730625 0.26034123 -0.19076245 -0.2885817 0.075571135 -0.034280054 0.06811712 -0.15899085 0.0846715 0.034585305 0.22697414 -0.24186815 0.24746263 0.043481156 -0.051970173 0.038891174 0.2232009 0.00673691 -0.31375596 -0.14114669 0.3005727 0.40699574 0.0791769 -0.2773771 0.073396854 0.115892366 0.1802288 -0.14816372 0.22944513 -0.016256489 -0.07884607 0.3919933 -0.020757752 -0.37752852 -0.27576718 -0.1755579 0.09162309 -0.21349406 0.1556981 -0.076405406 -0.05879837 -0.05683775 0.2078451 -0.021487758 0.0857756 -0.040540718 0.009023113 -0.25597125 0.08129999 -0.03847865 0.45083463 0.46320295 0.26809585 0.019188475 -0.1098737 -0.24923795 -0.06530053 -0.15187006 -0.13076396 0.068368584 -0.13419765
45 0.25600922 0.08859167 0.057244767 0.04501754 0.011128233 -0.24446191 0.011747319 -0.019151336 0.22754377 0.13273089 0.013392644 0.04637554 0.12010773 -0.2587831 0.12919553 -0.05209317 -0.15951487 0.021950774 0.21800119 0.08397419 0.010553762 0.04717884 -0.22817323 -0.10580659 -0.15653296 0.32967916 -0.09502884 0.16559657 0.05535626 -0.057079405 -0.35047618 -0.004207875 -0.24064176 0.04839583 -0.011406657 0.003730419 -0.00667682 0.3582376 0.13106965 -0.19871387 0.029083803 0.25692692 -0.001249541 -0.3686578 0.08978851 -0.07335376 -0.13373694 -0.07935798 0.08489631 0.18451516 -0.09334306 0.17373069 -0.12961851 0.19506189 0.087087356 -0.029402614 0.045509163 0.07812894 -0.24825464 -0.2832674 -0.29311082 -0.04477725 0.44533148 0.17312652 0.25134054 -0.008850175 0.08695052 -0.12236746 0.30479923 -0.13129336 -0.12730426 0.010702669 -0.028475365 0.047481198 -0.3124477 0.10109334 -0.113955535 0.2805404 0.0349604 0.15141161 -0.04749183 -0.050046377 0.03874499 0.16118811 0.156883 -0.101324245 0.033620235 -0.027718265 0.2289042 0.0669701 -0.37434918 -0.0044417954 0.08010669 0.19906531 0.09481281 -0.15796557 -0.07198792 -0.072766855 0.3358255 -0.06634311 -0.29637665 0.036195774 -0.022384617 0.084470555 -0.10357951 -0.06358168 0.015043847 -0.13498545 -0.102962114 -0.008730841 0.064624354 -0.20555222 0.14840165 0.066335365 -0.11481552 0.1177194 0.060699325 0.022610763 0.12393734 0.16382675 0.109217525 -0.3126548 -0.14292441 -0.11453764 -0.07594247 -0.27857065 0.040019173 0.043641716
74 0.25164473 0.1661306 0.05515824 0.070825264 0.105748996 -0.21951446 0.04642888 -0.08261261 0.22049025 0.15548578 0.0570697 -0.019402731 0.029369256 -0.21760795 0.10049953 -0.06028427 -0.20164888 0.063461795 0.23616467 -0.0014869587 0.048395082 -0.014812499 -0.14681935 -0.14238618 -0.15955615 0.35638875 -0.041324206 0.1638983 0.072059415 -0.015201084 -0.24503686 0.028149296 -0.24598454 0.090653904 -0.059213236 0.050929915 -0.067746446 0.36458117 0.08617134 -0.11066774 -0.025139317 0.2625293 0.04943372 -0.33200395 0.064818665 -0.0066969246 -0.12294793 -0.092110455 0.050219066 0.15386684 -0.08025934 0.20855457 -0.17216979 0.16005883 0.04597756 -0.10545544 0.08875401 0.116762266 -0.1370107 -0.23927604 -0.33017 -0.007321201 0.546779 0.14683169 0.20190099 -0.07600538 0.16338943 -0.11744907 0.36314994 -0.040911756 -0.25520086 0.01686013 -0.0090448335 0.07803196 -0.31113023 0.1630258 -0.10208401 0.27918 0.07059506 0.19365042 -0.091452405 -0.041234873 0.0866564 0.13734512 0.22668368 -0.08973102 0.09760418 -0.086291164 0.23685896 0.06812089 -0.34031725 -0.009106463 -0.022922248 0.21704392 0.1763892 -0.09313429 -0.065841496 -0.06370197 0.24362412 -0.060347524 -0.260481 0.011085802 0.005623662 0.05044926 -0.09636612 0.10595127 0.020848425 -0.15759888 -0.10258855 -0.07388038 0.09836302 -0.2898729 0.1227936 0.1337744 -0.083295435 0.1277496 0.11042549 0.032218516 0.079690814 0.20493352 0.10245899 -0.31419846 -0.13590625 -0.05625413 -0.121114075 -0.2069485 0.011013261 -0.012226267
20 0.21606863 0.1883664 0.058674965 0.07974793 0.02615761 -0.2321266 0.0746748 0.03190968 0.16688727 0.077759795 0.039561514 0.0622011 0.09869675 -0.21508288 0.15124825 -0.094970524 -0.16299716 0.0009335591 0.1837995 0.022657808 0.10230958 -0.008233665 -0.15119836 -0.12580632 -0.1716423 0.25691018 -0.029860737 0.097935535 0.111147195 -0.08022047 -0.31540567 0.04705829 -0.25141326 0.023037862 -0.118823156 -0.017904066 -0.00791394 0.35321626 0.13073456 -0.14954369 -0.03509732 0.27695292 -0.028147165 -0.30807364 0.0042327363 -0.11605509 -0.16251884 -0.13792914 0.09314312 0.19128698 -0.090438046 0.16658325 -0.1495801 0.17228444 0.061672818 -0.102613196 0.06549165 0.05072814 -0.20237705 -0.26261976 -0.33513817 0.028167218 0.5600404 0.16078843 0.19186 -0.08400248 0.10740498 -0.20894782 0.2798089 -0.002870149 -0.15848462 0.08718761 -0.009042957 0.029837605 -0.40066266 0.08423 -0.11082505 0.29355207 0.020571327 0.21804751 -0.025508245 0.01361216 0.024880808 0.15353726 0.2710953 -0.08437712 0.17311376 -0.09653394 0.29764125 0.062355958 -0.32652277 -0.051539436 0.031195 0.20601164 0.15294054 -0.123488605 -0.0077850907 -0.08655296 0.20421499 -0.035022203 -0.2685497 0.062543206 -0.033219583 -0.023299705 -0.08252505 -0.011406528 0.04158383 -0.08142602 -0.07382745 -0.11961142 0.013369676 -0.23317862 0.14218524 0.04668871 -0.1612131 0.12830687 0.086099796 0.018684689 0.06719964 0.15950297 0.07199215 -0.39579758 -0.21622288 -0.12691543 -0.07709071 -0.22954957 0.0053744223 -0.09126983
62 0.22862294 0.17965338 0.011287612 0.061085626 0.02851299 -0.22864191 0.058304038 -0.06304992 0.24097934 0.104339376 0.082663655 0.060042247 0.046877515 -0.14627661 0.060266808 -0.052316606 -0.1958475 0.013609663 0.18104486 0.03669853 0.025602218 -0.03477084 -0.14798602 -0.09228508 -0.2251184 0.34262332 -0.08168997 0.14225997 0.098316014 -0.03946419 -0.38689417 0.038889583 -0.22008044 0.078758635 -0.06612533 0.01963263 -0.005495162 0.36473548 0.16689228 -0.22901867 -0.038956378 0.2544073 -0.04258277 -0.33453208 0.06642042 -0.051694095 -0.20805776 -0.07975852 0.08548659 0.17134222 -0.07914923 0.07803939 -0.13144358 0.18855867 0.05494148 -0.025011182 0.11123795 0.014030807 -0.18312633 -0.3274343 -0.27485138 0.0038681189 0.44937763 0.21133144 0.26894256 -0.03552561 0.13457227 -0.11604478 0.36216852 -0.11758327 -0.17729354 0.027543593 -0.09464328 0.005897257 -0.2825398 0.14345498 -0.11964819 0.1955673 0.017160298 0.15349044 -0.12415171 -0.03290321 0.030209303 0.13128373 0.17623748 -0.14088866 0.17651515 -0.0744159 0.32976612 0.053962976 -0.33150882 -0.020597706 0.07091334 0.16350536 0.17004335 -0.13404034 -0.011123589 -0.027397368 0.31051898 -0.15592487 -0.28289482 0.03227939 -0.10430542 0.033446256 -0.0696116 0.0023162458 0.061272707 -0.114733644 -0.029270034 -0.04601009 0.15950587 -0.17726918 0.13965152 0.11262966 -0.055092514 0.098705165 0.1778316 0.04767105 0.08819006 0.14956066 0.058238003 -0.3709499 -0.22187848 0.0017103455 -0.09979976 -0.24835317 0.030665664 -0.026372591
57 0.2856544 0.16076446 0.069704585 0.100296855 0.018742323 -0.27014127 -0.017527182 -0.05297706 0.19489165 0.049841348 0.08166836 -0.024302294 0.10437851 -0.22442226 0.0633249 -0.011580857 -0.13557255 0.029151283 0.16944712 0.010046668 0.065655954 0.0596835 -0.1785875 -0.067917936 -0.11076146 0.28964192 -0.0629069 0.1599398 0.0020975375 0.0030154593 -0.26155686 0.007390914 -0.28717968 0.048350364 -0.09510784 -0.008054939 -0.060448166 0.40123007 0.15459222 -0.22762011 -0.110556595 0.34911916 0.03737567 -0.33206975 0.055192072 -0.0384483 -0.18638471 -0.13890366 0.046527795 0.20243277 -0.1416838 0.19188759 -0.21489298 0.14745145 0.024755977 -0.038114224 0.102606796 0.07997599 -0.1053959 -0.2786425 -0.28352362 -0.029576499 0.51728386 0.15964116 0.25978935 0.021521788 0.14282039 -0.09095382 0.40575597 -0.05365874 -0.17537639 -0.04130024 -0.10716394 0.09144315 -0.30849457 0.12771079 -0.14403294 0.21214509 0.023717606 0.17992425 -0.030725056 0.03230817 0.058084216 0.10318578 0.16605534 -0.112433575 0.07640411 -0.053396 0.26555225 0.09235246 -0.3474537 0.016145825 -0.006859159 0.20656627 0.11290068 -0.11030294 -0.10080558 -0.08817968 0.31952786 -0.022826647 -0.23352785 0.06506251 -0.043638553 -0.018933503 -0.08139298 -0.048380055 0.045057014 -0.15286899 -0.023612209 -0.10000092 0.055897467 -0.18383932 0.17914811 0.03587039 -0.113410175 0.13601695 0.16991282 0.052358594 0.14189556 0.1945034 0.09382569 -0.3564364 -0.2275741 -0.056496695 -0.16009054 -0.27079847 0.021342624 -0.0016632049
8 0.22287929 0.15215601 0.013010371 0.06125377 0.05114038 -0.29164332 0.05678397 -0.06496495 0.20186009 0.11134868 0.1007351 0.051094703 0.058457013 -0.22580501 0.11636858 -0.05047442 -0.14196481 0.038409762 0.17064792 -0.028271355 0.03433027 -0.04840939 -0.14351195 -0.054063648 -0.23516116 0.38757434 -0.0574865 0.14489716 0.099743344 -0.009833717 -0.2866167 -0.05108888 -0.26065087 0.032532588 -0.04032569 0.026853234 -0.062121898 0.41353348 0.055787932 -0.21955986 -0.09168917 0.30919346 0.040561892 -0.32638338 0.124656625 -0.06965968 -0.13199703 -0.13056163 0.09580221 0.13105361 -0.061081745 0.16111825 -0.1675393 0.09214341 0.08913062 -0.0858835 0.079460226 0.06828628 -0.17472905 -0.24172375 -0.25559917 0.022673381 0.47594157 0.17366622 0.30007786 -0.08981228 0.14021042 -0.16079158 0.2307484 -0.072884806 -0.19426706 0.070100576 -0.005493686 0.0025719136 -0.4182634 0.118692674 -0.06363409 0.24912727 0.005638996 0.16811483 -0.11824172 -0.049775034 0.07643437 0.15241691 0.16931474 -0.08978884 0.1566084 -0.04820003 0.2610219 0.02075273 -0.3434155 0.022341104 0.028792689 0.21771306 0.1008947 -0.09062332 -0.05717759 -0.03358703 0.307001 -0.17280887 -0.2638475 0.1191852 0.007385329 0.025161274 -0.045514725 -0.010353061 0.05255972 -0.11492108 -0.053032603 -0.07601483 0.08211297 -0.17973828 0.05810532 0.07021641 -0.08476017 0.060393814 0.116320185 0.057988513 0.17950359 0.12960638 0.080557205 -0.35026056 -0.22014453 -0.08971123 -0.090195 -0.22329642 0.0728177 -0.08566624
27 0.2745526 0.15477256 0.02505521 0.13149628 0.07851541 -0.29651284 0.06419398 -0.029095858 0.22626224 0.21065328 0.11181227 0.032205172 0.10401922 -0.12931281 0.11677363 -0.11043555 -0.2462674 0.059804287 0.24213703 -0.04449646 0.11818858 0.022869028 -0.17766146 -0.01979725 -0.096765205 0.35292035 -0.01816626 0.11297379 0.100688316 -0.028498782 -0.27688667 0.04418786 -0.32932273 0.10686528 -0.06995058 0.025498677 -0.031035062 0.38104808 0.10026751 -0.15468109 -0.058111854 0.30573115 0.03318481 -0.34305984 0.13200024 -0.06606302 -0.14133197 -0.0680029 0.0162711 0.17553458 -0.075607195 0.21799855 -0.06678784 0.13826963 0.0014572558 -0.083885364 0.032706182 0.10283551 -0.26540944 -0.2149801 -0.28797752 -0.08840235 0.43154716 0.23420148 0.23078933 -0.08161515 0.11271232 -0.08991546 0.32290536 -0.08412427 -0.2041924 0.03287675 -0.06412299 -0.0034908396 -0.36856118 0.17535564 -0.11590814 0.3019221 0.038494255 0.18387078 -0.038207684 -0.05675647 0.06219378 0.16281435 0.21659361 -0.08517628 0.11901319 -0.073479794 0.25195447 0.04421705 -0.39403987 0.018877862 -0.010759631 0.16900723 0.0818243 -0.15712054 -0.011128694 -0.06756922 0.25523764 -0.1123631 -0.3070858 0.011018077 -0.025169034 -0.0374741 -0.09793309 -0.0027540883 0.06083288 -0.07077556 -0.087380916 -0.08094813 0.053285524 -0.24038096 0.1570484 0.04673667 -0.11854171 0.06086973 0.12729065 -0.026643764 0.13879056 0.17788711 0.10495447 -0.3428773 -0.21228583 -0.022423053 -0.063139394 -0.235167 0.0818713 -0.023366986
56 0.28299856 0.21413317 0.020719202 0.13563177 0.08632885 -0.26726687 0.05016253 -0.012103084 0.22558668 0.11004833 0.15865913 -0.021035027 0.052272514 -0.20121272 0.067477055 -0.054452166 -0.16037351 0.031720337 0.16271502 0.04905104 0.027119674 -0.012320521 -0.16254486 -0.11939217 -0.15520896 0.33182076 -0.029063452 0.11842855 0.12101369 0.021729082 -0.27089906 0.009674978 -0.21269198 0.07085001 -0.11340435 0.011721465 -0.0016981425 0.39644858 0.15369427 -0.18416531 -0.0327744 0.2464577 0.025722655 -0.3033253 0.035936784 -0.06445115 -0.22004284 -0.12967889 0.09392763 0.16102774 0.0004537581 0.1607507 -0.14118277 0.1801841 0.04854007 0.00974627 0.0238797 -0.02612574 -0.07297252 -0.31487137 -0.3241865 -0.07306894 0.55759573 0.18901655 0.20851633 -0.107763536 0.08012494 -0.148125 0.30832493 -0.055140056 -0.23721993 0.060425647 -0.11004042 0.047538802 -0.272033 0.18158689 -0.09175614 0.21524031 0.04123768 0.1762107 -0.06643578 -0.048567977 0.089416586 0.119117476 0.19006412 -0.07576511 0.06692148 -0.10310567 0.21470512 0.060021576 -0.3782375 0.0041638836 -0.04057288 0.22302239 0.13668147 -0.15977786 -0.06687456 -0.07055878 0.24381454 -0.076365694 -0.32468048 0.024166504 -0.09264735 -0.005481803 -0.05661244 -0.0039863973 0.027214866 -0.065294944 -0.10190934 -0.1170937 0.018640695 -0.12920739 0.12351807 0.05336944 -0.12807788 0.105928876 0.11771964 -0.018842451 0.10694875 0.16899113 0.12213612 -0.37558675 -0.18239744 -0.025898667 -0.07115535 -0.22969823 0.0835635 -0.0795292
61 0.2982463 0.14651106 0.07514374 0.11638141 0.035975236 -0.25486356 0.026922187 -0.058898933 0.24258173 0.044014152 0.023519285 0.073738955 0.068361335 -0.19785857 0.104506016 -0.06756179 -0.16446188 0.051220547 0.17907386 -0.039410215 0.042957764 0.042395893 -0.12087427 -0.09178944 -0.22547656 0.30666664 -0.065265596 0.15587813 0.08641384 0.02089195 -0.27253538 -0.095083185 -0.19412611 0.047480386 -0.047423173 -0.03901072 0.031423874 0.36257103 0.1842833 -0.16315871 -0.044675026 0.3132912 -0.002126467 -0.32701358 0.12383211 0.005317532 -0.21597208 -0.18908623 0.0055901757 0.12227437 -0.07536446 0.1795916 -0.1326274 0.19114868 0.059059426 -0.039082155 0.048022684 0.077971615 -0.11948779 -0.2649336 -0.38785842 -0.11316242 0.48675203 0.14826807 0.25652376 -0.007777517 0.16446343 -0.12029747 0.34927627 -0.04557251 -0.1844464 0.030809289 -0.06638386 0.07266563 -0.30782145 0.14083481 -0.046016745 0.30189136 0.014490579 0.17139211 -0.08856729 -0.017823903 0.058213256 0.0789008 0.21400768 -0.11906475 0.073979005 -0.12091961 0.18419154 0.077917114 -0.350296 -0.039602157 0.034241218 0.2522958 0.09889298 -0.15837781 -0.019749977 -0.08280767 0.2790521 -0.099789634 -0.27463132 0.028747339 -0.058327083 0.06385193 -0.07673045 0.039385352 -0.033542566 -0.1184336 -0.040760316 -0.08780538 0.08030471 -0.23441304 0.15465398 0.15683243 -0.18988526 0.11163842 0.13609399 0.03770949 0.064943515 0.14541519 0.09911127 -0.3239745 -0.13816577 -0.06366769 -0.12051562 -0.19548577 0.04192405 -0.07827805
2 0.28784326 0.20104355 0.077035286 0.10248654 0.055744506 -0.26166198 0.054888215 -0.02602681 0.27868363 0.12400491 0.061263118 0.041664805 0.07105518 -0.21348377 0.07900952 -0.05243981 -0.16283849 0.014212227 0.16799864 -0.037194837 -0.011881652 -0.016056467 -0.17038135 -0.11876855 -0.19531329 0.33847767 -0.0405763 0.14283045 0.032795213 0.03758777 -0.25706744 0.03438315 -0.2951089 0.050649162 -0.14208183 0.09893304 -0.03370234 0.27740315 0.08114244 -0.14481941 0.016186604 0.29026935 0.0396727 -0.32976142 0.1303422 -0.10419805 -0.15782076 -0.10513074 0.08042436 0.12692979 -0.04204726 0.16459712 -0.08644511 0.1637922 0.075765 -0.06879358 0.010801978 0.073440604 -0.1459105 -0.2586267 -0.2724991 -0.010671931 0.5202246 0.15352474 0.24216413 -0.057141576 0.17283808 -0.13444734 0.37359083 -0.02226175 -0.21648602 0.05261077 -0.04015546 0.05020372 -0.36060643 0.15677007 -0.08234484 0.3039454 0.037356354 0.20475869 -0.07911503 0.0062776413 0.08089523 0.19672433 0.22678338 -0.13989171 0.058959424 -0.11872401 0.18388078 0.041891754 -0.3828588 -0.0037313674 0.03076372 0.226481 0.12287835 -0.10121811 -0.042612452 -0.094134614 0.26340255 -0.13539635 -0.2544975 0.068636894 -0.026938137 -0.033851605 -0.14208618 0.040137634 0.049484704 -0.12493843 -0.1457126 -0.12180234 0.081067406 -0.21876743 0.12520278 0.020525422 -0.13728052 0.1435195 0.047834076 0.021251202 0.11921647 0.15950426 0.11816424 -0.3299556 -0.1305687 -0.1237493 -0.122009985 -0.20389304 0.05315215 -0.042639405
51 0.19614238 0.13956834 0.02509648 0.08484843 0.037777264 -0.339705 0.034799255 -0.079736575 0.15924229 0.0809068 0.099808 0.031552974 0.057476334 -0.23324706 0.096945606 -0.046852786 -0.14235243 -0.080895826 0.14501885 -0.05643736 0.07719065 -0.030026753 -0.09967713 -0.050543543 -0.13260403 0.32269633 -0.08996757 0.13766849 0.089833856 0.07780139 -0.3147438 0.027727965 -0.2688991 0.08498336 -0.0271134 0.048607383 0.02484182 0.41983905 0.03133057 -0.14541768 -0.064073026 0.32102135 -0.03894389 -0.32289806 0.067066245 -0.15201376 -0.20347004 -0.17918196 0.03733679 0.19235393 0.012687981 0.16562225 -0.12748462 0.17738275 0.12294934 -0.005728714 0.10377509 0.06398425 -0.18454953 -0.2652893 -0.24111162 -0.06694743 0.47780132 0.129979 0.1915283 -0.047110453 0.113543116 -0.14962639 0.3785246 -0.063230395 -0.19652165 0.06999094 -0.055710632 0.041581836 -0.3289799 0.21015215 -0.059735347 0.25087982 -0.025763346 0.1941054 -0.017159801 0.019859899 0.07201567 0.13671131 0.21480137 -0.052776508 0.07995191 -0.11095962 0.2525986 0.08818722 -0.42447898 -0.0013337285 -0.0010069769 0.24551384 0.16138607 -0.15431489 -0.048543766 -0.0876786 0.27045113 -0.050054062 -0.27306837 0.052747335 -0.00023483866 0.033671606 -0.13473423 0.0148927495 0.043230284 -0.19694425 -0.08536999 -0.10636832 0.13645822 -0.15647987 0.077809855 0.079060905 -0.08873107 0.061397217 0.1306539 0.037077386 0.09282359 0.19738452 0.07883522 -0.29699132 -0.20595925 -0.07990656 -0.0045483196 -0.19603135 0.1109528 -0.05325206
30 0.20731226 0.1818301 0.06678076 0.13095704 -0.0035409369 -0.20422581 0.011648835 -0.047746945 0.19261208 0.09386955 0.070790924 0.050716076 0.071875066 -0.16234331 0.18076342 -0.043241218 -0.15459256 0.013884135 0.14169388 -0.016526448 -0.017341357 -0.0025917788 -0.17957436 -0.10903165 -0.15507054 0.3623647 -0.09067418 0.14519234 0.080779925 0.036108017 -0.27140522 0.027917892 -0.26411217 0.038104795 -0.060261607 0.0043164915 -0.016036777 0.36496472 0.07678015 -0.1509824 -0.063977905 0.316104 0.015736446 -0.31438935 0.022786904 -0.07130108 -0.14767854 -0.061848544 0.067061394 0.20224775 -0.14836067 0.22671898 -0.14335367 0.14023373 0.030400945 -0.09723605 0.095694765 0.09742276 -0.20762368 -0.27278844 -0.30562186 -0.02392646 0.44096917 0.15319948 0.29273584 -0.005927984 0.11237244 -0.14096414 0.36434904 -0.019255277 -0.13931249 0.09019044 -0.049595293 0.0017710658 -0.364075 0.18856409 -0.098207936 0.32968554 0.024568712 0.23475459 -0.07278053 -0.0520864 -0.0048973574 0.1476801 0.17445672 -0.17063372 0.11823737 -0.07694831 0.21876614 0.12219439 -0.2929521 0.035964295 0.021188194 0.2670406 0.01432618 -0.11070299 -0.0006165058 -0.098408505 0.27868327 -0.07296835 -0.3060485 0.055433266 -0.047390617 0.059064176 -0.099068485 0.00086008315 -0.005652325 -0.10561716 -0.06941561 -0.11305249 0.119211495 -0.16500409 0.06201347 0.011460969 -0.15607724 0.071002476 0.15624458 9.1006805e-06 0.1485923 0.19888999 0.09036233 -0.31897897 -0.15183826 -0.11801516 -0.10382858 -0.3160606 0.052711096 -0.03650027
75 0.19547968 0.16593328 -0.022964325 0.124552205 0.029084982 -0.24673486 0.0046215197 0.0045338618 0.18906368 0.11728682 0.09727027 0.02943836 0.055324532 -0.23903413 0.092824124 -0.011853356 -0.13922091 -0.023071595 0.13533115 -0.06907582 -0.0036506553 -0.014689737 -0.22853263 -0.10503828 -0.21972127 0.31416488 -0.071882114 0.1416867 0.1657898 0.0015529032 -0.28451657 0.032013763 -0.26605186 0.05211882 -0.07647788 -0.017878462 -0.06387329 0.36996034 0.084090054 -0.1851948 0.035054125 0.32683605 0.07794114 -0.30230144 0.08883475 -0.06002464 -0.16973905 -0.15721755 0.075904496 0.11224451 -0.05683319 0.17595841 -0.17170227 0.16258386 -0.0005989634 0.0016421998 0.09705098 0.103197575 -0.17855753 -0.30500802 -0.2781723 -0.045315247 0.49746194 0.1343123 0.22368804 -0.058110416 0.13528235 -0.16637656 0.3469438 -0.11536636 -0.2163802 0.047053266 -0.022239964 0.10290011 -0.35282627 0.1776437 -0.094307564 0.26416472 -0.017161727 0.23128399 -0.10091683 -0.013616299 0.10007844 0.18275575 0.16259179 -0.07896857 0.11029175 0.007964058 0.24934845 0.068546414 -0.2993475 -0.01480428 0.019295469 0.16566333 0.12437283 -0.13019603 -0.04153796 -0.067670114 0.29515618 -0.10233037 -0.2681543 0.037881747 0.009211967 0.0010278095 -0.065906644 0.018589482 0.016023198 -0.10834749 -0.08201305 -0.12326684 0.14543554 -0.23816982 0.21152303 0.019209664 -0.21872903 0.10489159 0.1030033 0.028095637 0.06800334 0.12999873 0.06886991 -0.3394126 -0.17993706 -0.12480023 -0.12520717 -0.22871503 -0.00266158 -0.023557102
31 0.15387835 0.18181008 0.04316646 0.051095024 0.08505122 -0.22208397 0.050666362 -0.09116069 0.25202435 0.113374986 0.1514296 0.07582394 0.0678622 -0.16962421 0.08407949 -0.058850143 -0.14568268 0.020436788 0.20851457 -0.07624522 0.029516684 0.038445853 -0.12895282 -0.13868211 -0.1902324 0.39955243 -0.028779848 0.0723247 0.10005329 0.03239982 -0.31900835 0.042551253 -0.30600795 0.026604775 -0.11057518 0.017626803 0.057421915 0.32898012 0.11929577 -0.15545301 -0.050592344 0.30667278 0.04691442 -0.2622781 0.08946227 -0.095127404 -0.14031343 -0.1616482 0.083614685 0.14673463 -0.04107555 0.26572278 -0.12736742 0.15914117 0.043929856 -0.07451195 0.068777375 0.030853512 -0.17759578 -0.31466582 -0.22728543 -0.02827962 0.4282843 0.15776229 0.29539838 -0.049500026 0.10320422 -0.1455777 0.2782265 0.014780074 -0.22737199 0.052651525 -0.006034838 0.050594922 -0.33254203 0.17884223 -0.15388368 0.18344228 0.013684972 0.16965394 -0.10177548 0.016036795 0.078678995 0.13452736 0.23249415 -0.12903702 0.055676892 -0.10445067 0.2201578 0.0737305 -0.40233648 -0.0069148564 0.06517231 0.20389192 0.14583384 -0.09465996 -0.042494513 -0.1203005 0.23850092 -0.052885514 -0.36606786 0.049369194 -0.04739431 -0.047451567 -0.110201344 -0.007436889 0.03091662 -0.10431125 -0.11700432 -0.008638689 0.056948032 -0.21518554 0.15040472 0.10000093 -0.15349063 0.06930342 0.12921172 0.054324713 0.10831987 0.16303438 0.115493484 -0.37499297 -0.18064854 -0.14486405 -0.07858147 -0.26025012 0.050552733 0.012382807
1 0.23449287 0.13384627 -0.0142366 0.09053175 0.039604902 -0.24324147 0.050942887 -0.048476376 0.2567594 0.16263187 0.015829012 0.031315804 0.073193155 -0.1696457 0.09671882 0.0038075203 -0.14391854 -0.0017021658 0.16699445 -0.0005295988 0.039825276 0.029089665 -0.11452398 -0.099812075 -0.14153418 0.38071692 -0.07301851 0.16686475 0.06436571 0.010849721 -0.1797358 0.051407788 -0.23406985 0.0016422401 0.040641923 0.023653256 -0.05309938 0.32825992 0.19050936 -0.1552338 -0.037890058 0.31980675 0.002741199 -0.28348577 0.07610364 -0.078221515 -0.1406064 -0.16961357 0.085743934 0.18452138 -0.018279554 0.17858174 -0.18816572 0.14037223 0.12285705 -0.039912257 0.044915278 0.06690633 -0.16710313 -0.293977 -0.3642936 -0.054655794 0.5174147 0.16181064 0.2471434 -0.048651908 0.09702178 -0.16006374 0.33942026 -0.031914007 -0.19170167 0.07226247 -0.071301684 -0.045551226 -0.2983071 0.18099426 -0.04217248 0.24070859 -0.021053186 0.17592572 -0.12532824 -0.006080045 0.06390032 0.13565068 0.18111882 -0.11868247 0.14622755 -0.0944193 0.28652456 0.07168631 -0.3236544 0.0073753865 -0.011965231 0.16183375 0.094596826 -0.122501254 -0.065162934 -0.07507383 0.2493663 -0.06323495 -0.32725585 0.068883605 -0.070602514 -0.0121599035 -0.15940794 0.06436838 0.037000883 -0.12732051 -0.04851399 -0.18154176 0.058360286 -0.26257506 0.07848072 0.10164055 -0.16524704 0.06683555 0.1818459 -0.010408659 0.06995989 0.18054649 0.03745428 -0.31528953 -0.20977242 -0.09796506 -0.13679875 -0.24024236 0.032374892 -0.044602472
21 0.22706422 0.11665953 0.076012604 0.01347569 0.05592734 -0.34099272 0.0048122206 -0.05534026 0.21088882 0.082345374 0.035873488 0.011399893 0.06962622 -0.17987946 0.12744565 -0.022089506 -0.19954081 0.05000193 0.13343552 -0.044418838 0.04655054 0.008680988 -0.18121912 -0.16997735 -0.18230027 0.33706498 -0.033787377 0.09100495 0.13424183 0.010362655 -0.2629687 0.010615894 -0.30052215 0.06276857 -0.05024366 0.01696876 -0.030072076 0.29996803 0.15449265 -0.16070631 -0.0068308394 0.30991223 0.05974089 -0.3039206 0.073032066 -0.034822762 -0.16874552 -0.16532029 0.20026745 0.17672817 -0.04884421 0.22130327 -0.16082151 0.16864851 -0.00024577347 -0.054527305 0.087770656 0.039314326 -0.12398007 -0.26708677 -0.307012 -0.020682458 0.45733142 0.10196445 0.2004403 -0.011579568 0.1484374 -0.09800567 0.3119812 -0.004207556 -0.2149273 0.110240206 -0.018726084 0.05493936 -0.4271857 0.11197408 -0.08725639 0.2569983 -0.002688525 0.16288213 -0.037956674 0.012506707 -0.0015802234 0.15674159 0.20109572 -0.16320564 0.104974866 -0.13566083 0.29350388 0.063427255 -0.2941659 -0.0126421265 0.025602326 0.22101536 0.15592761 -0.11347031 -0.02936988 -0.101668395 0.2911029 -0.07788928 -0.23921311 0.013877359 -0.0810785 0.019882675 -0.124676585 0.03731068 0.0016170545 -0.14285871 -0.009663785 -0.098598644 0.011375048 -0.22992378 0.08557514 0.106314994 -0.10011991 0.083395354 0.13469909 0.03241662 0.13265799 0.19543165 0.10294723 -0.39314324 -0.21789432 -0.044973034 -0.10657506 -0.256016 0.1025996 -0.022637414
28 0.32036394 0.086529024 0.03828939 0.078205615 -0.007658056 -0.22611587 0.07538097 -0.0041449005 0.18754677 0.15573998 0.08060882 -0.029631436 0.06975166 -0.21335629 0.07464569 -0.06026196 -0.19491686 -0.01900252 0.16895655 0.0012431149 0.035492353 -0.08406453 -0.12928055 -0.1226199 -0.13263156 0.34729204 -0.04435574 0.07856168 0.10922286 0.014632838 -0.28119665 -0.004037896 -0.24291526 0.0519095 -0.10567617 -0.02259498 -0.02438397 0.33681798 0.21941715 -0.18550722 -0.047010858 0.2947574 -0.004981628 -0.32416633 0.06931408 -0.101201534 -0.22521432 -0.12882596 0.0793898 0.17751645 -0.0830755 0.14634074 -0.16230914 0.14329897 0.03470281 -0.055737507 0.07909772 0.027457805 -0.15677127 -0.25490895 -0.26182473 -0.07430454 0.47546962 0.15919442 0.33263546 -0.036488496 0.07035579 -0.21372265 0.25680053 -0.07119023 -0.22181474 0.036829356 -0.04747174 0.11001111 -0.31263998 0.17909373 -0.0678086 0.3071724 -0.0011334616 0.23519288 -0.06532077 -0.043379813 0.0963206 0.15696815 0.22414604 -0.1459039 0.051774856 -0.037873857 0.25630262 0.03996624 -0.32377687 0.05420713 0.038104944 0.17642106 0.14631596 -0.07937792 -0.04625079 -0.0075515187 0.22114971 -0.10374494 -0.27138367 -0.016202003 -0.06216079 0.047634058 -0.12755753 0.0320932 0.05578512 -0.12867291 -0.030061768 -0.1267262 0.006984535 -0.22260775 0.13993523 0.07678073 -0.11956681 0.13036443 0.12440599 0.019305985 0.03974723 0.21952623 0.05181543 -0.36192074 -0.15339781 -0.12137571 -0.11355822 -0.28347564 0.07329602 0.017229626
44 0.2564472 0.1687001 0.06516357 0.07397305 0.0033706473 -0.19809307 0.07017945 -0.042046923 0.14445718 0.06295681 0.08387883 -0.054315697 0.10081991 -0.24335979 0.078090005 -0.0077142143 -0.14811966 0.032407798 0.14346293 0.0301161 0.07494867 -0.04945887 -0.17416072 -0.036861602 -0.13834724 0.3701818 -0.022063525 0.1428417 0.063713856 0.056401003 -0.2913095 0.014652745 -0.20781474 0.0216265 -0.10587262 0.021345932 -0.03925025 0.3634102 0.070503585 -0.27973196 -0.09120389 0.3718517 -0.0012581656 -0.35626554 0.085971944 -0.074310906 -0.27637005 -0.13079968 0.049994264 0.19457577 -0.08690141 0.17972508 -0.08704915 0.097183615 0.029484242 -0.05221691 0.0077477265 0.047210544 -0.15744993 -0.24118361 -0.28783137 -0.07573697 0.46639416 0.17543636 0.2601483 0.075903274 0.06452133 -0.16521558 0.32941994 -0.05803629 -0.17930645 0.025331307 -0.021617185 0.020938257 -0.31824255 0.22440577 -0.029806627 0.19610104 -0.030810468 0.2787753 -0.07162559 -0.0634584 0.0010168907 0.2045516 0.20548536 -0.08247146 0.13450523 -0.07293609 0.25264692 0.067326844 -0.34051386 -0.009837952 -0.025625784 0.21363631 0.09610242 -0.13879293 -0.111731246 -0.07994555 0.23454255 -0.06554105 -0.25444835 0.10376339 -0.03782284 -0.041652393 -0.06985749 0.0072341375 0.043038916 -0.09997181 -0.12188902 -0.13011868 0.07701173 -0.22896609 0.08924031 0.051432718 -0.20154 0.075663425 0.09313015 -0.04644674 0.06624716 0.18712333 0.07014065 -0.3923432 -0.18219006 -0.13822739 -0.15364408 -0.19088694 0.036691602 -0.06343875
50 0.1717303 0.13789366 -0.035864774 0.048826996 0.09489494 -0.17606579 0.06864101 -0.08109425 0.21891448 0.08904048 0.08278252 0.0020534995 0.09168254 -0.17146851 0.08069377 -0.05604832 -0.16188909 -0.045904838 0.1718131 0.083712965 0.030819837 -0.049188975 -0.17291836 -0.106542535 -0.17631496 0.37712753 -0.08923512 0.1260476 0.07753608 0.0018725091 -0.24630964 -0.021977035 -0.31164527 0.08265091 -0.08087404 0.028335683 -0.011199958 0.37178484 0.15556748 -0.18887639 -0.015247037 0.28448784 -0.02081721 -0.33038637 0.06478975 -0.052392576 -0.21735325 -0.10232885 0.12695973 0.11792045 -0.059396498 0.15582708 -0.1515731 0.17537515 0.09023403 -0.04265811 0.0730864 0.10024182 -0.23964036 -0.27013898 -0.249294 0.000321201 0.4444181 0.1277613 0.21745251 0.0030677763 0.09191244 -0.1467415 0.32608682 -0.10396486 -0.23388897 0.054136395 -0.029030161 0.003882635 -0.37087178 0.17800197 -0.07829288 0.24785474 -0.022116456 0.15073873 -0.13320951 -0.060036495 0.061982483 0.16596828 0.13332754 -0.1637316 0.16925442 -0.08357188 0.24419999 0.09382966 -0.41858327 -0.033193376 0.0034651854 0.24499874 0.15372074 -0.09355786 -0.048642762 -0.0866903 0.22709525 -0.09601337 -0.34169903 0.039577566 -0.074535355 -0.0078032673 -0.084214725 0.045442037 -0.012244449 -0.19513658 -0.10658087 -0.06029329 0.09195798 -0.22036885 0.14931032 0.0643639 -0.13793217 0.14032532 0.13052724 0.020485226 0.07211247 0.1821459 0.0326376 -0.38261497 -0.17630157 -0.1181722 -0.04500353 -0.23335174 0.09239945 -0.030080678
9 0.20703731 0.16007133 0.053650394 0.09283382 0.03059124 -0.25411275 -0.025526343 -0.09281272 0.20504607 0.18837608 0.057950146 -0.0011118477 0.07271775 -0.169697 0.07798917 -0.0658506 -0.19226258 0.03829036 0.19584487 -0.012239796 0.0012385732 -0.05811609 -0.108788975 -0.07896338 -0.20044526 0.36308882 -0.096661 0.119572185 0.07090499 -0.022648906 -0.3176205 0.062060155 -0.2136531 0.030328194 -0.09698076 0.008865382 -0.009257964 0.40423343 0.1850344 -0.24389435 -0.035726488 0.2739002 0.06861375 -0.34941158 0.11450588 -0.057076044 -0.14336875 -0.18908079 0.050875578 0.19315869 -0.033172704 0.12813771 -0.115861796 0.15997984 0.066844516 -0.03345169 0.079783805 0.059572436 -0.18124676 -0.24765746 -0.29253694 -0.03002761 0.5264451 0.16886742 0.22305351 0.009489547 0.13312636 -0.16891618 0.3171779 -0.049269225 -0.15518077 0.05870329 -0.067484066 0.02978931 -0.2752824 0.1891262 -0.09305048 0.21765673 -0.025651427 0.20616995 -0.056502584 -0.057056174 0.028779771 0.110479444 0.18107562 -0.17032224 0.091789275 -0.052029874 0.24336748 -0.01756068 -0.37001055 -0.021881374 0.07964833 0.16991144 0.10973892 -0.098726355 -0.016749771 -0.1177759 0.2898004 -0.09126296 -0.2872109 0.090615585 -0.04823173 0.034680393 -0.15656422 0.034891166 0.0055504516 -0.12514427 -0.022125287 -0.08268495 0.09663455 -0.25033325 0.10926772 0.028722672 -0.093637146 0.06585344 0.081892684 0.049796674 0.10589501 0.122560546 0.05550644 -0.39889988 -0.17467053 -0.08999669 -0.17146829 -0.25786617 0.042473458 -0.0615037
171 -0.014901627 -0.25097573 0.0056848377 -0.12635195 0.0895451 0.4162521 -0.23263523 -0.15677445 -0.14946333 -0.28171375 -0.08835796 -0.1416877 -0.17287986 -0.24813351 0.5762897 0.64974576 -0.27730232 -0.1712163 -0.09144139 0.21451637 0.14496373 0.4946989 -0.2654367 -0.35706365 -0.3048329 -0.08486623 -0.012429278 0.4382339 0.39109206 0.12249096 0.3997874 0.038066562 -0.18588217 0.023554498 -0.14443302 0.14580302 0.4363815 0.2064938 -0.13718757 0.057542376 0.1300084 0.12451442 -0.034566116 0.1278815 0.0897742 0.12830228 -0.03911493 -0.3102505 -0.336833 -0.35709673 -0.07094183 -0.38504434 0.32483828 -0.009180427 0.17253505 -0.3035979 0.23954721 0.01865766 -0.023699297 0.2901926 0.04085591 0.23335871 -0.006008026 0.61986905 -0.090729505 0.058647122 -0.20218015 -0.14746527 -0.102967486 -0.06628152 0.1817946 0.22643478 -0.086094975 0.1276417 -0.03376329 -0.20782292 -0.10166658 0.0187295 -0.18017578 -0.0881665 0.3652067 -0.018370533 0.4204175 0.33054343 0.5452822 -0.19609544 0.18829729 -0.08003765 -0.043693356 -0.2870543 -0.45804518 0.03448863 -0.08138172 0.015731355 -0.064112745 0.21517856 -0.17402123 0.4609694 -0.07571367 -0.30515128 -0.15689 -0.2403792 -0.38417193 0.11091712 0.19940595 0.009204211 0.07089939 0.49026948 -0.16316523 -0.047077972 -0.04874514 -0.07728599 0.12073923 0.4066735 0.043785356 -0.502346 0.22018175 -0.17863725 0.036358602 -0.041126944 -0.1555403 -0.0332061 -0.58283573 -0.07289206 -0.077999726 -0.40955502 0.13223565 0.07442854
172 -0.071648315 -0.17121491 -0.009674238 -0.22989392 -0.009959935 0.43127462 -0.2327944 -0.1215911 -0.0686332 -0.2758792 -0.09712465 -0.14705932 -0.037606075 -0.20991397 0.63406265 0.68919665 -0.22463001 -0.16075613 -0.08537931 0.2205994 0.14589894 0.38005865 -0.31309962 -0.43595225 -0.31303683 -0.062346 -0.04005251 0.3547578 0.24784623 0.11556448 0.3738563 -0.013780604 -0.20085312 0.09890571 -0.17359984 0.1043423 0.42931318 0.20321333 -0.20004039 0.040388774 0.1382438 0.17297824 -0.053518903 0.119984634 0.07244835 -0.08397338 -0.06822759 -0.2588494 -0.4946805 -0.41361356 0.0022445554 -0.4640401 0.35269672 -0.010808208 0.24160275 -0.22325546 0.19205874 0.18724014 -0.06823664 0.3315878 -0.04337483 0.10154218 0.0062575852 0.48175526 -0.016141133 0.094869286 -0.11158798 -0.058500763 -0.09512804 -0.01843266 0.18397819 0.21160829 -0.20798847 0.115483075 -0.1108662 -0.3313696 -0.15247168 0.054931935 -0.11752644 -0.09567285 0.36276245 -0.07133896 0.4121772 0.3074927 0.5793836 -0.09237885 0.04916049 -0.038422305 -0.023112882 -0.33569455 -0.28868043 -0.033950135 -0.19182675 0.14406145 -0.089602835 0.21509074 -0.22052889 0.5659444 -0.050412744 -0.28690237 -0.16090298 -0.2899926 -0.32509246 -0.018492648 -0.0028893298 0.09112944 0.08284392 0.53154767 -0.17820704 -0.068809055 0.021388257 -0.1634754 0.020409415 0.4437724 -0.007192537 -0.5950692 0.11936173 -0.13563256 0.096275955 -0.12963888 -0.07290879 -0.010368527 -0.6407647 -0.028776143 -0.002271267 -0.35154924 0.19031014 0.192469
217 0.096573405 -0.24139348 -0.019713242 0.025960494 0.15555033 0.1649064 -0.31843102 0.08909839 -0.17265797 -0.1514349 -0.04433108 -0.33166194 -0.2027893 -0.15637586 0.39108834 0.6445865 -0.21736464 -0.1040251 -0.25681385 0.117715135 0.12052334 0.379297 -0.38180283 -0.5275276 -0.4307709 -0.2712508 -0.43792745 0.47674775 0.03267678 0.14524904 0.3327641 0.14415765 -0.09202139 0.11301788 -0.13859567 -0.00932493 0.32138494 0.07783126 -0.17297645 -0.047648106 0.02871326 0.2452243 0.040827695 0.010705609 0.06769397 -0.0638187 0.09523529 -0.36016026 -0.1578928 -0.329842 -0.030501442 -0.14408058 0.42609927 0.13664056 0.050372045 -0.18335915 0.31191254 0.013617194 -0.15894672 0.14471115 -0.04625572 0.15747032 -0.12905322 0.16662008 -0.021807805 0.16013338 -0.11441387 -0.09958257 -0.011322634 -0.16561168 0.11573381 0.09213881 -0.037641916 0.054973796 -0.08288763 -0.28918564 -0.31252936 0.08110637 -0.0066736327 0.14008158 0.24075218 -0.2067901 0.3680288 0.2879636 0.4702558 0.102928504 0.07600479 -0.25211728 -0.012065356 -0.33895397 -0.46081585 -0.08430905 -0.09060108 0.16972373 -0.038030777 0.17738397 -0.11780235 0.05908226 -0.044233818 -0.3244697 -0.041479483 -0.11945869 -0.42748374 -0.1035907 0.19146696 0.09072602 0.027267398 0.25428724 -0.14881591 -0.14342663 -0.05244639 -0.07637497 0.0925062 0.335963 -0.084577814 -0.54893076 0.16495733 -0.16001514 -0.020732729 -0.1429821 -0.21677595 -0.07320035 -0.41228068 0.08187223 0.053633302 -0.09326893 -0.015681181 -0.012268153
93 0.118089214 -0.21716706 0.02492175 0.08216069 0.2932785 0.25327036 -0.27794984 0.037281636 -0.1772383 -0.14440909 -0.038181268 -0.34306684 -0.16662987 -0.10912415 0.4321861 0.60680217 -0.20806257 0.0596811 -0.19805174 0.17594917 0.09324705 0.35808453 -0.43158534 -0.6203284 -0.38853097 -0.24344678 -0.41908064 0.39093515 -0.01756343 0.15812221 0.32860056 0.15782404 -0.077109 0.084139206 -0.12476009 -0.012877953 0.39067766 0.020448241 -0.18553166 -0.0112098465 0.084806986 0.2670406 -0.012959295 -0.018106164 0.061989363 -0.04939924 0.039438944 -0.32509091 -0.20636466 -0.37308902 -0.06586819 -0.15120159 0.48421684 0.13221365 0.11550777 -0.17233786 0.28160065 0.07298352 -0.19278619 0.07038306 -0.07052113 0.11390749 -0.15176782 0.15989295 0.020857234 0.16747986 -0.09869668 -0.0052513396 -0.101725414 -0.17279105 0.10089097 0.053033967 -0.05166508 0.07854895 -0.08384691 -0.28097194 -0.35727376 0.08880282 0.005385874 0.14983486 0.20860378 -0.20916456 0.2117043 0.25796044 0.40536857 0.0066309264 0.1309428 -0.26209533 -0.04401817 -0.23817536 -0.40599337 -0.08598698 -0.053380813 0.15956649 -0.049429793 0.25290588 -0.16290106 0.09009468 0.03617563 -0.4106524 -0.043142196 -0.17870064 -0.44352174 -0.005288672 0.18273461 0.029985255 0.09381659 0.267936 -0.12324057 -0.171296 0.004118462 -0.076050125 0.12479902 0.3540386 -0.10580835 -0.5521982 0.12766576 -0.20541318 0.022061318 -0.22947294 -0.22359152 -0.08241591 -0.44214898 0.021005554 -0.014496782 -0.038693532 -0.03805613 -0.022510609
47 0.08979966 -0.21424292 2.0255138e-05 0.10973726 0.24153206 0.16926968 -0.26282984 0.14865682 -0.18417238 -0.0947804 0.0025452124 -0.3760584 -0.1885754 -0.110873125 0.40384054 0.5992825 -0.16418971 -8.887409e-05 -0.21284029 0.08378515 0.06332699 0.44110715 -0.43103716 -0.5265451 -0.4077902 -0.17435032 -0.39374706 0.5053005 0.03610957 0.1503719 0.34034073 0.14678916 -0.016424963 0.15012091 -0.21747397 0.014228123 0.36217207 0.100863725 -0.18635519 -0.0021027063 0.13175932 0.24108952 0.07510558 0.020974206 0.009830629 0.009335369 -0.036196593 -0.36170244 -0.20172225 -0.3435296 -0.10006964 -0.099714436 0.44304296 0.10482957 0.09256196 -0.1704282 0.22125556 -0.02744881 -0.13519211 0.112736404 -0.02964526 0.021186203 -0.17909855 0.19585742 -0.028792769 0.20331478 -0.16045028 -0.0670424 -0.16732566 -0.17311858 0.15012492 0.055567313 -0.09162395 0.12213585 -0.13574047 -0.2162255 -0.3299446 0.069289945 0.09489589 0.05605661 0.21435347 -0.19470082 0.31756833 0.2947497 0.540945 0.013458852 0.12913969 -0.25054732 -0.068951435 -0.3479065 -0.4452827 -0.05459499 -0.05226522 0.15511139 0.05944492 0.23976335 -0.14369489 0.0032144291 0.001312946 -0.36006388 -0.04027828 -0.13136503 -0.35695362 -0.021773642 0.16280237 0.030995028 0.05301142 0.30347136 -0.17351593 -0.18090203 -0.029208276 -0.05009453 0.09439414 0.32568038 -0.021004478 -0.5414232 0.09208277 -0.27754274 0.036380727 -0.13320565 -0.1351924 -0.1403206 -0.44194087 0.1078591 0.032946844 -0.13272892 -0.08015828 0.0041785357
82 0.11284342 -0.28017634 -0.03677496 0.1018372 0.29269987 0.26092893 -0.2457957 0.15881789 -0.14317515 -0.115942724 -0.028281229 -0.37685555 -0.22034398 -0.17997465 0.39937526 0.6864128 -0.22616555 0.020315321 -0.20539527 0.10639706 0.18205151 0.3600543 -0.33453324 -0.5586262 -0.38095674 -0.22826676 -0.34434104 0.49897975 0.019116584 0.17644204 0.29933766 0.16834018 0.001362531 0.076664016 -0.12273194 -0.02277542 0.3860429 0.032724325 -0.24489838 -0.045236126 0.014292411 0.24626012 0.0373855 -0.04146014 0.017773395 -0.12183981 -0.0056300326 -0.29317683 -0.24706659 -0.35367718 -0.03466995 -0.1609495 0.39590895 0.1232454 0.06185994 -0.18633488 0.19116421 -0.030193478 -0.20336252 0.15413888 -0.046095483 0.18296795 -0.16267754 0.20296593 -0.027454948 0.17473704 -0.077525 0.004122165 -0.07497932 -0.16922303 0.12701672 0.06581828 -0.05206545 0.09856005 -0.014969063 -0.24322654 -0.35075712 0.05865655 0.020678563 0.10097682 0.28129035 -0.17862648 0.278007 0.25374117 0.48000085 0.069991656 0.14976327 -0.2521808 -0.03215068 -0.35520098 -0.43756086 0.025857091 -0.06817888 0.14685635 0.02553119 0.252744 -0.12331131 -0.024320556 0.019130139 -0.321532 -0.093924895 -0.17148282 -0.3873285 -0.009886264 0.19130714 0.1124914 0.04462184 0.24228634 -0.13521957 -0.0603629 -0.0025411113 -0.15683992 0.08726932 0.40825078 -0.03507206 -0.5820702 0.14498998 -0.26818642 -0.028858712 -0.12546185 -0.23162195 -0.05372061 -0.4812213 0.05834572 0.00766516 -0.20970178 0.05421815 0.019957773
83 0.03262575 -0.23614421 -0.017018346 -0.0077834483 0.25830007 0.27978563 -0.26857394 0.1318841 -0.100379035 -0.03823359 0.011327966 -0.36136192 -0.13196172 -0.19745722 0.40858757 0.6452351 -0.19958618 0.030481117 -0.19826299 0.16155502 0.09420184 0.35899848 -0.39408815 -0.58910453 -0.4506335 -0.24626477 -0.41404802 0.4617584 -0.073379636 0.14827134 0.29271683 0.07542041 0.0401192 0.07834462 -0.15688747 -0.0071827522 0.3858478 0.10804287 -0.18257031 -0.022660144 0.020674076 0.27089325 0.004950128 -0.036355518 0.025040934 -0.11004163 0.019267246 -0.33968726 -0.2548194 -0.35062712 0.016351439 -0.13232999 0.43330327 0.13889821 0.03922414 -0.18332149 0.29758897 0.024999067 -0.14615346 0.12446926 -0.04729616 0.10669546 -0.108016096 0.2656178 0.009233916 0.098545596 -0.10303387 -0.03610867 -0.11813509 -0.06520145 0.06356968 0.032922324 -0.09245236 0.05550082 -0.0073450403 -0.24100393 -0.3349838 0.05993173 -0.019105516 0.106370196 0.23529278 -0.15626366 0.28845757 0.23268454 0.5196594 0.07028729 0.074780464 -0.20447522 -0.051457852 -0.30874333 -0.44376707 -0.053798355 -0.0798938 0.17252289 0.06686936 0.27168548 -0.06963397 0.060384035 -0.073832564 -0.29992598 -0.066986024 -0.1259893 -0.4172698 0.010866823 0.09460696 0.04515043 0.109463856 0.24172308 -0.19112092 -0.10560399 -0.06475098 -0.08236761 0.11535398 0.33992583 -0.12343666 -0.5400541 0.07578034 -0.30675337 0.052352678 -0.1616526 -0.18659331 -0.105708964 -0.4217794 0.103074506 -0.0055283788 -0.062453713 -0.040915303 0.034842625
148 0.0935944 -0.20679182 -0.030716326 0.07509607 0.2850279 0.23939593 -0.19118291 0.017259868 -0.20235932 -0.1039967 -0.011661364 -0.3874178 -0.21447894 -0.15261437 0.42839888 0.70394677 -0.20970885 0.075436264 -0.1743005 0.13681631 0.090014406 0.35293925 -0.36869925 -0.557095 -0.39598826 -0.29125038 -0.40513185 0.4193318 0.040689368 0.19348915 0.27979153 0.12726353 -0.13328622 0.13444543 -0.17118374 -0.009525076 0.31442487 0.11671257 -0.21135505 -0.029706364 0.0036958568 0.23644768 0.07860625 -0.03654368 0.036140837 -0.07743534 0.0029572223 -0.2920636 -0.24787025 -0.33590975 -0.03512126 -0.13598879 0.47827694 0.068748005 0.03492322 -0.18621878 0.31082657 -0.026582146 -0.11005957 0.11716322 -0.016414283 0.16362797 -0.10719123 0.1787176 -0.0107886875 0.123537816 -0.078787975 -0.018974734 -0.07613672 -0.076024644 0.09192898 0.08584093 -0.065273896 0.089704335 -0.060133178 -0.23907724 -0.37828353 0.075918995 0.0041335016 0.08579021 0.27854812 -0.30043343 0.25954035 0.2994926 0.46927765 0.07940821 0.12652735 -0.18738447 -0.028477978 -0.37591636 -0.4206132 -0.07878735 -0.102063335 0.08569568 -0.029493658 0.21540122 -0.090240754 0.061807197 0.0047103204 -0.34508345 -0.097118884 -0.11699841 -0.38846874 0.026135018 0.15388845 -0.00037531953 0.052766915 0.28471124 -0.19156253 -0.14705199 -0.101161316 -0.11853482 0.018452123 0.39344072 -0.030289648 -0.55577856 0.19980443 -0.23148604 0.026909037 -0.15030235 -0.21655425 -0.110559024 -0.41907114 0.0701268 0.008453716 -0.09302691 -0.02418178 -0.00032153085
81 0.13687456 -0.1530758 -0.03096488 0.06357562 0.3381589 0.20404226 -0.25214776 0.13043672 -0.12560694 -0.13916595 -0.07186629 -0.31279033 -0.17792171 -0.12116032 0.40141025 0.60785484 -0.24207217 0.028402183 -0.20695922 0.1315968 0.071169645 0.3694832 -0.3761984 -0.53630364 -0.3497203 -0.3069364 -0.39461705 0.45862314 -0.027533172 0.16448943 0.3229495 0.1970907 -0.041253004 0.037624296 -0.12123699 0.026168635 0.30967307 0.054010812 -0.14745662 -0.052105393 0.050917007 0.27187043 0.04070372 -0.048250474 0.054490793 0.012619914 0.016428541 -0.31434846 -0.27309734 -0.32681724 0.014483009 -0.15584587 0.4674519 0.04837676 0.04325088 -0.15848994 0.23723197 -0.019605525 -0.20750429 0.055735774 -0.021741984 0.08408656 -0.17683293 0.22517692 -0.034567125 0.18925098 -0.1570467 -0.019548807 -0.098024 -0.13925894 0.13017315 0.13699558 -0.07656059 0.1258473 -0.039448716 -0.29054335 -0.37618023 0.06349536 -0.035678685 0.13526551 0.2923652 -0.26276663 0.29477838 0.23573457 0.46314952 -0.016661644 0.13599013 -0.25755453 -0.088687316 -0.36411682 -0.4256617 -0.03013558 -0.0732843 0.14756992 -0.036252886 0.1862826 -0.17752905 0.024818946 0.048874408 -0.36019447 -0.09572867 -0.15852422 -0.44602782 -0.03571067 0.112425454 0.068518415 0.03535066 0.2606956 -0.12299958 -0.1250912 -0.01970187 -0.12701464 0.1160301 0.30109656 0.021738434 -0.59146494 0.1163143 -0.19464697 0.024737485 -0.13884309 -0.20058818 -0.08757635 -0.44536996 -0.002113016 0.028464261 -0.13771917 -0.03165042 0.04125182
33 0.11234381 -0.16512038 0.008851088 0.06314994 0.33434933 0.13116619 -0.3806787 0.09151889 -0.15154779 -0.087585256 -0.0332176 -0.3833176 -0.19546796 -0.16649427 0.43442383 0.6027577 -0.3200611 0.04693711 -0.20375381 0.15492718 0.0796932 0.40243995 -0.3032715 -0.5694826 -0.40633845 -0.20726752 -0.3813287 0.50599825 -0.079542324 0.25176477 0.36466765 0.19477086 0.037427876 0.13618755 -0.19096977 0.023556374 0.30080372 0.104053766 -0.15832496 -0.044947032 0.020719975 0.2416149 0.046865404 -0.07711239 0.0715046 0.0035145585 -0.0037325758 -0.32245505 -0.2764087 -0.33740497 -0.008751538 -0.13152014 0.36283895 0.04542373 0.08841522 -0.18656932 0.3060343 0.026370257 -0.18503979 0.11093676 -0.07410402 0.08422031 -0.20773469 0.1856096 0.06715739 0.17927043 -0.19875321 -0.002219956 -0.029198267 -0.1378935 0.063081115 0.028436577 -0.08744728 0.076189965 -0.0829629 -0.30840552 -0.39246213 0.024377456 0.00069944793 0.11335375 0.2435002 -0.21408 0.39878815 0.26520592 0.43782812 0.023601852 0.023556093 -0.22797807 -0.07264206 -0.3277749 -0.4517359 -0.009723655 -0.01252835 0.1822973 0.09241798 0.32815874 -0.10752021 0.021699633 -0.060587578 -0.3726155 -0.059295334 -0.066657044 -0.3759134 -0.09282017 0.17467386 -0.036123075 0.05254674 0.23287241 -0.22886139 -0.13133512 -0.10648285 -0.09771116 0.08510955 0.37531656 0.012768922 -0.5216138 0.082350776 -0.22221015 -0.03195767 -0.15085837 -0.16638066 -0.08178413 -0.37889954 0.08071581 0.036779746 -0.12534198 -0.08690878 0.02594259
94 0.20041418 -0.16059592 0.06834137 -0.0057896757 0.36917883 0.21860236 -0.24902508 0.12150955 -0.18403696 -0.15059327 -0.020628719 -0.36880508 -0.16282608 -0.07052684 0.40262008 0.59999394 -0.264439 0.02200289 -0.2594241 0.04247244 0.09398529 0.37404826 -0.42247564 -0.5591266 -0.4391954 -0.28470513 -0.42584714 0.48859596 -0.045560066 0.21973966 0.2837269 0.095928654 -0.058949623 0.0423643 -0.1440158 0.016078714 0.29750088 0.058322415 -0.20031823 -0.024589932 0.053263932 0.31650993 0.04307157 0.026575688 0.052691597 0.022165557 -0.052863687 -0.34405318 -0.29241434 -0.3269158 -0.019963566 -0.21718794 0.45831835 0.076807946 0.11370998 -0.24765691 0.27577087 -0.017675111 -0.19708963 0.050012346 -0.080881365 0.15039831 -0.11708607 0.14414039 -0.022079755 0.16812731 -0.14540972 -0.05993725 -0.11467528 -0.051022936 0.099160925 0.12354939 -0.008508236 0.072808415 -0.12294435 -0.25832936 -0.3547789 0.09669901 0.06458723 0.07691596 0.2393705 -0.23068358 0.3148046 0.23938064 0.432192 0.029440762 0.14026538 -0.2500592 0.008979546 -0.24590135 -0.46619293 -0.08029402 -0.045926295 0.107538134 0.048128393 0.2953563 -0.16022445 0.04605164 -0.023744574 -0.34048077 -0.07769634 -0.06775541 -0.4470526 -0.103563435 0.14278677 0.060046252 0.098097794 0.27776214 -0.17146471 -0.08482203 -0.03951133 -0.09282706 0.07733816 0.3069609 0.012983968 -0.57020044 0.09573903 -0.19627498 -0.0625241 -0.11585263 -0.2034223 -0.03490095 -0.48962697 0.056165773 0.006075931 -0.124688976 -0.030245632 0.017207103
34 0.12845103 -0.27298495 0.07112002 0.004372366 0.28537115 0.18935892 -0.24820632 0.1036576 -0.20607804 -0.070505515 -0.06353472 -0.3343725 -0.2166044 -0.19953789 0.3685369 0.6276456 -0.19874097 0.027369455 -0.19085577 0.21215175 0.18721336 0.42238873 -0.31260142 -0.56791824 -0.3550657 -0.16712728 -0.3641705 0.49524993 -0.013939571 0.21397284 0.31713182 0.13125217 -0.039156575 0.06751607 -0.12701721 -0.08849699 0.378377 0.18497354 -0.25325572 -0.033958573 0.0132929245 0.30747378 0.036001116 -0.02760885 0.06352416 -0.055474937 0.031126 -0.36862248 -0.23689783 -0.3610393 -0.049826495 -0.16321129 0.49875337 0.085645355 0.07560239 -0.14257981 0.2693217 0.071532585 -0.15510027 0.14459828 -0.082305536 0.1272519 -0.1960149 0.16467626 -0.07201383 0.121950455 -0.073299676 -0.028097622 -0.133955 -0.098771766 0.018753542 0.08887537 -0.052460358 0.004118359 -0.075293526 -0.24438511 -0.3307812 0.11089119 -0.010520989 0.15129259 0.17688884 -0.24000466 0.28296292 0.1677249 0.47488618 0.14654312 0.12605461 -0.29672366 -0.036840055 -0.36286634 -0.46430108 -0.05411349 -0.07059029 0.105159074 0.056971267 0.22253473 -0.116685554 0.11337232 -0.01771176 -0.34849364 -0.0919403 -0.114967085 -0.399327 -0.1651962 0.27252892 -0.032516237 0.05024123 0.29642007 -0.22206841 -0.11825559 -0.016065296 -0.1747452 0.02417183 0.3574353 -0.09619754 -0.5231183 0.12496536 -0.22223629 0.0069661066 -0.2306434 -0.16066264 -0.041570224 -0.44417265 0.04525488 -0.007156304 -0.11655727 -0.120667465 -0.03852009
150 0.06987181 -0.14014025 -0.0036837666 0.032096524 0.311368 0.23745312 -0.22729033 0.100889035 -0.21333465 -0.15423186 -0.050512332 -0.32870778 -0.25961763 -0.15344799 0.48199606 0.6552364 -0.17105493 -0.0015035105 -0.24132304 0.11574942 0.04719113 0.32101074 -0.32984912 -0.5363793 -0.3864658 -0.23708351 -0.37986273 0.44441494 -0.02798161 0.1658595 0.3556699 0.19905731 -0.08695324 0.110559694 -0.16549958 -0.001999487 0.3540879 0.06195354 -0.19587342 0.015441932 -0.004953607 0.2451111 0.050988592 -0.10450217 0.041183297 -0.04038752 0.04652415 -0.3806753 -0.21477076 -0.34871492 -0.07142646 -0.1508158 0.4451502 0.12888162 0.13952373 -0.23786262 0.274203 0.023909068 -0.20146324 0.11580102 0.010135121 0.07252915 -0.09330093 0.17675737 0.007210038 0.1647022 -0.11154815 -0.10797904 -0.09909365 -0.11594655 0.071117476 0.080342256 -0.10538616 0.025066594 -0.05004105 -0.22093694 -0.3088065 0.0012749152 -0.057348855 0.11038237 0.22457173 -0.18984468 0.32707578 0.23446687 0.4945873 0.13949038 0.17246453 -0.24051602 0.04149454 -0.36531326 -0.4665807 -0.033160366 -0.08636984 0.17379233 -0.025926027 0.18512744 -0.11513853 0.052454825 -0.008525381 -0.35382876 -0.10163197 -0.17068999 -0.4405147 -0.04330841 0.19443502 0.06131871 0.046907235 0.24857327 -0.20486295 -0.08467952 -0.105726905 -0.14802116 -0.039779034 0.33219066 -0.055592407 -0.5735098 0.06981876 -0.16986279 -0.0058157393 -0.17598362 -0.22533886 -0.092834875 -0.466119 0.04442732 0.054320995 -0.10311236 -0.07378518 0.025175305
48 0.11499711 -0.19753538 -0.019328631 0.050381232 0.25258702 0.2602766 -0.2881702 0.10381328 -0.2173794 -0.1198643 -0.08993063 -0.43235227 -0.09510307 -0.15319034 0.38757128 0.63491684 -0.20694202 0.06468002 -0.12910934 0.087540925 0.10354524 0.38506114 -0.41606 -0.5153953 -0.33583295 -0.19873302 -0.4235544 0.49498063 0.03805271 0.18633366 0.26500714 0.17570603 -0.036289804 0.051206812 -0.05927464 0.04487138 0.32803032 0.05960285 -0.26604462 0.0117094815 -0.042026564 0.2570089 0.010684021 -0.036777303 0.087417684 0.067006566 -0.03861094 -0.4336626 -0.2304492 -0.42007872 -0.07017423 -0.16685045 0.45890406 0.08214093 -0.010896778 -0.19401363 0.17298038 -0.024375234 -0.19528106 0.13373747 -0.034834627 0.15007806 -0.10632463 0.17612252 -0.015408234 0.15873055 -0.18997405 -0.035972573 -0.10913935 -0.14145893 0.0782427 0.12010241 -0.03947248 0.138981 0.007874237 -0.31227294 -0.35316095 0.11906667 -0.04481512 0.146635 0.177435 -0.2803741 0.28797308 0.26507515 0.50171846 0.07961036 0.17180331 -0.24657178 -0.05600803 -0.29631236 -0.46621212 -0.05054846 -0.033698913 0.13853095 -0.019134218 0.16428255 -0.1533357 0.056533538 -0.060715 -0.31767458 -0.13795336 -0.09132962 -0.39239362 -0.059124038 0.12352125 -0.010363579 0.066795275 0.28841573 -0.12723947 -0.12625645 0.035500396 -0.1149694 0.04827584 0.34046698 -0.04257866 -0.55384606 0.08795268 -0.21966216 0.13717541 -0.16573036 -0.16436993 -0.099033296 -0.39809352 0.13798632 -0.0012637293 -0.094873935 -0.10152982 -0.02616129
149 0.10236418 -0.2539457 0.08943625 0.051206734 0.30776033 0.20512372 -0.26457343 0.12670167 -0.23612761 -0.12061351 -0.059733197 -0.39183784 -0.13824978 -0.17075457 0.3988273 0.63086015 -0.23552124 0.0033483736 -0.2142685 0.12533459 0.04128811 0.4035375 -0.33682993 -0.6555992 -0.3276714 -0.21243106 -0.4221974 0.42655456 0.021998348 0.122893475 0.32202372 0.19937737 0.05171512 0.07443461 -0.1101419 -0.01452827 0.34757426 0.14287244 -0.119962595 0.035336766 0.07646426 0.2766274 0.13088933 -0.06817236 0.053038828 0.0028829505 0.051243767 -0.4716003 -0.29936504 -0.36368424 -0.006444292 -0.13280481 0.49364352 0.12171158 0.073951475 -0.2039461 0.16011174 0.052886296 -0.1659921 0.11099102 -0.074710995 0.07410849 -0.1395 0.16891508 -0.054384988 0.19535257 -0.10928375 -0.086383685 -0.11632169 -0.09943673 0.043082852 0.02629231 -0.048534017 0.050326232 -0.040915504 -0.28074718 -0.34165633 0.104530126 -0.023931922 0.095287815 0.20004407 -0.14313756 0.3551265 0.25672722 0.49814194 0.05208044 0.16836037 -0.23705438 -0.0737805 -0.34858623 -0.4134237 -0.15722322 -0.04350679 0.13300784 0.012756392 0.20863676 -0.09439748 0.01637403 0.008183225 -0.29631755 -0.074905895 -0.12768044 -0.4586387 -0.0027426812 0.084712446 0.028373927 0.041877612 0.23790355 -0.1615866 -0.12838727 -0.059616633 -0.1142572 0.043422487 0.30974022 -0.047104906 -0.5064616 0.16743398 -0.28690213 -0.008082095 -0.12730043 -0.25364634 -0.1112488 -0.46109846 0.06595608 0.021096924 -0.12347517 -0.064145036 -0.015615681
32 0.14340417 -0.24199054 -0.023782572 0.056227703 0.30490553 0.1672868 -0.335106 0.19944844 -0.23873772 -0.111457616 0.03693367 -0.40004417 -0.14423588 -0.10520635 0.343577 0.6385267 -0.25001386 0.114113495 -0.17125905 0.1545737 0.14269076 0.37730807 -0.38052258 -0.55594987 -0.38258588 -0.15345572 -0.3565109 0.514965 0.019241383 0.1798313 0.29975724 0.16519445 -0.05115983 0.026464688 -0.10354318 -0.057656243 0.3487287 0.0473811 -0.18489918 -0.06725233 -0.0031627477 0.20636617 0.0053461213 -0.0143221235 0.040872432 -0.05159895 0.019203795 -0.35828516 -0.21287611 -0.3740475 0.030313773 -0.2147302 0.5041586 0.07270529 -0.0150118265 -0.20282018 0.22433665 0.0061019445 -0.1996096 0.178248 -0.076526776 0.1765686 -0.13254082 0.1329774 0.012146375 0.21117274 -0.11572972 -0.082053564 -0.11915938 -0.14561625 0.05346999 0.10018502 -0.09108423 0.12643929 -0.08325893 -0.27361023 -0.32117125 0.05569369 0.01766591 0.080770925 0.1744917 -0.102903605 0.31610253 0.22736704 0.44541287 0.02031621 0.130483 -0.23789416 -0.08620776 -0.2973265 -0.48376995 -0.023820508 -0.011945835 0.15979514 0.046163104 0.25911444 -0.17333616 0.04817627 -0.056529153 -0.43440813 -0.109171584 -0.12610514 -0.48504072 -0.040687226 0.089480944 -0.011358709 0.027277652 0.20764197 -0.22042449 -0.06739276 -0.009690476 -0.1789656 0.086653836 0.28573948 0.010249648 -0.55981976 0.11090554 -0.16289376 -0.00065685663 -0.10723623 -0.16742828 -0.066378884 -0.4483373 0.10844819 0.004417021 -0.07405222 0.030270701 0.068796545
216 0.123890564 -0.26135698 -0.0055097193 0.0256186 0.25580403 0.21720761 -0.34823653 0.094586134 -0.14795922 -0.13218686 -0.050226107 -0.44985196 -0.08157883 -0.06437991 0.36935255 0.60655046 -0.19452229 0.09042246 -0.196779 0.1622668 0.13745199 0.39853868 -0.51019865 -0.5207908 -0.32822117 -0.23365402 -0.4005447 0.43329298 -0.03154588 0.2528952 0.25806928 0.11556648 -0.018160054 0.096145034 -0.12407648 -0.031592537 0.38647482 0.05704236 -0.19273944 0.008728231 0.053990398 0.28937095 -0.037378408 -0.04779729 0.105017215 -0.052059494 -0.0067884186 -0.33530095 -0.24510767 -0.41336086 -0.0788544 -0.13173482 0.520685 -0.008105631 0.11211333 -0.20576157 0.26821783 0.0143246725 -0.13628034 0.105992034 -0.048275765 0.121277526 -0.18397363 0.20547956 -0.047818486 0.17154676 -0.07504342 -0.057748605 -0.04546952 -0.06676119 0.053575583 0.123266056 -0.11508605 0.1040623 -0.029803237 -0.31465685 -0.3194007 0.050254323 0.012269904 0.080834225 0.20322782 -0.24105579 0.3782463 0.20904255 0.46421114 0.016384142 0.07865468 -0.25427818 -0.028434113 -0.29383907 -0.49719265 -0.037464496 -0.032769166 0.095789984 -0.04745984 0.14690001 -0.12701137 0.05076363 0.018167702 -0.3200516 -0.15440069 -0.14962718 -0.41407007 -0.017671177 0.05566883 0.057375487 -0.03285061 0.24027026 -0.25790703 -0.1722836 -0.011050685 -0.067513645 0.115584046 0.2923663 -0.05056215 -0.54679894 0.16589925 -0.25098342 0.0418748 -0.21599263 -0.24924631 -0.08283111 -0.49378598 0.03736187 0.00852331 -0.10386184 -0.061450507 0.027240688
49 0.11065482 -0.22394739 -0.0048391633 0.05746354 0.3031076 0.1248755 -0.27409545 0.15430212 -0.18784747 -0.09343355 -0.1085921 -0.36626425 -0.13296874 -0.11096616 0.33556738 0.626936 -0.20472483 0.063400924 -0.21681727 0.108275495 0.067548856 0.5178962 -0.33891538 -0.4796252 -0.32901058 -0.17589697 -0.43633515 0.54747957 0.05148454 0.23596758 0.35465068 0.14390524 -0.028595187 0.09115274 -0.20381436 0.06390991 0.34295315 0.1042228 -0.21262199 0.020722099 0.059141852 0.29431275 0.0015808338 -0.06179294 0.07563507 -0.017987333 -0.004147306 -0.39673212 -0.26393294 -0.4301695 -0.040854905 -0.16618656 0.5372262 0.08251723 0.0792806 -0.19237462 0.2082538 -0.068153486 -0.18515436 0.06399646 -0.077942185 0.2415202 -0.104731366 0.19890337 0.040037505 0.2022844 -0.1629634 -0.053411476 -0.08662806 -0.09872291 0.06861391 0.0807033 -0.0647791 0.054542586 0.0017751735 -0.22023602 -0.34821212 0.01897073 -0.038609426 0.15618551 0.2241937 -0.16353129 0.29489842 0.22878172 0.46399322 0.12250794 0.07673613 -0.22463763 -0.09871962 -0.28448176 -0.41327035 -0.08482022 -0.050623212 0.1750453 -0.014518392 0.17828085 -0.17067803 0.010371998 -0.028208904 -0.39643946 -0.06332528 -0.0848677 -0.36771432 -0.019542193 0.13754115 -0.034501012 -0.012668635 0.3497548 -0.24957104 -0.057831388 0.05258925 -0.08343843 0.11093245 0.33355656 0.014703819 -0.5441449 0.13386452 -0.18654078 0.039884217 -0.10187677 -0.20430766 -0.09235814 -0.44176978 0.10511672 -0.00044977997 -0.12522803 -0.04729237 -0.017194422
95 0.14911692 -0.29541892 -0.0068493425 0.039667465 0.24320103 0.24554047 -0.31115073 0.094963744 -0.13787094 -0.11578063 -0.0055598286 -0.4032954 -0.13714953 -0.16759983 0.40713993 0.5987382 -0.19174372 0.0942716 -0.19342929 0.120983504 0.10333094 0.43149298 -0.4096168 -0.5806319 -0.43338302 -0.17707905 -0.3986768 0.41008535 0.0766554 0.16566831 0.32986116 0.14599985 -0.0019109165 0.16122636 -0.2333026 0.026416525 0.43029767 0.06880214 -0.15550703 0.029894426 0.03822656 0.25961527 -0.016586334 -0.068512045 0.08388946 -0.05597045 -0.0046914276 -0.32239905 -0.21079734 -0.36126155 0.045779582 -0.16992931 0.44037205 0.03302681 0.006598027 -0.1795968 0.19993374 -0.043403517 -0.15227087 0.1461661 0.014929076 0.15387473 -0.12636195 0.26941824 -0.007938933 0.22459242 -0.11095867 -0.029131966 -0.14365709 -0.13432491 0.11490263 0.15156415 -0.0002900019 0.04210851 -0.060639627 -0.29491907 -0.41319618 0.11355565 0.030945063 0.055729087 0.2715551 -0.20720433 0.3199069 0.27851087 0.4454743 0.06050618 0.10451581 -0.2587511 -0.02209581 -0.37427622 -0.47933462 -0.06097359 -0.08773307 0.16815716 -0.0063538165 0.25011203 -0.26692933 0.030942434 -0.0161473 -0.29678425 -0.004625656 -0.07043553 -0.33404016 -0.079411544 0.116625585 0.011512176 0.032709453 0.29008242 -0.17558281 -0.11979282 -0.037184764 -0.21600491 0.108098604 0.30577922 -0.030042533 -0.55507135 0.14084627 -0.23121893 -0.02921102 -0.088805795 -0.18423297 -0.1020884 -0.4080922 0.043173987 0.058226544 -0.13367742 -0.026728684 -0.04173769
286 0.4414443 -0.12550573 -0.26464313 0.23172276 0.06376965 -0.43203318 0.6613663 0.24329594 -0.18689726 0.7655827 0.37881085 0.16762324 0.492942 -0.31853846 0.021976005 0.73108333 -0.7155804 -0.9376981 -0.54194105 0.45592785 0.013576583 -0.1586898 -0.36310247 -0.64910525 -0.43468556 0.37734997 -0.0617997 0.08614456 -0.38956207 -0.020590907 0.73897725 -0.06126071 0.0025309713 0.032111876 -0.63244826 -0.053343974 0.35413423 -0.2385158 -0.25036654 0.15317851 -0.040030044 -0.06263209 -0.5538894 -0.15530725 -0.27848265 0.38520926 0.19627719 -0.12762018 -0.8128614 0.076491445 -0.1499386 0.20504677 -0.28395352 -0.96378946 0.17407227 -0.021394862 0.4049633 -0.16223651 -0.12471347 0.37409103 -0.2777062 0.063520856 0.035372693 0.73443377 -0.3418675 0.29494888 0.2730371 -0.26433185 0.00039376225 -0.5816118 -0.988211 0.13718191 0.24635822 0.3979283 -0.3164755 0.21638268 0.14690618 -0.084329925 0.061357707 -0.22486354 0.16427898 0.0016249177 -0.40931767 -0.093958534 -0.0044272495 0.23937888 -0.2428104 0.49012426 -0.36150122 0.33543134 -0.62065387 -0.0048605157 0.4135892 0.49691966 -0.26875725 -0.17721555 -0.27171132 -0.44365656 0.75365126 0.29435188 -0.6781851 -0.12555684 -0.28246874 -0.09866824 -0.15667252 -0.3651925 0.39353496 0.48425528 0.36682844 0.15928794 0.14685616 0.017398443 -0.1630483 0.39323187 -0.15007655 0.162499 -0.015233755 0.29359418 0.74244744 0.18104486 -0.72697043 -0.14792426 -0.17640293 -0.01789813 -0.17842184 -0.15722154 -0.18320458 -0.12664278
549 0.3508663 -0.26868787 -0.2548634 0.3029622 0.021617997 -0.35155398 0.75506735 0.2237372 -0.12304285 0.70342815 0.29706216 0.23338005 0.3686049 -0.3648781 0.02125656 0.69273084 -0.66316414 -1.0345755 -0.62386906 0.37775904 -0.02171405 -0.1892223 -0.35446468 -0.65046746 -0.51499987 0.50368094 -0.14691302 0.046297535 -0.37078863 -0.060211472 0.64611524 -0.073000066 0.07432911 0.050071545 -0.6421777 -0.051746707 0.16172111 -0.14191277 -0.17452884 0.0837627 -0.090877 -0.031843662 -0.4827219 -0.09028356 -0.20268968 0.28775838 0.15120006 0.046963587 -0.8813709 0.04875282 -0.1696181 0.19030444 -0.31269512 -0.99454135 0.23104411 -0.055644285 0.37576535 -0.059612166 -0.13922131 0.45094854 -0.35439277 0.1722157 0.08967526 0.71936727 -0.3667879 0.23166038 0.19475055 -0.28091177 0.035798445 -0.55249465 -0.9848062 0.1226514 0.12032935 0.42090562 -0.3965994 0.22052638 0.13709083 -0.026968684 -0.07779082 -0.15881687 0.20519213 0.030136894 -0.43356687 0.041956484 -0.041952934 0.2402755 -0.22312792 0.4504989 -0.42076918 0.29072154 -0.5995324 0.050945338 0.31745717 0.35529673 -0.28147885 -0.101264566 -0.3103938 -0.34581882 0.79804385 0.22075401 -0.6059936 -0.14860496 -0.3779435 -0.20861478 -0.05476696 -0.37183 0.46984637 0.55288213 0.47177327 0.07872132 0.09626064 -0.018998822 -0.2217609 0.4200141 -0.1405592 0.18383734 0.02547972 0.337426 0.7039801 0.16020086 -0.65578973 -0.17491278 -0.054284103 -0.019714462 -0.12059575 -0.13169613 -0.16941868 -0.040731482
550 0.32321185 -0.13418528 -0.27390695 0.24867618 0.038503967 -0.3804795 0.7984396 0.11895608 -0.1012392 0.71914864 0.28884915 0.16331053 0.39511612 -0.37724978 -0.0021895438 0.82176113 -0.73950434 -1.0880203 -0.5146019 0.41799337 -0.0058710044 -0.0880885 -0.29931232 -0.60720164 -0.45177704 0.460665 -0.09489618 0.008620722 -0.34241128 -0.18406586 0.68866175 -0.0154507 -0.026333023 0.083110064 -0.639397 -0.039049834 0.2188097 -0.2399084 -0.110084474 0.21529381 -0.057230324 -0.047687147 -0.39760205 -0.18365404 -0.3028243 0.31277752 0.25967783 -0.041158013 -0.84197456 0.049444076 -0.049359262 0.28723446 -0.27783683 -0.9775659 0.25554958 0.0049628634 0.38953853 -0.1779933 -0.0986503 0.38454813 -0.38109875 0.05219661 -0.0017380562 0.8055927 -0.33493185 0.2887434 0.3352062 -0.27999407 0.064515 -0.5378638 -0.98303795 0.03498544 0.21223393 0.27041024 -0.34957525 0.15395525 0.15659377 -0.04105119 0.03601578 -0.21581648 0.093919285 -0.0008411221 -0.48413157 -0.14228712 0.024173573 0.26965174 -0.18649906 0.45516974 -0.3514687 0.27267635 -0.62963116 -0.033731036 0.35879508 0.423531 -0.3143376 -0.015562048 -0.27589133 -0.44500428 0.82340306 0.14302991 -0.61736095 -0.15462732 -0.28597793 -0.18830922 -0.05789587 -0.38472795 0.50255316 0.49270892 0.4584919 0.19568166 0.11360019 -0.046442162 -0.2435767 0.44083053 -0.25303283 0.17864975 0.054821428 0.36147562 0.74490654 0.19637795 -0.674122 -0.18909332 -0.19336665 0.031722583 -0.28353184 -0.12825276 -0.18712305 0.012684875
552 0.39902383 -0.11230582 -0.3214366 0.2612474 0.09431914 -0.39810282 0.7772543 0.211772 -0.090941586 0.7337452 0.30031502 0.23673612 0.43589678 -0.34136748 -0.052245025 0.85003805 -0.61860865 -1.0204039 -0.58011955 0.41324937 0.12385346 -0.19204257 -0.34062833 -0.6043218 -0.5041514 0.49426705 -0.12796426 0.092710644 -0.38355812 -0.114124045 0.71700716 0.0064042336 0.04070275 0.06523076 -0.60261923 -0.0641809 0.13699293 -0.26978287 -0.15294029 0.20283008 -0.046646588 0.039996035 -0.48780885 -0.0607848 -0.32117698 0.33750364 0.15933034 -0.036594775 -0.82491696 0.13337752 -0.13719706 0.26983783 -0.31278217 -0.91454506 0.32218978 -0.033262435 0.42665684 -0.17532074 -0.120769665 0.44406518 -0.41089165 0.14203854 -0.022095531 0.7753935 -0.28743017 0.1842529 0.21246316 -0.21987747 0.09191911 -0.49490878 -0.8752804 0.12396015 0.20359655 0.3261811 -0.4390234 0.21053833 0.20101704 -0.009837229 -0.024317887 -0.31032908 0.14952385 -0.08220199 -0.4429818 -0.1344141 -0.0032907345 0.33459696 -0.27461854 0.5060173 -0.34587502 0.27593717 -0.59981036 0.05476167 0.4381395 0.41378397 -0.24089612 -0.08322183 -0.15458803 -0.44850674 0.82719785 0.19777294 -0.66780883 -0.20829153 -0.38136396 -0.17614728 -0.08488833 -0.4491152 0.5191699 0.5240191 0.43972567 0.04556522 0.12055207 -0.092027016 -0.16467518 0.5026383 -0.17687292 0.1677273 -0.05446749 0.30349663 0.7241646 0.17045231 -0.651759 -0.24216169 -0.1996283 0.094597064 -0.11380424 -0.1806398 -0.19300862 -0.03567043
287 0.37690398 -0.1011193 -0.2570442 0.16983566 0.021191008 -0.4027147 0.7907678 0.16790046 -0.12123785 0.6830216 0.27719066 0.25959712 0.4331469 -0.3489097 0.026381493 0.7223201 -0.69744486 -1.0563143 -0.5660181 0.37298223 0.071431294 -0.21424204 -0.32402927 -0.64943796 -0.4726748 0.42208356 -0.19663106 0.049258836 -0.33119866 -0.107252 0.69457984 -0.015210492 0.011797497 -0.04709669 -0.5573652 -0.082647815 0.11248314 -0.21905331 -0.18598223 0.16942239 -0.043669246 0.067098744 -0.51777065 -0.20427082 -0.22721455 0.24918972 0.21941034 0.031045299 -0.86464334 0.035144012 -0.102922276 0.24128234 -0.29742768 -0.94984245 0.2037968 0.052472748 0.41924146 -0.14355719 -0.10782576 0.36969048 -0.35515982 0.116008304 -0.021031603 0.8173822 -0.35617974 0.2214977 0.24836227 -0.17271903 -0.05495541 -0.5328998 -1.0762123 0.1478274 0.17850341 0.35197213 -0.34255722 0.10548093 0.21245304 0.00095024315 0.014223269 -0.23746432 0.19768903 -0.037641346 -0.45659053 -0.11928869 -0.0025380133 0.23173907 -0.15727796 0.36523148 -0.25679153 0.3433298 -0.58396125 0.03539251 0.3439982 0.49932447 -0.33963072 -0.027053904 -0.22506438 -0.4400998 0.7543374 0.25034562 -0.66642493 -0.22907233 -0.26145816 -0.21425536 -0.119134486 -0.3850558 0.4544955 0.53297627 0.5640727 0.037108995 0.041544497 -0.032006603 -0.21355817 0.4311977 -0.13901415 0.06451343 0.0038461215 0.3794215 0.76219136 0.13120504 -0.59996563 -0.19776031 -0.18668373 0.026715262 -0.11355405 -0.1605208 -0.24963963 -0.026110146
285 0.368761 -0.1869141 -0.332283 0.14516665 0.030324688 -0.3568846 0.7507585 0.17173743 -0.112879716 0.6996582 0.3090652 0.2706076 0.44166866 -0.2946501 0.10207804 0.7880536 -0.73945934 -0.95748687 -0.55049956 0.42280346 0.03743174 -0.20780522 -0.27752382 -0.6739873 -0.45338088 0.4631805 -0.068019755 0.010670312 -0.40756303 -0.024858747 0.5973285 -0.06345524 -0.030694747 0.07490742 -0.600136 -0.1151775 0.17048387 -0.1348186 -0.08903509 0.19073942 -0.1193833 0.07781757 -0.5001324 -0.2027094 -0.3009189 0.26561448 0.24302994 -0.020711625 -0.8733769 0.056501344 -0.0077425158 0.20303102 -0.18254524 -0.93638754 0.2350133 -0.03022937 0.33093062 -0.17488831 -0.13730597 0.44227728 -0.29994205 0.074812695 0.028953677 0.71042436 -0.35415423 0.17699732 0.2741411 -0.28939644 0.011856709 -0.5390817 -1.0251555 0.090570755 0.24927402 0.40232095 -0.3967174 0.15509115 0.25059414 -0.062005617 0.021193346 -0.30960357 0.19024104 0.046851106 -0.44434667 -0.061363176 0.0048075253 0.29860747 -0.2637268 0.4336582 -0.36255893 0.35850456 -0.55783165 0.015180767 0.26536623 0.43898678 -0.28513217 -0.12490051 -0.22275873 -0.5253022 0.77881074 0.20723952 -0.62307376 -0.16382018 -0.32489294 -0.096912175 -0.058591384 -0.46005934 0.51128143 0.56276834 0.39285278 0.08138459 0.15902208 -0.09028881 -0.11639048 0.4279263 -0.17398946 0.12967217 0.082496695 0.31480497 0.81570023 0.15327494 -0.7712141 -0.20132029 -0.17118093 0.084965825 -0.21169242 -0.11936883 -0.2426532 -0.0060682064
288 0.39069194 -0.12688924 -0.23914929 0.24458526 0.024044286 -0.413086 0.8099287 0.18347259 -0.18485051 0.84093356 0.31111878 0.17868398 0.36536264 -0.3880257 0.07685492 0.7960742 -0.7115402 -1.1268939 -0.5622648 0.3760866 0.056163013 -0.17828137 -0.20504554 -0.59072435 -0.5517802 0.40518197 -0.07367979 0.046323653 -0.32921642 -0.12907958 0.68364245 0.030356789 0.010753025 0.13983876 -0.5440785 -0.03352905 0.20562413 -0.21436533 -0.18966617 0.27624995 -0.09693533 -0.014668734 -0.4957556 -0.23167394 -0.25700647 0.308787 0.31041294 -0.0423766 -0.8621419 -0.010444522 -0.14544159 0.26789472 -0.23834364 -1.0131739 0.177033 -0.021273809 0.37582144 -0.14543691 -0.09679673 0.41088378 -0.29590002 0.14450017 0.05238731 0.6690904 -0.31816548 0.25005162 0.20908661 -0.16093907 0.036559932 -0.54002786 -1.0384516 0.12087806 0.13451391 0.32063895 -0.44094148 0.16068774 0.26405674 0.008952373 0.09291046 -0.3360766 0.105695456 -0.030626932 -0.52437985 -0.022614812 0.047207333 0.24797611 -0.27161714 0.3833813 -0.30234295 0.31350422 -0.58794254 0.047246065 0.34044826 0.4981468 -0.22094062 0.039891638 -0.24759865 -0.3863383 0.7298388 0.20199291 -0.6416589 -0.14232112 -0.3232895 -0.13925774 -0.05591858 -0.45312834 0.42931315 0.49848747 0.43360224 0.15805937 0.12051781 0.017157696 -0.148772 0.48897514 -0.22005326 0.15595219 -0.106358066 0.27982408 0.7133306 0.20899394 -0.68787396 -0.2533413 -0.12942766 0.057835158 -0.14807358 -0.110183805 -0.16342083 -0.019606091
551 0.3671263 -0.20264448 -0.29733998 0.07686172 0.039758783 -0.4056617 0.7323436 0.09408919 -0.12674324 0.7782366 0.23537819 0.16481507 0.47444576 -0.370785 0.032272 0.7755148 -0.72327346 -1.1156969 -0.51627076 0.44916338 0.02399906 -0.14353491 -0.29751617 -0.52989703 -0.506708 0.48148295 -0.11375677 0.09322532 -0.35551322 -0.077129796 0.67873555 -0.010950186 -0.01405958 0.02194357 -0.61749184 -0.008511612 0.098606795 -0.24314998 -0.21247858 0.2445631 0.0083911065 0.031503487 -0.5374897 -0.117059976 -0.3222983 0.2726897 0.21210922 -0.0026799229 -0.78541225 -0.03329483 -0.12250077 0.27557486 -0.25803268 -0.9434495 0.21985409 0.07387796 0.33994356 -0.12219462 -0.09976036 0.40125686 -0.38838544 0.087771215 -0.078883424 0.7056442 -0.28971732 0.15645027 0.1903471 -0.22201462 0.081024066 -0.53296 -1.0088995 0.18881403 0.19451094 0.32792202 -0.4358271 0.20258628 0.22366339 0.06428535 -0.021510907 -0.23676774 0.16082734 -0.0015001555 -0.40333244 -0.11629289 0.05043304 0.29372534 -0.22049108 0.5016718 -0.41096488 0.31480107 -0.57070744 0.041891698 0.39638942 0.4069194 -0.29905897 0.0073175216 -0.342288 -0.53537405 0.7586012 0.20207025 -0.6635299 -0.1656855 -0.2600584 -0.09551545 -0.07990113 -0.38600242 0.4104753 0.55929303 0.42555228 0.05366272 0.09670166 -0.101344444 -0.14504376 0.42520383 -0.16656424 0.22462621 -0.007988306 0.27921206 0.6444515 0.14453349 -0.6881189 -0.2469819 -0.1776341 0.03769305 -0.21712694 -0.16127172 -0.122660615 -0.083018124
178 0.42848685 -0.0024262818 -0.75752765 -0.07606179 0.057905775 0.32296702 0.11701727 0.1394308 -0.19381675 0.20244375 -0.15474245 0.02331563 -0.31054202 -0.169083 0.14785022 -0.3891037 -0.16272943 -0.47492757 0.058951676 0.13093539 -0.13203505 0.18150458 -0.30728808 -0.22297052 -0.24132451 0.21295947 -0.16043277 0.027348753 0.18730547 -0.02026755 0.0827472 0.09702735 -0.021861665 -0.31293783 0.028601754 0.35045215 0.028532842 -0.18621667 -0.3139591 0.21480852 -0.39048257 -0.06894366 -0.074781135 -0.102208115 -0.44006294 -0.22931495 0.06131452 -0.42610845 -0.25681216 -0.17048079 -0.18364555 0.16589718 0.1961499 -0.46401483 0.09829428 0.2822071 0.208787 0.3625106 0.12887801 0.26727295 -0.37275326 -0.029190926 0.18372649 0.23689632 -0.1476092 0.42137367 0.09863537 -0.3049656 0.3652839 -0.25290585 -0.2673376 -0.058340304 0.5665095 0.12580705 -0.1564654 0.34420896 -0.28973544 -0.14775792 0.26212218 -0.074612126 0.17811923 0.0222593 -0.0031228967 0.1254112 -0.32921788 -0.44086733 -0.6863313 0.28221118 -0.1547401 -0.40971175 -0.12406698 0.20048575 0.45555243 0.5525333 0.29628196 -0.40076977 -0.073252775 0.17524153 -0.12782192 -0.017554961 -0.030068966 0.08616293 -0.38999313 0.24142873 0.1817031 0.06741352 0.35127065 0.23153335 -0.0094116125 -0.10849124 -0.09907962 -0.15879326 0.06120163 0.15352334 0.13169916 -0.19838256 0.20722148 -0.15703616 0.26014638 0.092525475 -0.012234869 -0.31798756 -0.59898293 0.27363428 -0.109984 0.005199926 -0.10964762 -0.05294598
281 0.49456805 0.10137702 -0.620727 -0.062116526 0.003580968 0.28788042 0.15361969 0.09213694 -0.16736293 0.16671985 -0.21660027 0.015180516 -0.36084652 -0.18778388 0.19705121 -0.3743089 -0.069065765 -0.50168616 0.06997734 0.100288406 -0.045873653 0.1777198 -0.24407984 -0.254582 -0.29332262 0.15737543 -0.18858801 -0.00600999 0.22452624 -0.064244255 0.1563944 0.15927261 -0.07921194 -0.2263047 0.0202218 0.2502545 0.06375509 -0.28345612 -0.24104181 0.13694277 -0.4903007 -0.061824348 -0.042678814 -0.109767385 -0.43601376 -0.25338465 0.045892913 -0.33781955 -0.29608542 -0.11488246 -0.17178972 0.15847456 0.17859487 -0.49370643 0.13634402 0.38650662 0.23329285 0.35863635 0.09905444 0.2076887 -0.37232244 0.04583393 0.07413181 0.22754343 -0.12127483 0.51446515 0.066430226 -0.3562586 0.3956017 -0.19865453 -0.37379172 -0.016293857 0.60091025 0.06947318 -0.12211111 0.33341503 -0.32765275 -0.23644944 0.3248347 -0.08148807 0.17365204 -0.016483894 -0.04624931 0.1127959 -0.25514245 -0.3486339 -0.62765795 0.38233736 -0.15915614 -0.41009393 -0.14057082 0.17379814 0.42526585 0.5989763 0.2853265 -0.36485243 -0.028839175 0.18216415 -0.15400393 -0.018837301 0.006167258 0.07461435 -0.36358708 0.24991536 0.18210109 0.16827121 0.24094185 0.17755671 0.0968292 -0.08787615 -0.05552274 -0.05973249 0.048384536 0.18529178 0.043381974 -0.17864712 0.20860626 -0.120744444 0.3641352 0.009106419 0.008891334 -0.34301126 -0.72607565 0.18794408 -0.072743304 -0.010364098 -0.036796384 -0.065559246
282 0.49061581 0.10564766 -0.70012504 -0.06303335 0.032722212 0.3388244 0.14638369 0.12721854 -0.18675064 0.07268285 -0.18995182 -0.01429819 -0.21004826 -0.22206049 0.12479626 -0.40177917 -0.13993797 -0.51375955 -0.012161691 0.08793909 -0.12797771 0.26593894 -0.30461752 -0.3632043 -0.1890086 0.18161339 -0.26423535 -0.06489078 0.23010011 -0.0671044 0.067451335 0.08596697 -0.071260475 -0.25430804 0.052589957 0.27467832 0.028873235 -0.30023557 -0.3435183 0.18245156 -0.429961 -0.02778341 0.0155789 -0.14365992 -0.39110455 -0.23596795 0.084020406 -0.29817435 -0.3289104 -0.15441673 -0.20055096 0.17989185 0.21644752 -0.48901755 0.034836926 0.34573323 0.24019566 0.39421004 0.13915853 0.22445989 -0.33251047 0.0024106994 0.09803697 0.28009632 -0.082671165 0.4641742 0.005491123 -0.22399776 0.37115085 -0.18910778 -0.2786762 -0.07237635 0.5523018 0.1775529 -0.1653925 0.30928963 -0.3512247 -0.17755593 0.25006968 -0.095709346 0.13663663 0.046081156 0.040773064 0.10303788 -0.31771266 -0.45319685 -0.6223202 0.33628798 -0.19056284 -0.40735215 -0.20492117 0.25190037 0.45451134 0.6218444 0.23500766 -0.39563447 -0.12298254 0.11448929 -0.07550695 -0.028663296 0.09166314 0.06591323 -0.30920812 0.22477342 0.25175467 0.04951127 0.2949106 0.11725095 -0.026141101 -0.1044548 -0.163486 -0.104142055 0.047162447 0.15349841 0.118611954 -0.20032221 0.16679049 -0.03605393 0.33595377 0.10027309 0.026183343 -0.33588973 -0.5956813 0.18704157 0.016764535 -0.10156095 -0.096387096 -0.08928648
273 0.5270325 0.09704308 -0.7643192 -0.050732605 -0.03637811 0.2890064 0.15195042 0.11612278 -0.20963177 0.08599176 -0.2354746 0.016088957 -0.30769393 -0.26444814 0.10127535 -0.36380842 -0.10202588 -0.4845537 6.0337818e-05 0.10893235 -0.10404159 0.14241743 -0.24801953 -0.3161939 -0.25751078 0.14390999 -0.32012233 -0.07459952 0.19678116 -0.07743431 0.10722197 0.14282697 -0.04063312 -0.2221759 0.0034808707 0.26336297 0.039801013 -0.23531179 -0.30654997 0.16755196 -0.44790915 -0.08789371 -0.062205456 -0.24987517 -0.3910363 -0.27084178 0.0034311935 -0.2942685 -0.2994149 -0.052234676 -0.17332447 0.20196207 0.12925352 -0.40763602 0.08720626 0.33018225 0.14970243 0.3753373 0.18687224 0.23504429 -0.30848667 -0.015662696 0.11220998 0.18981288 -0.1079203 0.4575104 0.10063647 -0.28698555 0.3900712 -0.20681834 -0.2726335 -0.09417116 0.5763455 0.09121633 -0.16431339 0.30140278 -0.37063533 -0.18711667 0.23879446 -0.11351618 0.21158873 -0.043603465 0.09836738 0.09573645 -0.28177688 -0.39363128 -0.61455566 0.31251827 -0.23398496 -0.38976467 -0.16814706 0.24747702 0.4136958 0.6545172 0.20342492 -0.35584638 -0.09591134 0.18900053 -0.1614686 -0.04482789 0.09836892 0.10949706 -0.45009738 0.1872412 0.1223689 0.115837805 0.30191162 0.22604035 -0.016822994 -0.09061162 -0.14952295 -0.14001139 0.07863595 0.16869502 0.116792485 -0.19235851 0.17793779 -0.0397984 0.38217756 0.05046583 -0.020191818 -0.36780518 -0.5917062 0.20706873 -0.08626037 -0.035383843 -0.048299287 -0.059273206
271 0.56082004 0.12746838 -0.7610255 -0.049687993 0.014307949 0.2651822 0.09759791 0.08978595 -0.16327204 0.12900399 -0.1978853 0.024598954 -0.21872811 -0.14211066 0.16195098 -0.40978327 -0.119795255 -0.40608707 -0.051133733 0.12446616 -0.08242192 0.16921116 -0.26681048 -0.27182698 -0.22203825 0.20021069 -0.2871466 -0.031444125 0.18858358 -0.06466447 0.1191992 0.076872975 -0.01502419 -0.25012153 0.021276198 0.30373737 -0.009843546 -0.30831465 -0.38617483 0.16763149 -0.42949882 -0.03034052 -0.04938221 -0.12134442 -0.4850716 -0.20726569 -0.046122916 -0.38635185 -0.31125826 -0.18331786 -0.14680271 0.22269171 0.15829775 -0.5655184 0.110153906 0.283823 0.19072427 0.36619577 0.09606277 0.26490298 -0.3309963 0.007869218 0.16764937 0.2969106 -0.09658134 0.49810386 0.07059834 -0.35485658 0.3840939 -0.17381555 -0.25907388 -0.08318632 0.5957357 0.118870735 -0.16565995 0.3092397 -0.38327336 -0.11261456 0.19829501 -0.15084259 0.23179716 -0.03574161 0.022857402 0.2273668 -0.29049665 -0.4275509 -0.6777275 0.24722606 -0.118700996 -0.44011348 -0.038570974 0.2753481 0.43362904 0.5882448 0.20284282 -0.31898966 -0.040149603 0.093625985 -0.09816053 0.055122353 0.05879089 0.10644471 -0.3678745 0.10731584 0.10704007 0.109235734 0.27083355 0.16384965 0.09662321 -0.052453827 -0.07487077 -0.09070637 0.13405114 0.21446528 0.07345462 -0.24227068 0.17172393 -0.10587639 0.3338051 0.11099769 0.08331545 -0.25583097 -0.7328944 0.19254126 -0.06834925 -0.049709067 -0.09475915 -0.058352046
270 0.4641338 0.12884904 -0.6524872 0.012300871 0.025970886 0.3300805 0.15192735 0.02085011 -0.2804185 0.22184348 -0.2863459 -0.018015265 -0.22774673 -0.13437277 0.12600452 -0.33959416 -0.1105354 -0.5074705 0.0012483594 0.09843736 -0.07493932 0.18838301 -0.21133304 -0.27564523 -0.23954678 0.14807352 -0.241359 0.059907276 0.23593025 -0.040640168 0.1110291 0.05449612 -0.04578691 -0.17746754 0.014845834 0.34258687 -0.02574578 -0.22686398 -0.36461502 0.27313516 -0.490936 -0.004854652 -0.037828304 -0.072472654 -0.44923806 -0.30311176 0.032107547 -0.29167148 -0.2633151 -0.051439427 -0.15585132 0.19373898 0.22866519 -0.4471883 0.10618697 0.24783406 0.15201661 0.34714085 0.14710532 0.21770011 -0.32389835 0.0015371017 0.11198432 0.24098328 -0.065439105 0.43372717 0.046303444 -0.33143348 0.42451584 -0.09939405 -0.38307294 -0.025238983 0.5497151 0.090007395 -0.13344069 0.2577218 -0.32998422 -0.20204389 0.19725482 -0.14894843 0.21169369 -0.016538708 0.0106189465 0.117642134 -0.24480219 -0.41473505 -0.6926954 0.38326105 -0.08103089 -0.36770222 -0.17205335 0.23903754 0.4997851 0.6029038 0.25192943 -0.36509895 -0.12498468 0.14981781 -0.093396164 -0.011204104 0.038854457 0.08742564 -0.3439436 0.24706994 0.19563705 0.11160176 0.3330789 0.18305525 -0.009975165 -0.12725487 -0.09761062 -0.10007047 0.13015275 0.07679103 0.09274038 -0.23531924 0.21408027 -0.023333693 0.3965171 0.03409516 0.035795026 -0.35287207 -0.690146 0.21267669 0.0072579635 -0.07678687 -0.053104367 -0.07048276
191 0.5115502 0.17477745 -0.6940278 -0.04406038 0.01617291 0.25993103 0.14252351 0.11721085 -0.26826882 0.100386016 -0.2539075 -0.0025154026 -0.36178955 -0.1872251 0.13380376 -0.35065848 -0.036299437 -0.4827797 0.008247262 0.16101809 -0.12554279 0.14321508 -0.257671 -0.37192562 -0.2846229 0.19044094 -0.30991796 -0.02080904 0.16065003 -0.08234903 0.1775564 0.048015196 -0.0787802 -0.22092447 -0.03618628 0.28443328 -0.04501915 -0.3460287 -0.34337476 0.21599971 -0.4009768 -0.020088857 -0.0111992555 -0.12858833 -0.44263205 -0.26590788 0.021336013 -0.34674254 -0.17035398 -0.10723322 -0.14318663 0.19293496 0.1857471 -0.4259078 0.13272898 0.28118372 0.1922181 0.32557344 0.108859874 0.2982978 -0.24318011 0.065330915 0.10580976 0.28564984 -0.08797756 0.38689238 0.0062252176 -0.34354654 0.45720217 -0.21774513 -0.32285818 -0.05274868 0.57710415 0.115202315 -0.1635967 0.3067159 -0.3262887 -0.20300098 0.22490288 -0.15654738 0.18467502 -0.12216997 0.028219426 0.11380002 -0.28975746 -0.35647675 -0.7070768 0.32904997 -0.1471399 -0.3605871 -0.1045281 0.21598278 0.439794 0.6183782 0.20056958 -0.45057482 -0.074401 0.21113738 -0.082481556 -0.038302317 -0.029486036 0.09335673 -0.44254494 0.21918069 0.19419964 0.08366096 0.24734883 0.18913995 0.034863565 -0.17913856 -0.13327263 -0.12803432 0.11472377 0.101803996 0.08852592 -0.16048193 0.1887221 -0.11218046 0.32084 0.10340805 0.083335064 -0.296382 -0.6575282 0.17430586 -0.087342486 -0.04906292 -0.037883904 -0.047450714
280 0.5243112 0.073497936 -0.6303584 -0.041024238 0.046643764 0.27027547 0.14949459 0.080474615 -0.21936512 0.2091528 -0.28091502 0.031202186 -0.22340673 -0.1289631 0.1351525 -0.36779955 -0.11991244 -0.4778155 -0.030939825 0.09678825 -0.11676371 0.11429487 -0.21673 -0.27602747 -0.29351148 0.14630874 -0.2548519 -0.008767883 0.18544748 -0.045761738 0.047477677 0.08828251 -0.04640864 -0.21951744 0.013166589 0.28040823 0.053050797 -0.30305305 -0.33914298 0.16878882 -0.47104305 -0.049739815 -0.026095087 -0.14787014 -0.45209554 -0.24789181 -0.019259369 -0.38831624 -0.31339908 -0.157504 -0.124042265 0.2966266 0.19401832 -0.45481193 0.100015454 0.37127596 0.122921415 0.31008407 0.22968374 0.24504642 -0.34197325 0.028955897 0.10701984 0.23715915 -0.07152975 0.38667065 0.052889608 -0.40203118 0.4320416 -0.19572282 -0.31785604 0.0076637845 0.57847524 0.14472975 -0.21910407 0.2859651 -0.33793795 -0.25593328 0.2277936 -0.09341197 0.17719644 0.023799213 0.035762485 0.14637814 -0.2443667 -0.3774775 -0.6748224 0.3561819 -0.15644586 -0.4167668 -0.17942013 0.27179426 0.42554116 0.5020667 0.2730065 -0.3572108 -0.0843255 0.13771224 -0.12038998 -0.04608608 0.07749708 0.077848576 -0.40288296 0.20571218 0.19075894 0.0637649 0.33428553 0.21271402 -0.046798896 -0.09486134 -0.19551228 -0.14168935 0.05109319 0.07540403 0.16642995 -0.17962871 0.17777961 -0.065191194 0.34313908 0.06119243 0.082122184 -0.32575592 -0.6824751 0.1357953 -0.11143383 -0.025996242 -0.080165714 -0.08278815
279 0.5167765 0.14083591 -0.6694238 -0.08954018 0.004999424 0.34254956 0.18664299 0.04523815 -0.13271049 0.22820145 -0.2814941 0.026426258 -0.2989926 -0.22719216 0.09672317 -0.38603672 -0.11173797 -0.4700383 0.015394927 0.13819338 -0.11922845 0.109713465 -0.19573355 -0.27413997 -0.26259246 0.11458856 -0.18680835 0.041328892 0.17281535 -0.03806876 0.090435654 0.03178166 -0.07003392 -0.22716562 0.034909625 0.2829025 0.051848467 -0.31484553 -0.21336766 0.119369 -0.3920052 -0.053883627 -0.019735403 -0.1999916 -0.42932317 -0.34267825 -0.026833735 -0.38447428 -0.28359258 -0.12031738 -0.16420797 0.14195015 0.25755742 -0.5225528 0.10170568 0.35756308 0.20753358 0.39489254 0.052920327 0.17277314 -0.28996184 0.0103371395 0.09847063 0.25957635 -0.16193558 0.47420794 0.050845135 -0.30919266 0.3758667 -0.15074734 -0.34250125 -0.026740711 0.56672853 0.043463122 -0.16953559 0.25846958 -0.2906009 -0.2001914 0.23231407 -0.12200813 0.20819907 -0.062234364 0.0037509424 0.105304606 -0.2703603 -0.32355893 -0.6636153 0.3582297 -0.081896566 -0.38459766 -0.14709269 0.108225994 0.48037112 0.57061964 0.23134062 -0.3133699 -0.07336622 0.10270806 -0.08783563 0.029440582 0.056561217 0.14070499 -0.47458282 0.24534509 0.24882972 0.12254088 0.25089282 0.23661625 0.04146964 -0.11494748 -0.17997952 -0.15266035 0.09036285 0.22292203 0.1805926 -0.20780239 0.12364104 -0.08380701 0.38269076 -0.01926034 0.118597135 -0.32926026 -0.66085124 0.28732896 -0.08172419 -0.0476189 -0.024236737 -0.12133684
154 0.58039343 0.12992007 -0.74808466 -0.06937452 0.11157915 0.30651897 0.08964735 0.1337604 -0.15253347 0.09622024 -0.3013711 0.061362017 -0.24532564 -0.24331269 0.14064835 -0.4033697 -0.081208214 -0.43655896 -0.0042667096 0.116349645 -0.0851828 0.20347084 -0.24655683 -0.32959852 -0.18904027 0.22552948 -0.2768113 -0.063743845 0.1663755 -0.03896099 0.06949668 0.010359541 -0.05806778 -0.25373214 0.020190187 0.28898385 -0.0042802733 -0.2509824 -0.2784228 0.1980537 -0.37993902 -0.105451934 0.03316871 -0.11019704 -0.44761923 -0.28831872 0.028073769 -0.43506387 -0.26851654 -0.14972292 -0.16056642 0.12305013 0.22547868 -0.51879996 0.08740117 0.2813903 0.21805087 0.3716694 0.083049536 0.23533618 -0.30881822 -0.01752331 0.1355558 0.27278247 -0.2084248 0.4494593 0.05217396 -0.26942626 0.40719426 -0.1845668 -0.35917887 0.018454261 0.54128575 0.01857119 -0.08947171 0.2640498 -0.3712031 -0.1840832 0.26909578 -0.1545483 0.16169706 -0.020713255 0.03166087 0.07497064 -0.30276752 -0.35176376 -0.67850924 0.3192373 -0.1358648 -0.35363746 -0.1259432 0.2221435 0.48250172 0.49416158 0.22349961 -0.3660624 -0.101870514 0.10125305 -0.048137516 -0.039549813 0.037738066 0.16320413 -0.3554836 0.19302584 0.25225782 0.10461909 0.3485798 0.22970179 0.0918229 -0.08324999 -0.08243797 -0.1275323 0.15353438 0.1909222 0.09952111 -0.14825052 0.16544859 -0.06542942 0.3303107 0.05655216 0.018350065 -0.30799407 -0.69917125 0.19177093 -0.103515126 -0.034750056 -0.09438082 -0.10902036
192 0.53676283 0.1604167 -0.6585205 -0.08526047 0.010470578 0.29597265 0.1494436 0.11906614 -0.13246343 0.15054625 -0.18477026 0.043978207 -0.35956398 -0.17983283 0.07864749 -0.39642763 -0.05548133 -0.529244 -0.031963933 0.12410547 -0.13136238 0.19443035 -0.29157612 -0.3068215 -0.25985235 0.16818348 -0.27590322 -0.048559956 0.17816518 -0.030477392 -0.014112282 0.030730203 -0.02368885 -0.18357548 0.0332254 0.29264125 -0.059027415 -0.2818904 -0.28268927 0.22813356 -0.42782375 -0.1079498 -0.05552624 -0.10576073 -0.40739134 -0.23941211 0.0013389884 -0.33166412 -0.34186703 -0.12551123 -0.2300365 0.14248872 0.18957256 -0.47254235 0.11830494 0.28710964 0.2069284 0.30333087 0.13282123 0.25013447 -0.36783463 0.09871032 0.14294711 0.2291255 -0.16990362 0.40999633 0.08710272 -0.28316456 0.29898682 -0.20970058 -0.37763873 -0.048243187 0.5303919 0.030970132 -0.15271905 0.248879 -0.28610617 -0.13175525 0.23512901 -0.07507371 0.22197653 0.018142285 0.0017331697 0.16374303 -0.29128823 -0.41468844 -0.70197433 0.28897825 -0.109578155 -0.38698226 -0.15495904 0.108024254 0.40817615 0.58276826 0.23082618 -0.32477254 -0.08463076 0.15278724 -0.07199219 0.013550257 0.09759764 0.121250115 -0.4235676 0.20408055 0.23323028 0.11197743 0.32401693 0.2090123 -0.009965973 -0.1164111 -0.1493867 -0.12071773 0.10096101 0.12052377 0.10914334 -0.23115481 0.2693552 -0.06770784 0.29179797 0.08491363 0.057567153 -0.39442214 -0.63867086 0.22578444 -0.022171851 -0.07190356 -0.01683913 -0.15739204
193 0.46232 0.109321654 -0.6940675 -0.03770167 -0.0105179325 0.34126744 0.17020439 0.08189555 -0.19946311 0.1319083 -0.21539278 0.008364439 -0.247101 -0.26104772 0.10805718 -0.43141204 -0.06441972 -0.5181664 -0.008551268 0.15992522 -0.15280446 0.23507877 -0.25813293 -0.32507718 -0.14939661 0.15004735 -0.3694519 -0.065085374 0.16746882 0.024971502 0.078919716 -0.014887018 -0.07341719 -0.15953991 0.070307024 0.30564827 0.039977815 -0.25791013 -0.27907825 0.16527003 -0.40156513 -0.059431236 -0.057699606 -0.08155114 -0.39204016 -0.29866162 0.016900193 -0.3338688 -0.36457837 -0.03683715 -0.18279704 0.16639921 0.15896931 -0.46185908 0.118257105 0.23461448 0.23899044 0.37151107 0.16911708 0.25634107 -0.33048552 0.015898703 0.13848454 0.22857785 -0.12698317 0.5175291 0.035744257 -0.32861307 0.39147308 -0.16182385 -0.3190489 0.025366565 0.55098146 0.07371816 -0.13384868 0.24527466 -0.38762996 -0.15482712 0.28938985 -0.16029336 0.09537789 -0.070809714 -0.0056782584 0.17292383 -0.2859327 -0.34676322 -0.67379946 0.3272642 -0.049191486 -0.3685203 -0.17739305 0.21855687 0.45225728 0.5369656 0.22005175 -0.38585445 -0.018866343 0.13317718 -0.12595227 -0.012623873 0.064068876 0.10647396 -0.39887568 0.21353292 0.15261206 0.1214941 0.3693431 0.24027625 0.026230007 -0.111671016 -0.11623303 -0.05525746 0.12869915 0.22817305 0.037749518 -0.1940226 0.24551526 -0.015004093 0.33084482 0.04265517 0.0833618 -0.33051142 -0.62939084 0.29365543 -0.062396728 -0.10936905 0.025384236 -0.0693853
190 0.54472363 0.1259609 -0.65924114 0.029525118 0.03382891 0.34650442 0.1693479 0.104241066 -0.11625353 0.1462597 -0.2775854 0.013474364 -0.31232747 -0.1806041 0.106167115 -0.4203382 -0.053697996 -0.5036283 0.018704632 0.20238702 -0.13085325 0.14659852 -0.26858762 -0.3613594 -0.19736177 0.17226335 -0.19345216 0.012404695 0.16530588 -0.0065882374 0.089604646 0.10332635 -0.088230185 -0.16461815 0.062351 0.2877445 0.049936995 -0.26129198 -0.30799508 0.19374524 -0.35457987 -0.063489676 -0.06195972 -0.18399905 -0.4582518 -0.22593975 0.057679668 -0.41704953 -0.35325712 -0.06309012 -0.13542028 0.1268103 0.20838955 -0.45543775 0.045513812 0.29318896 0.13579667 0.38234293 0.096983515 0.2999247 -0.27912807 0.058255315 0.059471034 0.20686778 -0.106195986 0.489124 0.017008409 -0.3273405 0.3226889 -0.1998419 -0.30556136 0.011777752 0.5213164 0.063972875 -0.19867435 0.33039537 -0.3858919 -0.1670974 0.30287227 -0.15825792 0.22897083 -0.00844551 -0.015387143 0.17930275 -0.26573706 -0.38005733 -0.6229684 0.35094804 -0.13862053 -0.3912985 -0.17987874 0.17744808 0.44837043 0.5834369 0.28095275 -0.44362736 -0.0062754694 0.13349414 -0.10962111 0.023177149 0.033052962 0.059644252 -0.3770962 0.19886081 0.21417525 0.10173994 0.21578903 0.16826853 0.067551285 -0.11141975 -0.105840564 -0.08013693 0.1583227 0.122843705 0.13395277 -0.24225047 0.1758104 -0.06964969 0.38315257 0.10774024 0.09568513 -0.37914535 -0.6467053 0.16406156 -0.036575787 -0.032474346 -0.0649988 -0.04640582
179 0.52917236 0.14771955 -0.66814774 -0.014919104 0.052161593 0.28282732 0.14610435 0.09576387 -0.16463736 0.16684128 -0.27481362 0.05611928 -0.2993459 -0.27053913 0.15181181 -0.40633368 -0.07307533 -0.47277796 -0.024899514 0.16265003 -0.08690578 0.19140999 -0.2619894 -0.29212692 -0.20696527 0.119332954 -0.29236794 0.01083562 0.17283602 -0.051908046 0.03944944 -0.0012277268 -0.057510253 -0.24093512 0.0017036719 0.26177618 -0.03364943 -0.24501511 -0.2998284 0.20572591 -0.41104472 -0.095192954 -0.06962101 -0.12975931 -0.41261953 -0.28790855 0.118993096 -0.34208387 -0.3031775 -0.077138625 -0.1551362 0.14880407 0.26934138 -0.37245375 0.067895345 0.2881341 0.17816527 0.31239542 0.10523995 0.25448868 -0.3241716 0.0010906484 0.064795494 0.198249 -0.095503226 0.44398823 0.06570209 -0.3219048 0.4232814 -0.19605507 -0.32895643 -0.05151963 0.5789899 0.12372803 -0.08935799 0.24845868 -0.2853154 -0.22005062 0.27097765 -0.14740983 0.2127766 -0.06654722 -0.018617835 0.16296525 -0.3386599 -0.3372569 -0.6711608 0.336297 -0.108604036 -0.36578125 -0.08561008 0.2547356 0.4695568 0.5957056 0.21575041 -0.34573963 0.017677853 0.13679828 -0.11813187 -0.022723565 0.07813017 0.03173407 -0.38733816 0.12980708 0.15053838 0.15522385 0.33489364 0.20979033 0.038500413 -0.19293961 -0.099218115 -0.07535311 0.17944124 0.26548925 0.07519149 -0.11854775 0.23172347 -0.067742474 0.37598816 -0.009449213 0.021969289 -0.36739135 -0.744693 0.28553146 -0.13765422 -0.039897136 -0.028007204 -0.101563014
180 0.63686717 0.07868224 -0.6354031 -0.035991006 0.028804773 0.31065536 0.18455552 0.09675333 -0.25016755 0.13027184 -0.31552678 0.06556403 -0.27733275 -0.2325694 0.11438018 -0.41592613 -0.108320504 -0.48226523 0.030523693 0.11204062 -0.1349312 0.17895956 -0.2330486 -0.29142305 -0.25080797 0.1342814 -0.17984349 -0.08751461 0.14350595 -0.13248792 0.11463253 0.05268347 -0.06960802 -0.23944373 0.06945892 0.36188015 0.030755855 -0.281366 -0.25950775 0.13540176 -0.42837656 -0.042655792 -0.116532244 -0.092444696 -0.39911774 -0.2877064 -0.003974928 -0.40978032 -0.32040277 -0.08570688 -0.15302122 0.21497704 0.2175422 -0.50471926 0.13245024 0.2819609 0.088181354 0.41355297 0.08454639 0.2826537 -0.31729057 -0.062057152 0.06569233 0.25814474 -0.12033113 0.46103144 0.06574654 -0.28215045 0.4412171 -0.16409329 -0.2952806 -0.06515677 0.5211221 0.09342474 -0.21090177 0.22121634 -0.340567 -0.24779326 0.3274127 -0.14703424 0.16035676 -0.08729475 0.04633466 0.17506282 -0.23902507 -0.3628074 -0.61948335 0.34996524 -0.108744666 -0.45197508 -0.1132608 0.21916212 0.4010236 0.5783138 0.25016093 -0.36002266 -0.12550665 0.23503089 -0.079977006 -0.005702885 0.05083831 0.12694383 -0.41510874 0.20329894 0.16148865 0.10170867 0.28640682 0.19934341 0.06995946 -0.07991009 -0.120524764 -0.08002907 0.07463635 0.23051444 0.21851331 -0.20163341 0.13035893 -0.07505457 0.32657725 0.095923804 0.011280008 -0.37901163 -0.6281363 0.12730983 -0.055852007 -0.021635167 -0.060725782 -0.121973366
155 0.5405414 0.09397921 -0.6664083 -0.07212511 0.034706555 0.32707036 0.07110532 0.07060035 -0.19150971 0.10152871 -0.31500784 0.014262883 -0.2944399 -0.25613177 0.12284028 -0.39529014 -0.09131756 -0.50753754 0.010085771 0.14248514 -0.13276042 0.250227 -0.21673723 -0.36195838 -0.23482826 0.156454 -0.22543815 -0.06599666 0.07417982 -0.06461923 0.115266 0.088186264 0.01191935 -0.2462039 0.025237905 0.2801379 0.057864852 -0.20731425 -0.2759767 0.18413167 -0.43069014 -0.043799434 -0.059380587 -0.111875206 -0.42754027 -0.2897017 -0.008958392 -0.45317695 -0.24486895 -0.10366451 -0.082630605 0.21789813 0.18221998 -0.42288166 0.119752996 0.29187486 0.19544786 0.31600493 0.13825591 0.31027323 -0.33858526 -0.040993925 0.15018311 0.27828905 -0.14474039 0.41565683 0.08120833 -0.2379579 0.3675615 -0.17251396 -0.29520088 -0.0721119 0.54260945 0.080302946 -0.24042575 0.28425056 -0.39406696 -0.2524598 0.32072708 -0.15503025 0.13787277 0.0016600466 0.004113181 0.02207105 -0.29803944 -0.34205922 -0.67006004 0.37915933 -0.14198564 -0.32683158 -0.19490825 0.25841224 0.4446094 0.5382285 0.26536077 -0.4077243 -0.10640971 0.116383545 -0.16809814 -0.039636575 0.038340155 0.14119497 -0.43397677 0.23377424 0.16120526 0.065939024 0.32060638 0.2747002 0.006188666 -0.052527674 -0.030473795 -0.13984916 0.14166829 0.21313874 0.092472404 -0.17611192 0.08032524 -0.09607616 0.35634682 0.032253858 0.008234836 -0.35145098 -0.6450422 0.19520438 -0.12844816 -0.010888295 -0.096397825 -0.04989959
