1648 128
72 0.33551335 0.027534684 0.16094935 -0.38054615 -0.16470835 -0.16603379 0.06555646 0.12566602 -0.23739113 -0.15613972 0.525077 0.06663375 -0.33378872 0.11087933 0.1914005 -0.6490273 0.07460216 -0.08279296 -0.008432072 -0.1608682 -0.04038783 0.0029039243 0.48375562 0.45335418 -0.054515656 0.22600599 0.04266224 -0.23666051 0.31906444 -0.71893775 -0.43525466 -0.28593892 -0.35496482 -0.1411012 0.010220252 0.13847649 0.22500896 0.3225269 0.08881957 -0.48581213 0.43811688 0.03534909 0.21626641 0.110694245 0.09982675 0.4860745 0.06259846 0.22138901 -0.001629473 -0.11402546 0.106672555 -0.11387806 0.37988934 -0.09615038 0.066510215 0.6584286 -0.07901998 0.4682579 -0.20620655 -0.11389424 0.012772196 -0.34081635 -0.053344715 -0.13405327 0.15864177 0.26275924 0.12701988 0.0033377649 0.20031308 -0.10034605 0.18218593 0.18571723 0.2563628 0.18582894 -0.16459921 0.022437604 0.1062595 -0.06696329 -0.1793098 0.57296634 -0.017383156 0.20916164 -0.05176411 -0.15155599 -0.050950274 -0.2757713 0.46908897 -0.21748285 0.26078197 0.39519405 -0.015444277 0.029929925 0.30250347 0.26238197 -0.30333653 -0.1229177 -0.59319943 -0.046713814 0.031384606 0.33604348 -0.17362669 -0.16038793 0.22847274 0.04866242 -0.20263256 0.10552779 0.371237 -0.46976203 -0.08765951 -0.44505116 -0.006330291 -0.10127948 0.09967098 -0.06116446 -0.13728906 -0.062130842 -0.361655 0.18272783 0.13867089 -0.16736548 -0.11080771 -0.18422861 0.52406764 0.055480026 0.4078293 -0.22243652 -0.12740496 0.08291923
142 -0.23243509 -0.30972245 0.348601 0.033167284 0.14687996 0.23337717 0.14879256 0.024572484 0.2116136 -0.14334294 -0.23578951 -0.40993086 -0.22517139 0.19701034 0.32582483 0.027521417 0.32298157 0.24587522 0.54540116 -0.23145024 -0.43275577 0.7213413 -0.060035035 0.2683982 0.044389423 0.2544594 -0.3355045 0.1804598 -0.08458768 -0.029017359 0.453714 -0.18007453 -0.0677154 0.16854492 0.5053617 -0.1965724 -0.28796974 -0.027792955 0.23461288 0.29306608 0.31752735 -0.6650879 0.18661042 0.07884026 -0.05899675 0.11048177 -0.0894996 -0.18546252 0.08356085 0.25720626 0.0026027667 0.0014980346 -0.098386146 0.07873951 -0.63722956 0.7798885 0.115593545 0.39844605 -0.4228587 -0.04597035 -0.4937368 -0.21832871 0.084678814 -0.1663419 0.32400602 0.00286686 -0.08946757 -0.54682666 -0.016225623 -0.1471309 -0.07260075 -0.33160013 -0.3111603 0.29284096 -0.27101645 -0.1777168 -0.567665 0.14420216 -0.2537286 0.5358276 -0.14088929 0.25781697 0.37647367 0.2628565 0.18948129 0.18133731 0.4321567 -0.4791936 0.27761707 0.26257932 -0.22627321 -0.23270737 -0.20864871 -0.39782575 -0.042505212 0.348442 0.11129595 0.13055876 0.20338665 -0.064919904 0.004490119 -0.30629915 0.0827225 0.15538117 0.5375121 0.1197543 0.24100879 -0.3059965 0.006268556 -0.041728113 -0.1227399 -0.078915074 -0.45150918 -0.022050977 0.12554839 -0.20460814 -0.12905519 -0.13305649 0.26412094 -0.185507 -0.19292352 -0.19435225 -0.06849494 -0.052127954 0.16864856 0.10499792 0.009221649 0.09002995
1739 0.37319225 0.028229058 0.13374764 -0.5235974 -0.10392867 -0.09340492 0.1262534 0.15658908 -0.17629422 -0.082590975 0.5846083 -0.024318725 -0.32533804 0.017930355 0.1650574 -0.6042161 0.0060491166 -0.035572905 -0.065321736 -0.15649785 0.0065584797 -0.059128102 0.525731 0.49840394 0.0052434085 0.27344012 0.014452441 -0.21737936 0.3296805 -0.7447051 -0.43978912 -0.32602847 -0.42188808 -0.18289351 0.029534435 0.16047528 0.21129267 0.39031854 0.05459103 -0.39596856 0.43969384 0.067073986 0.22605199 0.028674183 0.13679564 0.5266011 0.025061736 0.083797194 0.03714314 -0.14081796 0.13429397 -0.091958396 0.37975162 -0.10827236 0.014339878 0.56540906 0.0033713933 0.54937345 -0.20799938 -0.12705098 0.057987098 -0.2675234 -0.107415944 -0.09920673 0.230914 0.32886848 0.18991494 -0.047023647 0.13282372 -0.10954872 0.18297514 0.19870202 0.13288043 0.19226494 -0.15506747 0.045451526 0.09997644 -0.11618963 -0.15319443 0.56819594 0.024841968 0.19946535 -0.06374123 -0.2557534 -0.07967326 -0.31675783 0.5222591 -0.21516976 0.20994636 0.47256207 -0.08525898 0.09204558 0.30712587 0.2451804 -0.23293532 -0.1779951 -0.5479776 -0.04994224 0.039598238 0.3920332 -0.16546454 -0.14170344 0.28863707 0.10231102 -0.20222749 0.03603203 0.40123442 -0.42210785 -0.13055792 -0.49491307 -0.0065320814 -0.0017968196 0.053238433 -0.08409366 -0.10588287 -0.16761678 -0.3614776 0.22698642 0.21021006 -0.19431396 -0.20737423 -0.15035324 0.57813567 0.06897594 0.42033374 -0.22317283 -0.19210199 0.06010722
247 0.38933775 0.033062473 0.16903418 -0.47584683 -0.110724896 -0.12571989 0.13023733 0.14378537 -0.12032601 -0.018962253 0.5686296 -0.0026582233 -0.37304553 0.068698905 0.20155804 -0.6431699 0.051402293 -0.057887055 -0.04810683 -0.151651 -0.04427817 -0.01900001 0.46817356 0.5257369 -0.024796905 0.2359474 0.054199312 -0.22539607 0.35626078 -0.81395984 -0.41865876 -0.28480944 -0.47268936 -0.19057184 0.117984354 0.18202262 0.22798528 0.30519408 0.02448709 -0.43701535 0.50516367 0.052801903 0.23625924 0.06773349 0.13031495 0.48412588 0.06610268 0.24358402 -0.061637092 -0.07897246 0.1287113 -0.1034012 0.31335738 -0.20478371 0.11090547 0.5754391 -0.112147845 0.5130709 -0.19034989 -0.15124066 -0.014994433 -0.28377888 -0.13408603 -0.09615982 0.22336799 0.25884485 0.23950882 -0.009100325 0.15322281 -0.12587395 0.18092833 0.17618507 0.18569215 0.17703854 -0.15695862 0.013728628 0.048604093 -0.12032404 -0.16984683 0.548089 -0.07508433 0.23515077 -0.08829553 -0.24890131 -0.088490255 -0.2507402 0.45396975 -0.15072078 0.20883013 0.40765145 0.0014276606 0.10612965 0.26911 0.15018821 -0.26448703 -0.19731832 -0.62838984 -0.039390575 0.016629705 0.41392553 -0.20455493 -0.1644509 0.28364602 0.05948191 -0.22299215 0.021627491 0.42597008 -0.398374 -0.1519678 -0.454796 -0.11806552 0.031630017 0.17704342 -0.031277094 -0.08990806 -0.14370495 -0.35336623 0.15646698 0.14910278 -0.25588417 -0.15342423 -0.17166254 0.53226924 0.1342435 0.48955256 -0.2352811 -0.14073761 0.0426084
2401 0.39281854 0.05810995 0.20077214 -0.34574807 -0.12380607 -0.14927623 0.07508217 0.11968454 -0.13085942 -0.0596364 0.60651505 0.030564783 -0.2724623 0.048427027 0.21081586 -0.6879716 0.011249083 -0.035338335 -0.03480827 -0.17227377 -0.019488629 0.04294927 0.54022026 0.5382285 -0.025728377 0.2128136 0.12293129 -0.28874946 0.30955896 -0.73627704 -0.44357973 -0.28051677 -0.4132317 -0.30772886 -0.028822884 0.13320436 0.2193851 0.31975982 0.09624433 -0.43810296 0.40411142 0.06318257 0.290729 0.16779585 0.10028312 0.47588655 0.08310727 0.19166432 0.01660987 -0.15308367 0.08743675 -0.115449235 0.38137898 -0.055625197 0.032822497 0.61620605 0.028198544 0.5078682 -0.18518677 -0.061271664 -0.077882566 -0.2966094 -0.058881424 -0.070970565 0.13472603 0.33785 0.17995481 -0.066720404 0.23170814 -0.046042208 0.20721696 0.2369318 0.23552918 0.17399812 -0.12124587 -0.019515317 0.16925995 -0.18755342 -0.118336156 0.5570905 -0.030275742 0.198781 -0.03019628 -0.17055772 -0.033462636 -0.27792278 0.5200663 -0.21936396 0.24599253 0.41875756 -0.07040173 0.025771346 0.278636 0.19605139 -0.29660615 -0.13351166 -0.5495159 0.016866205 -0.046193562 0.37268698 -0.13467951 -0.19383973 0.21779768 0.059581846 -0.19328706 0.1076165 0.35954443 -0.44046852 -0.15211786 -0.41206044 -0.05192916 2.7619371e-06 0.09860907 -0.09036052 -0.1036384 -0.108676665 -0.37342253 0.1971784 0.19801016 -0.22044793 -0.21440224 -0.1221404 0.50862 0.07040792 0.44861117 -0.24799864 -0.11414838 0.09389579
2815 0.31333375 -0.0035488158 0.1507897 -0.43293837 -0.12244248 -0.20288657 0.049839947 0.10467165 -0.15045714 -0.106614046 0.5738443 0.057623625 -0.3866469 0.069802105 0.22624835 -0.6984835 -0.025970219 -0.08886204 -0.10047044 -0.09793557 -0.0009882655 -0.07285651 0.47248632 0.47024226 -0.05115146 0.23674019 -0.041415267 -0.2539304 0.31578943 -0.7448207 -0.48004916 -0.2294261 -0.43694946 -0.2048579 0.023103742 0.19964983 0.24141248 0.33415172 0.12774825 -0.36977395 0.43758455 0.02637813 0.27608868 0.113623284 0.11080991 0.5523482 0.042614292 0.22903311 -0.011558979 -0.11656707 0.08342333 -0.08985493 0.318938 -0.08514039 0.020594854 0.61595005 -0.0035946982 0.5083984 -0.28843576 -0.08203614 0.012059156 -0.23588987 -0.115492076 -0.11308961 0.25968787 0.25283122 0.18329647 -0.032357022 0.24154195 -0.111673735 0.13609429 0.30352333 0.11538479 0.16250199 -0.1791001 -0.0017537697 0.1416956 -0.11103086 -0.17407404 0.58402836 -0.07024138 0.23770086 -0.06546225 -0.19874813 -0.10611076 -0.26442468 0.51105684 -0.24467835 0.2448521 0.42738104 -0.028224472 0.014069018 0.3182176 0.22881928 -0.29985216 -0.14059362 -0.62701255 -0.025107635 0.028795466 0.3931925 -0.16078694 -0.20683736 0.26857734 0.027418338 -0.22196661 0.07047071 0.39560065 -0.41688916 -0.16092284 -0.41784665 -0.09158034 0.034762044 0.10310446 -0.10746901 -0.129665 -0.13413861 -0.3193803 0.20684342 0.10726541 -0.20905864 -0.19276108 -0.13560183 0.5507106 0.15714037 0.46674293 -0.25220487 -0.1145488 0.005289922
336 0.4569904 0.4480277 0.4429458 -0.59384495 -0.30389518 0.11418222 -0.1369616 0.039224092 -0.47186482 0.03543531 -0.13849579 -0.1421806 -0.4597343 -0.058385756 -0.35681683 0.4453113 -0.11000181 0.1750413 0.26935437 0.23467445 -0.35596436 -0.096635014 -0.31969526 -0.13567877 -0.006150475 -0.24605231 0.44535494 -0.015111701 0.3061662 -0.31000802 0.046743665 0.29247528 0.29854953 -0.63784295 -0.24523248 -0.046612155 -0.47134557 0.38460976 -0.18175414 -0.5517704 -0.14460696 -0.18179768 1.0878154 -0.14113273 0.42202348 0.25967917 -0.6544162 0.48205602 0.30765858 0.24510692 -0.8124718 -0.17982827 0.42997292 -0.48157626 -0.39984247 0.7593258 0.19057381 0.80495495 -0.67823535 -0.6995911 0.44687712 -0.00830114 -0.026466561 0.11574862 0.3517119 0.21665898 0.0020606397 -0.50523573 0.14732169 -0.20743494 -0.014471618 -0.19241534 -0.35414115 -0.014351361 -0.42192864 0.22835721 -0.39113998 0.48653087 -0.16247515 0.926607 0.07436208 -0.2756669 0.097720236 -0.078303866 -0.41277006 -0.10882548 0.19563156 0.065604925 0.07641584 -0.23603116 -0.3812895 -0.061010573 0.41500723 0.60371387 0.2508887 0.14781451 0.32504 0.50420237 0.443188 -0.5421821 0.28781784 -0.1940056 -0.116187915 -0.0827741 -0.26773953 -0.105719365 0.3674314 0.18808447 -0.3509426 1.0619107 0.18303217 0.5636803 -0.09482258 -0.1484684 -0.09965933 -0.18645656 -0.06849409 -0.45546427 0.3390062 0.07603073 0.21546687 -0.9965335 -0.6307805 -0.83427113 0.52334553 -0.01699374 -0.17221773 -0.07925519
50 0.051104013 0.20604996 0.15963522 -0.12479159 0.114472054 -0.07705567 -0.24627131 0.2502174 -0.13973217 0.075182244 0.019889925 -0.07766276 -0.21717833 0.050029043 0.1504564 -0.44923812 0.122066 0.14255564 0.00603716 -0.1073058 0.33944213 0.071190886 0.25864083 0.24667177 -0.06739849 -0.008220684 0.08542998 -0.16015768 0.24724844 -0.26830256 -0.10469437 -0.117597304 -0.122633114 -0.12350894 -0.1312301 -0.017332166 0.2643352 0.21327981 0.014051087 -0.35145274 0.36227864 -0.009008111 0.40667227 0.22164245 -0.27217492 0.1974154 0.090788335 0.017805254 -0.09992874 -0.18162253 0.08378807 0.014875679 0.17735514 -0.023129018 0.062402986 0.19411309 0.06273324 0.3122782 0.08796857 0.13695334 0.13806757 0.023728415 0.07096662 -0.08775323 0.36133444 0.09171599 0.24323994 0.13000481 0.12612136 -0.16215062 0.103159614 0.083465785 -0.08497259 0.17709692 -0.1892998 0.17915851 -0.03385056 0.006946445 -0.18819387 0.26563883 -0.02931522 0.06662804 -0.13860145 -0.17787015 -0.054855745 -0.25348422 -0.01247864 -0.09844 -0.09087511 0.07679232 0.035041466 -0.02098735 -0.031352814 0.046302754 -0.078981124 -0.28355187 -0.25862378 -0.071488924 -0.040506292 0.074649654 0.15553808 0.1106858 0.18612327 0.020350814 -0.14166167 0.18122268 0.16398214 -0.048123747 -0.018006884 -0.09843708 -0.037866257 -0.06411177 -0.122646034 -0.07458809 -0.028588094 -0.24003777 -0.14137708 0.020790417 0.4891178 0.05914815 0.09696198 -0.23559117 0.022251634 0.1937741 0.26055455 0.015889015 -0.032066863 0.24149013
75 0.12515986 0.2743009 0.15051985 -0.14588538 0.117292754 -0.070905335 -0.21270692 0.23620126 -0.21436001 0.076835856 0.09075168 -0.04974825 -0.22708052 0.029056987 0.15342274 -0.41318804 0.14049116 0.11811862 0.05178485 -0.12408533 0.28139365 0.049525805 0.2959666 0.2756487 -0.078947395 0.013809275 0.13919204 -0.11021118 0.25271294 -0.26114532 -0.074110635 -0.100121096 -0.14149246 -0.15089685 -0.12743598 0.040813625 0.18864204 0.26883557 0.021659056 -0.35173413 0.39815515 -0.0019691626 0.28933743 0.24205957 -0.23671576 0.19026329 0.13369161 -0.013682395 -0.1716719 -0.16001281 0.118172176 0.0065937615 0.065024994 -0.10138442 0.09914212 0.23913142 0.056388997 0.3234716 0.04012068 0.08830425 0.11096795 -0.061166108 0.07531714 -0.12151159 0.28874657 0.12758823 0.22986948 0.10105615 -0.0192212 -0.16318619 0.05295617 0.08408233 -0.06539159 0.17395039 -0.17672734 0.16402245 0.04088663 0.06573011 -0.2774729 0.28773358 -0.0057981713 -0.036272127 -0.10244056 -0.16841123 -0.0509483 -0.28328526 -0.008717962 -0.035250235 -0.13538164 0.11696194 0.03081818 -0.025323655 -0.021529032 -0.015451094 -0.03220601 -0.3319662 -0.20065771 -0.08531817 -0.05443563 0.06514921 -0.0013955358 0.13639168 0.17062162 0.0059331553 -0.2001388 0.1925475 0.26976007 -0.03455113 0.0066617206 -0.041958407 -0.04943525 -0.090755 -0.14077462 -0.118831664 -0.02062465 -0.21222761 -0.13630006 -0.038605273 0.5313478 0.0374079 0.07329398 -0.28341475 0.10439027 0.18453202 0.25480282 0.029453289 -0.025188133 0.18715318
21 0.13216175 0.2084608 0.17498237 -0.10659248 0.17212442 0.013059176 -0.28069144 0.30922848 -0.15720993 0.123694114 0.05801432 -0.112371325 -0.24985784 0.015971985 0.12773682 -0.434268 0.08063803 0.05725169 0.072389945 -0.06909406 0.2950456 0.10446031 0.25216377 0.21765874 -0.111818925 -0.057849303 0.10113956 -0.093135975 0.23974152 -0.28706926 -0.10734481 -0.116919614 -0.13647877 -0.11665021 -0.121464424 0.054812398 0.24742012 0.20489554 0.005001743 -0.30276552 0.3832258 0.009548415 0.31304798 0.22125617 -0.1972451 0.23494942 0.14622058 0.0019815627 -0.15352815 -0.13334636 0.052610032 0.049405184 0.13011457 -0.11171179 0.15641786 0.20362829 0.050509814 0.25784132 0.038994085 0.067232236 0.11386864 -0.118646674 0.08254496 -0.11846895 0.31293964 0.033400904 0.22051422 0.06796822 0.10288914 -0.16520275 0.07017271 0.07478686 0.008699815 0.15554164 -0.15542166 0.18919185 0.052464444 0.070860855 -0.22111736 0.26074693 -0.047515217 0.026255295 -0.08018429 -0.14859332 -0.046574604 -0.29226163 0.004200488 -0.11452399 -0.07680177 0.13251756 0.022235716 0.039952554 -0.023311656 -0.020640887 -0.10850889 -0.3081051 -0.26617405 -0.0042890273 -0.03165838 0.023030633 0.029962216 0.124303065 0.17500393 0.035974935 -0.12607321 0.15573499 0.21154279 -0.035638735 -0.05126693 -0.0039816084 -0.00374945 -0.108257204 -0.06768288 -0.06802203 -0.11761839 -0.26201594 -0.1465156 -0.023677057 0.56602776 -0.030728668 0.11065258 -0.21929917 0.11654579 0.17491244 0.2620599 0.046559934 -0.03669987 0.2257408
1 0.07663686 0.24660645 0.20785613 -0.13446356 0.097954944 -0.01295429 -0.1908958 0.25448585 -0.123196 0.17091353 0.04984598 -0.074053474 -0.29746622 0.014660307 0.1416042 -0.42476186 0.09449231 0.14555459 0.06376851 -0.14292869 0.34899455 0.10309619 0.25213456 0.20106874 -0.08582237 -0.0074269306 0.052356474 -0.1831757 0.29591313 -0.29264566 -0.11014617 -0.12282364 -0.12893978 -0.20807612 -0.11640314 -0.0025249454 0.24666946 0.2500454 0.027743338 -0.33774197 0.4246825 -0.00035200448 0.3343032 0.18975182 -0.20026779 0.26148286 0.087105624 -0.051322255 -0.11342494 -0.13366061 0.06534662 0.07692309 0.104880035 -0.08195678 0.09690079 0.18026127 0.06550884 0.31104973 0.08051146 0.09584009 0.13040389 -0.031497717 0.04709544 -0.026911234 0.33817092 0.101419106 0.27590752 0.18744652 0.08220165 -0.11555755 0.043292105 0.12310754 -0.021273522 0.14442103 -0.19840167 0.22744264 0.05778614 0.067542486 -0.21509871 0.23737046 -0.039637133 0.01104884 -0.09496557 -0.0885522 -0.051123213 -0.27399433 0.047517877 -0.10964007 -0.1221044 0.039148353 0.002965447 0.01894243 -0.0027159117 0.02965765 -0.0454615 -0.28853023 -0.21995759 -0.07604717 -0.023362733 0.05289328 -0.02848339 0.08954153 0.19186553 0.014020998 -0.07407611 0.15593454 0.20371248 0.026519362 0.006882692 -0.081353135 -0.0018446604 -0.022371463 -0.1576167 -0.112870306 -0.11610357 -0.24882127 -0.10699309 -0.025401462 0.55957806 -0.017258717 0.035905585 -0.19725166 0.08710903 0.19739932 0.26763755 0.010224487 -0.021109287 0.21530706
44 0.09476821 0.27817774 0.16764383 -0.10878888 0.20990048 -0.064048335 -0.23741262 0.25869805 -0.21869725 0.10969282 0.041735224 -0.10074178 -0.26272005 0.043907676 0.18297113 -0.45351556 0.112718046 0.07361217 0.027474018 -0.05446321 0.22395816 0.08039087 0.2979151 0.25880763 -0.12177912 0.015683768 0.014531115 -0.09541684 0.3141863 -0.28071323 -0.088365346 -0.15622534 -0.14244999 -0.20992593 -0.08973886 0.042255882 0.24968523 0.23475468 0.033188533 -0.3818376 0.40637448 -0.004487223 0.26594868 0.20513621 -0.25011078 0.13316822 0.033846807 -0.0076119164 -0.18102123 -0.1274825 0.04573989 0.009261405 0.054286357 -0.06409598 0.1013788 0.22997397 0.10585384 0.22901091 0.011946409 0.096982926 0.12358026 -0.03080104 0.04649229 -0.063348 0.3478942 0.085273966 0.20774461 0.0826761 0.08596816 -0.18007326 0.07050334 0.07847241 -0.0039072772 0.10479071 -0.21872139 0.19158436 0.10315613 0.11093017 -0.24545069 0.2689262 -0.017667351 -0.002429165 -0.1693773 -0.18973637 -0.052940767 -0.31045735 -0.030527651 -0.15217529 -0.109688915 0.10344018 0.0012667027 0.008761547 0.02578049 0.020259976 -0.0610036 -0.3298002 -0.20457314 -0.07655984 -0.027658684 0.06866105 0.020476164 0.15507771 0.1969983 0.031942215 -0.20615238 0.18695462 0.2098816 0.0222478 -0.030785725 -0.052234728 -0.032981224 -0.060152955 -0.15460265 -0.03423947 -0.058251906 -0.28194293 -0.10876577 0.0027668986 0.52702713 0.006886232 0.10173612 -0.19918913 0.079269774 0.1794617 0.24429463 0.02313196 -0.021854276 0.17242935
28 0.06199326 0.22517574 0.16329414 -0.13298492 0.21272458 -0.05606059 -0.25485322 0.31536183 -0.18609637 0.10171842 0.053908743 -0.040426616 -0.23385084 0.06359961 0.14297478 -0.40144634 0.23750606 0.07141288 0.040851627 -0.16242689 0.28227934 0.07964034 0.24390654 0.19799773 -0.10596625 -0.020446897 0.0060125734 -0.14845186 0.2635312 -0.300646 -0.03189958 -0.08348788 -0.12302223 -0.07873855 -0.15468147 0.056054875 0.24419099 0.21407923 0.025511961 -0.38666373 0.39934826 0.027697993 0.35567456 0.21389158 -0.18840279 0.20772535 0.18825269 -0.031667843 -0.22337274 -0.13397369 0.098533794 0.046213236 0.1150043 -0.11882225 0.12215951 0.23644456 0.045945406 0.28343123 0.047627933 0.07026547 0.12968944 -0.09062226 0.10926736 -0.078184105 0.37212208 0.07625248 0.2197058 0.17796017 0.06717566 -0.102592744 0.052778278 0.15000702 0.0148791475 0.09779254 -0.21350498 0.19377281 0.06949656 0.06356571 -0.29944316 0.31420347 -0.056389533 0.048188917 -0.11141487 -0.11890194 -0.07733379 -0.19965917 -0.02459754 -0.059258536 -0.12981768 0.023629569 0.108422086 0.008995697 0.01484701 -0.002324662 -0.04655407 -0.28862023 -0.2546328 -0.06652898 -0.080130555 0.052063644 0.063505314 0.15770277 0.2609885 -0.027205862 -0.14819212 0.2341962 0.2186093 -0.030953284 0.011688025 -0.0518948 -0.026509935 -0.106754676 -0.09792633 -0.09171761 -0.053555384 -0.22260602 -0.093228795 0.020112215 0.49830654 0.022274489 0.14421521 -0.22609991 0.09058375 0.14209945 0.24627106 0.015460997 -0.05197123 0.28677952
9 0.091407 0.19090205 0.1768299 -0.14115177 0.14922036 -0.08692031 -0.2905408 0.321213 -0.14735562 0.06881238 0.10900851 -0.07719214 -0.26322645 0.059683457 0.12046852 -0.39583763 0.07098808 0.10128678 0.027420023 -0.12674142 0.32176864 0.068595625 0.30658185 0.26774585 -0.07495326 -0.017850867 0.07124568 -0.07916373 0.29868108 -0.23236103 -0.04518839 -0.08771285 -0.096759565 -0.1489685 -0.08447104 0.005061226 0.2893951 0.15579091 0.018122798 -0.3483526 0.3987884 0.023146193 0.2939293 0.22081211 -0.20967329 0.19619887 0.11251309 -0.013860677 -0.15598069 -0.12162623 0.09412968 0.051347166 0.06811134 -0.11981676 0.09704286 0.1575624 0.060068127 0.34240916 0.09701996 0.053150665 0.125892 0.042856373 0.1303376 -0.049638215 0.34882814 0.1402542 0.21355446 0.11998007 0.048901312 -0.16049866 0.028264975 0.06495211 -0.04893473 0.15160161 -0.20698065 0.233658 0.028139979 0.07150007 -0.20712867 0.2729394 -0.03817142 0.0647174 -0.102726385 -0.19870645 -0.06312214 -0.27466643 0.023976794 -0.023557695 -0.08628089 0.05595987 0.028499538 0.023259746 -0.041493326 0.0044974103 -0.04895353 -0.2690038 -0.2856624 -0.028926404 -0.016321745 0.0835714 0.026815474 0.098070264 0.19321498 0.07186356 -0.16174784 0.21734376 0.20031798 -0.032795664 -0.037602194 -0.049416967 -0.0007512529 -0.06837468 -0.100492 -0.064900145 -0.07102222 -0.31327155 -0.19824715 -0.025484066 0.48447818 0.08889796 0.052200697 -0.28860992 0.015977053 0.15837568 0.26615566 0.036928173 -0.027646933 0.2358264
30 0.03906745 0.27202928 0.12293589 -0.17451349 0.13415301 -0.026120784 -0.22160646 0.24358442 -0.15798098 0.15813303 0.054812104 -0.05294926 -0.3243113 0.092174955 0.15861861 -0.36831546 0.15865952 0.121012546 0.07174418 -0.07999904 0.31133223 0.10654358 0.2693255 0.23576635 -0.066828735 0.019483386 0.03553696 -0.10058484 0.3066371 -0.27773306 -0.11834958 -0.113829985 -0.1477055 -0.13206312 -0.10471748 0.012580036 0.27003312 0.2136899 -0.0008536887 -0.36324263 0.41196278 -0.006993363 0.345241 0.2630696 -0.15741931 0.18714052 0.103840336 -0.045411386 -0.13994937 -0.10637797 0.0722937 0.017612979 0.07088444 -0.06728362 0.09932319 0.18860699 0.037224337 0.21942878 0.059428953 0.14292884 0.073617555 -0.016871145 0.06136614 -0.061199468 0.33509928 0.056305997 0.2718693 0.13686463 0.0634586 -0.15638559 -0.0045468393 0.14474407 -0.06677865 0.1504749 -0.21320598 0.16790023 0.026058678 0.06303958 -0.22328837 0.29220903 -0.021419847 0.007916989 -0.16265717 -0.1713788 -0.05576993 -0.29850364 0.014113645 -0.10131915 -0.1074641 0.005054401 0.11424804 -0.005414176 0.022444956 0.07744507 -0.11531431 -0.31192398 -0.24083662 0.018980106 -0.019822007 0.009430821 0.046818413 0.101608075 0.16670944 0.021400286 -0.16669409 0.14358972 0.18833019 -0.03089249 -0.02426624 -0.13113049 0.019919142 -0.094544046 -0.09462749 -0.080379345 -0.040005874 -0.29545146 -0.19388731 -0.08197584 0.54046035 0.07508192 0.11851895 -0.25694013 0.079682596 0.1612726 0.22724395 0.022155125 -0.009111686 0.25691485
2 0.050542135 0.2413203 0.12334627 -0.1643967 0.1484483 -0.064354345 -0.21609503 0.21971506 -0.1382969 0.11479744 0.072021395 -0.070794486 -0.2750941 0.09360771 0.13969725 -0.4534586 0.10141426 0.10797597 0.041282263 -0.06428471 0.280988 0.09687682 0.19977973 0.27767467 -0.05901861 -0.029094946 -0.029620862 -0.14927499 0.2753551 -0.21814962 -0.1249975 -0.10752321 -0.08599473 -0.13102989 -0.1623927 0.008876958 0.21476105 0.2454455 0.04525816 -0.36332488 0.34539646 0.029578807 0.28935143 0.23473439 -0.20972846 0.25231963 0.1374875 -0.013191427 -0.19899757 -0.13446184 0.08165858 -0.008147852 0.18373707 -0.14638351 0.08342975 0.14515734 0.0617605 0.2902983 0.020519592 0.058312293 0.18451376 -0.027218157 0.1175514 -0.08034754 0.3486608 0.0981904 0.16219947 0.10374558 0.06632478 -0.09891756 0.09473518 0.14178364 -0.005318294 0.08022613 -0.19668142 0.15201977 0.05250541 0.09570912 -0.26629186 0.23939545 -0.008276179 -0.044361424 -0.17293881 -0.12596479 -0.09727694 -0.23188403 -0.012092766 -0.095071696 -0.0342735 0.056800824 -0.024889264 0.025303718 0.017295582 0.046148304 -0.047160015 -0.26558024 -0.2192561 -0.076567024 -0.04362454 0.08584151 -0.008771632 0.12344072 0.21369869 -0.007966431 -0.13255352 0.24078865 0.13748573 -0.04289314 -0.025859157 -0.085365295 -0.006230215 -0.085031286 -0.1811127 -0.07273166 -0.11256031 -0.27865443 -0.114270814 -0.026806394 0.5727942 0.07910748 0.061460614 -0.2200543 0.09322371 0.18171151 0.30682784 0.040562544 0.0013635327 0.26252916
31 0.068226196 0.20492832 0.16908175 -0.15164642 0.12841943 -0.045747794 -0.24360162 0.2601811 -0.14806415 0.11122352 0.064301424 -0.091906175 -0.24492185 -0.012695019 0.14910111 -0.4434356 0.0789629 0.057595797 -0.0049211676 -0.13445026 0.26952714 0.08905658 0.23536208 0.18134812 -0.10793597 -0.011469273 0.11292292 -0.13199466 0.21840243 -0.30286804 -0.064178824 -0.098195076 -0.15072557 -0.13924152 -0.12413406 -0.014616674 0.27749467 0.20800342 -0.05165275 -0.26744333 0.37434974 0.036295682 0.32559547 0.21464981 -0.26374418 0.18118441 0.087717086 0.0006271566 -0.1357399 -0.18655497 0.012355992 0.06572393 0.10686377 -0.11136425 0.117543794 0.17935665 0.038522076 0.30765548 0.045165256 0.07016072 0.1885813 -0.024346493 0.104662225 -0.13327657 0.3229342 0.059604865 0.33030987 0.15184554 0.059496783 -0.07917233 0.11459135 0.16676196 0.0092127975 0.13276951 -0.23061025 0.22621249 0.055370748 0.08567487 -0.20922697 0.30336 -0.09976112 0.023463994 -0.098038204 -0.16349928 -0.015617822 -0.21286851 0.0024711492 -0.09909456 -0.09848641 0.046915557 0.02319124 -0.026481632 -0.03899185 0.011843493 -0.061585393 -0.33238938 -0.22116369 -0.028728588 -0.06763341 0.03728486 -0.02591707 0.09912668 0.18465096 -0.0071194167 -0.12789465 0.1705153 0.2020157 -0.07393149 -0.013780583 0.012025404 0.015285471 -0.17438258 -0.22125994 -0.09720678 -0.074031934 -0.28999385 -0.19655593 -0.023769807 0.52326924 0.027256886 0.032431312 -0.20713484 0.08317976 0.20560156 0.30214813 -0.011638396 -0.034697987 0.22027929
56 0.08487166 0.26290435 0.1136446 -0.11077455 0.13353994 -0.014830042 -0.20138463 0.2963283 -0.1517605 0.08530543 0.07368475 -0.043226775 -0.20721321 0.049171854 0.12240335 -0.4017704 0.09302681 0.091548465 0.06173741 -0.09138835 0.36451313 0.08785835 0.25881562 0.23547715 -0.07953218 0.028206354 0.047131516 -0.097674884 0.3600397 -0.26162183 -0.07034932 -0.07773609 -0.077231035 -0.15351361 -0.08889526 0.03592493 0.23951969 0.20751503 0.040036596 -0.34419963 0.388417 0.04749621 0.2833055 0.27294123 -0.21217166 0.1766904 0.110410556 -0.04093684 -0.17208934 -0.16138858 0.110385515 -0.009104721 0.15005776 -0.07372757 0.06831812 0.20347522 0.07742609 0.3387525 0.104056604 0.07281329 0.12977795 0.036921903 0.11808717 -0.06841088 0.32170865 0.027949905 0.26922238 0.09789248 0.06574523 -0.15441893 0.107555 0.12224868 -0.006677937 0.17829745 -0.17093721 0.22774605 0.013384481 0.039840944 -0.25265312 0.25639772 -0.026462743 0.08441214 -0.077938706 -0.1490728 -0.08076645 -0.2329618 -0.032767076 -0.16408317 -0.107509434 0.034124628 0.053288177 0.0067888303 -0.030801648 0.07880794 0.0046825404 -0.2713377 -0.26053578 -0.021166576 -0.07976884 0.10255214 0.035654236 0.15833703 0.21160284 -0.0027239858 -0.112821944 0.13731161 0.1847146 -0.029750517 -0.0618459 -0.07459767 -0.069472104 -0.017196147 -0.16537878 -0.04633372 -0.10427227 -0.33563775 -0.1366432 0.020455176 0.5231274 0.057322156 0.12338774 -0.28977877 0.06426154 0.14700903 0.2731075 -0.00795564 -0.036274254 0.21205738
20 0.083651096 0.25855735 0.18521613 -0.11948509 0.16389668 -0.037480243 -0.28111678 0.25978887 -0.13551803 -0.0027257064 0.010345115 -0.08899565 -0.2310467 0.07927119 0.14827113 -0.40329748 0.11888885 0.09479525 0.0016276395 -0.108251855 0.31909677 0.049833175 0.27156308 0.26063573 -0.04140124 -0.058141153 0.027717687 -0.15910435 0.31455475 -0.25472277 -0.120996505 -0.14164634 -0.1447105 -0.14584017 -0.17136693 -0.036595676 0.2720377 0.19062582 -0.0805998 -0.34776655 0.36159706 -0.0048224716 0.32440394 0.25347883 -0.20502846 0.26214257 0.15506078 -0.008655474 -0.10925896 -0.16106014 0.061303914 -0.009367194 0.08760888 -0.07174784 0.13493986 0.23066969 0.0668166 0.26744908 0.052603003 0.08425737 0.1021389 -0.12238563 0.06276065 -0.06450219 0.309266 0.067280844 0.23942864 0.11836282 0.08995075 -0.17977975 0.097226 0.14452119 -0.018295037 0.15765575 -0.22318307 0.10109528 0.074801825 0.16882809 -0.22978304 0.2803266 -0.054439828 0.071399935 -0.11100233 -0.17290053 -0.021122959 -0.25149703 -0.017514676 -0.15378939 -0.07634531 0.06750797 0.048539974 0.0018819934 0.032282118 0.011610873 -0.045027446 -0.2562313 -0.17978328 -0.11748219 -0.010124653 0.0670099 0.031650197 0.116785735 0.15038879 -0.004315439 -0.17174353 0.1992279 0.15852723 0.004422074 -0.06100364 -0.057847977 0.0031171772 -0.028800944 -0.15657452 -0.08676178 -0.10986137 -0.27307174 -0.16011769 0.041968998 0.5320325 -0.031519935 0.13422877 -0.20355052 0.06994579 0.14692299 0.2548903 0.043894906 0.015125984 0.15876703
8 0.08477435 0.26787144 0.19317725 -0.14677906 0.101123795 -0.043055654 -0.27748132 0.254916 -0.18123825 0.14067331 0.07446976 -0.07420608 -0.2690872 0.016913196 0.14579809 -0.38398188 0.1540982 0.110030316 0.039379712 -0.0760004 0.34485838 0.051985383 0.21195385 0.30605182 -0.075623594 -0.019786032 0.048326068 -0.13409035 0.3323838 -0.27911773 -0.10867896 -0.10581743 -0.09545138 -0.09246833 -0.1302091 -0.012434348 0.25703818 0.17918809 -0.051813506 -0.3399181 0.3674323 0.01049688 0.355548 0.19437407 -0.23052531 0.19367252 0.10697235 -0.055077616 -0.12980828 -0.16298029 0.07197463 0.04956742 0.082113154 -0.084489875 0.09436275 0.22959943 0.06256735 0.31560403 0.04661305 0.1235659 0.116556264 0.035047647 0.09823013 -0.061696943 0.40156198 0.029739834 0.21840806 0.17351325 0.033961244 -0.15731633 0.10211734 0.14383145 0.033705477 0.0998962 -0.18079506 0.17099835 -0.007786656 0.061721988 -0.24757668 0.28924555 -0.09226069 -0.015137889 -0.104658894 -0.1882437 -0.059270103 -0.31738603 -0.0036127113 -0.061450914 -0.07767242 0.086727716 0.06584014 -0.0064337444 -0.024481926 0.024451543 -0.07313395 -0.27302018 -0.21760306 -0.010597883 -0.05307668 0.093871206 0.045650944 0.080657415 0.24302228 -0.038678836 -0.118105404 0.15174201 0.13937722 -0.061755743 0.009503185 -0.055483766 -0.046835423 -0.10319097 -0.15748167 -0.08917594 -0.07132248 -0.26824924 -0.16086225 0.04508242 0.49545673 -0.01225799 0.13315353 -0.24230452 0.045748483 0.14911614 0.30504522 0.030156357 0.020106504 0.18277581
27 0.11915173 0.28070024 0.14064272 -0.10346676 0.10440317 -0.040163223 -0.22730598 0.2732839 -0.24501115 0.13936275 0.05486325 -0.060819663 -0.31887206 0.02441403 0.09673754 -0.3927253 0.119596794 0.14722615 0.053664904 -0.1018266 0.31422466 0.07985069 0.27026242 0.2917881 -0.09063186 -0.014532505 0.054841466 -0.10928284 0.3051945 -0.28651074 -0.042290628 -0.08494309 -0.1263652 -0.14200427 -0.06121872 0.009115789 0.26345113 0.23179337 0.009149764 -0.3000862 0.34958315 -0.001767284 0.3414153 0.24177095 -0.2035028 0.22633111 0.1461051 -0.024994526 -0.14916876 -0.12723012 0.13558649 0.038859088 0.059067056 -0.10961138 0.07849998 0.16094075 0.06701366 0.28434137 0.04711794 0.12750837 0.18446095 -0.074070275 0.105201535 -0.103442654 0.32199347 0.08075084 0.26869884 0.12785868 0.08336812 -0.115029275 0.045057487 0.09566862 -0.02912533 0.14332552 -0.14943713 0.18727271 0.029199755 0.04369504 -0.24309695 0.32224527 -0.06602408 -0.042830583 -0.116446264 -0.21381739 -0.040382314 -0.26134154 -0.008786069 -0.13591668 -0.13415283 0.016488213 0.05121937 -0.0216926 -0.063687354 0.022876576 0.028738935 -0.31266564 -0.30928978 -0.054560013 0.019366883 0.105229475 0.090329595 0.091311194 0.19599101 -0.016179971 -0.14976197 0.22303995 0.1593173 -0.0999182 0.02349718 -0.015418592 -0.025623951 -0.08858172 -0.113305315 -0.110993996 -0.124934 -0.315025 -0.16262093 0.02750901 0.49544483 0.024315808 0.08975771 -0.23169374 0.061076336 0.1429885 0.28010774 0.0020982835 -0.030509964 0.23239426
45 0.10849336 0.20437463 0.15818122 -0.17132679 0.09577462 0.025895773 -0.27354878 0.26168168 -0.15050074 0.15781116 0.050311882 -0.11228453 -0.2673838 0.0067442413 0.16012765 -0.44903645 0.100242294 0.09600619 0.03471179 -0.097153 0.3246503 0.058735576 0.31146514 0.27284116 -0.10235737 -0.02175234 0.094137065 -0.14873792 0.2614837 -0.2172192 -0.07445079 -0.1380939 -0.105725564 -0.1547978 -0.051921375 0.018469865 0.23271146 0.19805387 0.038241964 -0.32877308 0.3201538 -0.038159464 0.30299082 0.17399523 -0.28171778 0.24453397 0.110020384 -0.05163459 -0.18268746 -0.12839559 0.10465028 0.021375196 0.087673314 -0.13071032 0.044168964 0.15520202 0.040116545 0.2769988 0.14475906 0.0499298 0.11011526 -0.06772397 0.08121938 -0.052935112 0.3867468 0.07218586 0.2866254 0.11660207 0.0375422 -0.11489486 0.11427606 0.05985052 -0.0063052713 0.18218623 -0.16836542 0.16754542 0.047522426 0.07985475 -0.20126414 0.30029264 -0.018801918 -0.026821295 -0.13185163 -0.15462108 -0.088265486 -0.22801603 -0.06682252 -0.15431713 -0.039149348 0.123385765 0.04147017 -0.038244404 -0.00865117 0.04853497 -0.047369998 -0.3378473 -0.268587 0.018168338 -0.07175649 0.06569254 0.02612026 0.14298318 0.17989448 0.032175522 -0.16471514 0.23070642 0.1923137 0.046023414 -0.054441288 -0.05879982 0.043822754 -0.07068043 -0.170615 -0.09389406 -0.062014878 -0.25430498 -0.08413702 -0.026220357 0.53553724 -0.0068797 0.10470149 -0.341677 0.08734951 0.18483007 0.2706492 -0.014908889 0.027407916 0.16772684
51 0.09619592 0.16880341 0.17619593 -0.13606949 0.1638669 -0.00076756947 -0.22441974 0.31766117 -0.12622812 0.07976695 0.08846761 -0.051730372 -0.21149394 0.084521696 0.18304357 -0.40649444 0.10363179 0.09368964 0.018968923 -0.0962113 0.26595715 0.035641853 0.27262205 0.24678248 -0.058598872 -0.006793704 0.08887408 -0.09606365 0.26290375 -0.21705559 -0.092844345 -0.11087586 -0.18101972 -0.19911161 -0.06932789 0.00062003045 0.23118983 0.22104026 0.039319836 -0.3416472 0.39203867 -0.018962858 0.36096478 0.22166908 -0.20536138 0.2270876 0.1548902 0.08239905 -0.20136683 -0.1303602 0.07369192 -0.027350686 0.08044457 -0.09262574 0.11337497 0.20742097 0.09809229 0.2513722 0.05994399 0.1363375 0.13494547 -0.01239681 0.12674792 -0.11568695 0.36339316 0.112254426 0.23419563 0.120718434 -0.018919181 -0.12189309 0.112405546 0.11813585 0.00047146104 0.10147178 -0.12184594 0.18842754 -0.0015671027 0.03310497 -0.2645409 0.31423473 -0.026010195 0.043594033 -0.13385461 -0.20914233 -0.04732153 -0.27503347 0.035015598 -0.12316138 -0.12959881 0.03993793 0.028394435 0.022634668 -0.032126456 0.061635602 -0.05219857 -0.2510859 -0.28471956 -0.09175476 -0.046402298 0.06322554 0.044197857 0.11359154 0.24222444 -0.017269652 -0.16167912 0.18138267 0.17376602 -0.03514688 -0.025263589 -0.006385943 0.030830735 -0.059067823 -0.16901794 -0.09656576 -0.10927525 -0.27304837 -0.12542902 -0.044438567 0.49362212 0.057472415 0.12799379 -0.2569848 0.076653376 0.16512497 0.31540632 0.07953273 0.054897618 0.23739246
61 0.110383414 0.21167894 0.23326 -0.09922673 0.17516352 -0.053157065 -0.26345554 0.25200677 -0.13999808 0.08320343 0.079198994 -0.0892528 -0.22062907 0.047157694 0.12710486 -0.40824518 0.08746329 0.12552217 -0.010980819 -0.10120635 0.31910583 0.10439409 0.23535857 0.26065448 -0.065295815 0.026040494 0.013958178 -0.17336875 0.30155268 -0.23391499 -0.06674774 -0.06729972 -0.15733044 -0.12525697 -0.114859074 0.01618935 0.2448558 0.20029107 -0.01889116 -0.33344746 0.3789252 -0.0053797998 0.33290893 0.20100412 -0.20174932 0.19879268 0.100993216 0.010059354 -0.1381699 -0.17942695 0.028922332 0.050557453 0.09136706 -0.050392963 0.11561545 0.15518482 0.073891014 0.28275412 0.09648225 0.14101918 0.117087126 -0.022253564 0.05973616 -0.070512936 0.32535812 0.056719482 0.23214266 0.116842516 0.070064954 -0.1430127 0.11324112 0.0945537 -0.03663341 0.122021474 -0.17120709 0.19454058 -0.0038153667 0.031200493 -0.24237415 0.30831766 -0.01955959 0.042840928 -0.119048305 -0.20971371 -0.044952713 -0.28497568 0.025605887 -0.10636352 -0.15385818 0.071033515 -0.039645575 0.00876011 -0.051181577 0.08645906 -0.06264004 -0.2805425 -0.2872225 -0.022347223 -0.06606229 0.048444 0.05963476 0.09923171 0.17742823 -0.003356304 -0.16882494 0.14778164 0.20329234 -0.078137115 -0.041977234 -0.030949054 0.008391836 -0.10356951 -0.14969203 -0.05294736 -0.07179912 -0.28976947 -0.18333347 -0.048142705 0.5251898 0.03140305 0.07602966 -0.24148849 0.13875645 0.19993754 0.2711559 -0.026734076 -0.001544554 0.2527063
57 0.113176815 0.24885632 0.2219319 -0.14242937 0.12480508 -0.00030893978 -0.24798688 0.28706956 -0.1877286 0.07002189 0.01660466 -0.102346346 -0.23664491 0.05126028 0.110946186 -0.42008322 0.09571492 0.12506658 0.034686483 -0.1691857 0.3125882 0.08574192 0.21960478 0.19289689 -0.044974573 -0.012069317 0.06749339 -0.029871166 0.32282448 -0.24990423 -0.1584041 -0.082779676 -0.09687712 -0.14218386 -0.13793698 0.010797542 0.21503225 0.24836776 -0.039975103 -0.37334296 0.34221986 -0.02905573 0.303602 0.2445682 -0.18328424 0.16933924 0.10424574 -0.028160995 -0.09774984 -0.18677998 0.022526745 0.021890288 0.08664463 -0.082331255 0.14913443 0.2213779 0.021005185 0.30048215 0.075397305 0.09090739 0.07387501 -0.0041187573 0.12455434 -0.074868396 0.33074552 0.030522121 0.19976784 0.10562147 0.037212804 -0.19687895 0.08898491 0.17345841 -0.029183265 0.16557024 -0.18627933 0.21400079 0.036131788 0.0947932 -0.21311173 0.23945989 -0.044199165 -0.06688087 -0.13145036 -0.16028641 -0.06683557 -0.24383493 0.03261454 -0.0768332 -0.081382714 0.029536279 0.039872035 0.011057519 -0.023125935 0.04992122 -0.024910303 -0.27538198 -0.27858418 -0.03343952 -0.031392913 0.17012678 0.019082054 0.12205801 0.18722445 0.033702463 -0.11700139 0.20717914 0.21445245 -0.081585504 -0.08977892 -0.09993067 0.0054683965 -0.015131971 -0.14744726 -0.090466306 -0.10065474 -0.3194003 -0.23138644 0.053817943 0.55433375 0.02741045 0.0998778 -0.23480876 0.048101883 0.20098047 0.28747612 0.029747523 -0.060196422 0.25251094
74 0.013380884 0.17280252 0.14294912 -0.1130297 0.07697657 -0.0024067604 -0.21924561 0.23204316 -0.16677974 0.17145462 0.08857902 -0.08129785 -0.34175193 0.021390984 0.11371153 -0.42139232 0.20176768 0.12441684 -0.013153518 -0.118089385 0.29349062 0.039261404 0.2791886 0.25017524 -0.046458717 -0.051438775 0.08532084 -0.09742824 0.306808 -0.2555928 0.0030587642 -0.091620736 -0.09600317 -0.16472177 -0.054630484 0.036608335 0.23416084 0.2613167 -0.017404972 -0.30436942 0.40221262 0.05748309 0.32441068 0.15638785 -0.20789844 0.25534374 0.19327247 0.02156107 -0.17381491 -0.14531784 0.034474336 -0.05167117 0.08835067 -0.12533334 0.11763123 0.19531329 0.039273992 0.31124002 0.07224363 0.10347178 0.14594793 -0.08452149 0.08417253 -0.041985486 0.33346725 0.11437112 0.26575732 0.12691317 0.010935081 -0.120514944 0.10114698 0.16277653 0.019989243 0.15774749 -0.17547224 0.16667753 0.024935195 0.06603066 -0.23158905 0.26393092 -0.036988895 0.023464354 -0.1113737 -0.18331788 -0.07459759 -0.2533681 -0.031235047 -0.10119216 -0.122682564 0.06430889 0.09210128 -0.023049045 -0.05016674 -0.0031067596 -0.02538148 -0.2530505 -0.17538868 -0.07008114 -0.056153122 0.02031407 0.045981072 0.10751049 0.16352049 0.048823696 -0.115398556 0.20337437 0.2526177 -0.014339523 -0.0729484 -0.020585475 -0.061117798 -0.10426562 -0.09672065 -0.07178606 -0.08216937 -0.28579032 -0.17880166 0.028754888 0.56112343 -0.006127028 0.1675977 -0.22169279 0.15508103 0.16571814 0.27558008 0.038000558 0.002971798 0.22043775
77 0.07314264 0.251011 0.24686623 -0.09562527 0.11003912 -0.07512378 -0.281386 0.21941173 -0.17227866 0.053909756 0.026661994 -0.037330866 -0.24628854 0.014996521 0.13789025 -0.35988897 0.13663192 0.07672501 0.05181678 -0.09884915 0.3047285 0.07245459 0.30344453 0.30146065 -0.013460239 0.06690453 0.06927736 -0.14324236 0.28936037 -0.32990515 -0.12683024 -0.1507489 -0.10814424 -0.14499815 -0.08855592 0.0048723775 0.2877781 0.24697034 -0.043135665 -0.30355197 0.3674645 0.027376961 0.34858525 0.24820924 -0.24685168 0.23793204 0.17689098 -0.039655697 -0.17362718 -0.1689313 0.046668988 0.012952368 0.07468267 -0.12704006 0.11087298 0.12819509 0.041844763 0.25455868 0.10560562 0.09102669 0.11906567 -0.025231278 0.1740101 -0.15503018 0.3340234 0.12443283 0.21699768 0.12726694 0.01748388 -0.12245877 -0.0071290843 0.07193268 -0.004938377 0.16561049 -0.123005174 0.24123372 0.009226349 0.10134567 -0.2727177 0.24702765 -0.056006152 -0.011023293 -0.077157915 -0.13057423 -0.032616924 -0.26718006 0.029186133 -0.07057005 -0.041734554 0.029895635 -0.010896376 -0.014326495 -0.033261143 0.061352734 -0.056684423 -0.28303015 -0.23924617 0.030062733 -0.028527915 0.08813602 0.04501897 0.098151736 0.13350984 0.046783853 -0.1219964 0.13651748 0.17968668 0.0057355063 -0.04036474 -0.041454416 0.012463032 -0.07842614 -0.15451555 -0.10884872 -0.04897881 -0.265648 -0.16860321 -0.010453558 0.46711075 0.012068497 0.08614438 -0.23431338 0.14948465 0.16730715 0.3150019 0.011873063 0.0048420564 0.21720175
62 0.07303049 0.24224079 0.12688255 -0.11514203 0.097753495 -0.018888384 -0.2257375 0.26993546 -0.21737403 0.14192748 0.008926055 -0.09987476 -0.2958252 0.010582217 0.11101943 -0.38143647 0.17033647 0.06888558 0.036977656 -0.15174411 0.28942055 0.08449116 0.25225344 0.2916535 -0.14805375 0.042492315 0.081170134 -0.10937318 0.30290115 -0.24787581 -0.09182214 -0.15535861 -0.12527072 -0.13788687 -0.101401314 0.016537603 0.23773205 0.2145619 -0.0055934265 -0.32791942 0.3969332 0.04534011 0.34859815 0.2731623 -0.13418853 0.2320328 0.13210528 -0.009087105 -0.1521735 -0.17227417 0.034524735 0.033651132 0.12569238 -0.056932893 0.11455732 0.1994722 0.08434723 0.26966757 0.02887118 0.09050287 0.19004641 -0.04219845 0.056726296 -0.08521857 0.30880404 0.097267084 0.2248581 0.113157384 0.036122665 -0.14545771 0.110696875 0.15805948 -0.061756574 0.20712642 -0.19616935 0.14656697 0.00041570293 0.005778028 -0.23226692 0.25654745 -0.008966277 0.00097035215 -0.13494323 -0.073211014 -0.014054023 -0.26396513 0.015938094 -0.055843636 -0.1049708 0.0071784663 0.040855195 -0.02757016 -0.031674836 0.061281282 -0.010773589 -0.27959505 -0.27740678 -0.06765904 -0.061569586 0.023850527 0.050381456 0.11660141 0.20147203 0.039374854 -0.13123918 0.1873686 0.24137957 -0.06805496 -0.038802538 -0.019688696 0.057806704 -0.029766532 -0.11925674 -0.083349966 -0.063883275 -0.34883782 -0.14531532 0.022750678 0.5067825 0.07349566 0.1228435 -0.17403793 0.14679296 0.17908175 0.29983643 0.02622433 -0.03357877 0.17060982
338 0.52975005 0.45007527 0.40690893 -0.5628316 -0.270079 0.0393198 -0.25352013 0.0014649848 -0.395422 0.11634572 -0.054572687 -0.1685941 -0.49131235 -0.07408272 -0.31288454 0.5028586 -0.1180531 0.16841358 0.32986683 0.22071485 -0.3575751 -0.08732852 -0.2744325 -0.11571062 -0.064366765 -0.19929762 0.43025842 0.07304279 0.36927167 -0.33010355 0.065723546 0.3211178 0.2699618 -0.6481821 -0.1788414 -0.13329203 -0.45638046 0.36928222 -0.08472229 -0.60021526 -0.09659683 -0.13608237 1.1752052 -0.18025218 0.4798993 0.23875916 -0.6648936 0.49740738 0.25067836 0.17059791 -0.9479728 -0.19218944 0.51250666 -0.4131452 -0.41956568 0.83014023 0.27466053 0.7873134 -0.7325531 -0.69424826 0.560176 -0.08911596 -0.047277585 0.14131409 0.19953479 0.16602865 -0.009111022 -0.53498745 0.21111305 -0.1566597 -0.046823286 -0.17078276 -0.39326593 0.10542729 -0.42368457 0.18215117 -0.40087587 0.57893467 -0.102715276 0.8075382 0.08329975 -0.3196392 0.19213095 -0.058085486 -0.4312146 -0.057063844 0.23025876 0.13452551 0.20026731 -0.2096411 -0.364373 -0.15785642 0.35569754 0.5409461 0.27899808 0.14134668 0.33621028 0.5894537 0.4211582 -0.5389037 0.31809613 -0.29462534 -0.13617228 -0.06458981 -0.3103114 -0.08723704 0.4300586 0.19046576 -0.33372527 1.04547 0.1195153 0.5452092 -0.12194359 -0.21504147 -0.10763115 -0.15912974 -0.15364316 -0.43657768 0.30018422 0.16030353 0.21451534 -0.96608895 -0.6268935 -0.74809974 0.51111954 -0.10264818 -0.15033746 -0.16017416
171 -0.095345624 -0.11211245 0.31684062 -0.12233857 -0.05509484 0.023985194 0.47578093 0.0039921445 0.41098788 -0.035666104 0.09547524 -0.25376287 0.052514527 0.34634256 0.047579966 0.041423157 0.42557383 0.31902233 0.2571308 0.084796496 -0.15070295 0.21755275 0.113231234 -0.13141239 -0.16503252 -0.318042 -0.34902775 0.14393422 -0.24226135 -0.052899282 0.28889334 -0.33186346 -0.057082556 0.044337664 0.06848202 -0.11099352 0.3439487 0.28625128 0.2689195 0.22029631 0.35158896 -0.08582784 0.2633421 0.024096718 -0.008696768 -0.10687593 0.0012663708 -0.14003083 -0.023544146 0.09253413 0.043713022 0.43706858 0.13326831 0.36462244 -0.50663227 0.36266157 0.042290878 0.11412078 -0.23166311 0.09289046 -0.03560912 -0.041207075 0.016427813 -0.0919 0.13221006 -0.19142236 -0.21797408 -0.091731265 0.06869204 0.045338605 -0.065604 -0.43191442 -0.11176015 0.42036185 -0.37069905 -0.21122828 -0.16068493 -0.03276982 -0.76784414 0.15865305 -0.0923783 -0.003617191 0.2100297 -0.16260143 0.29865053 0.34635848 -0.080141075 0.045577656 -0.067945935 0.122712165 -0.19044164 -0.3235551 -0.063689575 0.08845106 -0.32853928 -0.11309569 0.23447196 -0.12857613 0.107939236 -0.07160465 0.0045498996 -0.061641876 -0.43395025 0.077732734 0.21468282 -0.37230557 0.06790495 -0.24790128 -0.08251561 0.1935338 0.07993159 0.239416 -0.14968777 -0.025458343 0.23852885 -0.38396212 -0.31241864 0.0080670705 0.25966695 -0.21591787 0.35266846 -0.3084587 -0.07144191 0.03523882 0.25641316 -0.18425286 0.1941937 -0.034329023
172 -0.17720065 -0.039301418 0.33266398 -0.16684967 -0.14119312 0.094650105 0.47062665 -0.0088540055 0.36501366 -0.14898218 0.017899944 -0.25995538 -0.0072462875 0.46886477 0.087495424 -0.065445036 0.4325273 0.39207712 0.1603722 0.036818374 -0.041977745 0.28294373 0.15420347 -0.11304884 0.0054787747 -0.17993481 -0.31208456 0.19593498 -0.24774155 -0.031554926 0.27854082 -0.34466064 -0.07316497 0.033753674 0.09531355 -0.16036911 0.2647016 0.2902358 0.20392485 0.230144 0.3626451 -0.06416226 0.22927359 -0.08275683 0.012692929 -0.13608156 -0.0019126134 -0.0684 -0.08459674 0.10856636 0.009231791 0.4009859 0.22390012 0.38952908 -0.4382171 0.40902007 -0.04144822 0.20716132 -0.35934663 0.14159049 -0.13994259 0.010538746 0.08849022 0.026347447 0.07694003 -0.23277895 -0.19416755 -0.0671117 0.07763788 0.12192117 -0.13107641 -0.4127479 -0.12932988 0.3540041 -0.3693731 -0.24785058 -0.18272406 -0.102092035 -0.73969144 0.13247852 -0.10279502 0.02391363 0.18306027 -0.13555993 0.4309283 0.382882 -0.10280499 0.07647059 -0.08451601 0.13782504 -0.21854934 -0.24855125 -0.030730313 -0.0020030737 -0.2167393 -0.1045512 0.21005635 -0.14148155 -0.018411769 -0.17900515 0.051549338 -0.0002488764 -0.3289237 0.08496039 0.25476116 -0.33343235 0.09825752 -0.18289138 -0.088370666 0.24475585 0.065594025 0.22407146 -0.08309594 -0.021982372 0.18360794 -0.40884706 -0.28088945 -0.07863955 0.29308254 -0.15243052 0.30743402 -0.35338777 -0.14493345 0.08667563 0.2829285 -0.18832944 0.24740064 -0.07918023
217 -0.112097375 -0.019139208 0.34764683 -0.13619696 -0.04353102 -0.08847674 0.37571874 -0.031734094 0.4237063 -0.11335912 0.056450263 -0.28159025 -0.16320415 0.16540466 0.113718726 -0.20123458 0.42177117 0.32850698 0.18272871 -0.0010449463 -0.2732681 0.332135 0.0144441165 -0.008458378 -0.0018956955 -0.2956161 -0.26427835 0.37570137 -0.026271101 0.12079651 0.33655396 -0.2585612 -0.15608697 0.05206484 0.25146374 -0.16005309 0.14450951 0.19799012 0.33194908 0.26731455 0.2353893 0.05527369 0.23874211 0.0408649 -0.060945008 -0.08602636 -0.15486352 -0.009862537 0.03462448 0.123192646 0.0913372 0.0588361 0.21206169 0.07327815 -0.37143895 0.23511873 -0.002922292 0.21696508 -0.12731872 -0.20913567 -0.31110597 -0.03996261 -0.0065714 -0.1376882 0.19358525 -0.21009754 -0.39305618 0.016974285 -0.0985775 -0.009299417 -0.26341087 -0.3272841 -0.105533086 0.26344565 -0.40945432 -0.17246377 0.01685155 -0.055512685 -0.60501546 0.17228284 -0.26228076 -0.13371769 0.27032617 -0.089628346 0.28957948 0.348998 0.023665413 -0.061636794 -0.1309449 0.19845885 -0.05285529 -0.16623542 -0.25356472 0.16188177 -0.2044499 -0.062150475 0.15393093 -0.1112097 -0.0062864036 0.06841206 0.17161407 -0.17888257 -0.2640607 0.10363565 0.30000588 -0.22955057 0.086265944 -0.09383766 -0.05365695 0.061314072 0.04877456 0.12891743 -0.18774398 0.008206722 0.096293904 -0.19360733 -0.21518095 -0.09787941 0.23033921 0.0066645327 0.19578235 -0.16220658 -0.12838864 0.009494964 0.25819162 -0.024059353 0.15202545 -0.054291695
81 -0.115064465 0.017865526 0.45516875 -0.12682666 0.037908528 -0.08660319 0.41269466 -0.03883334 0.43105453 -0.08230011 0.02257934 -0.25274253 -0.18895511 0.09372854 0.17615314 -0.15468739 0.41348773 0.2892241 0.24897934 -0.044989623 -0.2211304 0.32171583 0.03168324 -0.06573295 -0.0716859 -0.30913347 -0.2931913 0.40276274 0.011013312 0.09289072 0.3399826 -0.1836992 -0.15308535 0.11587957 0.2879141 -0.29147932 0.20517468 0.20993283 0.34458226 0.19662787 0.1814833 0.012553917 0.10405389 0.034048095 -0.012204087 -0.05882458 -0.16086206 0.025185442 0.06661932 0.08080305 0.1004714 0.10532239 0.22534133 0.06367821 -0.38835195 0.2099126 0.059800867 0.20179732 -0.22234543 -0.12635297 -0.22207014 -0.08996455 0.02280475 -0.10823261 0.17889251 -0.22296992 -0.32527488 -0.025068011 -0.109575875 -0.015669685 -0.24298519 -0.3604367 -0.103819676 0.15740919 -0.39112955 -0.15251279 -0.095025875 -0.045878183 -0.63808733 0.13817039 -0.24841473 -0.116388954 0.23321132 -0.08326024 0.2837868 0.29557812 0.043361407 -0.09442414 -0.12787709 0.19060299 -0.10866474 -0.19915351 -0.2537029 0.12534693 -0.28556174 -0.10125098 0.15327235 -0.19391404 -0.067419 0.08719173 0.18147506 -0.18210189 -0.22623664 0.12645496 0.39214462 -0.16145554 0.12351339 -0.028908541 -0.031606495 0.15746547 0.20995234 0.11253254 -0.07126964 -0.0021186094 0.08401146 -0.20649599 -0.19009265 -0.063145414 0.2073952 -0.07101203 0.14956331 -0.21273442 -0.081277125 -0.10932451 0.25629035 0.0022681057 0.12869373 -0.113925606
93 -0.074133925 0.025073178 0.37864393 -0.18184079 -0.07232566 -0.13460097 0.3699093 0.020025242 0.41250807 -0.12498168 0.041372344 -0.27335298 -0.12762786 0.07660724 0.26196948 -0.14832246 0.43734106 0.28815356 0.23057076 -0.08255839 -0.20161584 0.37844977 0.050478015 -0.026953857 0.0021760624 -0.35181236 -0.29237318 0.36368987 0.016076937 0.079307154 0.27237225 -0.28431162 -0.13483559 0.121229626 0.27570903 -0.24297582 0.106767036 0.2577809 0.3947413 0.2736259 0.16260162 0.037627034 0.09569424 0.08610444 0.018156197 -0.12782213 -0.106364205 -0.05056449 0.028212475 0.14554648 0.11620909 0.08797728 0.21123631 0.17017968 -0.45128307 0.22367162 0.008409065 0.25497139 -0.17395115 -0.15882936 -0.3064131 -0.09691326 0.09877957 -0.108640544 0.19748716 -0.22325781 -0.26265717 -0.12308298 -0.13778464 0.027720742 -0.27058393 -0.35795268 -0.1350149 0.21084502 -0.37597385 -0.13527901 0.050867304 -0.030897768 -0.64257514 0.1890137 -0.2392678 -0.1325884 0.2393041 -0.11375179 0.3203651 0.22808291 0.026137829 -0.023684746 -0.13614452 0.12015548 -0.12665404 -0.17332137 -0.18961039 0.07614562 -0.22275734 -0.13173635 0.13137463 -0.11139214 0.04953483 0.0392798 0.19380315 -0.19439629 -0.25204092 0.07206378 0.28630176 -0.14411521 0.044367712 -0.036504634 -0.027544016 0.13149616 0.17804533 0.1131449 -0.16534372 0.018081263 0.03704593 -0.18117377 -0.1635773 -0.029739834 0.23778106 -0.058221117 0.08426849 -0.18233083 -0.05875479 -0.13401586 0.17418419 -0.043682657 0.14699417 -0.059100043
47 -0.116973005 -0.021593075 0.37172502 -0.23945878 0.046506405 -0.00035308508 0.3920907 -0.018159196 0.3846515 -0.07561951 -0.032445166 -0.25302812 -0.12906624 0.098224424 0.111432254 -0.11832595 0.38123867 0.32858533 0.21535411 -0.11663148 -0.19397639 0.34890988 0.065092295 0.0016963137 0.035698406 -0.32442522 -0.27857268 0.3589381 0.05857746 0.10752179 0.38476664 -0.19659711 -0.21008976 0.0709677 0.17955777 -0.1433364 0.12316928 0.30632538 0.39252296 0.29900476 0.2154277 0.033242047 0.12550826 0.08135102 0.009004897 -0.14006317 -0.13285711 -0.009199305 0.047989033 0.11128308 0.17168376 0.09952259 0.22189116 0.12355448 -0.4318933 0.3058272 0.020351425 0.17515232 -0.121779405 -0.08643943 -0.339762 -0.108452246 0.12628682 -0.09338139 0.1153527 -0.23000434 -0.4129352 -0.04838893 -0.104815125 0.051822208 -0.19117114 -0.37931097 -0.10028624 0.28730363 -0.31539083 -0.048633102 -0.07729242 -0.0637333 -0.65825826 0.14635359 -0.29689834 -0.12763545 0.20195802 -0.09255905 0.26694182 0.2573861 0.08721142 -0.10126644 -0.045693953 0.1820731 -0.14971845 -0.13325508 -0.199084 0.10381641 -0.18664476 -0.08076225 0.10133449 -0.13145974 0.0028415543 0.124052994 0.18715997 -0.15074714 -0.23108424 0.1414806 0.2828631 -0.2168993 0.1399091 -0.043299686 -0.02990696 0.12687227 0.083954096 0.1112318 -0.12475235 0.047204476 0.09848164 -0.19022588 -0.20248786 -0.034894466 0.2269796 0.0054400694 0.2521754 -0.1936815 -0.14735179 -0.051427376 0.23556323 -0.076882005 0.15742481 -0.020528879
49 -0.15051927 0.03148008 0.3733223 -0.26267973 0.041490376 -0.056361016 0.4463199 -0.05986111 0.4139498 -0.1301342 -0.011867936 -0.22403562 -0.16887577 0.12193583 0.15475859 -0.16457593 0.35879126 0.36552167 0.21936326 0.008332244 -0.1901896 0.39286053 0.04635097 -0.008901632 -0.014514861 -0.3271328 -0.38110653 0.36240864 -0.043294035 0.1240114 0.34199747 -0.17486845 -0.13010752 0.16977152 0.25903744 -0.28871474 0.1787933 0.1907244 0.39802906 0.26383656 0.14167169 -0.008987828 0.16607928 0.019428795 -0.06890954 -0.074824125 -0.17311607 -0.073368505 0.041617934 0.09499581 0.12414551 0.12534207 0.20150012 0.044030286 -0.4556026 0.26632503 -0.03394403 0.10948605 -0.14684193 -0.18039125 -0.2803941 -0.094412684 0.08765184 -0.1443766 0.17125374 -0.17585763 -0.30011466 -0.041588843 -0.12753597 -0.010397443 -0.22842346 -0.3391672 -0.12404503 0.20886652 -0.34714246 -0.19113891 -0.007897569 -0.00054919656 -0.61047333 0.16873184 -0.26960412 -0.09981676 0.2293572 -0.013279882 0.29334897 0.30113623 0.011957212 -0.12710431 -0.13266744 0.1562638 -0.0746405 -0.21911009 -0.2212913 0.15910405 -0.22595614 -0.04149502 0.055058848 -0.087767765 -0.04714958 0.06992186 0.25165302 -0.14306761 -0.2840523 0.08797954 0.26046538 -0.14121293 0.087714866 -0.14493446 -0.035178024 0.17735986 0.16306143 0.025940113 -0.14460278 0.07791262 0.0030734325 -0.21587949 -0.1897214 0.02457504 0.22455503 -0.047879986 0.21854901 -0.21637733 -0.099412076 -0.0611549 0.31370673 -0.076762795 0.10302283 -0.07032883
149 -0.18429059 -0.029588168 0.39305836 -0.25303927 -0.004109332 0.00038453436 0.38941288 0.008913026 0.37057355 -0.072465174 -0.021182483 -0.21018654 -0.15242088 0.021731546 0.13275334 -0.14034727 0.37845844 0.27531973 0.19729905 -0.086680636 -0.20795558 0.33361062 0.029051041 0.008978527 -0.012375136 -0.2826981 -0.28125393 0.38384902 -0.037949134 0.08567344 0.30436042 -0.19573405 -0.17969249 0.10688326 0.22359659 -0.19401017 0.13249783 0.23717093 0.44033438 0.283339 0.19406147 -0.0011742619 0.17125571 0.09773593 -0.007599972 -0.037287205 -0.15173854 -0.07496822 0.048097134 0.11017107 0.14369033 0.14777562 0.16976908 0.11798287 -0.41054732 0.2981201 0.010367398 0.15137862 -0.21887895 -0.12371669 -0.3280321 -0.07538953 0.10987846 -0.06896953 0.17298341 -0.28380466 -0.27492312 -0.065545365 -0.1505199 0.03457746 -0.2648271 -0.3839278 -0.10786849 0.19637208 -0.4046208 -0.13208638 -0.050311286 -0.04869229 -0.5718963 0.18764612 -0.21454266 -0.22931778 0.23742189 -0.09850729 0.25210315 0.30305213 0.03462785 -0.15269247 -0.1326747 0.19166973 -0.109841436 -0.17870311 -0.22975954 0.12122512 -0.2037703 -0.04455181 0.06509394 -0.13938601 -0.060547628 0.14623636 0.11269438 -0.18504854 -0.26238587 0.08430529 0.27346075 -0.17156895 0.13623783 -0.11380123 -0.08340847 0.17554547 0.16672754 0.083668925 -0.15905212 0.08564476 -0.009430655 -0.25349802 -0.14706175 -0.115634486 0.23319498 -0.033663932 0.19560653 -0.14934596 -0.101014346 -0.08780602 0.22283457 0.054170292 0.15305074 -0.0917128
48 -0.15477751 0.036410317 0.36718982 -0.21153383 -0.033641703 -0.093381695 0.40426704 -0.027554013 0.37186044 -0.034688167 0.07579659 -0.21421786 -0.07101115 0.083599925 0.18708949 -0.19696803 0.424695 0.31663024 0.22406505 -0.028179884 -0.22593994 0.37020707 0.09819612 -0.012348556 -0.021723764 -0.2204686 -0.22535357 0.39979544 0.026605697 0.18794946 0.33448368 -0.2172188 -0.12534489 0.09605664 0.25517932 -0.20298928 0.080853425 0.19695838 0.37276796 0.27988404 0.18780373 0.015428948 0.19264168 0.06256986 -0.003046015 -0.083976634 -0.11178575 -0.0052793403 0.051728286 0.12063827 0.18123373 0.05900108 0.2110149 0.16227835 -0.47596118 0.2365594 0.013592527 0.17965998 -0.17850931 -0.1786784 -0.32146093 -0.10379556 0.040178638 -0.11408075 0.19487576 -0.23331097 -0.32291815 -0.029872267 -0.13410915 0.028839527 -0.2923657 -0.33958358 -0.16239767 0.23435783 -0.44748208 -0.16494146 -0.04022251 -0.090099044 -0.59248346 0.20333552 -0.18023749 -0.07089662 0.22335517 -0.080087945 0.2684262 0.31057927 0.06600656 -0.017132794 -0.11333616 0.15862937 -0.09118631 -0.21013357 -0.2007228 0.059872407 -0.2201695 -0.097483374 0.09049022 -0.14569718 -0.06911059 0.050554667 0.22165656 -0.13424224 -0.250937 0.20616648 0.26366484 -0.20700952 0.09150239 -0.05194115 -0.099885106 0.091811106 0.13407606 0.09786103 -0.17545472 -0.011971872 0.12358837 -0.24098942 -0.13769178 -0.030499898 0.22778067 -0.020393884 0.19052419 -0.21080637 -0.12764859 -0.11565077 0.22936168 -0.02511192 0.18381679 -0.021433603
32 -0.16344637 0.08771889 0.38343176 -0.210365 -0.0024398582 -0.0828756 0.42003402 0.02392921 0.343332 -0.12723382 0.04474914 -0.22372487 -0.1612052 0.09485128 0.106766835 -0.17779925 0.4690528 0.26029512 0.18249626 -0.087049425 -0.19316074 0.33826217 0.104009494 -0.005059094 -0.03278476 -0.27879217 -0.3369452 0.3671383 0.024664339 0.14654797 0.33061412 -0.22582826 -0.19617827 0.116043925 0.21172489 -0.18873891 0.1634565 0.22618096 0.4189899 0.26407674 0.1568715 0.0040796096 0.17518964 0.12031128 -0.06854369 -0.05748655 -0.12816067 -0.074136086 0.012013395 0.08255784 0.12410998 0.1514131 0.184725 0.08669729 -0.4118359 0.25298926 0.037940674 0.24229401 -0.18708208 -0.08531302 -0.32835048 -0.10102518 0.039628424 -0.104567446 0.17005512 -0.23068646 -0.3322662 -0.07493703 -0.09892256 0.063297935 -0.2020155 -0.3211543 -0.14203262 0.2607979 -0.3639159 -0.1371748 -0.011510288 -0.008028707 -0.53879076 0.17344227 -0.2036242 -0.20571372 0.25263065 -0.120901905 0.35790578 0.29820985 0.115753874 -0.088924974 -0.12543584 0.12754521 -0.10204893 -0.22732955 -0.19237152 0.089210674 -0.2312287 0.008285759 0.130235 -0.12560056 -0.061564397 0.081962936 0.22418022 -0.19012336 -0.29696858 0.112948485 0.30554307 -0.20742248 0.122772284 -0.040317662 -0.068491824 0.20847315 0.19775829 0.0800152 -0.19575882 0.035072636 0.086129546 -0.13615099 -0.19713567 -0.08566704 0.1961131 -0.16342553 0.20459822 -0.17626253 -0.12170127 -0.06505863 0.19890866 -0.05068324 0.12893748 -0.04709153
148 -0.10661074 0.0028754894 0.35506356 -0.17074226 -0.039628513 -0.05042252 0.4111704 -0.019686954 0.40060964 -0.061069682 0.019609658 -0.24693096 -0.17794584 0.16537735 0.11984293 -0.11741876 0.43305483 0.30709866 0.16803108 -0.14494951 -0.16461177 0.3561515 0.05579743 0.024494477 0.018070402 -0.32042134 -0.26598516 0.35762122 0.02469911 0.14103474 0.29279345 -0.16592254 -0.18602951 0.1339883 0.2075979 -0.26195976 0.16262388 0.21964249 0.40316957 0.24062116 0.21682516 -0.025018655 0.08648456 0.06391264 -0.066134766 -0.036261544 -0.10685506 -0.031785 0.046393942 0.07014699 0.14936273 0.12936266 0.24977109 0.057517473 -0.41310257 0.27370822 0.022659551 0.15332246 -0.18999027 -0.116061315 -0.3467128 -0.15735231 0.07494106 -0.10542817 0.19217396 -0.2463497 -0.35330832 -0.084974505 -0.058612168 0.031739585 -0.24273631 -0.44491178 -0.15255648 0.20988241 -0.37483168 -0.22419426 0.006036226 -0.02973234 -0.6757119 0.17666158 -0.23997916 -0.15085681 0.19312742 -0.07716463 0.32194808 0.29197446 0.09981728 -0.10871162 -0.075922355 0.10176085 -0.11388715 -0.1878763 -0.23687342 0.10467687 -0.24071385 -0.11846965 0.06700211 -0.07195755 -0.027250705 0.048283968 0.17613871 -0.12505199 -0.26698554 0.08710704 0.30519575 -0.16872615 0.050538875 -0.03713702 -0.08459532 0.18269621 0.1362003 0.10405059 -0.10051324 0.06685882 0.05432246 -0.16866757 -0.16093585 -0.10087055 0.22365704 -0.062460434 0.12570673 -0.14881396 -0.08552021 -0.117774375 0.25365508 0.046718407 0.15415919 -0.03766746
150 -0.099466845 -0.016908055 0.35871944 -0.21860133 0.03837062 -0.022420866 0.4428426 0.03049521 0.37775052 -0.14609289 0.022523308 -0.293988 -0.12913632 0.08198061 0.16327374 -0.11934158 0.41726622 0.27281144 0.13982919 -0.040091425 -0.21567205 0.29763216 0.025839843 -0.08310677 -0.0699111 -0.27074736 -0.2451383 0.37176397 0.004574703 0.1296589 0.36259508 -0.21497679 -0.24931706 0.13886236 0.24176103 -0.19582514 0.14216392 0.26511258 0.40223345 0.27741328 0.15664995 0.0071746483 0.13500969 0.0581236 -0.14396963 -0.06108722 -0.077172965 0.012764551 0.048567727 0.12653543 0.1496698 0.12803578 0.24105893 0.06635562 -0.4175897 0.29224214 0.0020811881 0.21366894 -0.1432608 -0.1288741 -0.24009332 -0.1526739 0.060430855 -0.08393988 0.14950338 -0.14449726 -0.3772749 -0.122868486 -0.052977752 -0.05116121 -0.20778336 -0.42328754 -0.15713963 0.22399871 -0.3801613 -0.15952687 0.03805776 -0.018866183 -0.5632628 0.16403629 -0.18006468 -0.1467288 0.23783797 0.012303754 0.31577456 0.3726635 0.036603216 -0.08836709 -0.14162688 0.17443348 -0.14653903 -0.09515056 -0.24499477 0.1066686 -0.2249189 -0.09122613 0.069026805 -0.11070674 -0.07247071 0.11641126 0.20372778 -0.21216197 -0.26283774 0.07220982 0.30860263 -0.21376954 0.06819775 -0.07127812 -0.078066856 0.19199537 0.21491712 0.104171276 -0.23132212 0.03605603 0.013423492 -0.24652474 -0.14634296 -0.014280224 0.22706358 -0.105614565 0.17520563 -0.19160113 -0.07386332 -0.07761032 0.23836279 -0.019089423 0.19488697 -0.05872646
33 -0.076949485 -0.016690195 0.39434266 -0.14196303 -0.04102897 -0.053009443 0.383346 0.04682374 0.4439542 -0.10259303 0.09935297 -0.29333663 -0.10409328 0.11771046 0.1345716 -0.17742112 0.4177772 0.3052091 0.23941934 -0.0754101 -0.21585658 0.4248613 0.02141851 -0.039321087 0.012658048 -0.2602525 -0.23587507 0.34187955 0.030270448 0.12824856 0.24127758 -0.19664389 -0.118670434 0.10390232 0.22279176 -0.18295878 0.12757497 0.26565245 0.34298885 0.1682297 0.24075504 0.05722051 0.098860525 0.069552146 -0.083281316 -0.0789597 -0.2220285 0.039150666 0.018273933 0.14703068 0.091093495 0.067932226 0.20357578 0.10830245 -0.4734212 0.25416708 -0.07420295 0.123241246 -0.09350168 -0.16525064 -0.2909194 -0.02590271 0.06721899 -0.15488423 0.18506797 -0.28614935 -0.31155145 -0.040616617 -0.15731394 -0.029390836 -0.2167023 -0.30170965 -0.14488944 0.2763041 -0.42697728 -0.16076326 -0.010682144 -0.019539764 -0.5725109 0.19264731 -0.22900881 -0.15011713 0.24228603 -0.08345908 0.31317466 0.33842447 0.034124423 -0.063572444 -0.1324597 0.12945154 -0.18522638 -0.17271923 -0.18397637 0.06749344 -0.26131848 -0.034328505 0.10323632 -0.14442864 -0.13279025 0.11140322 0.2110235 -0.19456951 -0.24379641 0.15935667 0.2742822 -0.20555131 0.0893694 -0.064741954 -0.081155375 0.20161486 0.1412665 0.14380886 -0.1572153 0.00080802024 0.10848128 -0.1894282 -0.21400286 -0.098456845 0.22064383 -0.10207479 0.14235519 -0.21692 -0.085924976 -0.058965277 0.17258312 -0.04699789 0.117175326 -0.09237777
216 -0.1753503 0.006465017 0.36247396 -0.20882799 0.045710266 -0.1154094 0.40102175 -0.03477469 0.4235612 -0.08864539 0.100669585 -0.26479018 -0.16115913 0.079933375 0.10646644 -0.19471334 0.4264631 0.31211397 0.1607043 -0.06940676 -0.19750951 0.30100492 0.092849344 -0.0043765167 -0.000984931 -0.31122342 -0.3525048 0.37860385 0.0048962845 0.12548071 0.35385823 -0.17963883 -0.15319969 0.146211 0.25158936 -0.2626774 0.15729757 0.2211936 0.30030543 0.2719384 0.21402103 -0.00882363 0.15633923 0.068262085 -0.053042006 -0.08279919 -0.07233148 -0.013791406 0.019365508 0.110805385 0.08955217 0.105110586 0.22009633 0.061152205 -0.46264517 0.21068405 -0.016955085 0.18273936 -0.1978799 -0.12370077 -0.30373904 -0.1333989 0.042187158 -0.16397393 0.17197205 -0.24499133 -0.32620105 -0.052442156 -0.14263506 0.038364075 -0.23735592 -0.37941658 -0.14821257 0.200573 -0.3915729 -0.13531072 0.018642278 -0.019791808 -0.58842295 0.18705697 -0.24996567 -0.09703041 0.236268 -0.08166834 0.34292233 0.27016315 0.062006045 -0.09584983 -0.11773291 0.13573675 -0.16262914 -0.1812007 -0.1721437 0.043641984 -0.22265536 -0.02461248 0.11063232 -0.07850095 -0.070190445 0.09441736 0.17975673 -0.1794397 -0.29110757 0.08820362 0.30274522 -0.2398403 0.11869475 -0.041559592 -0.075451046 0.14581531 0.110999055 0.1032365 -0.20144647 0.043578204 0.06581513 -0.23030572 -0.08500267 -0.024524527 0.2311953 0.0016350565 0.18215534 -0.18817933 -0.06274425 -0.08759211 0.3273722 -0.0382122 0.11098194 -0.07961038
94 -0.17060493 -0.009186127 0.32987863 -0.1595683 -0.01612761 -0.07828992 0.4206295 0.021863148 0.33571658 -0.11491066 0.06519881 -0.2999292 -0.16369976 0.080139995 0.1618734 -0.168314 0.4109171 0.28972152 0.23654006 -0.028535439 -0.2297332 0.35695246 0.0637307 -0.026963409 -0.009784434 -0.30183586 -0.2829932 0.41552466 -0.006241723 0.111768164 0.34759313 -0.23898101 -0.11732804 0.08706631 0.21857597 -0.16785364 0.16694482 0.21126784 0.361681 0.2833383 0.23444219 0.004287462 0.2097574 0.100603074 0.029148383 -0.111340344 -0.1462669 -0.053403366 0.11588934 0.022952301 0.12046468 0.14315999 0.16572222 0.059370823 -0.35238618 0.19576591 0.049183108 0.15756792 -0.20480715 -0.11039219 -0.26668584 -0.16470571 0.10705973 -0.17410848 0.2062675 -0.21308522 -0.33313844 -0.15415509 -0.119564004 0.027801644 -0.24832731 -0.39380583 -0.1039629 0.23540564 -0.44658 -0.17276916 0.06652445 -0.043673262 -0.65345246 0.13989022 -0.20911397 -0.137527 0.17391613 -0.054986607 0.32142356 0.29074356 0.090838194 -0.10025146 -0.0612852 0.19271776 -0.13861814 -0.20574771 -0.26837087 0.07651987 -0.25643653 -0.013097016 0.13262103 -0.15662149 -0.05029552 0.05285875 0.21995226 -0.16810986 -0.20071143 0.1598464 0.34670967 -0.19290106 0.12276605 -0.043479778 -0.11381632 0.10864577 0.108913735 0.14375117 -0.118996374 0.004926785 0.07434829 -0.23150577 -0.17901914 -0.03625684 0.24271803 -0.045527842 0.19969344 -0.11746224 -0.1088759 -0.09761076 0.24927269 -0.08084354 0.21948706 -0.027466899
95 -0.052328587 -0.0022226982 0.46012333 -0.13709383 -0.034603786 -0.03387658 0.4265522 0.008530453 0.41773945 -0.070260696 0.033353668 -0.2629833 -0.11181046 0.0472688 0.08194264 -0.14217749 0.38571534 0.3483338 0.21977662 -0.09113875 -0.13413943 0.3011407 0.0670002 -0.043577217 0.026149679 -0.29618123 -0.24234577 0.37780792 0.060926326 0.098690346 0.28453916 -0.25839955 -0.16508687 0.086752 0.21112567 -0.22723149 0.18358894 0.12446211 0.39449406 0.27245265 0.13126324 -0.019932983 0.13498305 0.048783705 -0.005070661 -0.049216792 -0.06656801 -0.059209056 0.038795557 0.04333861 0.13859591 0.14151166 0.22801937 0.03508113 -0.42003074 0.2560259 -0.017937724 0.19587608 -0.14686301 -0.088538125 -0.3891828 -0.12503026 0.074312635 -0.14846784 0.17185976 -0.2628304 -0.40684912 -0.099518515 -0.124760814 0.054593697 -0.22995593 -0.42933953 -0.10639434 0.19374019 -0.32533053 -0.17797199 -0.0045325686 -0.07317602 -0.5410367 0.20967579 -0.24186428 -0.20720749 0.27549642 -0.09867002 0.33101806 0.32066432 -0.0073873857 -0.10270474 -0.09809706 0.15543208 -0.113348655 -0.16912435 -0.20852 0.023283208 -0.20865697 -0.07594343 0.04727517 -0.117326126 -0.03462233 0.096885785 0.12662485 -0.2069678 -0.25401598 0.10210012 0.26899487 -0.12705846 0.10071439 -0.13970251 -0.12867531 0.2297184 0.17303987 0.108715974 -0.16597565 0.06589644 0.06809688 -0.2127087 -0.2032545 -0.022098731 0.27000362 -0.044499293 0.15763135 -0.178668 -0.14798269 -0.13626987 0.27584067 -0.03290599 0.119453974 -0.054223742
83 -0.1757434 0.02011384 0.37760016 -0.12036905 -0.03293966 -0.05379325 0.4239731 0.007248411 0.34218892 -0.11615203 -0.019913014 -0.18848123 -0.115669936 0.14914966 0.19840764 -0.17531697 0.41592643 0.27019918 0.24598482 -0.10578733 -0.18598963 0.3020694 0.04544481 -0.019983314 0.008149398 -0.30755067 -0.28976667 0.35119212 0.011080821 0.054136567 0.31241748 -0.23035102 -0.1762442 0.12187695 0.21738602 -0.20822565 0.16649477 0.22371556 0.30735016 0.2536534 0.14801207 -0.03507139 0.16561212 0.017598197 -0.023943497 -0.02363338 -0.084056415 -0.00924985 0.07752026 0.06906996 0.16550684 0.13075748 0.1952193 0.025417663 -0.45594633 0.21905951 0.010656262 0.11564343 -0.15255943 -0.10182154 -0.33978194 -0.10485697 0.11328363 -0.1056565 0.19755748 -0.20318632 -0.36288148 -0.03858742 -0.10594514 -0.03669078 -0.28074867 -0.3985252 -0.1844986 0.2263248 -0.39202377 -0.13151836 0.025864722 -0.013809124 -0.6415935 0.13609345 -0.24518621 -0.16535808 0.19046439 -0.09104556 0.28771898 0.3374112 0.1632496 -0.11656377 -0.094415754 0.15021935 -0.15965715 -0.23512565 -0.22319472 0.09781402 -0.1603551 -0.078754686 0.13066654 -0.14509584 -0.002729176 0.018802512 0.20566016 -0.18853162 -0.25090003 0.24310578 0.25389084 -0.2167431 0.08053599 -0.085202746 -0.021620259 0.21255846 0.16026933 0.11779736 -0.11658767 0.036339663 0.073032275 -0.19795609 -0.1395851 -0.097006254 0.23706403 -0.117449746 0.20385857 -0.18743877 -0.10174238 -0.058646746 0.25045437 -0.056691237 0.14083342 -0.036918037
34 -0.16583571 0.032027934 0.4181788 -0.12350023 -0.02334354 -0.08657642 0.41209167 -0.041255504 0.4106174 -0.13408704 -0.013861893 -0.29511887 -0.2097708 0.08715499 0.13833505 -0.11446614 0.41265774 0.3507158 0.2178595 -0.06211322 -0.21641617 0.30967185 0.033572502 0.04412724 -0.054104473 -0.22480631 -0.29873568 0.38676372 0.09663893 0.13069628 0.38285577 -0.18348198 -0.16229655 0.080176346 0.14951114 -0.21829793 0.18298061 0.2626202 0.39682207 0.21236855 0.17613813 0.03255542 0.122608975 0.04994579 -0.10654328 -0.059514042 -0.072518185 -0.010108886 0.018101843 0.060597777 0.11749479 0.1447197 0.2132689 0.07650289 -0.49818864 0.26460734 -0.00744586 0.17850731 -0.16425136 -0.14071494 -0.35415313 -0.09256352 0.049111195 -0.0754979 0.098537646 -0.16896498 -0.3281485 -0.04642868 -0.13498904 0.014870119 -0.25948387 -0.35203457 -0.110361494 0.13674396 -0.41391823 -0.1512489 -0.04171871 -0.010097387 -0.6120681 0.14743282 -0.21687649 -0.13564713 0.2305647 -0.035734445 0.30838498 0.33794883 0.0651735 -0.06568367 -0.11738639 0.22046025 -0.10922163 -0.19233942 -0.25178596 0.12543282 -0.18979748 -0.079877906 0.11220915 -0.124031655 -0.10167035 0.10867161 0.15987046 -0.17476448 -0.29103497 0.046069156 0.24003796 -0.20076817 0.08345136 -0.07889011 -0.17759982 0.15258904 0.11390414 0.15868923 -0.11505002 0.092415944 0.10345928 -0.19244483 -0.124928124 -0.026226137 0.23454411 -0.05621768 0.14483859 -0.16160966 -0.12216153 -0.066875264 0.24817693 -0.06202521 0.2137736 -0.07839401
82 -0.0966033 -0.026086638 0.43163523 -0.14379811 -0.075542904 -0.09198801 0.38295197 -0.041858856 0.3721421 -0.12923548 0.035399012 -0.26349318 -0.16392785 0.14910495 0.1443659 -0.17528972 0.42388433 0.31826818 0.2137936 -0.01639064 -0.19263855 0.31894493 0.029022805 0.025838822 -0.01614758 -0.26850238 -0.37734452 0.35074234 0.010921879 0.1761776 0.35175097 -0.16776259 -0.12268538 0.12964094 0.25360525 -0.25363234 0.10212877 0.20877554 0.38669983 0.22012515 0.22480825 0.04867087 0.1911046 0.0140782455 -0.09199179 -0.038318917 -0.15805414 -0.041811667 0.0015766919 0.11280258 0.12217234 0.036322713 0.22580568 0.0980464 -0.4630241 0.25777027 -0.010743601 0.11510303 -0.09650646 -0.23617722 -0.29267487 0.002241479 0.00041167668 -0.12029704 0.24299242 -0.255371 -0.3469208 -0.039166268 -0.096212275 0.03094984 -0.24481878 -0.3911916 -0.08363914 0.17689428 -0.38996598 -0.15928274 -0.032168668 -0.048265412 -0.56611073 0.105866514 -0.29002568 -0.1073069 0.1783589 -0.0857583 0.3006192 0.330143 0.092170574 -0.10808274 -0.098456144 0.1482756 -0.10206477 -0.23598455 -0.22641128 0.1172726 -0.2241353 -0.06345251 0.069105886 -0.11674199 -0.07772783 0.18311921 0.21048121 -0.14959486 -0.2674583 0.1514908 0.2398281 -0.18350235 0.0371521 -0.115381666 -0.05028363 0.12798607 0.14741667 0.14479892 -0.14293164 0.07772704 0.07857383 -0.18063308 -0.19865696 -0.101801634 0.26987404 -0.034134835 0.14532077 -0.22203009 -0.12092501 0.030001443 0.27957177 -0.018278476 0.15665266 -0.059118494
286 0.1831602 0.12948425 0.18658571 0.4975441 -0.16729051 -0.6403902 0.068245806 0.09811087 0.081363045 0.20236875 -0.19466557 -0.1432291 0.07828088 -0.45831347 0.5596956 0.3036132 0.7955649 0.009840349 -0.48007682 0.8910932 0.12759441 0.59025335 0.31949916 0.21029243 -0.07976872 0.4151355 -0.8270638 -0.025748136 -0.20958309 -0.3199763 -0.09162318 -0.005197635 0.1497813 -0.49125686 -0.11833643 -0.15457807 0.2025322 0.24884216 0.034911957 -0.14914405 -0.06746031 0.5136039 0.86390996 -0.14222455 -0.12203246 0.12615703 -0.09588367 0.4500927 0.8365666 0.2915698 0.3953973 0.031669214 0.8894964 -0.3528624 -0.042952023 -0.23210971 0.5729271 0.2141668 0.07377052 -8.688078e-05 -0.7060504 -0.5282526 0.109571114 0.21244428 0.79427034 -0.63160217 -0.26176873 -0.39634746 -0.14788793 -0.18775015 0.47090125 0.17779703 -0.17482081 0.099433444 -0.086689904 0.63524777 -0.04095312 0.52558064 -0.5424165 0.5225965 -0.29386154 -0.3367762 0.22805184 0.1275117 0.004324371 0.41405678 0.27870378 0.4135459 -0.030870132 0.27447876 0.72035563 0.34217602 -0.068986036 -0.32064757 -0.36190772 0.24402948 -0.17046943 -0.378585 -0.35491526 -0.008967959 -0.19755277 -0.12082078 -0.21676216 0.49399108 -0.11920029 0.2471627 0.024686605 0.22237939 0.05926075 0.3933495 0.08341088 -0.32723758 -0.18276173 0.61343646 -0.7670189 -0.9378845 -0.37281883 -0.009776798 0.03196231 0.2920103 -0.55823916 -0.68928903 -0.36767015 0.10859505 -0.07574623 -0.45342845 0.11053699 -0.16941337
287 0.066372365 0.16096267 0.11074201 0.4924677 -0.20038517 -0.6776246 0.14114584 0.12617525 0.15085435 0.18174732 -0.16641143 -0.16121386 0.0150188515 -0.5723464 0.5280603 0.3711919 0.9009074 -0.01052801 -0.5297272 0.75079626 0.100773275 0.5448096 0.28387895 0.284574 -0.090887636 0.40072843 -0.86366874 -0.18030673 -0.24089225 -0.31355008 -0.08901038 -0.06336112 0.15226182 -0.38193625 -0.06930652 -0.11039976 0.15767007 0.36520886 -0.0085785305 -0.20530057 -0.071245804 0.40989825 0.94057095 -0.19020884 -0.10886171 0.06417126 -0.13979784 0.45935035 0.91794646 0.31932667 0.526276 0.014382724 0.75605524 -0.31402445 0.07816936 -0.32573807 0.49848858 0.14159597 0.0024143683 0.016017536 -0.719473 -0.5574937 0.1437484 0.23117808 0.7324502 -0.57724315 -0.27215606 -0.38307458 -0.031275544 -0.23464069 0.48566598 0.13175014 -0.1618279 0.17442665 -0.12026823 0.51445556 -0.04690576 0.45967278 -0.52027637 0.6841867 -0.39101043 -0.32885492 0.21705574 0.13277294 -0.07917968 0.2843301 0.25266692 0.4106747 -0.055938005 0.2285813 0.7170253 0.1668299 -0.056396894 -0.31276718 -0.42438984 0.16860844 -0.041618824 -0.391122 -0.37525028 0.047997918 -0.2400613 -0.07073975 -0.3270219 0.50885385 -0.110708095 0.14824995 -0.0568535 0.21948308 0.021775525 0.38786843 0.10803237 -0.21488348 -0.24714275 0.561505 -0.8557574 -0.8533381 -0.3742055 -0.10404918 0.11304485 0.25973025 -0.5361951 -0.7572284 -0.2252982 -0.05472367 -0.045301463 -0.54357743 -0.025512587 -0.20137407
551 0.15654413 0.20633109 0.1632544 0.53923684 -0.24582611 -0.6593917 0.107534304 -0.02790337 0.16872977 0.2353406 -0.3001887 -0.15049711 0.098993436 -0.45048216 0.6119036 0.344586 0.84666127 -0.08484608 -0.5323214 0.7663742 0.0707327 0.5039921 0.2838395 0.31941158 -0.027339123 0.41829768 -0.90021145 -0.09560124 -0.1687725 -0.3324124 -0.10314513 0.002420719 0.09039919 -0.39315265 -0.07125711 -0.14693527 0.13638976 0.34714773 0.0024678744 -0.17204541 0.0046063135 0.4996922 0.9253732 -0.12696914 -0.112552755 0.12972082 -0.13777938 0.46959892 0.84125996 0.22558202 0.34085116 0.022400908 0.7353295 -0.36810055 0.036229305 -0.4504949 0.56161016 0.24363814 0.010331729 -0.025217853 -0.6565351 -0.6405702 0.16330467 0.2509321 0.7631788 -0.4839611 -0.24447131 -0.39616138 -0.11049166 -0.18030901 0.50544447 0.14351249 -0.22367156 0.2874243 -0.07070511 0.5520866 -0.030907765 0.41853574 -0.5195941 0.67602783 -0.35826772 -0.24924426 0.22655587 0.14693797 -0.0037284575 0.39461684 0.3015121 0.3474452 -0.029428512 0.2683683 0.704584 0.2233892 -0.022049442 -0.261962 -0.42682755 0.19126259 -0.011801142 -0.49520934 -0.3444594 0.0034972744 -0.2912643 -0.047467142 -0.3349458 0.47942528 -0.12094898 0.18052131 -0.030196624 0.21456932 0.028568298 0.35500655 0.20459606 -0.27932122 -0.13708167 0.5554589 -0.69263506 -0.9111459 -0.3014299 -0.11243752 0.122187175 0.36332077 -0.47668427 -0.77266335 -0.23231825 0.0073871682 -0.10515167 -0.5039663 -0.014050786 -0.22141759
285 0.08705677 0.17860582 0.13093783 0.5330919 -0.14997764 -0.70916003 0.16368097 0.07689655 0.19383031 0.19146015 -0.12865764 -0.06321684 0.16582176 -0.48740447 0.4773292 0.41326764 0.8487979 0.029114522 -0.56607354 0.815704 0.06244351 0.7171568 0.23736551 0.32358345 -0.03265997 0.40862414 -0.863166 -0.08566659 -0.13702565 -0.35846403 -0.103823245 0.000339297 0.075298086 -0.4753194 -0.033057705 -0.18450077 -0.039233696 0.3379826 0.02053821 -0.1443467 -0.040654816 0.45399785 0.9517141 -0.13185349 -0.12144583 0.107054524 -0.028272111 0.3948672 0.830274 0.22214854 0.39089704 0.038621098 0.75053173 -0.40462473 0.021902958 -0.359336 0.5247653 0.1304386 0.053641852 -0.056141656 -0.70653975 -0.5412651 0.09405606 0.19097565 0.7924389 -0.5295313 -0.28337955 -0.38287795 -0.055388503 -0.12842426 0.5935432 0.040246624 -0.12702149 0.12548585 -0.09996625 0.49398747 -0.063183814 0.49383295 -0.47680023 0.6016774 -0.27201143 -0.34939253 0.22129075 0.161777 0.012141931 0.32351732 0.3839257 0.41223124 0.004503602 0.25879708 0.66100425 0.22612724 0.027666247 -0.32283655 -0.3805271 0.07148257 -0.1217716 -0.4984984 -0.34583473 0.075320825 -0.2873435 -0.06236945 -0.2747986 0.59371245 -0.14168587 0.19461116 0.046868984 0.32642454 0.02038541 0.41109362 0.13800502 -0.23652902 -0.22487353 0.44855788 -0.79065716 -0.9174386 -0.2743263 -0.024673877 0.08620519 0.29407355 -0.4737032 -0.69102514 -0.3037877 0.09428165 -0.041506458 -0.5117766 0.025003955 -0.16857566
552 0.043179054 0.23695451 0.09864552 0.473502 -0.19341855 -0.6568173 0.14586455 0.071634986 0.028849775 0.20350206 -0.11561779 -0.109196156 0.13525647 -0.44827074 0.57666844 0.31920597 0.815264 -0.015479463 -0.5583576 0.76971126 0.17523588 0.5794494 0.17426932 0.27508444 -0.043699138 0.47203463 -0.9308237 -0.01788028 -0.15190403 -0.38671264 -0.06941758 -0.035984837 0.15727937 -0.40946475 -0.094097525 -0.12358721 0.07946189 0.34525564 0.007699465 -0.092800565 -0.0008627365 0.5175068 0.88386214 -0.10248679 -0.07495436 0.12337092 -0.025956608 0.4487136 0.8581859 0.31343356 0.42590034 -0.02788929 0.786409 -0.33943397 0.08480126 -0.345231 0.5224875 0.24216759 0.022100512 -0.033163797 -0.7975495 -0.5264291 0.17416535 0.14275205 0.75957173 -0.58933276 -0.4312803 -0.31123686 -0.01905361 -0.19952981 0.43844354 0.16130087 -0.095331915 0.33442327 -0.11347178 0.5846548 -0.10259587 0.38254434 -0.46524185 0.6194542 -0.3456954 -0.19677825 0.2599098 0.096356906 0.027687889 0.42655417 0.32127628 0.45954403 -0.060840875 0.2188648 0.8093515 0.2026034 -0.008988183 -0.27183437 -0.38162398 0.16605191 -0.07094683 -0.46509448 -0.3631242 0.0025817216 -0.20702787 -0.08562104 -0.23426695 0.5055482 -0.18668196 0.16608278 -0.0106698405 0.26359084 0.035687964 0.396332 0.16868615 -0.3071725 -0.22051099 0.53874713 -0.757395 -0.81006944 -0.3878117 -0.019743295 0.13007015 0.2520488 -0.46641025 -0.6215748 -0.37809667 0.014864521 -0.07600341 -0.5232593 0.044512283 -0.07534659
550 0.068951376 0.16449505 0.15433991 0.46109 -0.28702417 -0.6075154 0.15630998 0.03439097 0.053955078 0.2840261 -0.18020137 -0.22377893 0.042596925 -0.5128598 0.5594122 0.2490861 0.8405703 -0.038220134 -0.58936703 0.7607896 0.14579518 0.5650035 0.2657257 0.27103972 -0.09071726 0.3585995 -0.8108722 -0.06700322 -0.15284073 -0.31306484 -0.06328416 -0.046066426 0.1288089 -0.4547592 -0.09836798 -0.21066087 0.07675445 0.27469495 0.0327397 -0.088908434 -0.01646118 0.50196075 0.92495275 -0.15499714 -0.18863398 0.093606226 -0.09211314 0.41006318 0.8934599 0.18284975 0.36567897 0.013421821 0.77123696 -0.34249204 0.016065301 -0.3636662 0.5377085 0.14438693 0.059071634 -0.034616683 -0.7249251 -0.5272649 0.123556554 0.2815782 0.81482357 -0.5132137 -0.36413577 -0.37503597 -0.07332992 -0.18931708 0.41700453 0.09352586 -0.19885784 0.2783293 -0.018239046 0.5226782 -0.13323605 0.57283825 -0.5114411 0.7219943 -0.2522268 -0.33748215 0.22303408 0.2402074 0.05088826 0.33454746 0.29594788 0.47977582 -0.045531653 0.21370037 0.7392352 0.15739883 0.020146871 -0.28218487 -0.4533506 0.22509293 -0.09719522 -0.46685293 -0.4575958 0.06970868 -0.26879388 -0.07783186 -0.35310736 0.5436557 -0.07990282 0.2829616 -0.012865824 0.22980148 0.14614017 0.32795817 0.2064474 -0.334981 -0.22152004 0.41050065 -0.79409343 -0.86875534 -0.2858476 0.039771777 0.082045995 0.27475116 -0.5209333 -0.7293806 -0.31764764 -0.018438552 -0.012147996 -0.51653653 -0.057434812 -0.14755581
288 0.057210695 0.16758959 0.11793619 0.4652328 -0.28704423 -0.683951 0.09530709 0.026724875 0.12207028 0.30643585 -0.20089886 -0.23613739 0.12449715 -0.45820388 0.57747227 0.32596168 0.90640444 -0.014638337 -0.41013432 0.7120228 0.18069485 0.5215088 0.22729555 0.31936306 -0.10339352 0.37651145 -0.8560515 0.043783575 -0.21078995 -0.33153054 -0.048529882 0.05047002 0.19328612 -0.34021923 -0.0680581 -0.13496062 0.05278915 0.3570372 0.111667246 -0.12413684 -0.08773176 0.50116765 0.9361075 -0.095057786 -0.1791623 0.082363404 -0.05303405 0.41869646 0.89664847 0.2247503 0.40166825 -0.05824451 0.8842512 -0.38659728 0.037457217 -0.33083576 0.4463202 0.17224832 0.06537085 0.02166525 -0.65508705 -0.5043933 0.11065782 0.2565942 0.8028436 -0.58112633 -0.2920378 -0.3849701 -0.034869887 -0.20777544 0.51473546 0.059500378 -0.2000409 0.28860784 -0.08543338 0.5518587 -0.10535927 0.45957613 -0.52906364 0.6478813 -0.33583552 -0.25634772 0.193512 0.15442915 0.06307414 0.3785287 0.21773095 0.4711588 0.058777977 0.31762493 0.6606072 0.21699236 -0.006930916 -0.2644541 -0.40022552 0.16736804 -0.15448652 -0.46182987 -0.3806654 0.12152526 -0.26857087 -0.12068844 -0.27688792 0.58971107 -0.16857891 0.2550118 -0.03354766 0.27199116 0.08366886 0.4229421 0.06207433 -0.2501337 -0.1312475 0.45364356 -0.8623994 -0.86624366 -0.2274132 0.0353944 0.11507038 0.30803367 -0.5965253 -0.7423904 -0.29648164 0.040047713 -0.05788025 -0.5323651 -0.003915245 -0.12336396
549 0.13855179 0.1026266 0.17693529 0.4989621 -0.09101855 -0.6798663 0.083908424 0.020613523 0.13128816 0.258071 -0.15794623 -0.2251118 0.0344388 -0.47956607 0.57047516 0.3076097 0.79106855 0.0071843113 -0.49692637 0.76326525 0.09696758 0.58245844 0.17215255 0.27605876 0.03244956 0.35847187 -0.8072023 -0.15852505 -0.18928476 -0.30933586 -0.07157661 0.017233122 0.06920638 -0.41978827 -0.076228164 -0.16008236 0.1428722 0.31766003 -0.035040356 -0.1290443 -0.07506463 0.47336125 0.9161793 -0.12851213 -0.12723501 0.08623954 -0.07399199 0.48643976 0.8704323 0.19645408 0.40117124 0.07648842 0.8476428 -0.2948008 0.055421494 -0.34820852 0.5010703 0.18093337 -0.021777255 0.06057375 -0.73451126 -0.5586873 0.061056245 0.2366234 0.82437813 -0.5822076 -0.37806353 -0.35724047 -0.03597398 -0.17650153 0.4673465 0.18305503 -0.20631656 0.23362578 -0.09370134 0.5688959 -0.08655234 0.42145374 -0.5556179 0.6131198 -0.36939985 -0.33583832 0.22158226 0.09498556 0.010783892 0.32227823 0.29075304 0.46092606 0.013300256 0.342667 0.7126894 0.2151134 -0.02509664 -0.31488964 -0.36571842 0.20331839 -0.06733833 -0.41432953 -0.41568586 0.13075583 -0.27888173 -0.10686233 -0.27616167 0.4710243 -0.1468027 0.21835409 0.033157058 0.2609097 0.0056004063 0.41070843 0.1317251 -0.3575041 -0.13188644 0.5323123 -0.69549155 -0.91726327 -0.2862942 -0.0071146125 0.08640694 0.3657478 -0.5469912 -0.69848883 -0.2376982 0.03346708 -0.13196883 -0.42493582 0.027778579 -0.19215776
210 0.53983366 0.5108179 0.38733837 -0.6472311 -0.32219985 0.104140446 -0.15487163 -0.112334006 -0.38419437 0.11954111 -0.08246476 -0.1930933 -0.508062 -0.029786747 -0.29266444 0.4770485 -0.13453457 0.18790364 0.24740423 0.19714095 -0.28628165 -0.10018076 -0.22696356 -0.10582453 -0.10479793 -0.26096457 0.37073907 0.12588716 0.3332838 -0.39084744 0.03873301 0.29467082 0.23860355 -0.6482801 -0.26779294 -0.051230628 -0.5586313 0.3885909 -0.09779355 -0.63896066 -0.1742051 -0.089035876 1.0525296 -0.18629742 0.43253505 0.3430737 -0.6387342 0.5150807 0.29639414 0.16036752 -0.8856218 -0.21661073 0.45867267 -0.4212636 -0.35611194 0.80338687 0.29407024 0.7630249 -0.6752969 -0.7309143 0.51487046 0.0291763 0.05326529 0.12740472 0.29776514 0.13830073 -0.016492665 -0.5948949 0.21665351 -0.16863489 -0.018729217 -0.17075075 -0.42053038 0.08232249 -0.40886995 0.15213314 -0.36060768 0.55802363 -0.14253539 0.91243756 0.097529106 -0.26009056 0.24667142 -0.082246885 -0.40837464 -0.08727631 0.15373002 0.080479935 0.20295058 -0.11316732 -0.40882477 -0.14644973 0.33953285 0.6119867 0.23958164 0.11071902 0.41219035 0.54494846 0.47306132 -0.51250875 0.23516612 -0.18869096 -0.18327741 -0.101104684 -0.16991107 -0.06915935 0.3418436 0.19546874 -0.3058895 1.0629517 0.08769395 0.4939448 -0.07756475 -0.2459941 -0.10891594 -0.22077759 -0.119769 -0.4479219 0.2896831 0.12704849 0.113756455 -0.86235183 -0.6006822 -0.8218629 0.47102162 0.029665442 -0.16938679 -0.09701277
2110 0.5613539 0.43967274 0.33215195 -0.58966464 -0.22635013 -0.020005165 -0.18100962 -0.026640018 -0.36136898 0.13673288 -0.1473243 -0.13259953 -0.50340164 -0.07209276 -0.36733788 0.4562468 -0.13131155 0.16724092 0.25316098 0.24116729 -0.3482092 -0.08611264 -0.18915178 -0.11051524 -0.066912994 -0.24004802 0.43329313 0.10483306 0.28872266 -0.29774678 -0.008165784 0.24927509 0.25033963 -0.6340806 -0.13191998 -0.08508028 -0.46421847 0.3902061 -0.09414561 -0.54992074 -0.081449375 -0.21818878 1.0966499 -0.1436905 0.5002224 0.2693066 -0.61247367 0.58334833 0.25547045 0.16300538 -0.7853975 -0.11060154 0.49728003 -0.41653886 -0.38004968 0.7996273 0.22615081 0.77781284 -0.7138258 -0.71848345 0.58508444 -0.08892275 0.018243618 0.16597217 0.3633624 0.17711796 -0.016080065 -0.6109497 0.1530722 -0.22324373 -0.01231666 -0.16983332 -0.31852067 0.027726829 -0.36875528 0.15633811 -0.33436954 0.55897564 -0.0981987 0.78963715 0.054053772 -0.1995015 0.20737186 -0.094923705 -0.47968656 -0.11973308 0.21668914 0.025930759 0.16694877 -0.091314524 -0.4250716 -0.050622694 0.25879622 0.5388539 0.32325512 0.14074177 0.35802755 0.6038789 0.40757108 -0.57495975 0.28493148 -0.25509828 -0.15680647 -0.06099437 -0.23311755 -0.11200819 0.44616008 0.18867135 -0.3976967 1.0942224 0.107788146 0.60183245 -0.03894372 -0.2086025 -0.086022355 -0.16665737 -0.07203497 -0.50035447 0.30901855 0.15275978 0.22837697 -1.0291693 -0.57299685 -0.73337984 0.4521238 -0.091168486 -0.1435811 -0.13336258
291 -0.085570544 -0.24002753 -0.17911057 0.37522063 -0.17987406 0.17124489 0.065987974 -0.25141767 -0.61487937 0.07804067 -0.21196419 -0.3748534 -0.25081953 0.23682573 -0.37768283 0.777399 0.00016162048 0.22837283 0.22172283 0.071218275 -0.3232866 -0.21417008 0.01902511 -0.75005126 0.31204027 0.4891768 -0.5395826 0.46522212 -0.12222838 0.06304707 0.20669816 -0.050259896 0.043598995 0.18925704 -0.04105157 0.10456665 -0.13016537 0.41303954 -0.21834949 -0.17572927 0.09533863 0.39620987 0.9115951 0.20694022 0.07934297 0.4712347 -0.5621005 0.010786168 0.22153957 0.10347119 -0.30161622 0.7124653 0.30932137 -0.284354 -0.44362104 0.5260705 -0.049942642 0.8095416 -0.090223335 -0.73763424 -0.19598916 -0.2936486 0.118786 0.41898724 0.34490994 -0.27966738 0.17724249 -0.4157654 0.35908756 -0.5813714 -0.022033516 -0.07010144 0.15095943 0.099580616 -0.11549886 0.30394137 -0.14181341 0.38857743 -0.08455835 0.6745775 0.0015051524 -0.0984403 0.20590046 -0.36718175 -0.39510107 -0.84810454 -0.1988145 -0.14727768 -0.11403925 -0.21198305 -0.07964676 -0.25190842 0.10311975 0.11156472 0.067325726 0.08580528 -0.023680247 0.20131266 -0.05912488 -0.094211355 0.44484144 -0.14767164 -0.38962376 0.077501245 -0.24007551 0.3827438 0.29280102 0.7060475 -0.40031606 0.50803196 0.0042430293 -0.12526615 -0.33108044 -0.1517413 -0.12334884 -0.35338116 -0.08173354 -0.31307232 0.49994835 -0.15201774 -0.24059096 -0.5787678 -0.18096389 -0.30397835 0.6391877 -0.124765396 0.053433735 0.34100655
104 -0.15171923 0.010250414 0.23966278 -0.17438638 -0.0774029 -0.19373477 0.4334305 0.0455055 0.35495013 -0.039403643 0.052477587 -0.30365112 -0.1694416 0.10846644 0.04732194 -0.1415453 0.4656252 0.31637308 0.12487275 -0.09307546 -0.3497026 0.4946696 0.099069975 -0.004139855 -0.015659017 -0.26315102 -0.20692585 0.41010967 0.05542461 0.12415195 0.34479794 -0.22273035 0.00241876 0.21398175 0.1951186 -0.121636145 0.069554605 0.14693938 0.40496677 0.28170732 0.22359988 0.03725409 0.028795261 0.07383964 -0.047811717 -0.048855573 -0.18792312 -0.13536079 0.0566738 0.08152494 0.19155529 0.14729121 0.21305639 0.21902914 -0.36697614 0.13251276 0.14534503 0.29350513 -0.13229914 -0.19526622 -0.2467737 -0.12445934 0.07121082 -0.016591193 0.30693564 -0.2520614 -0.33767733 -0.05771116 -0.024249213 0.081791766 -0.2997206 -0.34735546 -0.10225055 0.13791828 -0.41777748 -0.19122474 -0.021344488 0.02535855 -0.6253113 0.14253265 -0.17935182 -0.106351025 0.22433902 -0.18749872 0.37618276 0.333272 0.035878554 -0.17701305 -0.12367043 0.05832655 -0.23313025 -0.25983426 -0.1383134 0.004951343 -0.16008565 -0.057627134 -0.024703342 -0.11517477 -0.0092990175 0.16364548 0.17464317 -0.19193023 -0.08782204 0.18502492 0.33471623 -0.19255231 0.06754888 0.006080807 -0.15546618 0.077168085 0.15863974 0.07344968 -0.17812437 0.0052933753 -0.035629258 -0.24267997 -0.12148427 -0.027055264 0.18279256 -0.122882396 0.15633287 -0.2302032 -0.135214 -0.13280033 0.3606407 0.011395665 0.11887884 -0.029789558
92 -0.089065924 -0.02790239 0.3314568 -0.118081845 -0.056950923 -0.16356929 0.37849957 -0.031027649 0.28528392 -0.024903711 0.08127347 -0.19123812 -0.13582815 0.091163926 0.07828541 -0.1653838 0.3968767 0.3327453 0.16736959 -0.009549343 -0.22318043 0.46420655 0.048821278 0.0049323444 -0.09150334 -0.33937925 -0.24877353 0.5439885 0.098286614 0.20169382 0.39032814 -0.19796513 -0.09653837 0.25517964 0.24042532 -0.15154946 0.081434846 0.16331753 0.38355318 0.21806902 0.25254962 0.015343575 -0.047068495 0.044853292 0.0025006218 -0.1220396 -0.16639403 -0.06055961 0.03305757 0.15874827 0.08335841 0.19689463 0.22202097 0.15678073 -0.4311374 0.15625314 0.18957789 0.27647862 -0.17952901 -0.17364725 -0.33059824 -0.15956157 0.0032809763 -0.046119098 0.16970964 -0.2773718 -0.35679302 -0.017828314 0.037051797 0.049307104 -0.2856258 -0.3271395 -0.14875415 0.24850084 -0.35407776 -0.15787674 -0.061800312 0.043734886 -0.55315626 0.17339149 -0.28429914 -0.23061173 0.2466463 -0.22218396 0.33056808 0.3159788 0.15151475 -0.10532746 -0.11909526 0.12424338 -0.1796575 -0.2894421 -0.20153025 0.050579097 -0.20273188 -0.09491126 0.075170256 -0.10215128 -0.028525885 0.22360541 0.12667291 -0.28723985 -0.12606966 0.14278825 0.3115456 -0.16417274 0.09232313 -0.05566292 -0.21374844 0.16100177 0.047901362 0.04089614 -0.09152057 0.018895116 0.038835257 -0.2658546 -0.20224999 -0.08113246 0.23610349 -0.09272705 0.108027816 -0.16255926 -0.105426066 -0.10708338 0.33514237 0.019452596 0.07686278 -0.018034022
279 0.23702507 -0.12753673 -0.062419742 0.16807449 0.032072876 -0.040090483 0.05541026 -0.05705029 -0.11394641 0.28440684 -0.1332138 -0.026664082 -0.06822304 0.100013286 0.049096912 0.6073797 0.022442691 0.08627702 0.30643323 0.047904953 -0.28814188 -0.27600333 0.033975895 -0.30926165 0.30760822 0.19568974 -0.14679976 -0.01557743 0.3464505 -0.020002374 0.1128082 -0.0038280133 -0.24507245 -0.30054465 -0.17364672 0.17227118 -0.35255587 0.3437527 0.035596877 -0.14013392 0.044271123 0.13899067 0.8447457 0.002493428 0.29260877 0.32647026 -0.5654169 0.06121932 0.33964574 0.1148659 -0.24985847 0.31079516 0.4504897 -0.46980113 -0.2917925 0.29018044 -0.046424173 0.5921168 -0.107611105 -0.39068553 -0.16464524 -0.007054868 0.07651857 0.1088878 0.10286527 -0.0200239 0.04867511 -0.057975575 0.1957807 -0.12150391 0.1347482 0.114263 0.2240203 -0.014605726 -0.27843037 0.16600877 -0.21198286 0.5108565 -0.38442063 0.5378463 0.11397786 -0.004280845 0.09099086 -0.1683492 -0.17149496 -0.29215175 -0.08522145 0.11572027 0.06491479 0.012094508 -0.06944228 0.10982266 0.13958353 0.023711631 -0.08045498 0.04835688 0.14081801 0.46976662 0.07787607 -0.026340047 0.73301595 -0.08979819 -0.47637787 -0.0435256 0.027778335 0.3180561 0.1406082 0.34129366 -0.08908586 0.5949152 -0.11090866 -0.029574731 -0.17795986 -0.26114163 -0.27632096 -0.61928856 -0.09294315 -0.5056885 0.3401409 -0.16782746 -0.07118321 -0.69393104 -0.37994087 -0.39238262 0.5538722 -0.022809047 -0.106450334 -0.016971981
179 0.2724786 -0.07090249 -0.2329248 0.17083526 0.0485524 -0.15867878 0.051915307 0.029784989 -0.21339627 0.22414152 -0.13983925 0.03966159 -0.11030112 0.08515887 0.001330486 0.5832542 0.03184851 0.21338326 0.25012526 0.045191932 -0.3432861 -0.26212627 -0.08332511 -0.38814062 0.3297301 0.19753645 -0.12317527 0.007384759 0.35994864 -0.013812205 0.10651121 0.04270456 -0.18420587 -0.2501898 -0.08752258 0.15486972 -0.2803384 0.4316565 0.03330657 -0.02675196 0.07607479 0.17582437 0.8223552 0.019957328 0.37235755 0.4013627 -0.5223441 0.11500674 0.25133258 0.11807925 -0.2035845 0.30588183 0.5172086 -0.42622882 -0.3095346 0.2577651 -0.043338224 0.5662498 -0.121614404 -0.29447946 -0.19751252 -0.01267938 0.11522949 0.16918685 0.21123858 -0.0650562 0.12904173 -0.18387961 0.13371782 -0.13098639 0.053878438 0.102747895 0.15158914 0.016929245 -0.39923882 0.15333745 -0.16454765 0.50987524 -0.33970276 0.578608 0.12292726 0.09594097 0.04460478 -0.12294441 -0.19363506 -0.35290655 -0.20263162 0.11121159 0.09920202 -0.017559746 -0.0382818 0.041542385 0.14699228 0.09993932 -0.044992656 0.1011065 0.16273755 0.41257012 0.023186771 -0.047297306 0.6859533 -0.1045045 -0.43561494 -0.0032271082 0.084115446 0.31817338 0.17022489 0.2558591 -0.13051333 0.6789748 -0.17637168 -0.065474875 -0.20781842 -0.24805428 -0.31908002 -0.62661 -0.22942588 -0.59851754 0.35088223 -0.26443115 -0.14861692 -0.5778273 -0.35744727 -0.43029848 0.43187705 -0.024229314 -0.091019146 -0.0130534265
280 0.24805264 -0.12312032 -0.27666685 0.12499128 0.08078584 -0.17560649 0.111882366 -0.020529905 -0.16071324 0.22494362 -0.19780037 0.00050055893 -0.09769392 0.06618417 0.027973149 0.5125656 0.006835632 0.133623 0.29869094 0.018415943 -0.27651468 -0.18399708 -0.08082389 -0.32920477 0.28160566 0.1869018 -0.113791555 0.022858942 0.37020963 -0.0041348506 0.11166176 0.012890269 -0.16032901 -0.22676274 -0.20924696 0.17785385 -0.2736662 0.39976496 -0.010180121 -0.07881381 0.012023787 0.12423156 0.86633897 0.08136886 0.32655877 0.3955082 -0.5592755 0.12532797 0.29196823 0.071919456 -0.28919446 0.38869917 0.47829804 -0.47952014 -0.27489012 0.3278194 0.011249912 0.6052928 -0.13104777 -0.30418 -0.22956216 0.0025097101 0.15658332 0.10016661 0.2073572 0.009583566 0.06736772 -0.08537063 0.16479585 -0.21476997 0.04912914 0.14899804 0.15621305 0.08109827 -0.32435992 0.12441305 -0.22035936 0.54390574 -0.34192458 0.44765043 0.17604427 0.029167162 0.059916057 -0.10458701 -0.1250353 -0.29925662 -0.14543696 0.18381776 0.1263286 -0.0097382385 -0.045499366 0.014871522 0.21396518 0.11253017 -0.11581596 0.063640036 0.21221906 0.4166151 0.036437273 -0.09781004 0.6971658 -0.11524112 -0.4385696 0.018367128 0.05704555 0.38338235 0.21097746 0.3094631 -0.043649137 0.5767124 -0.18673038 -0.14185023 -0.09514654 -0.2186752 -0.30861694 -0.633879 -0.18122968 -0.5086586 0.37780517 -0.23531683 -0.19250731 -0.59190214 -0.37224177 -0.4623098 0.45370796 0.009465451 -0.06517648 -0.07836328
282 0.20093723 0.010431623 -0.21284129 0.20843646 0.081831954 -0.09802373 0.057619344 -0.018077789 -0.1819324 0.26831585 -0.10225069 -0.026537543 -0.031452432 0.042688813 0.092107825 0.5847214 -0.054616503 0.15669458 0.3660998 0.02238602 -0.3190741 -0.2970651 -0.043195244 -0.32678887 0.27209634 0.27289104 -0.18440017 -0.00719407 0.33140495 0.0005020529 0.076001756 0.056768823 -0.20248967 -0.19789322 -0.20341536 0.15895858 -0.27684602 0.36566967 0.043961897 -0.107391864 0.045803495 0.16873975 0.89692235 -0.060025863 0.32453513 0.36221614 -0.5915072 0.072058484 0.29192743 0.0201992 -0.23476627 0.3825374 0.50697196 -0.5485422 -0.28695232 0.3455029 -0.046945404 0.48400122 -0.16032459 -0.31325737 -0.23866399 0.008608552 0.103661574 0.05095754 0.090189315 -0.020387555 -0.008605323 -0.045767196 0.13635138 -0.13921079 0.107084796 0.1448241 0.19165178 0.11038145 -0.3130793 0.1238327 -0.1519832 0.6464804 -0.3399281 0.55233324 0.14498487 0.0041386597 0.055946335 -0.049137834 -0.1604283 -0.32980582 -0.16360469 0.13382122 0.06772133 0.08796961 -0.016862223 0.015768142 0.19215646 0.044947542 -0.087626345 0.08434861 0.14570855 0.44337133 -0.02272163 -0.060388945 0.708969 -0.075522475 -0.40343514 0.029237365 0.08482417 0.2819878 0.09151916 0.2826626 -0.085402966 0.59617406 -0.100443475 -0.13390553 -0.26642534 -0.2761077 -0.26587895 -0.63359946 -0.21237491 -0.4778665 0.38703257 -0.24117067 -0.16814749 -0.7091502 -0.4113848 -0.4221843 0.42355147 -0.04364261 -0.057076298 -0.045402426
190 0.3192354 -0.06290045 -0.1686381 0.19551434 0.088066205 -0.074977666 0.12344461 -0.036615584 -0.16641356 0.18028572 -0.16304757 0.010192401 -0.1881611 0.04627733 0.06443866 0.5948193 0.024518644 0.1221842 0.29644546 0.037054382 -0.2538236 -0.35736117 -0.007897856 -0.22555567 0.31845793 0.11964398 -0.13727136 0.0056483746 0.3442454 -0.058287654 0.10662306 0.030834792 -0.15961328 -0.22126338 -0.24073905 0.19129281 -0.23718312 0.40943187 -0.052183203 -0.14739078 -0.010208711 0.19766335 0.8327156 0.030572534 0.40923464 0.34979934 -0.5743252 0.17932464 0.3092205 0.07649888 -0.26294357 0.35164195 0.47441694 -0.51261425 -0.22747183 0.33059552 -0.0057680155 0.5177075 -0.041604627 -0.32426015 -0.21709433 0.055507086 0.13609199 0.1109094 0.18335772 -0.10702095 0.07885819 -0.09058317 0.15423271 -0.12561943 0.06619309 0.035735145 0.13876571 0.048880287 -0.23166831 0.16574064 -0.17947777 0.50087315 -0.45372894 0.5713218 0.21367902 0.033260424 0.09896861 -0.11208875 -0.08804352 -0.30865383 -0.041012656 0.17418973 0.09550886 0.024341356 -0.026337998 0.06347918 0.06415186 0.08659297 -0.006170821 0.10238897 0.13281126 0.43769 0.09397642 -0.042372063 0.73921996 -0.05633157 -0.43249694 0.006730315 0.176808 0.4446467 0.14359058 0.3554852 -0.1487575 0.5966157 -0.09731885 -0.0808155 -0.13782212 -0.2304349 -0.21760532 -0.63522226 -0.16189045 -0.55663955 0.32110408 -0.22674072 -0.1734167 -0.6042983 -0.29827893 -0.4085607 0.49049437 0.014489319 -0.11182435 -0.059427425
271 0.25291088 -0.08820466 -0.16023807 0.16423446 0.04549269 -0.071030214 0.042516988 -0.027430685 -0.14982146 0.19631425 -0.20300685 0.0004097232 -0.092790894 0.06303337 0.032495968 0.5911537 0.04074778 0.14252625 0.35126302 0.040164117 -0.3797017 -0.29431978 -0.028604135 -0.2850189 0.41200805 0.20642522 -0.21281645 0.075974576 0.38393596 0.0053218342 0.08205202 -0.07027198 -0.20718227 -0.19742696 -0.19980842 0.12951508 -0.13804598 0.3395571 -0.05354172 -0.12428655 -0.011266289 0.17739686 0.8562648 0.0054672034 0.34776628 0.35873842 -0.4787261 0.1211737 0.24567555 0.06508328 -0.23577958 0.41254655 0.43326285 -0.5834792 -0.23565573 0.40274873 -0.0958615 0.48636502 -0.18052286 -0.3796891 -0.044141456 0.029183872 0.034376547 0.05617677 0.2183617 -0.06416305 -0.012386049 -0.08183807 0.1481996 -0.08090337 0.049841918 0.11280723 0.09695051 0.05048532 -0.21502572 0.12675132 -0.21929751 0.5626376 -0.33159015 0.51470184 0.12565494 0.040530764 0.06111422 -0.16218147 -0.13095027 -0.3155531 -0.0973119 0.108448625 0.12367825 -0.015284563 -0.05795733 0.06119762 0.13463464 -0.015132223 -0.054794922 0.07592768 0.10045361 0.37782237 0.102462366 -0.096491046 0.6467318 -0.019956106 -0.4884865 -0.032048643 0.0501691 0.39495862 0.1279776 0.31306484 -0.16890006 0.5939521 -0.18353803 -0.0973847 -0.131979 -0.2340463 -0.3677473 -0.6765586 -0.09886948 -0.5835929 0.4137329 -0.28814295 -0.24000788 -0.64672744 -0.3589129 -0.42621782 0.50102025 -0.06264067 -0.08328955 0.019064112
