1648 128
72 0.04855734 -0.25804704 0.037850738 0.09700808 -0.036723256 -0.30806875 0.13017552 0.01660833 0.13018307 -0.15460356 0.0058897007 -0.0043778233 0.17929214 -0.3497851 0.1158995 -0.17478609 -0.46095014 -0.28621277 -0.056813657 0.29322097 0.11186031 -0.07098741 -0.14071989 0.112032026 -0.38895142 0.46327674 0.48795432 -0.02979251 0.22228259 -0.08986335 -0.10724358 0.035218876 -0.44645804 -0.28455448 -0.21936968 0.18578856 0.09100009 0.51718223 -0.02437663 0.11185116 -0.15140414 0.2909801 0.013517266 -0.28966883 0.36315793 -0.2682228 0.07452741 -0.3915993 -0.556784 0.8093973 0.060223997 0.13338184 -0.36328447 -0.039315477 0.07674038 0.21337354 0.1876487 0.19970912 -0.11509224 -0.175229 -0.1385742 0.057060704 0.41410178 0.36140344 0.050326783 -0.09559059 0.052046355 -0.21496168 0.32818967 -0.15111996 -0.5242805 -0.039498962 -0.08403836 0.20023593 -0.21954584 -0.03511335 -0.047287688 0.22369857 -0.15530407 0.33577055 0.026426367 -0.02822623 0.17584667 0.25315148 0.11647937 -0.37479714 -0.0041380078 0.33585587 0.25916296 -0.0041105933 -0.23739274 0.04015171 0.1881801 0.26217756 -0.29204127 0.26857957 -0.0132357925 0.093030065 0.25800467 -0.061708238 -0.36139607 -0.5655272 -0.32100397 -0.10698235 -0.3756294 0.13405706 -0.2567494 -0.0013324767 0.08051503 0.23588908 0.19766591 0.14474727 -0.13922292 0.04039681 -0.3891284 -0.038792565 -0.25419942 0.3238525 0.5156419 0.45885754 -0.054586545 0.030479081 -0.34922945 -0.06444399 0.00044124946 -0.3289491 -0.010936916 -0.09896988
142 0.08136353 -0.8017398 0.033948373 0.0672617 -0.032186292 -0.03444305 -0.22390084 0.20422761 -0.08408865 -0.25699887 -0.028771983 0.14322707 -0.007294594 -0.015733046 0.32866037 0.37204438 0.18323717 -0.07766199 0.22021566 0.11897854 0.123722866 -0.13524301 0.0053104907 -0.64711034 -0.1601554 -0.05122765 -0.18610284 0.5843177 -0.009964048 -0.090346426 0.19660816 -0.0330435 0.12706622 -0.031305745 -0.48349246 0.49205655 0.23960242 -0.3379827 -0.3680303 -0.1863632 -0.21207371 0.08340324 0.2030856 0.07808332 -0.058344215 0.014084406 0.048131477 -0.32700193 -0.44777146 -0.18403262 0.063019946 0.13386166 0.7988783 -0.08513911 -0.31596655 -0.24345364 0.5279573 0.106946304 0.30112714 0.028463624 -0.30416423 0.0053992346 -0.112713076 0.23496498 -0.34518084 0.089493796 0.032206178 0.16349903 -0.21774319 -0.34800696 0.49415806 -0.15185732 -0.172696 -0.43751812 0.03160592 0.0076604374 -0.3406344 0.21282679 0.038754717 0.4518333 -0.27057248 -0.021531377 0.14105955 0.59747577 0.58234507 -0.18029344 -0.30485344 0.2884099 -0.065340534 -0.07414092 -0.4916516 -0.017888391 0.05110094 0.41295892 0.4699795 0.120839536 -0.419671 0.20325947 -0.17843494 -0.3282896 -0.5401448 -0.39917237 -0.36575383 0.008234169 0.18511036 0.06541057 -0.24883068 0.47412515 0.16311838 -0.22252929 -0.29142016 -0.2911183 -0.0013710447 0.30558228 -0.2429267 -0.36214912 0.23704386 0.11967437 0.1681994 -0.008611159 -0.5772459 0.059979245 -0.80651665 0.20393544 -0.053005002 -0.39930356 -0.19345975 0.18267079
247 0.30922228 -0.20572759 -0.0671662 0.05120817 0.016588433 -0.31462818 0.14005628 0.1275408 0.21524483 -0.2598979 0.07171189 -0.053098932 0.24074382 -0.53981316 0.110798866 -0.20967448 -0.53286934 -0.2852504 -0.008387327 0.3476711 0.20645115 -0.10984672 -0.051900666 0.20409927 -0.35997844 0.556739 0.6629833 -0.10521872 0.32105678 -0.040528648 -0.116735436 -0.04407622 -0.46854573 -0.21471734 -0.239524 0.08679651 0.03987115 0.5084726 -0.107542545 0.06833936 -0.106859416 0.2288559 0.088664256 -0.28444776 0.4922865 -0.20868099 0.17498739 -0.5235305 -0.6368961 0.8284873 0.070418626 -0.01565852 -0.2167039 -0.13347138 -0.051151406 0.2531445 0.2743051 0.24435493 -0.15463437 -0.04559263 -0.13849248 0.16163293 0.35798246 0.4504573 0.14661932 -0.12122657 0.028259732 -0.31051233 0.47298974 -0.19951102 -0.44148982 0.104619846 -0.027626656 0.21902753 -0.19495344 -0.04835891 0.025229195 0.33644283 -0.36747015 0.2739892 0.05758886 -0.10767829 0.12654383 0.2023928 0.11202769 -0.3307505 -0.08925727 0.39437753 0.371866 0.11889746 -0.28653985 -0.019369692 0.32874864 0.18291685 -0.3446026 0.3488114 -0.028081963 0.09770997 0.39711496 -0.0674237 -0.35421342 -0.6586851 -0.38490725 -0.12080833 -0.43130574 0.18027806 -0.104894996 0.03886144 0.11860833 0.45422235 0.13145918 0.15515867 -0.09988828 -0.07982148 -0.41088715 -0.17084207 -0.18508504 0.3439398 0.57162493 0.5446073 -0.024668416 0.068168245 -0.33954626 0.15424685 -0.08541945 -0.2521228 -0.07187283 -0.2094555
1739 0.08592044 -0.2616835 0.07170847 0.1623881 0.03173847 -0.27706778 0.10374151 0.038764946 0.09501455 -0.1445238 0.008434501 0.069343135 0.18600321 -0.51856524 0.23639853 -0.22041099 -0.63875425 -0.4146398 0.051962417 0.2145398 0.08035033 -0.07946243 -0.24041802 0.2321252 -0.40199494 0.36232868 0.60781115 -0.124186456 0.14072774 -0.15277204 -0.08733847 0.09334743 -0.4493094 -0.13535309 -0.23099151 0.13483581 -0.0036699027 0.54070216 -0.1248218 0.16101512 -0.23435438 0.25036332 -0.07788645 -0.3579763 0.3085174 -0.286476 0.14384823 -0.5128805 -0.7415601 0.87316364 0.06048239 0.07683061 -0.36206114 0.01965751 -0.046951458 0.15717669 -0.016703393 -0.027998034 -0.042830285 -0.17890456 -0.118589535 0.07572849 0.4471605 0.39101684 0.10342556 -0.15087986 -0.026163168 -0.33052894 0.28562587 -0.1161024 -0.563406 -0.03342618 -0.08798927 0.33276126 -0.074760325 0.025721304 -0.09017537 0.14658111 -0.36632857 0.16192237 -0.031595755 -0.029219799 0.23949884 0.2286479 0.044558182 -0.43298846 0.030233208 0.40318847 0.3486063 0.019568395 -0.32722852 0.15235835 0.13087332 0.2616477 -0.20392644 0.48075017 -0.068621635 0.11982755 0.3115214 -0.099528804 -0.40331143 -0.55783427 -0.3730784 0.043770656 -0.51870865 0.13752633 -0.2679714 0.09044698 0.036130242 0.2107968 0.33995658 0.1582116 -0.022934085 0.08389057 -0.5114988 -0.032667283 -0.27376828 0.49438256 0.48653305 0.4694663 -0.07163427 0.010241106 -0.32488173 -0.051464014 0.1699179 -0.1861321 -0.01816865 -0.2752668
30 0.014003478 -0.06297115 -0.018170528 0.033243854 -0.0009940732 -0.19961041 0.13740169 0.09570077 0.08878273 -0.100454845 0.03849373 -0.04494746 -0.01029085 -0.105924584 0.2779764 -0.06547201 -0.07629149 -0.05288815 0.009143673 0.11655 -0.18337591 0.18771313 -0.25463152 -0.03589523 -0.31493008 0.28433275 0.16062617 0.11999048 -0.014425062 0.1717811 -0.124702126 0.034449477 -0.20995082 -0.012493618 -0.045130663 -0.12152262 -0.28887782 0.5356809 0.053384557 -0.31970206 -0.27212778 0.22613461 0.2529665 -0.27306 -0.06264138 -0.082451314 -0.10855825 0.1204869 -0.1309525 0.43016455 -0.08218939 0.15988451 -0.25000364 -0.14796558 0.031238385 -0.31941763 0.03373467 0.046670165 -0.11679392 -0.24178678 -0.30949512 -0.13544525 0.294721 0.11406489 0.44091517 0.17380425 0.016348343 -0.28174818 0.36383218 0.034766853 -0.27163005 0.18455943 -0.24210408 0.066512056 -0.2528596 0.13413003 -0.26975453 0.12953633 0.0050122035 0.26367733 -0.091085956 0.14876597 0.06750548 0.016729433 0.27855086 -0.30170012 0.16832785 -0.09723073 0.13831869 -0.21027483 -0.43267298 -0.018018514 -0.071868576 0.40917313 -0.13762778 -0.16553205 -0.11103093 -0.34447747 0.5240477 -0.05149807 -0.28740054 0.13736022 -0.32890016 -0.1961665 -0.098743886 0.031052278 -0.13999876 -0.044188283 0.056390103 -0.1312826 0.34227154 -0.21112204 0.071716934 -0.31192172 0.0546467 -0.01205777 0.038667668 0.02023154 0.06331455 0.38624245 -0.016887687 -0.46028385 -0.20460099 -0.052208714 0.07742782 -0.63911235 -0.1874301 -0.1358997
9 0.2606991 -0.22323298 0.2321625 -0.01315267 0.018284189 -0.3235911 0.15332328 -0.02325601 0.014280178 0.37230244 -0.17834328 0.0918001 -0.2618323 0.047029667 0.008643921 -0.080857635 -0.15499978 0.036824837 -0.25732052 0.02391688 -4.230649e-06 -0.14113115 0.18245137 0.16780747 -0.29367954 0.45594347 0.06696546 0.16391326 0.062973574 0.23512168 -0.22864601 0.02671171 -0.07190041 -0.15893833 -0.102901235 0.07833613 -0.084982134 0.1955696 -0.055185094 -0.37758535 -0.3198728 0.26594728 0.40101057 -0.105146736 0.07522322 -0.056563653 -0.22257634 -0.17334296 -0.018048001 0.36353108 0.12365219 0.10354888 -0.060687754 0.14995998 -0.018970806 -0.35177583 0.19629493 0.2307964 -0.03032675 -0.25300804 -0.20718828 -0.084597155 0.60198414 0.04248094 0.24418299 0.07108866 -0.013606496 -0.13307537 0.3869609 -0.17887536 -0.3176975 -0.005032502 -0.085627675 0.35423207 -0.24150054 0.056332543 -0.069397494 0.3226192 0.089068875 0.05566434 -0.019543752 -0.094716236 0.22754972 -0.041501872 0.49591458 -0.35870695 0.09488521 0.04294391 0.25024888 -0.1180418 -0.45475474 0.029714905 0.1714423 0.12550446 0.072469056 -0.15053914 -0.20525081 -0.11778805 0.44827455 -0.18655531 -0.17239699 0.07873206 -0.043146268 -0.39407876 -0.29107952 0.04433009 0.051700443 -0.19869593 -0.049605068 -0.03827093 0.008787885 -0.33088234 0.13058737 0.0026522866 0.020032872 0.081505895 -0.09238311 0.0946994 0.02547279 0.037467234 0.033842023 -0.33259022 -0.27593637 0.02012844 -0.120035134 -0.557313 -0.061041925 -0.26535743
8 0.0027759746 0.015315156 -0.06975898 -0.07964166 0.2582698 -0.40490153 0.025672056 -0.07226403 -0.036033355 0.1570295 -0.053822607 0.08128953 -0.21186252 -0.23986326 0.23640719 -0.09530875 -0.05416189 -0.1482877 -0.056794614 -0.17382753 -0.015017074 -0.13491662 0.0095497295 -0.12177901 -0.20860916 0.30622154 0.24520747 0.041909225 -0.2658381 0.103463784 -0.10273388 -0.008056497 -0.22596294 -0.07521445 -0.13297442 -0.055500545 -0.21892788 0.4718948 -0.15313439 -0.5123391 -0.2926758 0.36124274 0.024063174 -0.48701113 0.37203503 -0.09298244 -0.015555922 -0.13446432 0.05590333 0.33395755 -0.0102052055 0.21028787 -0.16113909 -0.07762076 -0.09946458 -0.2288137 0.07293695 0.024496632 -0.11910505 -0.1890992 -0.3144766 0.08122255 0.30003998 0.07595588 0.50095385 -0.08931996 0.10689789 -0.056651846 0.18071797 -0.035094537 -0.42733848 -0.08294547 -0.049330294 0.09925306 -0.44659075 0.03509734 -0.22743632 0.20542009 -0.12988146 0.22634682 -0.1321234 -0.010008352 0.18028611 -0.066666216 0.37815782 -0.13577259 0.13866714 0.08192682 0.3180242 -0.08607025 -0.34464982 -0.066351414 0.10543946 0.32318318 -0.094248965 -0.19085191 -0.17874587 -0.044253394 0.6024122 0.012397423 -0.15343545 0.03396645 -0.19400835 -0.21250048 -0.009138721 -0.050381128 -0.09942346 -0.036774293 -0.35159317 -0.15514295 0.10707683 -0.3476746 0.24656841 0.04870283 0.032712277 -0.183975 -0.11104922 0.115411036 0.20267138 -0.0063831657 -0.027190778 -0.33369318 -0.2061747 -0.1813349 0.1649772 -0.288391 -0.05554031 -0.35589233
21 0.2514184 -0.18908489 -0.009268951 -0.24411927 0.012298478 -0.45747888 0.07289398 -0.034844737 0.23118329 -0.067088604 0.020924967 -0.018377487 -0.12177388 -0.09246933 0.30298436 -0.18336765 -0.19594039 -0.11426493 -0.13412808 -0.032217048 0.004971305 -0.19018613 -0.2206955 -0.016866066 -0.15365796 0.3193776 0.33455747 0.049367003 0.053732224 0.16132087 0.03524962 -0.06501958 -0.06765763 0.10897118 -0.08867945 0.023911227 -0.1020865 0.3216371 -0.0012209117 -0.24376287 -0.19668648 0.10620837 0.27332997 -0.27875268 0.28758153 -0.18241446 -0.16199037 -0.1870637 0.07922904 0.49304825 -0.06803462 0.29868904 -0.20471399 -0.17208599 0.008853202 -0.07529405 0.3211723 0.3514615 -0.038161352 -0.19136208 -0.114062905 0.1448042 0.3911696 0.076654136 0.25931218 -0.09030206 0.13762036 0.012386821 0.33119637 -0.10961128 -0.5207992 -0.052956454 -0.00676484 0.121366136 -0.6386682 0.034938145 -0.24346352 0.41122004 0.047333743 0.082717 0.0727966 0.14996102 -0.0020150766 0.12577792 0.122639015 -0.14301857 0.23944227 -0.17118078 0.33716667 -0.13803652 -0.30591488 -0.01861774 0.08916462 0.24305294 -0.058907248 -0.19801469 -0.0019024946 -0.052051254 0.21443862 -0.12914297 -0.24508715 -0.16919924 -0.1838859 -0.38968763 -0.16624632 0.0262727 -0.14641894 0.07287039 -0.108985454 0.05980449 0.23467274 -0.41233906 0.021577671 -0.048520755 0.09755194 -0.06840572 -0.1371809 -0.02103664 -0.008338913 0.32547212 0.18814315 -0.34780818 -0.21598701 0.14166227 -0.16086851 -0.34920853 0.052377135 0.13993914
27 0.116763055 -0.017762698 -0.0043543885 -0.120409235 -0.033784375 -0.23633859 0.16878286 0.08898111 0.063054696 0.23523398 -0.16353478 -0.16467458 -0.08352536 0.17901374 0.322929 -0.39739794 -0.14694798 0.05079945 -0.020397507 0.15039644 0.1288266 -0.26623425 -0.31476182 0.022177212 -0.25396967 0.3874231 0.10383084 0.05654122 0.056550674 -0.01153337 -0.21481276 0.08774138 -0.3129906 0.16666599 0.07501087 -0.1008842 -0.1523012 0.22721818 0.09837429 -0.15234184 0.023632154 0.2535366 0.07557325 -0.33683777 0.14909995 -0.00021377206 -0.14965585 -0.10857178 -0.09070718 0.37343943 -0.20830852 0.23725766 -0.17943248 -0.24126695 -0.07275436 -0.51649475 0.13580024 0.1253319 -0.25917912 -0.17253578 -0.3060825 -0.1878484 0.34576482 0.13467593 0.26189253 0.032022603 0.019442257 -0.28824392 0.25271046 -0.13624525 -0.32522863 -0.08897736 -0.01908854 0.07440116 -0.2229082 0.3422287 -0.2515994 0.38123935 -0.06567352 0.23676473 0.23572682 0.08417381 -0.051203124 0.18311319 0.45802805 -0.20695752 0.23141254 -0.0040465593 0.20807143 -0.085322514 -0.39943653 -0.006167058 0.097593434 0.10515645 0.016406653 0.049022786 0.04496983 0.034682218 0.3702743 -0.12987703 -0.22445871 -0.15918307 -0.20256199 -0.17863138 -0.31849888 0.16207732 -0.06982198 -0.06281784 -0.2130351 0.039176144 0.34858018 -0.10132324 0.15611923 0.17345615 0.021633927 0.033173528 -0.07988774 -0.0064753066 -0.031863764 0.32579178 -0.028075423 -0.45022362 -0.22565858 0.00090552587 0.19469291 -0.51560783 0.10872442 0.037240468
74 0.13253139 -0.29736397 -0.06612349 -0.46041036 0.17832586 -0.26739258 0.14635824 -0.005233001 0.10830208 0.09232741 0.1458978 0.05022852 -0.10791217 -0.17370108 0.39071822 -0.20040527 -0.17665109 -0.04173658 0.17624135 0.20758834 -0.06599046 0.03960105 -0.023155686 0.051372223 -0.37968925 0.32521176 0.19319269 0.07961474 -0.06975211 0.13173258 -0.0938996 -0.14155479 -0.30445972 0.2067505 -0.23592335 0.13150966 -0.23358768 0.21739051 0.047370438 0.04622479 0.077784784 0.28303185 0.029199528 -0.20333341 0.22689822 -0.1382255 -0.31785572 0.015608903 -0.24902853 0.31207016 -0.0884562 0.23792909 -0.22395536 0.13289902 0.045369003 -0.43221378 0.091319576 0.18563306 -0.25655848 -0.050762996 -0.3003221 0.037178 0.648774 0.1900014 0.17012748 -0.04539834 0.046382982 -0.38754156 0.3039299 -0.03246607 -0.44472998 -0.14789145 -0.13701221 0.2598198 -0.3708737 0.2862847 -0.2410903 0.2857324 -0.19571708 0.055162802 0.002608493 -0.08128111 0.1769967 0.16732998 0.47927296 -0.04658796 0.030884037 -0.05501647 0.24001856 -0.28879264 -0.26521865 -0.06412523 -0.015108893 0.11667036 0.041739434 -0.046018474 -0.09359862 -1.1634082e-05 0.15283336 -0.09894197 -0.24799502 -0.3203814 -0.10961293 -0.12927517 -0.26203918 0.31409222 -0.09166804 -0.01602631 -0.2045084 -0.015258348 0.4150068 -0.4010467 0.32237223 0.28256214 -0.08583564 -0.02237536 -0.067988366 0.11903243 0.064773254 0.34187728 -0.02432416 -0.53836423 -0.20955652 -0.1450016 0.06933282 -0.27625334 -0.21397121 0.079965174
56 0.21486676 0.16562459 -0.17354833 0.001416184 -0.020700514 -0.1692996 0.16048974 0.07784848 0.34791434 0.12606305 -0.012720801 -0.018308831 0.09516156 -0.13266803 0.21687685 0.08891381 -0.010435581 -0.0071985926 0.16829497 0.39745858 0.022270802 -0.12797204 -0.072674096 -0.27847934 -0.21205926 0.126946 0.26093733 0.14158536 0.08741425 0.23900639 -0.29414994 -0.009897862 -0.042894408 0.1084006 -0.20379627 0.064029485 -0.1256731 0.46782196 0.05665461 -0.0823079 -0.11998635 0.27910438 -0.059699424 -0.10122301 0.33062539 -0.29043835 -0.13082893 -0.091759324 0.004174389 0.24983245 0.116714135 0.36826146 -0.06768734 -0.117492035 0.12221254 -0.21564429 0.018393172 0.01915964 0.10418213 -0.4013138 -0.47452292 -0.20316394 0.6452879 0.08031742 0.10114955 0.109913066 0.046050504 -0.11206591 0.33812743 0.20011918 -0.4770806 -0.22930482 -0.108667076 0.26681256 -0.33964753 0.23658757 -0.5747486 0.19262156 0.11867083 -0.0020747632 -0.115416855 -0.14441456 0.34462368 -0.096992284 0.13310406 -0.19706056 0.06607272 -0.0023067482 0.13370807 -0.22147298 -0.29590604 -0.06336321 -0.009293263 0.18137115 -0.11338113 -0.011393122 -0.29261133 -0.059333794 0.3988055 -0.07308908 -0.5040371 -0.2220061 -0.19553493 -0.32639012 -0.22303067 -0.03847528 -0.037258476 -0.042771723 -0.19998783 0.03187138 -0.016517151 -0.34648833 0.07665987 0.09251812 -0.1065333 -0.05116186 -0.17193158 0.00026432518 0.12331803 0.37307432 0.089862674 -0.3902196 -0.09454305 0.13831365 0.23494814 -0.57530683 0.28372693 -0.18639533
45 0.1636819 -0.07572749 -0.09382075 -0.13656074 0.008973556 -0.22564866 0.010571718 -0.01334044 0.14416423 0.07787142 -0.11891883 -0.056107484 0.031896897 -0.06995953 0.07997038 0.02564301 -0.03816657 0.13877338 0.17693006 0.32076007 0.17570952 -0.13677624 -0.17541851 -0.047787864 -0.35361016 0.19333756 0.09624244 0.3584845 -0.07625735 0.061922804 -0.47619492 0.1122762 -0.17908427 0.002933031 -0.14308271 0.05556684 -0.19022027 0.48578483 0.050415143 -0.1459319 0.102178484 0.38736343 0.15422611 -0.18506531 0.3098669 -0.09387783 -0.20657712 0.0128293745 -0.0076865293 0.4833936 -0.18266678 0.24582443 -0.18573126 0.17703661 -0.012500584 -0.08948328 0.22998384 0.11945604 0.054052286 -0.3412062 -0.38994443 -0.04269088 0.2474814 0.142469 0.34828514 0.03869603 0.111632645 -0.19816443 0.085776635 -0.04435943 -0.37416524 -0.08365782 0.08227513 0.15959758 -0.25763732 0.23290789 -0.40412086 0.27581403 -0.23609817 0.21915504 0.015467124 -0.028770672 0.16824797 -0.038473427 0.3328582 -0.030266508 -0.10143101 0.116689794 0.1639673 0.05433679 -0.43405372 -0.17746575 0.27850515 0.37498638 -0.024460763 -0.07382616 -0.15863329 -0.092206925 0.402883 -0.16686583 -0.27224207 -0.19661568 -0.038838502 -0.13153568 -0.40376365 -0.05656638 -0.11284153 0.031111948 -0.22675224 0.022114236 0.1609669 -0.48477557 0.112890474 0.09333077 -0.11578667 0.082077995 -0.30688262 0.24003467 -0.114169285 0.31117147 0.050472423 -0.32601768 -0.1436473 0.07594096 0.11616773 -0.39758962 -0.132901 0.035379544
62 0.063216 0.14560069 -0.100192614 -0.18135157 0.12248201 -0.28180516 0.11762284 0.0015159622 0.27368098 0.11497158 -0.0642917 -0.02812351 -0.076666966 0.17911905 0.28085268 -0.097704746 -0.27971187 0.032220118 0.17657286 0.41207874 -0.09653627 -0.3391197 -0.2763741 -0.0049881376 -0.36038512 0.28251553 0.17780465 0.022202056 0.048030145 0.13674745 -0.14158145 -0.11118157 -0.13732466 -0.012804963 -0.0928383 -0.073675826 -0.106432736 0.36060137 0.14018151 -0.09401594 0.09561452 0.21639842 0.09070406 -0.33798596 0.075761735 -0.24724022 -0.23743129 -0.08861834 -0.09691639 0.31522024 0.07274449 -0.023207415 -0.045379728 0.030808263 0.13683622 -0.2625354 0.09556312 0.0333371 -0.3642406 -0.2202203 -0.30688217 -0.14697424 0.27063215 0.14469546 0.15477061 -0.0720307 -0.0040723532 -0.14895862 0.29896632 -0.09007016 -0.44703054 0.02449263 -0.20977426 0.048168957 -0.2493962 0.34138435 -0.2620083 0.09206418 -0.23881774 0.28333405 -0.15409577 0.14622167 0.15468675 0.12150193 0.21876618 -0.30203503 0.16064708 -0.18152568 0.46397042 -0.22295684 -0.44657338 -0.121231064 0.23310399 0.28714603 -0.018311597 0.020774387 -0.21522745 -0.15119322 0.28256387 -0.08455198 -0.38467136 -0.39239752 -0.23391253 -0.25946027 -0.10548118 0.14543611 0.24630715 -0.096931934 -0.13961987 0.19193907 0.31863636 -0.35956994 0.13526422 0.07671596 0.050860852 -0.0064142495 -0.022590414 0.025412697 0.10196417 0.33651376 -0.09232891 -0.67974186 -0.34717113 0.10203801 -0.028967647 -0.48614717 -0.034933157 0.03826984
61 0.24370015 -0.07008735 -0.11080439 -0.068168655 0.14187059 -0.25182655 0.25463444 0.12693225 0.3230104 -0.16624628 -0.15044121 -0.058616366 0.0106667485 -0.20132285 0.35603932 -0.11641557 -0.117347986 0.08888245 -0.1138886 -0.08942181 -0.10236899 0.023862906 -0.09982175 0.032012925 -0.33512998 0.43404865 0.47253063 0.074261874 0.01886205 0.15312031 -0.2559356 -0.1908371 -0.31116816 0.20067522 -0.030176356 0.02108043 -0.18601438 0.2390662 0.16806585 -0.2853397 -0.12950227 0.4073452 -0.042423755 -0.18188585 0.49052528 0.11903517 -0.18292227 -0.21451288 -0.008097862 0.4938714 0.08040354 0.022856303 -0.22562529 -0.04274387 0.03088574 -0.4064175 0.023998817 0.019573653 -0.15688336 -0.22611983 -0.4441809 -0.17343266 0.23748182 -0.039643615 0.19244097 0.19462276 0.1293735 -0.16212624 0.46077132 -0.04906187 -0.38028672 -0.058078926 -0.029001933 -0.0468897 -0.065398656 0.2333546 -0.045411743 0.15208031 -0.06847192 0.1421166 0.059545226 0.025034703 0.12608154 0.037133448 0.33617526 -0.23855592 0.08514972 0.05087621 -0.0334002 0.0332625 -0.4413274 0.014020054 0.016366575 0.35708082 -0.07172929 -0.13312265 -0.10790278 0.031979363 0.5391442 -0.014762368 -0.07477114 -0.05029954 -0.28002 -0.38512835 -0.20757651 0.06330921 -0.019120889 0.033657674 -0.23878595 0.07706411 0.017147863 -0.46244583 -0.023273483 0.18702295 -0.12990189 0.07404763 -0.057032414 0.10570094 0.06197549 0.48080304 0.024808249 -0.31879216 -0.20552278 0.12136331 0.23683394 -0.3493306 -0.09892534 -0.22312573
50 0.03429788 0.0008390993 -0.11133108 -0.18257669 0.14100301 -0.10161456 0.09393675 0.13802215 0.3067206 0.042145543 0.046632778 0.090728045 -0.03536906 0.13422254 0.17282069 -0.09162369 0.1463699 -0.07259263 -0.13432287 0.0350213 -0.122035325 -0.03767295 0.054706894 -0.068391584 -0.31216896 0.41773173 0.15227531 0.08093126 0.027850408 0.27238938 -0.22699997 -0.19833075 -0.10596372 0.06761378 -0.08394309 0.0664769 0.029599532 0.37848783 0.062023047 -0.25942513 -0.043556016 0.43694985 -0.08636463 -0.17545936 0.3160044 0.03296569 -0.15340048 -0.08669343 -0.037106812 0.23578754 0.08733185 0.122410394 -0.2531685 -0.020013005 0.14693967 -0.3324633 0.15013804 0.15994112 -0.022887386 0.008179352 -0.2726511 0.08038205 0.2826084 0.16575673 -0.016450949 0.27646366 -0.08054787 -0.23124552 0.39912397 0.0030325502 -0.3376871 0.10282315 -0.0226007 -0.04024619 -0.28402084 0.25331008 -0.1514831 0.27928874 -0.060473755 0.18025243 -0.065331444 -0.102506846 0.08244705 -0.0031012222 0.11465564 -0.12199868 0.08082329 -0.15855172 0.26085532 -0.04668331 -0.45210367 0.047853127 -0.016530197 0.2550783 0.25947553 -0.03499488 -0.14638172 -0.1885892 0.3742433 0.09685737 -0.30065167 -0.44305924 -0.19378448 -0.4363461 -0.34834614 0.11512001 -0.03760809 -0.17547816 -0.10007416 -0.1351842 0.084188044 -0.3108789 0.13302606 0.077935115 -0.12224968 0.063125715 -0.09291323 0.07910255 0.047297455 0.48737139 -0.0074398834 -0.4840187 -0.19078794 0.2917382 0.066878974 -0.39090383 0.07687623 -0.2560406
57 0.20904998 -0.13831742 0.21767023 -0.13798122 -0.070691675 -0.14948308 -0.1868804 0.08181431 0.14790912 -0.14580563 0.07376259 0.024448246 0.0971352 -0.1563682 0.35577708 0.14932862 -0.042507827 -0.21570869 -0.031145178 0.025341103 -0.1711763 0.042408764 -0.18661413 -0.0606419 0.124561936 0.32964554 0.13965808 0.26245975 -0.04653409 0.28342754 -0.08289446 -0.2775419 -0.23793386 0.010947878 -0.11915602 -0.015235215 -0.25516406 0.2020521 0.24609157 -0.20304665 -0.22434522 0.28313035 0.027590627 -0.3228339 0.2721778 0.0045494754 0.05166407 -0.23823175 -0.17650902 0.50561947 -0.15332374 0.18778126 -0.23194999 -0.13111186 0.10088536 -0.31280786 0.18771467 0.21126705 0.09477507 -0.2290405 -0.21390504 0.13315812 0.3869752 0.1498926 0.102973126 0.05654653 0.0075193867 -0.20906086 0.7066823 -0.08855712 -0.17339593 -0.1415207 0.006812662 0.19546407 -0.16986288 0.16439268 -0.3067863 0.17937043 0.002376373 -0.19075608 -0.12078955 0.11834332 0.15834564 0.068827294 0.17994115 -0.03991939 0.0069277436 -0.08105989 0.18956098 -0.09803556 -0.29942477 -0.044340562 0.16433989 0.31084824 0.017017819 0.041499943 -0.17213653 -0.09334375 0.38527194 -0.027880043 -0.23952633 -0.10645784 -0.14720817 -0.35616192 -0.09392803 -0.11073175 0.018829687 -0.18175131 0.1426147 -0.078681715 0.30330044 -0.4586956 0.13496156 0.12708674 -0.0729365 0.38610455 -0.038786195 -0.07711771 0.037769493 0.4702804 0.01087926 -0.4868756 -0.1701167 0.092345625 -0.23915683 -0.6222181 0.089151755 -0.18678257
75 0.05793037 -0.023979507 0.048136033 -0.24590436 -0.14431708 -0.31024075 0.10260578 0.18797687 -0.074017875 -0.30334446 0.071750775 -0.08811903 -0.053128425 -0.10226774 0.29741383 -0.08233549 0.11069227 -0.059521373 -0.10366504 0.06276075 -0.12521887 -0.052915726 -0.37423402 -0.17623445 -0.34078085 0.47647312 0.33989283 -0.07028686 0.19810683 0.1909485 -0.049926773 0.07815117 -0.21682936 0.21889763 0.021204777 -0.02138358 -0.33136302 0.25964123 0.084843785 -0.08995233 0.035313375 0.5816981 0.03641429 -0.25981972 0.13860437 -0.07228379 -0.19199312 -0.0201421 0.0029500388 0.32437414 0.11090859 0.21375534 -0.0666963 -0.038968742 0.10916097 -0.15138361 0.059809096 0.04647008 -0.19060773 -0.28264385 -0.32719058 -0.05898101 0.48971653 0.16711663 0.14215603 0.05313067 0.14396247 -0.22354762 0.34976488 0.013354067 -0.38591662 -0.10054923 0.14458457 0.09389861 -0.18535239 0.12235736 -0.2551302 0.15372013 0.046091124 0.19160372 -0.16010511 0.009913304 0.23635772 0.01338134 0.30433384 -0.14812261 0.17451057 -0.027793422 0.24015376 -0.29104134 -0.3882993 -0.106715284 0.120273836 0.28662318 0.06710189 -0.044875007 -0.20096731 -0.24579813 0.36050484 0.057092585 -0.12608033 -0.2888673 -0.32868794 -0.111024424 -0.09061709 0.072415896 0.10698365 -0.16520014 -0.0819758 -0.0038048439 0.3172692 -0.41830832 0.29892454 -0.2102658 -0.15701592 0.13169515 0.051278137 -0.06719718 0.0452971 0.3771654 0.030850783 -0.4392553 -0.27342582 0.034295615 -0.088780135 -0.4310093 -0.28760758 -0.06588796
31 0.019522648 -0.043550313 0.03145238 -0.0995987 0.23164994 -0.1693373 0.18440834 -0.13399099 0.22262639 0.031288516 -0.05700168 0.11456892 0.014243437 -0.11381398 0.24317858 -0.16763131 -0.13709891 -0.09716268 -0.025252134 0.0056424476 0.019150464 0.059664372 -0.16188332 -0.19263956 -0.19935673 0.35418326 0.029952992 -0.2279377 -0.049230892 0.27430075 -0.2123655 0.019357031 -0.40657592 -0.31297264 -0.15206112 -0.039604537 0.04602045 0.2693002 0.13704173 -0.22095609 -0.029143486 0.23732209 0.15218695 -0.13423795 0.20659451 -0.3848097 -0.17048423 0.090472005 -0.07991344 0.2613342 -0.08850795 0.2514069 -0.2436369 0.37869447 0.17554069 -0.16281663 0.14385654 0.1471223 -0.028457422 -0.0076544434 -0.49967432 0.005228621 0.1314806 0.1785928 0.20668177 0.010148793 0.1028977 -0.09052112 0.30635577 0.050655242 -0.41457266 -0.07186664 0.0034953887 -0.054668523 -0.31109798 0.3437742 -0.25077063 0.10438763 -0.063251846 0.16242203 -0.05370862 0.19172263 0.1961651 -0.13772544 0.5257086 -0.12732413 -0.012764573 -0.18954211 0.09107241 -0.2715696 -0.48610678 -0.031444635 0.11187112 0.3061658 -0.050403856 0.001429677 0.08277835 -0.007056061 0.27908683 0.115365125 -0.5552919 -0.06931326 -0.05972296 -0.2835672 -0.20701325 0.021260953 -0.2509753 -0.06980817 -0.22590876 0.13705917 0.14346619 -0.23270595 0.0075325444 -0.13646334 -0.10171425 0.0707465 -0.031719886 -0.10505177 0.054154173 0.2637251 0.101674974 -0.51457846 -0.3834474 -0.051490583 0.24695295 -0.494044 0.031038217 -0.0462775
2 0.17542988 0.0143616125 0.028981868 0.04208201 0.058016054 -0.26105323 0.038906727 -0.12763794 0.36933088 0.09374739 -0.007955125 0.09781918 0.045683265 -0.1991033 0.09642024 -0.093628846 -0.13432169 -0.25514632 -0.2848755 -0.017429456 0.057318605 -0.18156673 -0.41138592 0.00480121 -0.34289673 0.31823194 0.11669433 0.119316 -0.13070332 0.24227832 -0.15829226 -0.057354018 -0.29182804 0.029193299 -0.10817213 0.12414058 -0.18353938 0.23594657 0.031610537 -0.13088927 0.01363516 0.28967577 0.1598281 -0.19900349 0.23347571 -0.2265515 -0.20902316 -0.19930315 -0.12163982 0.38309634 0.15094602 0.08424196 -0.044313654 0.09514492 0.06897614 -0.23062235 -0.018240593 0.04745099 -0.14014544 -0.25011924 -0.17290151 -0.00950332 0.4139024 -0.04940424 0.17009825 0.053841077 0.19459707 -0.23530452 0.24324648 0.07040542 -0.25342494 0.008421909 0.05362378 0.07688108 -0.4512654 0.22169271 -0.25729567 0.17943785 -0.00040283985 0.23440489 -0.009404225 0.21021192 0.19157812 0.088797 0.37692538 -0.2774939 -0.025799964 -0.07193797 0.020321444 -0.17652406 -0.17460288 -0.036917046 -0.06219671 0.29061422 0.007682681 -0.14088953 -0.009078484 -0.06991492 0.36578983 -0.06485646 -0.3359922 -0.21014836 -0.22342727 -0.3653473 -0.30956206 0.039789118 -0.09417436 -0.3368229 -0.18202734 0.17718506 0.20190156 -0.25264215 0.040860124 0.029796585 -0.13505542 0.3216842 -0.20233357 0.21399832 0.029130815 0.21884808 -0.031351857 -0.2943945 -0.13160428 0.12964296 0.27389684 -0.5836285 0.12273504 -0.2194918
1 0.26666474 -0.08547779 -0.054610185 -0.19948965 0.027689176 -0.2034502 0.0063462593 0.13319173 0.25559402 0.074613556 -0.041733526 0.2747165 0.020223496 0.0437409 0.2956479 -0.12546493 -0.08987644 -0.20372424 -0.23337469 0.07985614 0.045990933 0.010442398 -0.20986193 -0.12686297 -0.0898413 0.44781896 0.024303008 0.025985077 -0.23669203 0.16218568 0.08205067 -0.023794683 -0.13810314 -0.050929263 0.10097879 -0.13460281 -0.29327935 0.2911315 0.19756217 -0.24857612 -0.024532288 0.2725268 -0.031671405 -0.24934061 0.31979072 -0.24160638 -0.19570084 -0.16751844 -0.1153162 0.39812315 0.026633281 0.16087416 -0.25940886 -0.0146292 0.06937502 -0.06872042 0.19455698 0.107942425 -0.14336963 -0.25230202 -0.4853667 0.08564609 0.5133611 0.13370734 0.16904315 -0.061676413 0.071859494 -0.060497023 0.46775833 -0.16255742 -0.13413306 -0.037723687 -0.043517336 0.018238679 -0.287936 0.41214326 -0.11594179 0.1598483 -0.14827865 0.30432734 -0.11251457 0.08871182 0.2796161 0.04287391 0.34116608 -0.11027004 0.1957416 0.0049928017 0.1703926 -0.19233066 -0.23280124 -0.024007108 -0.00714728 0.0106960535 -0.17567624 -0.015547939 0.0019734763 0.11419903 0.43019193 0.06533967 -0.56734484 -0.019106917 -0.2446061 -0.20049846 -0.34740573 0.08418308 -0.0984323 -0.11700806 0.1255243 -0.07137367 0.10032551 -0.3360829 0.2049453 -0.066909894 0.017115347 0.024534969 -0.086507276 -0.09468033 -0.097255096 0.251575 -0.13516214 -0.37734503 -0.2278842 0.22299185 -0.09022628 -0.38746843 -0.19038557 -0.27402
51 0.10137878 0.04245483 0.0661524 0.1762261 0.09679174 -0.5199779 -0.1444943 0.29177606 0.13783604 -0.04200541 0.12321511 0.07831788 0.03843974 0.15609902 0.14894475 -0.18839787 -0.12812841 -0.18482372 0.080184616 0.054803833 0.020898385 -0.11408828 -0.1327318 0.12153189 -0.19086684 0.29847246 0.18514775 0.16638264 -0.13067468 0.3351018 -0.1409889 -0.11835444 -0.29833716 0.03700921 0.0107016545 0.12690158 -0.17623946 0.35692453 -0.098695636 -0.25505298 -0.06693561 0.49260575 0.13404009 -0.25472432 0.09239346 -0.24825084 -0.22012475 -0.08599845 -0.028018154 0.20793849 -0.10324251 0.41711932 0.03205006 -0.06967806 0.11370981 -0.11952013 0.30705637 0.16612422 0.02921506 -0.30873346 -0.32862505 -0.010214953 0.3478053 0.08367079 0.088040054 -0.07547907 -0.009516697 -0.26722315 0.36850673 0.15063179 -0.39055517 -0.0097224675 -0.027668154 0.09302605 -0.2708226 0.17230752 -0.19425291 0.19330159 -0.11049769 0.35904518 -0.21606128 0.15700825 0.24851403 0.0656507 0.5746462 -0.016895847 -0.11894597 -0.08564171 0.16634277 -0.20500274 -0.5991949 -0.06726328 0.15565406 0.08538942 0.25863105 -0.050067663 -0.0030104201 0.09934478 0.34726208 0.13207029 -0.16822338 -0.17773896 -0.107378066 -0.21009569 -0.22700089 0.10557361 -0.047900543 -0.13484955 0.05012308 -0.0041235536 0.38126743 -0.19200161 0.03331437 0.01737611 0.30744052 0.06288841 -0.19333953 0.08726891 -0.08082752 0.0710308 0.1065754 -0.42837757 -0.043312836 0.18044803 0.2766365 -0.6074562 -0.083372876 -0.06710636
20 -0.034126267 -0.080713846 0.10443869 0.023936596 -0.072574005 -0.21927014 0.14088802 0.16694519 0.20395693 -0.14452337 -0.11949101 0.12619089 0.07730599 -0.23045334 0.18063352 -0.01236742 0.04492168 -0.17421007 0.0071196035 0.119974464 0.044776812 -0.21196753 -0.13373879 -0.019959122 -0.15015414 0.3163076 0.16471048 0.08563384 -0.018276118 0.09669182 -0.2062685 -0.09617093 -0.19517007 -0.23914611 -0.12785676 0.0485315 -0.18003175 0.20505081 -0.0015904233 -0.1977754 0.013951974 0.31502703 0.02160081 -0.2921308 0.0012323365 -0.21869847 -0.28361875 -0.19214779 0.040794354 0.16687962 -0.13133736 0.1203395 -0.24020427 0.035757054 0.021776322 -0.29051286 -0.037753113 0.14750084 -0.227746 -0.36476102 -0.4369678 0.14504771 0.37866187 0.14753085 -0.083098166 -0.1790776 0.0028338768 -0.27161014 0.28255868 0.26712775 -0.34586266 -0.05341289 0.080654025 0.22533563 -0.45126468 0.15575722 -0.20599765 0.20586729 -0.10162936 0.36020404 0.0043997923 0.06523901 0.1172531 0.13026959 0.4126467 -0.27285838 0.19177061 -0.09875001 -0.04449685 -0.16089989 -0.42396116 -0.0173988 0.13888624 0.16054492 0.027896795 0.0055199564 -0.014506831 -0.2824672 0.3163085 0.12905425 -0.20204557 0.14428832 -0.06954198 -0.299907 -0.19288598 0.07982486 -0.035941992 -0.104577735 -0.13497996 0.12526847 0.10238917 -0.17654717 -0.045935348 0.10138797 0.0838739 0.12724277 -0.046459068 0.0046576704 -0.09212607 0.25054535 0.15564299 -0.5198944 -0.2817217 0.007904567 0.06759326 -0.4210738 -0.07508403 -0.16567732
44 0.11051571 0.14554349 0.24114856 -0.064681426 0.006508487 -0.2674287 0.20059934 -0.028939955 0.0043711364 0.06820393 0.043601025 0.12535521 -0.10591397 -0.1767295 0.19204251 0.2323387 0.036986314 -0.031911243 -0.001925081 0.30136383 0.10136797 -0.16871165 -0.0108834505 0.07877296 -0.23022684 0.12891443 0.04962037 0.0019756556 0.0028323215 0.20657255 -0.421799 0.033515327 -0.14393643 0.07781756 -0.32515112 0.09312609 -0.22448643 0.30410206 -0.054824073 -0.20804268 -0.13301557 0.24364199 -0.021002265 -0.3066793 0.1012059 -0.32298446 -0.3968733 0.07947874 0.035177715 0.2633154 -0.1805335 0.22148459 -0.070089564 -0.0112872645 0.113081954 -0.2510523 0.18615936 0.10450811 -0.11625451 -0.30372465 -0.30027503 -0.18371172 0.34657127 0.17347714 0.18990572 0.059048377 0.18067375 -0.26735428 0.25707364 0.20170715 -0.26289117 -0.19057785 0.0082027335 0.30030084 -0.2506536 0.5343808 -0.110363945 0.08569742 -0.1336454 0.14466 0.068567805 -0.10358946 0.24837576 0.16449675 0.5014736 -0.02081551 0.03574696 0.05810284 0.12032372 -0.09593889 -0.4074308 -0.03445065 -0.035125546 0.108878255 -0.14197604 -0.099766895 -0.10169512 0.08432926 0.435362 0.04921599 -0.19063288 -0.008251429 -0.28783488 -0.30233696 -0.1719842 -0.059767723 -0.1903457 -0.12684408 -0.28294426 0.093488656 0.26365235 -0.30246025 0.040279433 0.08592714 -0.14995497 0.1581913 -0.0045068935 0.099654004 0.06829107 0.2533561 0.29427415 -0.6132549 -0.37874535 0.029707998 -0.015922446 -0.32415974 -0.05302409 -0.16354947
28 0.3607518 -0.19646414 -0.0020070411 -0.14904697 -0.19852492 -0.21126182 0.08296979 -0.15200122 0.11712295 0.010889642 -0.083278835 -0.045948684 -0.16675185 -0.068284184 0.394711 0.08071034 -0.1818654 -0.25312173 0.05172758 0.14436449 -0.050248977 -0.3430794 -0.11286941 -0.37831497 -0.13831657 0.30042392 0.34258997 0.06458193 0.024194509 0.24121246 -0.21344827 -0.1479017 -0.1707553 -0.046962727 -0.16447364 -0.11947963 -0.20431468 0.21005058 0.20747104 -0.27072433 -0.29701006 0.39662135 0.03372586 -0.32405594 0.16782531 -0.19363502 -0.2297784 -0.12358965 0.010577805 0.41229486 -0.16983955 0.06954508 -0.3073805 0.03982043 -0.016600294 -0.34756094 0.0995249 0.21811841 -0.022814244 -0.33428192 -0.02271077 0.07556352 0.29770738 0.27896395 0.46342766 -0.1183463 0.044310693 -0.38027373 0.24439856 0.110725164 -0.3474208 -0.24625504 -0.057059426 0.12945566 -0.2515514 0.39800492 0.0637011 0.1744491 -0.020894965 0.35821244 0.039992843 -0.010239927 0.3247081 0.21102695 0.35856208 -0.16872081 0.12058577 0.036162727 0.17936546 -0.043476842 -0.25232977 0.0957748 0.17196003 0.24807161 -0.008624017 -0.18951258 -0.18281081 0.17344555 0.32806832 0.115699135 -0.22150132 -0.06578926 -0.25360188 -0.1380483 -0.27494118 0.24362125 -0.16767788 -0.15575454 0.08691719 0.0071591362 0.18259017 -0.20669448 0.12149586 0.027097862 0.10554046 0.26298207 -0.18585907 -0.012869161 -0.074860826 0.28525588 -0.103976734 -0.40339273 -0.34190518 -0.0035531707 -0.059847042 -0.48077273 -0.07841714 0.080099806
93 0.03788156 -0.42905644 0.0852735 -0.36952567 0.35769266 0.197968 -0.3005305 0.14638034 -0.007940456 -0.110482894 0.14453012 -0.037465885 -0.29288492 -0.22377627 0.2049439 0.6723938 -0.04094865 -0.19142768 0.034464918 0.26021203 -0.0071711205 0.329324 -0.29686895 -0.6693938 -0.16211505 -0.34320718 -0.4049148 0.5064942 -0.22441007 0.069042064 0.33278728 -0.14852941 -0.013611978 -0.20478405 -0.1948406 -0.0032392358 0.39573658 0.41440082 -0.13754459 0.042479813 -0.10060574 0.25369358 -0.20247181 -0.20981443 -0.10474615 -0.059243057 -0.13587251 -0.20076962 -0.10870708 -0.2925605 -0.1417627 -0.16358674 0.49052516 -0.14474286 0.28238347 -0.2291301 0.36676037 0.026385348 -0.083197795 0.026705494 -0.025101554 0.17012954 -0.2767704 0.23666279 0.09457937 0.04631748 0.02777692 0.40955067 -0.2406761 -0.24452323 -0.03762545 0.200728 0.05103915 -0.1524438 -0.14540222 -0.23273155 -0.36212337 0.07712165 0.13411808 0.1423047 0.15847504 -0.21641628 0.087675124 0.47029424 0.53254676 -0.029889077 0.16494036 -0.25225794 9.063631e-05 -0.3602448 -0.24430963 -0.01969377 -0.017801926 0.23503354 -0.16070494 0.23478058 -0.24842602 0.16586947 -0.2258963 -0.263086 -0.057201594 -0.49154776 -0.3593703 -0.08234483 0.03622866 0.0042837365 0.20264086 0.3918879 -0.05857927 -0.16237116 -0.039365508 0.13260828 0.2529708 0.43725228 -0.22000752 -0.75345457 0.018001046 -0.17463407 0.18770212 -0.0020852461 -0.29451302 -0.15045565 -0.4647203 -0.08785373 -0.1078057 -0.096068464 -0.065472804 -0.2070219
47 -0.07876476 -0.4241263 0.0793546 0.19314092 0.16403273 -0.12192759 -0.24895385 0.27703452 -0.24180537 -0.21042988 0.120166965 -0.3404876 -0.29666293 -0.15724549 0.259936 0.8272693 -0.16173734 -0.0030727142 0.09182815 0.17548259 0.083244264 0.22930163 -0.19748358 -0.31918505 -0.38454127 -0.08071351 -0.34700888 0.71546715 -0.22420132 0.30424732 0.1497653 0.15062605 -0.007582896 -0.031719908 -0.3280059 0.09560909 0.25409436 0.24855071 -0.13849019 0.058185503 0.23236862 0.13052605 0.072352394 -0.063373744 -0.19621105 0.15160039 -0.08905052 -0.12087512 -0.2988924 -0.21393627 -0.17744702 -0.0069248825 0.3218007 -0.22902636 0.14542335 -0.3388882 0.21134181 0.00194549 0.09255304 -0.0829526 0.06796858 0.009578201 -0.22921196 0.18887852 -0.11738457 0.29203337 -0.07456952 0.16393356 -0.37036648 -0.05779358 -0.018894903 -0.23421675 -0.009331133 0.23205562 -0.18195593 -0.12107363 -0.3133428 -0.07148206 0.21245155 0.23210852 0.29241925 -0.24723127 0.42862982 0.40123576 0.6370312 -0.27609175 0.18381569 -0.02358587 -0.06262353 -0.4747436 -0.5369008 -0.20828275 -0.13474788 0.22880083 -0.044900738 0.17113206 -0.1504849 -0.098401986 -0.2722545 -0.24695554 -0.2585805 -0.13152093 -0.33257657 -0.23400676 0.0874425 0.13332294 0.13601178 0.42342335 -0.2328586 -0.12985136 0.09002128 0.058020905 0.072870076 0.24493124 -0.024127431 -0.42933494 0.011455722 -0.107668936 0.16619039 0.14547488 -0.024447959 -0.116428316 -0.45257145 -0.25864902 0.20627576 -0.22444654 -0.15629321 0.007874862
94 0.21239361 -0.37738514 0.213833 -0.11630609 0.45031214 0.1248219 -0.24795586 0.25739452 -0.095154464 -0.24765638 0.048329063 -0.39615017 -0.13326728 0.006182164 0.26222908 0.69235456 -0.1877216 -0.2110087 0.060752794 0.120746225 -0.0853138 0.21826456 -0.4181627 -0.5867986 -0.3342788 -0.10620913 -0.3427655 0.5388979 -0.16743313 0.19954816 0.049551047 -0.14009205 0.122688964 -0.28968957 -0.19112752 -0.13906775 0.43253303 0.102654785 -0.37167057 0.020795368 -0.116252124 0.2502749 0.067423426 -0.16089603 0.038035303 0.26355332 -0.12043671 -0.21721931 -0.09981479 -0.29659665 -0.07661141 -0.14128321 0.27843133 -0.21954583 0.008207839 -0.2915717 0.373783 -0.09643922 0.052538164 -0.09273589 0.06416987 0.10595451 -0.2337698 0.20355262 -0.20750962 -0.022641182 -0.21590939 -0.007900659 -0.15289819 -0.15799744 0.0521052 0.37865043 0.052717082 -0.09587985 -0.14585736 -0.29385722 -0.39660594 0.10954325 0.2012533 0.26759863 0.21087793 -0.25722107 0.3323915 0.26836595 0.33282542 -0.12717019 0.08891833 0.16101363 -0.20530927 -0.1821481 -0.55303305 -0.1692382 -0.054105766 0.2283522 0.033372566 0.39857602 -0.21449521 0.114615716 -0.16623598 0.024240404 -0.299643 -0.4743252 -0.41039598 -0.29766876 0.061461654 0.1920154 -0.08485253 0.363522 -0.21031536 0.142102 -0.11186819 0.085385576 0.09133867 0.36083388 -0.09250331 -0.6024371 -0.06174271 -0.06538901 -0.01701994 -0.07325933 -0.34005314 -0.22865689 -0.32024693 -0.008965509 0.09464042 -0.22449507 -0.13286993 0.08202301
217 0.016235903 -0.463184 -0.17746909 -0.13614401 0.036287643 -0.10024179 -0.3757629 0.324999 0.10909122 -0.31464216 0.08292648 -0.1497227 -0.23462749 -0.37518817 0.18962489 0.81066465 -0.11539636 -0.19232945 0.021665365 0.032928143 -0.111029625 0.36601943 -0.2869766 -0.6578615 -0.2442672 -0.253194 -0.35377693 0.60314274 -0.10729766 0.20209667 0.28497714 0.022600569 0.10474815 -0.122398674 -0.19509628 -0.13624258 0.28066736 0.22604783 -0.20200424 -0.17739864 0.0723042 0.10333434 -0.023546392 -0.083041936 0.017752282 -0.038388923 0.20908074 -0.26880997 -0.30640948 -0.16023742 -0.067362964 0.117953315 0.25338548 -0.11566896 0.20537297 -0.26125276 0.37624735 0.096185826 0.030397452 0.100967176 0.03730739 0.24969275 -0.37786454 0.35164633 -0.10651585 0.07678322 -0.07161751 -0.06611945 0.1456074 -0.29702336 0.07255738 0.29238915 0.00031116232 -0.05959349 -0.17629762 -0.26444167 -0.53065187 0.087846875 0.0822683 0.24817835 0.093521096 -0.10250466 0.27837217 0.37423503 0.3557191 0.10873019 0.22806826 0.0095222 0.08942405 -0.46420062 -0.5158193 -0.16733909 -0.16367239 0.33027503 -0.19359547 0.060658857 -0.00055706874 0.0923599 -0.23449011 -0.33876604 -0.09899725 -0.39383066 -0.20892143 -0.16474286 0.06947548 0.21663511 -0.0023730109 0.4850501 -0.2687051 0.13868947 -0.12430708 -0.07990326 0.058816046 0.33592474 -0.170721 -0.5651411 0.17250302 -0.09360629 0.058194816 -0.015227169 -0.41041896 -0.15018001 -0.44317198 0.11717747 0.43525547 -0.17465974 -0.07053501 -0.12584107
33 0.31835556 -0.27871773 0.18097845 0.1362409 0.24061605 0.036356386 -0.48905167 0.10822798 -0.17588481 -0.046133664 0.06513713 -0.37888184 -0.018687382 -0.100374386 0.2503406 0.7915243 -0.28965592 0.055873193 0.27493113 0.2675165 -0.019037042 0.30323952 -0.32173717 -0.4915297 -0.13437834 -0.1948238 -0.30007634 0.5756421 -0.36195043 0.2988997 0.34603208 0.17641377 -0.12428871 -0.080899686 2.8729439e-05 0.09575768 0.067827806 0.19583058 -0.09430772 -0.050294816 -0.010998758 0.17290689 0.023880528 0.060367286 -0.09182969 0.024725989 0.018530648 -0.08128704 -0.2604043 -0.27368748 0.10587491 0.105028994 0.45686656 -0.13904047 0.31619495 -0.2964761 0.43013352 -0.123971686 -0.07954314 -0.1062379 -0.23028284 0.1308076 -0.43078506 0.34211308 0.030879758 -0.007985011 -0.22864862 0.17429256 -0.13527255 -0.28309426 0.20631067 -0.10516033 -0.3317454 -0.025619194 -0.19500338 -0.33661664 -0.4532681 -0.0783827 -0.01078239 0.05760676 0.27451843 -0.06582076 0.37016547 0.247527 0.3482671 -0.19499329 -0.10824111 -0.030933134 -0.10871464 -0.5417009 -0.535967 0.0511852 -0.058366086 0.27950028 0.039092366 0.38813424 -0.06634256 -0.012705628 -0.21012317 -0.38113904 -0.28169596 -0.44722667 -0.2467419 -0.2703879 0.03729987 0.0010709334 0.22823878 0.47574404 -0.10361608 -0.20480776 -0.2156786 -0.041651055 -0.029155754 0.42833653 -0.11723836 -0.48768437 -0.020986054 -0.22730522 0.009792289 -0.04288932 -0.06854032 -0.25783336 -0.5336618 0.06412427 0.0067532035 -0.22086836 -0.1578182 0.010300936
81 0.14897639 -0.2813633 -0.07561696 -0.003263753 0.33520868 0.06577006 -0.44194806 0.55687 -0.04724872 -0.07782768 -0.1923632 -0.43134952 -0.06431061 -0.19493912 0.29733986 0.7768396 -0.27341264 -0.20294602 -0.05379937 0.36817616 -0.096136406 0.123069316 -0.4898116 -0.4403841 -0.070051156 -0.28398955 -0.3295012 0.3772759 0.028979614 0.3088138 0.1345261 -0.08295225 -0.052990414 -0.12010935 -0.2042871 0.11101346 0.3543171 0.20673646 -0.097457476 -0.020521551 0.040391706 0.2187736 0.11625251 0.08720335 -0.082960114 0.054383814 0.2540956 -0.30124417 -0.4597612 -0.36601585 -0.023968238 0.10762208 0.45042306 -0.052933577 0.19889002 -0.1878103 0.13599591 -0.09088746 0.059438042 -0.19643673 -0.20615144 0.16876467 -0.1461179 0.30582273 -0.029922465 -0.05967571 -0.18326658 -0.079719864 -0.29685557 0.14364126 0.044068716 0.2677644 -0.20085013 0.18949303 -0.2078161 0.05979967 -0.5582311 0.0048854537 -0.00063679926 0.39376366 0.09055881 -0.24654478 0.4210627 0.2305215 0.50280833 -0.051992297 0.16165018 0.20402831 -0.27430815 -0.32597616 -0.47525686 -0.18418288 -0.1694815 0.23075114 -0.15567133 0.09233234 -0.023712613 -0.13390672 0.23888466 -0.3071825 -0.09143987 -0.31364155 -0.40659946 -0.124430254 0.03590382 0.13073501 0.09449229 0.4482363 -0.022707604 0.051264845 0.018431433 -0.30564559 0.24250992 0.212905 -0.067297466 -0.46651223 0.00943508 -0.23423353 0.10655318 -0.04854516 -0.32404143 0.07957475 -0.54949296 -0.22595872 0.13404956 -0.19710416 0.18640196 0.24994087
49 0.07203157 -0.42468113 0.102523975 0.083645985 0.5117101 -0.20939723 -0.33552897 0.3335365 -0.020776242 -0.09599562 0.035158027 -0.19673736 -0.14181015 -0.18641204 0.23602974 0.65452796 -0.23236263 -0.08784256 0.15163714 0.17054906 0.007422328 0.5568226 -0.20118311 -0.31854224 -0.31415683 -0.22397234 -0.50016046 0.56619734 -0.16080776 0.43003222 0.4677928 -0.054130547 -0.07250556 -0.122058 -0.19203722 0.18825977 0.2536065 0.2146006 -0.36287096 0.2544536 -0.026420828 0.10933079 -0.047213852 -0.043618217 -0.026895415 0.0853827 -0.094088174 -0.37417215 -0.17191337 -0.62396663 0.13216817 0.048033707 0.5248584 -0.10937005 0.15943688 -0.46939582 0.45840266 -0.1215898 -0.055017084 -0.060270768 -0.2537465 0.41348845 -0.20779958 0.30559525 0.06477345 0.22249946 -0.07865371 -0.14362325 -0.0021806732 -0.108563796 0.18206584 -0.21017715 -0.1585188 0.03183276 -0.01468882 -0.08339869 -0.51808 -0.109000035 0.06497626 -0.05902271 0.13946712 0.026131079 0.22639674 0.39355433 0.5501295 -0.0121972 0.13963738 0.062423214 -0.123793185 -0.33078435 -0.3543818 -0.032104935 -0.3167619 0.2458677 -0.19394037 0.067555405 0.0035721064 0.0039623654 0.005808724 -0.27869514 -0.15555225 -0.17204025 -0.4819957 -0.10429427 0.11274143 -0.027076934 -0.065956965 0.5396402 -0.5376813 0.23404817 -0.113626204 -0.027082182 0.17571633 0.368062 -0.092317946 -0.50324863 0.1428174 -0.008097671 0.35171792 0.09579994 -0.14966296 -0.42178822 -0.39386916 -0.14339311 -0.048574872 -0.11310391 -0.26440102 -0.19893958
82 0.20138946 -0.43617415 0.097125076 0.14488932 0.19605656 0.096454546 -0.1451102 0.37684098 -0.10814029 -0.15594654 -0.046346717 -0.5075764 -0.16924994 -0.30255973 0.37965703 0.8673035 -0.085567765 -0.1605683 0.053186007 0.08334126 -0.046498537 0.30774027 -0.21130127 -0.57366884 -0.04021351 -0.15090722 -0.10976651 0.40829808 0.02117138 0.30409235 0.31963646 -0.19215469 0.11996179 -0.08362076 -0.075551346 0.08672159 0.3264859 0.22559042 -0.25149083 -0.041669235 -0.010716898 0.27512485 0.108882874 0.0070089567 -0.07339962 -0.15922573 0.033390664 0.031567648 -0.06959294 -0.3076665 0.012790831 0.19828017 0.41969484 -0.021131925 0.27068612 -0.2777592 0.1928141 -0.100383036 -0.20179224 0.002181314 -0.0121436035 0.24030113 -0.1821823 0.13038926 -0.07173835 0.16131526 -0.070937894 0.20889768 0.05319211 -0.21929076 -0.096226886 0.0109083 0.17481409 0.41188872 -0.035852883 -0.122610435 -0.1789704 0.12182151 0.20198728 0.25908083 0.07171766 -0.27379683 0.38926572 0.5016595 0.48109087 -0.09116967 0.3021443 -0.022510119 0.041793693 -0.4481871 -0.3703891 0.041645117 -0.017751621 0.27197504 -0.19277248 0.36551154 -0.15536651 -0.19110665 -0.021818396 -0.21793023 -0.1549987 -0.48756436 -0.43899283 -0.05902948 0.2719553 0.32122064 -0.036370173 0.37693366 -0.09576906 0.18545315 0.06271106 0.09812235 0.105562955 0.41020626 0.106860735 -0.76990604 0.24222532 -0.4238875 -0.07476122 -0.04713464 -0.35282415 -0.26591673 -0.47626692 0.03665939 -0.0561894 -0.35092318 0.13133517 0.14126407
148 0.13618782 -0.3143391 0.1734176 0.04301258 0.16339704 -0.033373617 -0.2686119 0.101469904 -0.15288383 -0.0013191774 0.15263404 -0.46970108 -0.10420161 -0.20258164 0.1697981 0.78199124 -0.102595665 -0.052983187 0.12682462 0.35354152 0.0126285255 0.20599405 -0.40070152 -0.3809508 -0.37667143 -0.22163194 -0.30381906 0.54802483 0.21423496 0.46543542 0.23717842 -0.064265974 0.0743658 -0.04231228 -0.35341537 -0.11637007 0.13879189 0.444874 -0.2704815 0.035635166 0.017767916 0.28651226 0.015137505 0.008637931 0.006567234 -0.34060353 -0.19738121 0.009734049 -0.12441346 -0.21967849 0.11317234 0.14357227 0.48126042 -0.2555657 0.13559142 -0.27407494 0.44174826 0.02410011 0.23461619 -0.14651592 0.064965725 0.24598768 -0.17740512 0.163926 -0.0520203 0.09030931 -0.087594666 0.1583859 -0.015317665 -0.03022462 0.035577483 -0.09572972 -0.018757083 0.10945176 -0.014172889 -0.24157897 -0.7202621 0.11167915 0.14825915 -0.045885976 0.12148572 -0.3922085 0.28095347 0.37813538 0.43793333 -0.10510554 0.26077214 0.22728923 0.024855984 -0.28030998 -0.29579103 -0.124699295 -0.17581064 0.05391379 0.026600916 0.30271715 -0.118370086 0.14685526 -0.13943484 -0.35744596 -0.17647259 -0.3705854 -0.34146386 -0.016309738 -0.0033309385 -0.11400067 0.029429795 0.45554656 -0.16299412 -0.1060337 0.08837808 0.028213926 -0.0048073335 0.7296878 -0.14303833 -0.6337469 0.106424764 -0.21748051 0.22575852 -0.11171159 -0.2948338 -0.03129424 -0.5659399 0.09535405 -0.02071973 -0.1740214 0.03599125 -0.04538501
150 0.053051215 -0.33991343 -0.08381357 0.098630495 0.20373416 -0.043249346 -0.2419024 0.077767015 -0.1983437 -0.14486411 0.008813737 -0.35591382 -0.2462811 -0.094572484 0.2313519 0.8829988 0.003739059 -0.058783736 -0.09023231 0.12467035 -0.2071375 0.18300353 -0.20075186 -0.7424079 -0.39512205 -0.24648005 -0.22307949 0.32683447 -0.14149493 0.33317277 0.17516045 -0.045492306 -0.12971568 0.06137682 -0.20890978 -0.17243783 0.21258059 0.21383195 -0.26517892 0.040704858 0.019093987 0.42807972 0.16217494 0.048471063 0.01114233 0.010370245 0.12494148 -0.28197002 -0.19155398 -0.46672958 -0.008063311 -0.021651585 0.5339956 -0.048415683 0.36128885 -0.26995426 0.22697698 0.053160418 -0.04392049 0.083842635 -0.035461843 -0.059859477 -0.32476124 0.29723942 0.21352945 0.07371563 -0.18796979 -0.059305876 -0.36609322 -0.20610946 -0.0053455047 0.16052271 -0.08648206 -0.12450189 -0.2453055 -0.050335284 -0.28564405 0.18849836 0.009464573 0.4424995 0.2554899 -0.16507782 0.32337224 0.2614292 0.5876858 -0.09145776 0.097978696 0.113979824 0.4113447 -0.4161207 -0.46263617 0.012618648 -0.16986942 0.2999037 -0.14548153 -0.011975035 -0.14871475 -0.06444975 -0.222842 -0.19560264 -0.14399794 -0.55501413 -0.29341364 -0.13277593 0.19431311 0.010123841 0.17065357 0.37345457 -0.36026493 0.01687114 -0.18507296 -0.066484354 -0.155046 0.39677233 -0.079325184 -0.54162264 -0.11008583 -0.011382721 0.034318194 0.13198036 -0.3280774 -0.13503656 -0.35194993 -0.29421356 -0.11122869 -0.06376384 -0.21019606 -0.053630285
48 0.31476036 -0.39966294 0.12024079 -0.02793287 0.040453568 0.182518 -0.3650391 0.29635054 -0.22684747 -0.2589113 0.21589442 -0.4137225 -0.105335474 -0.27449176 0.23152843 0.80527383 -0.13289046 -0.0019471571 0.021971755 0.051322505 0.05492715 0.018270165 -0.12452909 -0.31101015 -0.08530269 -0.33052215 -0.39440134 0.64062417 -0.13233529 0.23395777 0.18440692 -0.031927787 -0.057507936 -0.049112253 0.065628335 -0.04939179 0.24573332 0.14042693 -0.3399822 -0.04375988 -0.09299027 0.46293253 0.0035780955 -0.1956918 0.039196715 0.024981407 0.041408077 -0.25067216 -0.07697457 -0.2517801 -0.15843336 -0.016746677 0.658266 0.024205565 0.014361552 -0.113078326 0.12709337 0.061516374 -0.07304829 -0.13792688 0.06912495 0.15119383 -0.10181673 0.37135977 -0.040351823 0.07488191 -0.06265777 0.102476045 -0.36577088 -0.114554316 -0.12497732 -0.012042228 0.022858841 0.27845615 -0.06605048 -0.27966738 -0.605055 0.22629502 -0.019035965 0.11876516 0.06809072 -0.2974811 0.32174125 0.37450567 0.6735737 -0.2700631 0.019232973 0.09336154 -0.055848554 -0.3258121 -0.42246464 -0.2303747 -0.026582405 0.16592811 -0.10172165 -0.045138247 0.04194966 0.034334406 -0.022968283 -0.3667486 -0.2565513 -0.18514624 -0.2220981 -0.11319272 -0.07931421 0.07486142 0.047570072 0.5991099 -0.22632244 -0.11410689 0.03999534 -0.061361548 0.056125782 0.4510103 -0.2049342 -0.54864484 -0.3669286 -0.21192229 0.18040556 -0.023841389 -0.25054824 -0.30878115 -0.37854305 0.13827434 -0.072782494 -0.08115813 -0.23298576 0.08430487
216 -0.16557232 -0.25478017 -0.07812743 -0.0539549 0.1700576 0.032226376 -0.48930615 0.19018921 0.053619154 -0.066449754 0.063003756 -0.62696093 0.056061137 0.07464486 0.22255094 0.44879925 -0.083778836 -0.02176549 -0.057388477 0.053959563 -0.04110924 0.2094025 -0.40317938 -0.34286654 -0.2654789 -0.1138473 -0.480616 0.34233487 -0.35007438 0.43228263 0.33705166 -0.16065678 -0.28561145 0.12091452 -0.05921212 -0.118507974 0.32198486 0.2677349 -0.1532735 0.03851615 -0.08588686 0.2676055 -0.050832935 0.115776375 -0.020070367 0.018152378 0.10286175 -0.30989617 -0.052944906 -0.4326186 -0.11662489 0.17059736 0.55820096 -0.36659268 0.26823232 -0.30563703 0.2669466 0.10641757 0.08042655 0.02756649 -0.07966641 0.106943145 -0.0846505 0.21568494 -0.14672256 0.23719555 -0.055544734 0.027957125 -0.2520512 -0.28581268 -0.029066931 0.053671557 -0.09780983 0.05594821 -0.0017449167 -0.26431006 -0.46474272 -0.051385466 0.057783797 0.24391675 -0.021838129 -0.32903334 0.22298025 0.49078763 0.659544 -0.16149083 0.11428577 0.22133347 0.11511152 -0.5227971 -0.8039964 -0.08356683 -0.11454728 0.2980019 -0.15451382 0.14095911 0.083521865 0.029265227 0.0413856 -0.1689023 -0.26252502 -0.31813055 -0.29820883 -0.16637184 0.078185454 0.013069424 -0.15154913 0.3144108 -0.20197733 -0.31696042 -0.16083293 0.096019655 0.060870238 0.14117552 -0.19593737 -0.80383825 0.1801033 -0.18786238 0.03961096 -0.23439047 -0.30988494 -0.1908619 -0.603197 -0.22756231 0.08432484 -0.1317516 0.07533609 0.19225785
34 0.048014417 -0.37701243 0.25059235 0.08234225 0.18333763 0.009738125 -0.07249574 0.3139173 0.027656876 0.043115333 0.11064678 -0.3000882 -0.32015884 -0.24102205 0.13367453 0.61983967 -0.14968064 -0.064440124 -0.012341902 0.21508811 -0.022762671 0.12894872 -0.31721556 -0.38734043 -0.22873811 -0.10335177 -0.41349638 0.46953267 -0.077766776 0.2566526 0.55367017 0.06929729 0.08952897 -0.03415072 -0.23086113 -0.023964291 0.3823561 0.41596532 -0.42945012 0.05392719 -0.13091594 0.24719554 0.09952151 0.037201896 0.087868586 -0.065607145 0.011535727 -0.3552919 -0.1878422 -0.31740576 -0.09139097 0.07939099 0.6204666 -0.17059241 -0.017102107 -0.10075059 0.35989162 -0.042710397 -0.021005541 -0.11754221 -0.2727406 0.19293404 -0.24972582 0.14788742 -0.25430572 -0.0003335327 -0.11419944 0.0656794 0.01146771 -0.051300276 -0.07081178 0.13538527 -0.0979461 0.00054922735 -0.19501907 -0.18940139 -0.5845497 0.007985923 0.24141918 0.27925384 -0.0850775 -0.11277032 0.21528304 0.32855317 0.5812268 -0.038940057 0.18587446 0.11013055 0.10803267 -0.5388961 -0.33708262 -0.10247928 -0.17705591 0.19201054 0.016976234 0.4439487 -0.16784304 -0.035837714 -0.21280353 -0.3907684 -0.12691301 -0.22697589 -0.1987786 -0.23537272 0.41776377 -0.09584926 0.07574344 0.52056104 -0.3492545 -0.15193102 0.054402746 -0.10130219 -0.08914229 0.623265 -0.1117647 -0.6927822 -0.12438038 -0.111736834 0.023518616 -0.022294462 -0.06699352 -0.1650365 -0.27650917 -0.066631064 -0.031972025 0.040823407 0.022651251 0.089267075
83 0.07192765 -0.3452803 0.28870344 0.027343191 0.29975215 0.37659186 -0.17384063 0.32608154 0.029431902 -0.3109043 0.051403616 -0.20280476 0.035768494 -0.42518067 0.3342381 0.7093458 -0.2169427 -0.11937129 0.09267895 0.119672544 0.03586323 -0.10235965 -0.46236515 -0.3645613 -0.22426933 -0.23351607 -0.45575446 0.36978066 -0.34453285 0.2833114 0.1892036 -0.020233724 0.14302483 0.08919041 -0.187425 -0.093231246 0.37686503 0.33817476 -0.3433206 -0.05325608 -0.1479017 0.20348158 -0.05197702 0.10098471 -0.028196417 -0.14855269 0.027806984 -0.085749015 -0.23463175 -0.18071628 0.071015894 -0.24163532 0.5882709 -0.100194715 0.36484545 -0.20399663 0.17533004 0.08485412 0.06770525 -0.006755274 -0.20915951 0.2846043 -0.17566651 0.21861506 0.043921504 -0.010611486 -0.059799314 0.27039403 -0.029473089 -0.0118853655 0.008893944 0.070048146 0.019173086 0.21613184 0.005467215 -0.16179243 -0.49176574 -0.063289255 -0.113941506 0.17706394 0.10681149 -0.13453095 0.39187717 0.29876918 0.63039374 -0.18126453 0.16027024 0.3269499 0.02386928 -0.27527082 -0.6319932 -0.3356384 -0.15408929 0.34355778 -0.13434905 0.34449983 -0.00725035 0.0015149433 -0.11467861 -0.1917532 -0.13073173 -0.47657606 -0.38797385 -0.20907067 0.26558936 0.25483114 0.047475062 0.4072212 -0.13057314 -0.3060112 -0.08981772 0.09493731 0.11677784 0.28766423 -0.24680085 -0.5115527 -0.21083538 -0.34006113 0.4199338 -0.09420143 -0.35140172 -0.11853483 -0.562414 0.052977156 0.058659926 -0.123971544 -0.10063252 -0.032624014
149 0.36310768 -0.48293227 0.41241503 -0.0673107 0.32213974 -0.10741073 -0.28167713 0.30311215 -0.13675343 0.05317491 -0.1283471 -0.41216767 -0.06444288 -0.18496345 0.29212928 0.5974095 -0.08341095 -0.107389085 -0.12270787 0.19202921 -0.057803072 0.2318536 -0.245563 -0.59904677 -0.29189968 -0.31611142 -0.36442626 0.4177655 -0.02668839 0.15205407 0.5143573 -0.058007814 0.07966842 -0.12988599 -0.042093076 -0.04386726 0.107799485 0.23047638 -0.23150419 0.1757579 -0.08468443 0.20370457 0.10451913 -0.0062937234 -0.010559827 0.1353262 0.33799648 -0.28143418 -0.30712292 -0.3513673 0.1103852 0.028849475 0.5243887 -0.023273982 0.11480984 -0.3801181 0.0753382 0.009417471 -0.09735308 0.06130436 -0.1473355 -0.099289715 -0.1969971 0.257887 -0.126385 0.00025439262 0.015926037 0.08609136 -0.0809588 -0.29966095 0.16994369 -0.039332706 -0.1177928 0.09519482 -0.11487214 0.0048134923 -0.63571805 0.090236664 -0.049386133 0.037370645 0.28243634 -0.06696023 0.3448986 0.4703273 0.6956511 -0.262196 0.14896041 0.20889159 0.057697456 -0.276842 -0.35768026 -0.41401815 -0.072684 0.2790168 -0.15694582 0.3695288 0.20335066 -0.09181224 -0.04805234 -0.30573297 -0.26810953 -0.25574142 -0.16180909 -0.15112068 0.12080503 -0.048290484 0.044226587 0.29962525 -0.33699787 -0.28715995 -0.3737213 -0.017086152 -0.29242858 0.27009815 -0.015035547 -0.538646 -0.03621316 -0.19629186 0.19667245 0.05314724 -0.45813918 -0.37541088 -0.5058163 0.03488526 0.05853229 -0.2528089 -0.15324235 -0.02499149
32 0.096688256 -0.42354363 0.15883419 0.01608772 0.38233137 0.17440179 -0.45336282 0.28499404 -0.121879116 -0.13674912 0.32582626 -0.5509108 -0.29764226 -0.26627713 0.22066937 0.74916804 -0.123120695 0.08221836 0.27292287 0.38483676 -0.08363531 0.2210423 -0.30920863 -0.6452851 -0.42384288 -0.21453276 -0.2410268 0.5805427 -0.20793588 0.13152777 0.38645926 0.05323027 0.060006246 -0.24881035 -0.22392443 -0.03123459 0.26838693 0.32877296 -0.16194068 -0.1287727 -0.3428526 0.121731326 0.03407096 0.17130609 -0.02345264 -0.019734016 -0.14379689 -0.20465124 -0.019107163 -0.41406435 -0.035309825 -0.30020195 0.63106 -0.238515 0.16048351 -0.35523808 0.21256872 0.007867428 -0.12007523 0.25512668 -0.23064613 0.2912612 -0.22625412 0.14754122 0.081988506 0.07627646 -0.08856061 0.021967668 -0.33552244 -0.0527375 -0.10457224 0.023683012 -0.037563615 0.22805697 -0.25163507 -0.16749066 -0.33633944 -0.0070720073 0.12225683 0.11480427 0.21652004 -0.19070995 0.27323836 0.45856807 0.4963112 -0.021833895 0.21755016 0.11627694 -0.1815981 -0.566798 -0.43600175 0.12297269 -0.23761246 0.30046964 -0.035488132 0.32024163 -0.035216495 -0.08993973 -0.08350456 -0.42938256 -0.3236846 -0.3774602 -0.43115023 -0.20946294 0.35762256 -0.15524943 0.020160014 0.24083406 -0.12521929 -0.045394227 -0.33423492 -0.14553994 0.09033975 0.17497756 0.009633543 -0.7309109 -0.038892485 0.12305773 0.14434102 -0.09818424 -0.18763009 -0.27406543 -0.31370485 0.013710402 0.060974017 -0.08987185 -0.028142203 0.04045031
171 0.075116634 -0.47750878 0.32886022 -0.23246393 -0.0440612 0.24461523 -0.2704748 -0.00839258 -0.21788637 -0.25395882 -0.051940046 -0.080064915 -0.07220996 -0.18752977 0.36615616 0.626668 -0.23041707 -0.29980978 0.04796523 0.22735934 0.042487852 0.35105938 -0.24153268 -0.2726592 -0.16439119 -0.037941333 0.18246469 0.3277141 0.48184296 0.31517515 0.48458946 -0.2118614 -0.29192647 -0.05725467 -0.18811634 -0.044113755 0.11394675 0.458876 -0.18484476 -0.012215644 -0.18615836 0.14955145 0.057598516 0.33447802 0.15343171 0.33241332 -0.07448634 -0.10126707 -0.44184253 -0.32484382 -0.25049946 -0.293961 0.28172696 -0.3228157 0.26273996 -0.30556235 0.21864843 0.17295252 0.26645693 0.19126698 0.054004274 0.26502216 0.09021007 0.76328087 -0.20266357 0.017782088 -0.22571489 -0.1455842 -0.14321634 -0.15733595 0.059886776 0.23769346 -0.1591014 0.2952814 -0.085215636 -0.2592104 -0.17797258 -0.015451394 -0.008032516 -0.1350605 0.1598265 -0.041399438 0.44791877 0.41075742 0.66505706 -0.40495354 0.04014507 0.19306041 0.033917334 -0.35550272 -0.45798564 0.051849946 -0.18671536 0.06830585 -0.10265683 0.012456991 -0.37711537 0.5009885 -0.08979655 -0.28962672 -0.18675253 -0.24767724 -0.2117248 -0.12407355 0.19947018 0.10166058 0.2762387 0.6654757 -0.2177664 -0.21258989 -0.122035384 -0.09935281 0.044927 0.26115546 -0.13897388 -0.7432903 0.087310836 0.015013292 0.016165605 0.0099831 -0.07468444 -0.15044959 -0.65063083 -0.22283494 -0.09690788 -0.4163078 0.08435966 0.115730256
95 0.31197578 -0.81499016 0.044169508 -0.12217665 0.16679542 0.117135555 -0.2461402 0.044978663 -0.40497506 -0.08631035 -0.004393043 -0.27411866 -0.25629845 -0.23207869 0.10952043 0.56025296 -0.12942602 0.13097873 0.1714127 0.06571385 -0.023712046 0.21234126 -0.41287208 -0.58770114 -0.24168745 -0.29240817 -0.43245637 0.36968255 0.045025628 0.1331468 0.1489527 -0.05501765 -0.10310097 -0.013584435 -0.31688902 -0.06262188 0.36331725 0.3113787 -0.12063059 0.0577209 -0.23867488 0.27648085 -0.09933741 0.16956446 0.2077868 -0.1859977 -0.062384885 -0.069664046 -0.17357545 -0.27786008 0.34063113 -0.0023363903 0.4071169 -0.06251603 0.12221534 -0.1293873 0.26620162 0.21588922 0.09165939 -0.06326426 0.09589028 0.30464616 0.043493345 0.15128641 -0.038641773 0.3831036 0.0003845282 0.2168019 -0.38345808 -0.44876713 0.15166987 0.04584688 0.15063077 0.07682783 -0.15521306 -0.19132264 -0.5769609 0.06494519 0.20501578 0.03449987 0.46932292 -0.16611569 0.33850366 0.36514884 0.58527255 -0.0062653683 0.013945013 0.15102202 0.012578797 -0.5323688 -0.5843862 -0.24371731 -0.1427973 0.29073298 -0.17279871 0.24350709 -0.40446848 -0.116367206 -0.007305551 -0.2269118 -0.19120322 0.023826193 -0.05198904 -0.3560103 0.12523167 0.14618903 0.035790987 0.43422002 0.019791715 -0.06803516 -0.08846205 -0.33056173 0.049098525 0.15604135 -0.21528861 -0.7683257 -0.056483828 0.016584486 0.11443551 0.21985862 -0.3410623 -0.15978096 -0.31714955 -0.09166261 0.09578747 -0.31615263 -0.04322815 0.013307009
172 0.08920457 -0.48189628 0.061571807 -0.3223251 -0.075547546 0.21666832 -0.28418684 -0.043551777 0.12176384 -0.17149346 -0.26061216 -0.011853766 0.13455495 -0.19909687 0.48410618 0.5879248 -0.1639919 -0.29766494 0.10135494 0.2731547 0.14735252 0.21100765 -0.41546625 -0.19702286 -0.22795177 -0.038353797 0.06362784 0.46577868 0.3910064 0.036240444 0.41418117 -0.14014973 -0.121834576 -0.0092069395 -0.0015531257 0.044664547 0.20809741 0.3443297 -0.30243698 0.12948787 0.10983735 0.31741422 -0.13212946 0.10113557 0.05130437 0.10742609 -0.08472942 -0.1387593 -0.4030829 -0.49726826 -0.20292789 -0.3694678 0.566997 -0.2288206 0.20960158 -0.37239298 0.07788991 0.2449806 0.023235176 0.22194666 -0.069252595 0.16819935 0.1528304 0.46199524 -0.13756123 0.04570997 -0.05632359 0.00343767 -0.12364647 -0.058928315 0.06224622 0.13348484 -0.15453035 0.33681315 -0.25233376 -0.23100635 -0.30593476 0.12108322 -0.11973819 -0.16281772 0.27097568 -0.1590063 0.28061154 0.46210176 0.66395044 -0.09968612 0.090598255 0.22218546 0.11980868 -0.34455454 -0.27754998 0.04372952 -0.29183823 0.118097335 -0.17792621 0.2615683 -0.21519032 0.6069434 -0.16108158 -0.05401776 -0.23717754 -0.43759435 -0.38456145 -0.161301 0.106275834 0.12869337 0.011846146 0.85678566 -0.21824725 -0.08561826 0.027155839 -0.056006372 -0.057044562 0.48625654 -0.1827246 -0.6185501 0.020913854 -0.16796601 0.24835482 -0.0016401783 -0.03120191 -0.13499571 -0.71128947 -0.16477834 0.08568261 -0.32665768 0.27871418 0.06476953
190 0.6540103 0.23927826 -0.68500286 0.11035722 0.009279966 0.13863015 0.3488708 0.22474383 0.02165236 0.16455108 -0.16270104 0.094954975 -0.2218315 -0.16364437 0.025162917 -0.38954312 -0.04647588 -0.2778542 -0.1003025 0.18003455 -0.021499734 0.371703 -0.18880749 -0.3363777 -0.38402778 0.32726467 -0.21210095 -0.010869145 0.26577312 -0.23680808 0.2550011 -0.041328803 0.23235229 -0.13566893 -0.11603423 0.05448372 -0.07074838 -0.43713978 -0.20620242 0.03901652 -0.38006175 -0.05513016 -0.1535069 -0.04391499 -0.32600403 -0.16562837 -0.084967904 -0.6216494 -0.32573655 -0.021468226 -0.21883386 -0.05477152 0.052055407 -0.111358576 0.226252 0.24932653 0.1129327 0.64209074 0.17587784 0.23011565 -0.40678972 0.005042039 0.19205932 0.27030295 -0.09368858 0.54589486 0.20554483 -0.3536635 0.20579529 0.105411746 -0.3941028 0.3295312 0.592741 -0.07281306 -0.12673938 0.2542858 -0.18633778 -0.2562043 0.41356987 -0.2556628 0.30096012 -0.14283413 0.027781254 0.20209247 -0.2264429 -0.46538875 -0.5036566 0.25811106 -0.2527501 -0.39907777 -0.23700792 0.033780977 0.41216034 0.58096 0.3075127 -0.4079317 -0.29879156 0.2470812 -0.18747778 0.07223304 0.11384125 0.10026905 -0.48837918 0.18162283 0.25488406 -0.028094754 0.11215817 0.109342635 -0.08438583 -0.069861904 0.067456834 0.05489507 0.108460136 0.14022315 0.08433091 -0.34288636 0.09837399 0.1880986 0.56161606 -0.0024739727 0.16886136 -0.52908415 -0.7353029 0.27858606 -0.14474148 -0.113395765 0.045300823 -0.036135845
281 0.31755218 0.13284922 -0.5491179 0.007751126 -0.012410397 0.2851983 0.38795942 0.05614138 0.26486278 0.21546727 -0.17740959 -0.14285377 -0.4769317 -0.27665305 0.34465563 -0.2615177 -0.3351345 -0.69954026 0.19299117 -0.1654205 0.0017984565 0.31358317 -0.1993672 -0.15462023 -0.3277908 0.17330374 -0.0447517 0.006899207 0.42594063 -0.1930232 0.16873023 0.35039204 -0.063119516 -0.13007227 0.04415443 0.23498659 0.14381021 -0.36600086 -0.15374094 0.17957613 -0.51031005 -0.20984548 -0.14022368 -0.24787304 -0.24817643 -0.33003658 0.28856286 -0.31631815 -0.26693398 -0.04584185 -0.044652354 0.07727165 0.2142955 -0.53317356 0.40084723 0.4130143 0.21658784 0.44502914 0.045631267 0.050756335 -0.32608622 0.11596352 0.0410556 0.17324275 -0.06719157 0.6007912 0.11095001 -0.42210788 0.18434347 -0.09876209 -0.4399302 0.15570457 0.57345444 0.026810138 -0.20480561 0.6153508 -0.3849709 -0.45704803 0.3212893 0.06952502 0.20823695 0.060692918 0.04722096 0.1563611 -0.045881383 -0.2922273 -0.45792598 0.49587774 -0.27736974 -0.5423639 -0.19357648 -0.109310925 0.12004412 0.6187625 0.36390775 -0.3435439 0.07187928 0.35177618 -0.0884745 -0.024719585 0.012895435 0.10206458 -0.40847808 0.20380223 0.20792416 0.054763235 0.16393012 0.288166 0.17408046 0.074986264 0.097368926 0.096933246 0.033034217 0.19208226 0.06549016 -0.30520037 0.01869107 -0.05387725 0.401276 -0.04355965 -0.11483106 -0.5979184 -0.52507484 0.25891215 -0.12858325 -0.18516552 -0.00903364 -0.01847181
179 0.50821275 0.274221 -0.6791103 0.16779546 -0.08828664 0.3576127 0.2636862 0.010707684 -0.02389099 0.12133908 -0.25231355 0.089823484 -0.6410472 -0.30018812 0.18253969 -0.32213044 -0.15885003 -0.405295 0.056833245 0.20381051 -0.13102776 0.4150486 -0.2550242 -0.42315674 -0.3600321 0.060275495 -0.21444951 0.15666938 0.38260287 -0.17918693 -0.029492803 -0.07340861 -0.112892516 -0.32681873 0.08869897 0.27310473 0.01082563 -0.3714257 -0.60551965 0.3922788 -0.16259377 -0.028840164 -0.23304889 -0.13544784 -0.17686054 -0.3246162 -0.09961836 -0.37690294 -0.4419425 0.14171426 -0.099243544 0.19055557 0.18458804 -0.21991129 0.13511214 0.39346176 0.11113791 0.3289972 0.10691841 0.052691847 -0.28678748 -0.06650314 -0.08773657 0.2847847 -0.02726993 0.6299012 -0.031626757 -0.2854358 0.34990346 -0.32550004 -0.18509771 0.11357051 0.20243153 0.17692481 0.0014447458 0.60636836 -0.32328784 -0.24607334 0.29397303 -0.033500683 0.40372866 -0.21307692 0.02073279 0.3147416 -0.3345933 -0.22301942 -0.6848988 0.20945504 -0.10958086 -0.5247196 -0.2714351 0.27121413 0.33994585 0.6426085 0.4762421 -0.505613 -0.06220312 -0.0057003275 -0.026571985 0.07777628 0.1023129 0.0050646644 -0.3600527 -0.19458286 0.3089533 0.083117224 0.27876067 0.058386907 0.14027977 -0.012676276 -0.17132711 0.04116359 0.39844698 -0.0021705478 0.08222667 0.10299934 0.1366445 0.06826465 0.50940466 0.025472697 -0.070822746 -0.18580696 -0.6285267 0.120297305 -0.07802478 -0.1398728 0.033627648 -0.053885363
549 0.2769977 -0.22262755 -0.104557924 0.24241243 0.06087309 -0.32326442 0.83785367 0.19828744 -0.13166523 0.7486788 0.44787428 0.34590796 0.34051055 -0.35304436 0.0014894316 0.71983767 -0.66576266 -0.97209597 -0.6837712 0.34053427 0.06307523 -0.20394021 -0.38550603 -0.6689292 -0.50365144 0.4655925 -0.16104452 0.06392218 -0.29469633 -0.09638834 0.6275164 0.06148417 -0.06075284 0.12320587 -0.563933 0.071921885 0.24271882 -0.17424819 -0.012847051 0.061958767 -0.18813986 -0.040246908 -0.36773625 -0.17336437 -0.17248376 0.33186197 0.09776969 -0.00026636384 -0.76353014 0.002620766 -0.39813173 0.07975669 -0.28061843 -0.89481056 0.082135305 -0.07035292 0.25174636 -0.11611834 -0.11919041 0.31228638 -0.39101398 0.22348443 0.08567983 0.7764417 -0.29708582 0.23789307 0.3593539 -0.21838179 0.03102312 -0.4251464 -0.9073298 0.1338222 -0.013449356 0.4194913 -0.37155586 0.2268187 0.15574646 -0.1238747 -0.15673193 -0.1873391 0.18188037 -0.051092677 -0.25151524 -0.07001673 -0.1289003 0.3996755 -0.28505492 0.28704453 -0.29759145 0.2930752 -0.6935319 0.08946829 0.20067377 0.3075241 -0.2284744 0.0048584603 -0.24239978 -0.33356225 0.76351833 0.19115621 -0.53604084 -0.19274798 -0.29100168 -0.24006924 -0.12532166 -0.46644834 0.53248 0.43517798 0.58180773 0.31335413 0.1386357 -0.06213568 -0.14501187 0.4401429 -0.09497739 0.15790646 -0.0026858011 0.1696308 0.6489004 0.07973707 -0.59207296 -0.1274899 0.03656066 -0.14881356 -0.15701655 -0.1904924 -0.28466058 -0.01090648
280 0.36641115 0.12732041 -0.78444386 0.029780384 0.040006593 0.20850469 0.19137403 0.084245354 -0.2522736 0.15967584 -0.21972485 0.049668513 -0.3683888 -0.096987516 0.17185473 -0.39592928 -0.17532921 -0.51187193 0.024755526 0.20974961 0.115713686 0.13787386 -0.5801461 -0.2705143 -0.54545295 0.3040304 -0.38363576 -0.025140801 0.3705855 -0.17001116 -0.04043375 0.0003894046 0.0041663013 -0.15412396 0.17024413 0.31841648 0.030833144 -0.33911902 -0.41072494 0.18173638 -0.3714748 -0.093123496 -0.2057719 -0.30880666 -0.17371371 -0.2781731 0.03243894 -0.46693736 -0.20037237 -0.15858507 -0.17287838 0.10340452 0.33020753 -0.4327978 0.16888896 0.3045519 -0.10243368 0.2352272 0.2023884 0.29553843 -0.34772205 -0.024518803 -0.08251949 0.3724716 -0.053830188 0.45238185 0.08872813 -0.4857348 0.40629828 -0.0070901364 -0.41036415 0.051220916 0.5789785 -0.020916864 -0.043056495 0.20983112 -0.2512408 -0.43531257 0.35263684 -0.08827768 0.40393263 -0.22722353 0.07436086 0.045532204 -0.371855 -0.48185134 -0.53391826 0.16423604 -0.22383367 -0.048165917 -0.08663122 0.12700354 0.38263083 0.48383927 0.15195912 -0.32994872 0.09144126 -0.04588712 0.019468576 -0.10235402 0.0034802258 0.03471503 -0.59342813 0.0793304 0.32047522 -0.07356279 0.2810899 -0.04141873 -0.013197901 0.018420763 -0.05816323 -0.09276388 0.10265519 -0.002877593 0.2290465 -0.07330004 -0.18140411 -0.0018146392 0.23881766 0.17438504 0.13249569 -0.4093008 -0.6634227 0.22809203 -0.14859001 -0.16697043 -0.22631304 -0.09770005
271 0.43732786 0.36847597 -0.871593 0.021608626 -0.009427538 0.18626533 0.13632101 -0.0639451 0.044438936 0.18231083 -0.16355807 -0.014591551 -0.2680012 -0.10844885 -0.0024271533 -0.45829016 -0.2024175 -0.23026353 -0.18748175 0.054797657 0.012112252 0.19710796 -0.3378189 -0.32290083 -0.58366877 0.11517855 -0.289024 0.13468133 0.18861884 -0.1681065 0.13445656 -0.2388777 0.1214201 -0.211368 0.09071651 0.36428055 -0.046052013 -0.28186697 -0.54401267 0.041823354 -0.393421 -0.071438715 -0.10006613 -0.12306771 -0.29818863 0.034944482 0.06551351 -0.47585398 -0.24676633 -0.20057729 -0.18609242 0.25352237 0.10331571 -0.48487073 0.098412424 0.53179824 0.2499302 0.40431613 0.12946406 0.112596706 -0.36054546 0.025756402 -0.029330835 0.29940373 -0.08756834 0.7247021 -0.058384996 -0.3506099 0.36477154 -0.22696517 -0.16535696 -0.11285962 0.5552325 0.22747062 -0.35903418 0.54363096 -0.28645983 -0.08209649 0.22049609 0.053984575 0.24172132 -0.10806277 -0.12591878 0.13018082 -0.34888834 -0.15260245 -0.5501728 0.25330997 -0.1756404 -0.46508938 0.03749013 0.13793398 0.38265097 0.5866509 0.25898916 -0.35161167 -0.00586378 0.06945942 -0.1339369 0.08609891 0.09299974 0.5061416 -0.44896615 0.13341069 0.050839134 0.041315593 0.33561587 0.4144664 0.26230955 -0.18663949 0.011834428 0.013937943 0.244607 -0.001814872 -0.055810407 -0.3388791 -0.116522714 0.2905921 0.18769588 0.0153029 -0.031513005 -0.291936 -0.74284256 0.21298774 -0.0998795 -0.3644089 -0.25010705 -0.20215029
170 0.32911474 0.15288116 -0.713681 -0.17808397 0.19741514 0.56190896 0.096865796 0.053871065 0.13888942 0.046299517 0.06078041 0.20486987 -0.3246156 -0.08356969 -0.18191907 -0.67831886 -0.3071285 -0.50101155 -0.16266806 0.08303578 0.19199848 0.6536714 -0.28650656 -0.042470492 -0.25631243 -0.25053382 -0.52555597 -0.06653413 0.213727 -0.2444938 -0.19840086 -0.41441104 0.2960549 -0.31609756 0.10079804 0.06314251 -0.09238428 -0.274544 -0.08836543 0.3213011 -0.17829397 -0.36613727 -0.31125554 -0.5374001 -0.26762515 -0.16597646 0.040254522 -0.26545006 0.091229364 -0.2663014 -0.0073603634 0.1833126 0.16994557 -0.36142635 0.44820917 0.38507092 0.072365806 0.14553086 -0.38724208 0.090329915 -0.33455297 -0.56916827 0.24019754 0.31292093 -0.34863117 0.46950847 -0.25214812 -0.36186975 0.42808008 0.14142558 -0.41707098 -0.16886696 0.25102705 0.13729225 -0.31148285 0.2480776 -0.8666865 -0.09596081 0.07401967 -0.17850596 0.32795915 -0.14763375 0.09679345 -0.044031575 -0.025531394 -0.25841632 -0.42024958 0.23193492 -0.25906742 -0.5541307 -0.30407244 0.011622615 0.3668465 0.82106733 0.5783738 -0.33165574 0.29739687 0.19188207 -0.018210988 0.23995316 -0.2251533 0.20881167 -0.3206395 0.19565436 0.33114177 0.065148935 0.69719946 0.17019215 0.14653073 -0.022163516 0.04049371 -0.051173683 -0.0033844928 -0.23174828 0.037057698 -0.17122562 -0.30217052 0.27484947 0.29437542 -0.21833336 -0.25987145 -0.4477971 -1.087101 0.43502796 -0.12862064 -0.6917567 0.0347843 -0.23559043
282 0.4067179 0.22505863 -0.67078245 -0.19752601 0.10035749 0.14417346 0.13800824 0.053196743 0.0638751 0.117924884 -0.010200836 -0.08157869 -0.29807281 -0.28136438 0.20904696 -0.3888528 -0.25837263 -0.5810863 -0.0075101946 0.020164693 -0.08493641 0.3971373 0.0021576583 -0.53788906 -0.40636057 0.21733303 -0.22126365 -0.027930787 0.3948723 -0.19912463 0.23432322 -0.012897778 0.08128373 -0.23521411 0.11945652 0.18634573 0.06523262 -0.2608837 -0.29991496 0.21077305 -0.1795755 -0.078745015 0.16310251 -0.051770102 -0.35325703 -0.15110862 0.22563949 -0.031953014 -0.38388503 -0.0404935 -0.17684558 0.1728538 0.06866163 -0.55998456 0.048799448 0.36456975 0.3122802 0.35865182 -0.020497948 0.2101689 -0.38252342 -0.14276354 0.0059456974 0.39137018 -0.02531168 0.37985507 0.01705041 -0.21318656 0.49440646 -0.12734298 -0.2252092 0.11162087 0.50011057 0.19848728 -0.23239481 0.091347836 -0.23012064 -0.092117816 0.36222246 -0.1893103 0.26675788 -0.07266869 0.2789762 0.17123365 -0.30250847 -0.33266455 -0.600739 0.46440277 -0.42589632 -0.3265633 -0.15142994 -0.0026014745 0.68572557 0.4532743 0.24592629 -0.47900996 -0.11028148 0.13699579 -0.15195636 0.012371458 0.08806224 0.112863064 -0.42789555 0.2583276 0.49851745 0.08341275 0.23639536 0.16812593 -0.022896217 -0.16613567 -0.0069084167 0.1361494 0.005436372 0.32921734 0.15103245 -0.14514391 -0.1131292 0.041293867 0.28369316 0.05976127 -0.055668194 -0.34636056 -0.53844965 0.0061426386 -0.14052396 -0.38910162 -0.039998244 -0.38021135
552 0.2742102 -0.11094661 -0.26438326 0.26762748 0.231726 -0.42394543 0.81215835 0.27831787 -0.110023305 0.6723261 0.4093477 0.29334098 0.31864554 -0.3667794 0.01433385 0.84152555 -0.6667379 -1.0111206 -0.6022918 0.3190805 0.07525174 -0.3244338 -0.4055035 -0.6292449 -0.5048257 0.4458533 -0.15011612 0.12139829 -0.29980543 -0.11549828 0.75301397 0.16664016 -0.026888186 0.17220399 -0.5642413 0.05769824 -4.185736e-05 -0.11631706 -0.07566805 0.13476302 0.027043741 -0.07349609 -0.40523356 -0.19324654 -0.30074397 0.40807253 0.12405154 0.018995414 -0.7257242 0.033399876 -0.20822027 0.20340103 -0.28328282 -0.79758596 0.11814227 -0.06860215 0.24975418 -0.090662085 -0.10891807 0.4712952 -0.497364 0.16544674 -0.13016695 0.65102696 -0.32848385 0.20151174 0.32007012 -0.22371551 0.0071161464 -0.48235172 -0.91512275 0.21823403 0.11192979 0.26669264 -0.45068502 0.24786536 0.2603548 0.09218408 -0.12905885 -0.33535963 0.021440398 0.011985026 -0.378098 -0.187707 -0.01307361 0.38063285 -0.16789436 0.39808327 -0.2634967 0.24198684 -0.5620117 0.15364838 0.27228245 0.37752753 -0.21220347 -0.13175575 -0.12084489 -0.49530762 0.89370656 0.18705705 -0.6075702 -0.36347026 -0.36433005 -0.24844694 -0.029452762 -0.3421598 0.62539095 0.42678434 0.36973816 0.045442563 0.19486056 0.013906583 -0.16726807 0.5005338 -0.082833484 0.14084399 0.089563504 0.24690017 0.53359526 0.17085874 -0.64889276 -0.10603127 -0.1469836 -0.054165956 -0.17896895 -0.21385098 -0.28421402 0.04377036
178 0.40234303 0.02643706 -0.8753131 0.014936276 0.24853939 0.19754358 0.14594302 0.17709216 0.033720702 0.17240842 -0.08885951 -0.1262538 -0.5163606 -0.017429404 -0.06473811 -0.2841339 -0.42286673 -0.2821486 -0.11972046 0.26060516 -0.019269578 0.30958134 -0.39790523 -0.2537216 -0.30746907 0.32719097 -0.122162685 0.24790987 0.30245143 -0.115134336 0.14179645 0.12089483 0.15114471 -0.40005398 0.3460533 0.30533874 -0.0060695345 0.007561192 -0.23694971 0.31849095 -0.1489194 -0.2910126 -0.23980474 -0.2518072 -0.43665558 -0.14523587 -0.036981992 -0.4485423 -0.18025512 0.037249222 -0.045636494 0.064825185 0.057451375 -0.48763245 0.24165463 0.1998769 0.06905715 0.40001133 0.008888502 0.30630264 -0.5306276 -0.21909833 0.13341495 0.45371038 -0.100718945 0.4968389 0.10408923 -0.25649673 0.39714438 -0.48583585 -0.18399452 0.057693604 0.3334235 0.2809977 -0.1275618 0.6675422 -0.33701968 -0.10535261 0.46754974 -0.17794248 0.3171492 -0.088017315 0.31504813 -0.09359246 -0.21565165 -0.4143824 -0.6620998 0.34311795 -0.49254426 -0.53622764 -0.13093601 0.14847037 0.5843443 0.56987745 0.2247406 -0.2865581 0.04362036 0.26914096 0.18764213 -0.09613477 0.07932377 0.19125807 -0.53302544 0.16602382 0.07437776 0.113520324 0.36861342 0.1057509 -0.117994666 -0.07189682 -0.14393891 -0.031543214 -0.087884374 0.12557669 0.19781512 -0.025335856 0.0063314512 -0.20574842 -0.0023489445 -0.043879654 0.09858108 -0.010757595 -0.6648315 0.32638693 -0.29072505 -0.050430883 0.017391488 0.11562051
191 0.54224443 0.080739856 -0.7142875 0.35412425 0.058247685 -0.026664764 0.21377918 -0.0033177026 -0.17068405 0.00760632 -0.026978567 -0.21310289 -0.39493698 -0.11118008 0.15490976 -0.51912814 -0.10138798 -0.45053983 -0.20076802 0.0052955747 0.0025096312 0.09358837 -0.30703574 -0.08382371 -0.3805917 0.16621439 -0.3897167 -0.021099828 0.47289428 -0.3194428 0.07687248 -0.2342457 0.2712734 -0.19268146 0.045749925 0.1445264 0.004114371 -0.36221734 -0.45351171 0.08698942 -0.14154176 -0.0906288 -0.20138955 -0.15490803 -0.5618265 -0.13072202 0.011028969 -0.16604115 -0.057804275 -0.035709642 -0.121583916 0.16611324 0.018341906 -0.30546403 0.28570548 0.2377887 0.2001249 0.67077214 0.13400836 0.35150784 -0.17829946 0.35765362 -0.2183291 0.35370865 -0.014309386 0.4763213 -0.17706321 -0.37549925 0.5076653 -0.040876344 -0.20846239 0.19010395 0.40926778 0.16477181 -0.3497806 0.22759338 -0.3928464 -0.3341583 0.038581014 -0.20322135 -0.06312803 -0.3047245 0.08842575 0.15580103 -0.294286 -0.23199852 -0.67672503 0.2784239 -0.3605122 -0.44950044 -0.12818703 0.2863786 0.31085497 0.68950367 0.20116092 -0.65210736 0.0762029 0.33506018 0.19258027 -0.18108043 -0.07840877 -0.14607479 -0.49117115 0.263135 0.26431793 0.14153749 0.22634345 0.063545205 -0.03864012 -0.27607414 -0.039925084 -0.027998094 0.22088963 0.08097448 0.012069505 0.06253454 0.1885353 -0.00759783 0.29741478 0.076667495 -0.062211525 -0.21734008 -0.76269853 0.11172742 -0.13090141 -0.073119685 -0.17722529 0.039792415
286 0.35271204 -0.08834551 -0.21763767 0.23473671 0.06135787 -0.4038123 0.70393413 0.043307006 -0.26169565 0.7618363 0.5813493 0.3769772 0.54554564 -0.35978884 -0.005055975 0.7308856 -0.7944579 -0.8098655 -0.53061783 0.44333017 0.03964901 -0.13445091 -0.3775614 -0.62124646 -0.4651842 0.4037965 -0.104411006 0.22417085 -0.3469783 -0.10041384 0.74337953 -0.06650577 0.004408226 0.2338629 -0.618067 0.0018672608 0.36052474 -0.10426787 -0.27891293 0.08890461 -0.111857995 -0.14195079 -0.49496478 -0.22869125 -0.25952888 0.38782567 0.1992858 -0.22792697 -0.7094233 0.015760893 -0.18787289 0.12825333 -0.21314135 -0.8750603 0.09359163 0.002172376 0.27289528 -0.072460555 -0.10211032 0.36469755 -0.38382638 0.015012147 0.09296161 0.54018146 -0.36149496 0.31858894 0.33580646 -0.36084312 0.09299461 -0.49841362 -1.0421991 0.022074807 0.12281824 0.36389965 -0.3279072 0.18296589 0.078876995 -0.13057806 0.008012183 -0.29028374 0.101937346 0.06524014 -0.37526587 -0.27377158 -0.107385084 0.2988956 -0.20199466 0.51037455 -0.43902212 0.34567255 -0.680056 -0.04644014 0.3339272 0.3954038 -0.17501348 -0.18653654 -0.12785311 -0.4698453 0.78496253 0.15427878 -0.65792096 -0.12443289 -0.18436202 -0.06286664 -0.17491597 -0.36164746 0.47891662 0.39869958 0.49396792 0.16593379 0.19467387 0.06751388 -0.055576794 0.40002728 -0.18757191 0.10000943 -0.07597076 0.1614055 0.65292 0.20726788 -0.6800166 0.02756393 -0.086552955 -0.2132277 -0.11890638 -0.2792834 -0.26035225 -0.19797915
287 0.1451013 -0.08172345 -0.25700969 0.07536852 0.112075865 -0.4272306 0.90633917 -0.009536676 -0.019782383 0.69084334 0.4138276 0.32344788 0.41029292 -0.36491972 -0.014501583 0.6854663 -0.72672933 -1.0731441 -0.61574626 0.3209676 0.02572737 -0.29363865 -0.36062032 -0.603433 -0.44496202 0.3934431 -0.17355621 0.18727511 -0.3784492 -0.12702185 0.70014536 -0.012583 -0.0998892 -0.10704947 -0.492401 0.020807702 0.10884297 -0.08015875 -0.17710012 0.13654378 -0.07013951 0.030110471 -0.45942247 -0.33091772 -0.40842128 0.14152254 0.31106943 0.11826701 -0.7918519 0.0034534987 -0.17620254 0.18459801 -0.33362794 -0.8745717 0.11328742 0.033324357 0.3092921 -0.124592565 -0.11436887 0.2802139 -0.34608567 0.12430696 -0.015184458 0.7568872 -0.30934036 0.21582755 0.38434273 -0.120462164 -0.091612004 -0.51899093 -0.9951282 0.06747306 0.18400568 0.23504871 -0.38846326 0.061512932 0.32240146 0.024868837 -0.0721449 -0.250044 0.15997429 -0.009718883 -0.5432524 -0.10542843 0.04537849 0.2885713 -0.12997694 0.46047747 -0.17875583 0.43096638 -0.53702843 0.0063554384 0.28300488 0.33842593 -0.29297248 0.014412083 -0.07737593 -0.49624163 0.8331013 0.25853848 -0.64002657 -0.2508822 -0.2460986 -0.24961703 -0.14759614 -0.36563244 0.53928185 0.44896847 0.57836056 0.057285808 0.09028579 -0.06667469 -0.16037217 0.39263415 -0.068889126 0.03805826 -0.07157544 0.24923913 0.7093023 0.09854312 -0.56978655 -0.1316733 -0.078297585 -0.12656064 -0.11901936 -0.19830999 -0.3981146 0.037238337
279 0.61665344 0.16960484 -0.46856868 0.036304943 -0.15331875 0.272424 0.14811206 -0.20734869 -0.043754667 0.5185185 -0.053633466 -0.3127729 -0.4681875 -0.14722969 0.25761425 -0.33470696 -0.24436694 -0.45780194 -0.017564755 -0.13585606 -0.11105642 0.027526703 -0.19128835 -0.34555447 -0.26174167 -0.14642866 -0.23016891 -0.061341926 0.31592965 -0.17153667 0.08703198 -0.17913193 0.131448 -0.30373937 0.3820565 0.11926004 0.25360727 -0.35653603 -0.2320061 0.19185571 -0.16305128 -0.044634786 -0.23618536 -0.25454977 -0.3692056 -0.15383452 -0.01612464 -0.47856373 -0.26416433 -0.080695435 -0.30170134 -0.05965177 0.07643989 -0.5613998 0.14503856 0.46108428 0.2299625 0.5481775 -0.050892457 0.049207985 -0.30786538 0.027795494 0.1665732 0.1443908 -0.14540029 0.6489936 -0.013685616 -0.1178381 0.37778813 -0.14533079 -0.34151876 0.10387015 0.62723243 0.13320462 0.078760825 0.16142428 -0.09454264 -0.26762787 0.25834566 0.031910896 0.37423405 -0.29871592 0.0029171687 -0.09184486 -0.2231488 0.03038469 -0.62554824 0.5666096 -0.19387189 -0.1937212 -0.20320538 -0.057763625 0.56336415 0.54621595 0.19527784 -0.44450563 -0.03918695 0.11092515 -0.035457607 0.14665854 0.05282388 0.23727688 -0.4403931 0.044079542 0.23946449 0.2705826 0.17393863 0.12806109 0.12800191 -0.17565405 -0.3148584 -0.100308344 -0.14232399 0.36614543 0.2288443 -0.059587743 -0.12690856 0.09134696 0.5373153 -0.006141218 0.041822523 -0.28298855 -0.6320077 0.3697043 -0.11959484 -0.3607004 -0.06641685 -0.45202297
270 0.38009697 0.26176733 -0.5073022 0.044713154 0.012250896 0.24302153 0.27877292 -0.26844114 -0.31936845 0.31694156 -0.04976991 -0.067368016 -0.3739503 0.13280992 0.16451877 -0.28351426 -0.41456646 -0.5690489 -0.0054165022 0.16070412 0.2741248 0.23474579 -0.17641795 -0.28738606 -0.4347855 0.010311551 -0.3197202 0.25603542 0.33292505 -0.0647046 0.2998156 0.03548284 0.07079497 -0.29003283 0.13110249 0.31652737 0.22103028 -0.008946985 -0.52123404 0.319912 -0.35840112 -0.21602634 -0.30800167 0.0969304 -0.31676805 -0.18126744 0.10823743 -0.33244017 -0.37910047 0.043328967 -0.5089774 0.23424 0.54590684 -0.21085857 0.13155566 0.26416942 0.29643148 0.53518534 0.08397273 0.22216508 -0.21508935 -0.079966284 -0.047515627 0.2433768 0.017930154 0.33945456 -0.004034031 -0.47758654 0.4979137 0.07765108 -0.56593895 0.07992467 0.6344285 0.034536097 0.021250188 0.2160317 -0.38377705 -0.37419668 0.23109096 -0.105379686 0.30249003 0.004941541 0.02277195 -0.09127906 -0.15486363 -0.33562994 -0.65531653 0.4930145 -0.012554459 -0.29767147 -0.32857278 0.34960893 0.45914966 0.5902635 0.46248114 -0.5217116 0.13405804 0.08580844 -0.22059539 0.06482758 -0.18050213 0.25547233 -0.326148 0.13677639 0.19806077 -0.02669758 0.175549 0.0431125 0.06787636 0.06513451 0.3238743 -0.025596054 0.2620979 0.024642203 0.18150048 -0.15857263 0.30649775 0.3675045 0.29004046 -0.02330155 0.08888988 -0.14164934 -0.71653277 0.0802889 -0.11259652 -0.25135165 -0.13434258 -0.09656993
285 0.22161147 -0.1890983 -0.14188102 0.1590495 0.14354673 -0.50132847 0.79483104 0.10539968 -0.06362438 0.726984 0.4336437 0.38258713 0.47277313 -0.41161007 0.20282732 0.72178435 -0.64633536 -0.86055195 -0.6573424 0.40902212 0.06814774 -0.20283082 -0.28531253 -0.7959626 -0.4827246 0.41532308 -0.09307462 0.031786285 -0.35364777 -0.07416725 0.5952834 0.06305857 -0.16313067 -0.07484021 -0.55126977 0.11820031 0.2330381 -0.04270289 -0.06863569 0.15039341 -0.15106753 0.008120604 -0.51947105 -0.32423508 -0.13325551 0.3240129 0.24359283 -0.002873837 -0.7632905 -0.042360067 -0.112723395 0.08882365 -0.22283071 -0.8538283 0.16047186 0.02074347 0.29824072 -0.15095003 -0.13470823 0.3488633 -0.290457 0.14042112 0.056386907 0.60899204 -0.37891263 0.32395998 0.27529013 -0.3482446 -0.019306328 -0.52530473 -1.0509579 0.014409874 0.1755694 0.22097023 -0.31628206 0.07145669 0.1138568 0.0037296377 -0.0055094613 -0.30405158 0.16499442 -0.05590124 -0.34956908 -0.21674043 -0.046059273 0.4112242 -0.21830481 0.3954963 -0.3245119 0.4019685 -0.58401656 0.021047955 0.22689083 0.2654147 -0.19003335 -0.22861186 -0.18190926 -0.493761 0.78707397 0.30891117 -0.5061897 -0.1774851 -0.32463592 -0.112675086 -0.015468249 -0.38243538 0.575305 0.52003074 0.37140113 0.08045481 0.2404708 -0.13932274 -0.15458131 0.3745704 -0.16608644 0.20888957 -0.055755217 0.25034463 0.7012501 0.26171726 -0.6309275 -0.021667302 -0.046031706 -0.070049725 -0.21117175 -0.19755533 -0.31248254 0.12273821
154 0.3770947 0.13555673 -0.5719722 0.08953537 0.28362793 0.3664646 0.21143033 0.12553233 0.07859725 0.0668031 -0.2970659 0.08215621 -0.44592735 -0.16504432 0.24293649 -0.4395352 -0.15226471 -0.29395765 -0.021574441 0.09361656 -0.11756991 0.13164726 -0.16617745 -0.25404784 -0.44511104 0.4450318 -0.24755839 0.13872173 0.16112015 -0.07515152 -0.027359389 -0.22129247 -0.0009357147 -0.2005334 0.05379097 0.48124683 -0.0785546 -0.2500893 -0.4202003 0.3167075 -0.09606711 -0.17487967 0.1612583 -0.1069334 -0.49329644 -0.2516834 -0.1463524 -0.41969597 -0.14664203 -0.09128544 -0.15446228 0.06501365 0.26492268 -0.4919778 0.18407097 0.23952097 0.22398858 0.4715586 0.039525434 0.16572735 -0.3877406 -0.093637064 -0.2640224 0.3058613 -0.004928857 0.63310015 0.03566899 -0.25414723 0.44724822 -0.28938097 -0.43457633 0.22200899 0.27648586 0.04118401 -0.13581862 0.27340156 -0.2928448 -0.24416 0.36784267 -0.024599265 0.2886613 -0.05100105 0.2040573 -0.039964464 -0.3345592 -0.2971568 -0.59400177 0.37854308 -0.23695326 -0.3019048 0.029892527 0.13007753 0.5426048 0.3984604 0.20119326 -0.4793846 -0.069825955 0.08344514 0.14211217 -0.041520726 -0.19824375 0.3608486 -0.20972413 0.3864573 0.5666293 -0.067458406 0.27387947 0.08735967 -0.064269885 0.048964757 0.166497 -0.21994245 0.47983164 0.3168066 0.04246725 0.06510419 -0.19359419 0.020849317 0.22553095 0.09099789 -0.10839362 -0.24970353 -0.6949086 0.30880308 -0.17880607 0.037734784 -0.021760074 -0.15517674
551 0.4590164 -0.14435862 -0.28574878 0.07564056 0.08513382 -0.34153008 0.7325021 0.008080926 -0.08068582 0.6432485 0.39446256 0.27988195 0.4903947 -0.44223002 -0.042713463 0.7743431 -0.66475904 -1.1091084 -0.5654739 0.39943728 0.14327657 -0.14721827 -0.31085044 -0.46983114 -0.44470212 0.5461425 -0.10827233 0.10407044 -0.41587695 0.005449772 0.76384413 -0.0161758 -0.057032444 0.13751942 -0.5631837 0.06284597 0.11920371 -0.2288992 -0.066063896 0.16463041 0.0043451297 0.023254028 -0.336352 -0.23475255 -0.2320022 0.2990449 0.25399464 -0.084687196 -0.6183162 -0.060217492 -0.1373763 0.24973875 -0.25420463 -0.9992515 0.095855504 0.16424327 0.4289083 -0.045983303 -0.13939746 0.29911694 -0.35320204 0.1035296 -0.17544687 0.6354121 -0.31085777 0.30320612 0.28700218 -0.23693773 0.056230567 -0.58725214 -1.0420921 0.26989222 0.12971422 0.23835948 -0.4332767 0.16150819 0.20250234 0.115297616 -0.010176483 -0.2721191 0.20259973 0.060002714 -0.36698252 -0.16079049 0.06439245 0.34838378 -0.09211551 0.49734443 -0.4400276 0.34743458 -0.54798424 0.026132092 0.2552834 0.245083 -0.34583846 -0.065424405 -0.27555498 -0.5027315 0.88259274 0.1275758 -0.65759176 -0.08249868 -0.25025535 -0.1926702 -0.16058785 -0.37978446 0.5124297 0.37871963 0.4140458 0.1901776 0.15214059 -0.04869441 -0.06889286 0.4822032 -0.19658342 0.22286727 0.016655732 0.09041464 0.5737046 0.19099924 -0.6933448 -0.04254125 -0.2701375 -0.013891904 -0.19472209 -0.21497896 -0.2662637 -0.00204885
192 0.22266236 0.22714716 -0.5620853 -0.0142507255 -0.024791442 0.14414485 0.19874643 0.017934214 0.086975604 -0.0140501335 -0.15293752 -0.08221018 -0.5005653 -0.052959006 0.014012013 -0.46684095 -0.19620815 -0.4414279 -0.034752995 0.30007577 -0.10381255 0.20288715 -0.32525995 -0.375238 -0.39068326 0.10941891 -0.50970864 0.05992874 0.16803879 -0.27329734 -0.040627472 -0.14394349 0.19302505 -0.18162781 0.23611283 0.15350941 -0.06839514 -0.18383041 -0.47204503 0.28939793 -0.26915872 -0.4689344 -0.33419776 -0.36220422 -0.25986177 -0.117807634 -0.21652226 -0.33594257 -0.33856383 -0.09410933 -0.22425076 0.10617926 0.34028167 -0.26182356 0.119822964 -0.044975176 0.1918793 0.25883162 0.18186207 0.34255344 -0.45761856 0.0142751 -0.03911175 0.22357988 0.067967944 0.58049023 0.16426505 -0.37400693 0.6001814 -0.024714127 -0.5372029 0.040000234 0.53874373 0.1325243 0.022607438 0.31507534 -0.35692316 -0.02686457 0.2825814 -0.015105927 0.33485726 0.260621 0.0313822 0.2101003 -0.31488878 -0.42971277 -0.67565084 0.23357412 -0.05196639 -0.21224031 -0.25952786 -0.044105217 0.43803465 0.4846357 0.32588983 -0.47007784 -0.07520953 0.040492468 0.09755275 0.062429313 0.22654645 0.01941298 -0.47118855 0.32945776 0.45899713 -0.07583827 0.36406863 0.042463448 -0.13452922 0.067142725 -0.20157745 0.044519242 0.05120682 0.036103435 0.1639708 -0.08109553 0.1651338 0.040515967 0.26551428 0.022199806 -0.0694504 -0.4437406 -0.7576508 0.22932595 -0.04158478 0.13639855 -0.15502873 -0.2876561
550 0.24721888 -0.1056661 -0.14009199 0.24128729 0.09608328 -0.5100679 0.7700315 -0.021317322 -0.10590091 0.5866273 0.35203326 0.28897363 0.35837042 -0.42481458 0.007872889 0.7886929 -0.80455184 -1.0463032 -0.5135086 0.36762387 0.0020834059 -0.0860068 -0.44066137 -0.5578275 -0.5620788 0.40035582 -0.21149132 0.052967638 -0.30231017 -0.21588637 0.69161916 0.027622081 -0.00754948 0.16476966 -0.47830534 0.014972031 0.20114174 -0.1966949 -0.027986467 0.27542013 -0.19293344 -0.10706928 -0.3571909 -0.31032693 -0.23134568 0.23963885 0.21612471 -0.10644595 -0.7684945 0.08366677 -0.11225483 0.11691819 -0.18483952 -0.98377156 0.18442965 -0.028406382 0.35392696 -0.104807965 -0.13329412 0.36465025 -0.3199905 0.0033324268 -0.064680144 0.67868465 -0.3109101 0.25103933 0.32995948 -0.22922383 0.023917727 -0.46647292 -1.0006611 -0.009634033 0.123879775 0.21545598 -0.41449118 0.1524835 0.27232945 -0.07527707 0.07172248 -0.29595867 0.035099432 0.010048749 -0.35681376 -0.20999902 -0.032393206 0.3204138 -0.16743684 0.40546262 -0.20450316 0.32635576 -0.64210665 -0.054317333 0.34806108 0.42442513 -0.31110844 0.010102338 -0.21790719 -0.43380624 0.884365 0.11511059 -0.61172223 -0.20142472 -0.36904603 -0.20234941 -0.22821797 -0.5192149 0.60642076 0.3516409 0.46219322 0.2223955 0.17689271 0.108463086 -0.18968226 0.27928546 -0.21266925 0.119309515 0.06285676 0.13767281 0.6975977 0.08648275 -0.74281144 -0.030974798 -0.07957539 -0.053228166 -0.20068826 -0.086393505 -0.15096235 0.047573
272 0.52790606 0.16298819 -0.7486756 -0.12321943 0.04732441 0.15751949 0.37646994 -0.17000613 -0.1773423 0.06793192 0.0034635514 -0.014270304 -0.48825246 -0.42669258 0.22685042 -0.4620452 -0.6527411 -0.32557398 -0.0579055 0.04953339 -0.23997334 0.26344216 -0.24504234 -0.097175345 -0.18025336 0.10799131 -0.2898199 -0.115523666 0.01835505 -0.37465107 0.12169575 -0.14107457 0.06029715 -0.040455416 -0.108236484 0.349042 0.013990836 -0.20774792 -0.19181432 0.25126448 -0.4316582 -0.11816093 -0.39372492 -0.043632895 -0.45573944 -0.3936954 -0.2600471 -0.0832165 -0.24074706 0.017409392 -0.058053058 0.25051457 0.17711534 -0.609744 0.35126883 0.24758054 0.16529049 0.52159023 -0.03944058 0.32900783 -0.18997592 -0.08390719 0.03488887 0.33967918 0.20463051 0.5578479 0.10641815 0.0017180294 0.591874 -0.066121966 -0.33784768 -0.07639012 0.413359 -0.024564773 -0.18189698 0.25333518 -0.17360646 -0.51023424 0.42754006 -0.05157813 0.05151468 -0.14480361 0.07170419 -0.08021396 -0.301596 0.0037669986 -0.44331416 0.15689719 -0.058519572 -0.5407953 -0.11604524 0.052032202 0.46861583 0.6294172 0.31596303 -0.30904764 -0.06370957 0.081931315 -0.049666785 0.04780819 0.23318312 -0.15237021 -0.62026995 0.31894183 0.21985152 -0.0763472 0.34314805 0.2401437 0.021406192 0.009304985 -0.01990057 -0.11803496 0.0810853 0.001919888 0.0988404 -0.21488406 -0.0545174 -0.030874193 0.35746926 -0.05633426 -0.1208919 -0.482625 -0.6320846 0.38789213 -0.48497084 -0.10199286 -0.15297462 0.050737586
291 0.28335577 0.22256622 -0.43797696 -0.10437601 0.15964663 0.44212034 -0.24711779 -0.16661663 0.15739933 0.015677594 -0.2705928 0.07661185 -0.2917358 0.02945704 0.025821134 -0.58436936 -0.25076586 -0.4238271 -0.34002683 -0.008884035 0.036273994 0.47218502 -0.22109877 -0.089627504 -0.26244923 -0.21820068 -0.40088278 -0.11494638 0.21560155 -0.39962733 -0.070655614 -0.14912826 0.16553831 -0.31734258 -0.13593176 0.23164842 0.1875148 -0.46415752 -0.35563844 0.19411859 -0.24812162 -0.30342507 0.008920905 -0.65774286 -0.23348323 -0.24325219 0.15817726 -0.42785913 -0.1326868 -0.24831758 -0.20316336 0.22340375 0.41183013 -0.41987783 0.49184513 0.4295591 -0.07862206 0.32647684 0.068669766 0.36206955 -0.35854188 -0.45760262 0.00554261 0.18013129 -0.10362893 0.676988 -0.028932378 -0.15772721 0.66017556 -0.032103106 -0.86954474 -0.11333428 0.09060519 0.31385612 -0.42108807 0.58401203 -0.46265692 -0.12488392 0.18908376 -0.08846255 0.5106285 -0.21663508 0.11962388 -0.048190743 -0.05234757 -0.34923583 -0.39656234 0.16453919 -0.023135537 -0.5406247 -0.21960108 0.05751726 0.20915358 0.9274746 0.30804336 -0.26461643 -0.16411029 0.19422656 0.020193115 0.15522332 -0.21261616 0.24885824 -0.44131425 0.15625209 0.40961382 -0.001488708 0.5281905 0.11892703 -0.27784967 0.020502664 -0.24976379 -0.22473374 -0.021897733 0.024804424 -0.043581985 0.16201901 -0.18811882 0.121875644 0.40931037 -0.095572785 -0.15414566 -0.25683454 -0.898895 0.30759043 -0.38539624 -0.68999195 -0.24502444 -0.24252102
193 0.14675196 0.15866534 -0.5994518 0.05304481 0.07707156 0.28628933 0.19851601 -0.05383424 0.050739907 0.11507451 -0.06018545 -0.18817513 -0.18800935 -0.2801541 0.14421213 -0.45175272 -0.09192223 -0.59609175 0.0190904 0.042586025 -0.11998102 0.34893134 -0.102952555 -0.5109369 -0.13382731 0.042585146 -0.43679726 -0.13922402 0.33408046 0.06239636 0.012733147 -0.2849082 0.023311563 -0.17540151 0.28507212 0.19803816 -0.024693852 -0.22593172 -0.16224624 0.030683741 -0.33833274 -0.13506001 -0.19097716 -0.3228778 -0.21170239 -0.3931555 -0.17900509 -0.29855698 -0.56819135 -0.05871746 -0.2707559 0.066808514 0.11043412 -0.46793452 0.15303883 0.16202964 0.46438244 0.35789713 0.12329963 0.31208566 -0.46317366 0.16381514 -0.014410295 0.17549643 0.20377699 0.75459695 -0.17735071 -0.30949688 0.42697033 -0.10107362 -0.30668616 0.33405286 0.46557808 0.037978746 -0.23573682 0.33977228 -0.45330274 -0.27405813 0.2761789 -0.069369406 0.10612813 -0.03706619 0.0150774885 0.15624835 -0.34266835 -0.19350481 -0.5531157 0.3583008 -0.14728743 -0.40091315 -0.090321384 0.28923982 0.45748863 0.61841965 0.22066602 -0.3640629 0.1347397 -0.09816248 -0.084758304 -0.009217573 0.023110777 0.10678854 -0.26045007 0.25707728 0.2718768 0.085942596 0.45536026 0.19022298 0.031815544 0.15599051 -0.17482528 0.015004633 0.049677 0.15419199 -0.16299923 -0.2946758 0.014363013 0.29689184 0.18193986 -0.014523149 -0.038764913 -0.43699014 -0.4824981 0.2666189 -0.11396128 -0.17507796 0.064376414 -0.22356783
141 0.07542879 0.2884055 -0.70042694 0.038061053 0.03870085 0.6409122 0.14527863 -0.06775496 -0.08277804 0.21353003 -0.0072955526 -0.17997362 -0.40304303 -0.10507128 0.09853071 -0.25253898 -0.21629995 -0.3927337 -0.16719413 0.074653625 0.049514785 0.46076858 -0.29165712 0.22614075 -0.26451588 -0.09938759 -0.33358255 -0.005129283 0.1843849 -0.3717213 -0.15835454 -0.36114645 0.07718058 -0.24106595 0.033450797 0.13011676 -0.20420156 -0.29818678 0.042286485 0.44570106 -0.26307556 -0.20791075 0.044741202 -0.699193 -0.19841751 -0.32337505 0.112485185 -0.17317021 -0.20175532 -0.19233972 -0.2215347 0.1618354 0.46085295 -0.32306033 0.19147116 0.46571892 -0.23683406 0.43923184 -0.19885197 0.2844115 -0.29236272 -0.29753605 -0.025256801 0.32162988 -0.15732001 0.5849701 -0.16051278 -0.3634591 0.55603194 -0.17744836 -0.7044114 0.12770379 0.20479295 0.43212998 -0.45151973 0.3722168 -0.38736904 0.012123838 0.30709472 -0.15032808 0.2812242 -0.14229591 -0.0044966564 -0.015325651 -0.091423854 -0.26938623 -0.5715641 -0.17058328 0.018173587 -0.43691188 -0.19373307 0.14474154 0.154117 0.97975636 0.24246827 -0.42613143 0.23373714 0.24195671 0.0283252 -0.031825397 -0.18515466 0.13642275 -0.5681529 -0.0020853244 0.41754606 -0.16806996 0.5827008 -0.13204488 -0.084899314 -0.05940476 -0.103251725 -0.27966928 -0.07485903 -0.008296579 0.059028897 -0.037236463 -0.30624068 0.32478297 0.25971115 -0.22604232 -0.294188 -0.32850423 -0.8593972 0.33120656 -0.06029527 -0.5850364 0.0033670254 -0.40317488
