2298 128
72 0.08732485 0.4114666 0.11439847 0.08333896 0.039355777 -0.7434848 0.101227105 -0.10190884 -0.015513106 0.3139606 -0.023879431 -0.17384781 0.15728539 -0.086122885 0.26625967 -0.08471028 0.34380025 -0.105944335 -0.018223556 0.035311684 0.52237064 -0.20705216 -0.30959582 -0.047165807 -0.30303082 0.022804795 -0.10688537 0.12165133 0.13729465 0.121734224 -0.51599437 -0.00033806253 -0.2582444 0.0074166683 -0.1924042 -0.2283002 -0.19152723 0.30460206 0.19051448 0.26216933 -0.06476375 -0.2851225 0.3697892 0.34813797 0.12100112 -0.2191569 -0.16038097 -0.15431234 0.2559998 0.12670793 0.5404516 -0.093457334 0.20616665 -0.17805031 -0.5357514 0.22938164 -0.21216251 0.56341964 -0.11800654 -0.2531961 -0.3967862 -0.082093135 0.008418747 -0.11772926 0.71439356 0.18807322 0.31829458 -0.09307074 0.22481818 -0.21366525 -0.08356618 -0.043218546 -0.26581642 0.009873583 0.40117228 -0.13678727 -0.17050084 -0.21904095 0.024628127 -0.03313023 0.049643673 0.00049647305 -0.033488754 0.08250346 0.19192645 -0.26153815 0.33531523 -0.01025091 0.21056144 0.15073901 -0.28449884 0.2529627 -0.035843227 -0.2621444 0.20631425 0.5682617 -0.13520522 -0.6332387 -0.0013867739 -0.13675888 -0.14807019 -0.11390302 0.011958457 0.24306545 -0.5837963 0.142329 -0.20604984 0.08021163 -0.06898916 0.3003593 -0.40984988 -0.053188935 0.17671125 -0.16435708 -0.23672944 -0.15598197 -0.14764605 0.42658076 0.45477232 0.41190368 0.2572998 -0.044728078 -0.26251605 0.19797035 -0.0126919225 -0.19289835 -0.045465562 -0.27724862
142 -0.07094119 -0.64812267 -0.01785712 0.12065631 -0.22747761 0.1514989 0.11658997 -0.0903978 -0.55388105 0.039863687 0.10026993 -0.11524699 0.14341041 -0.62780195 0.08156721 0.37924004 0.09966554 0.12698959 -0.4337008 0.16489762 -0.29432425 0.22469978 0.026873177 -0.18634863 0.11664498 0.2253906 -0.22620712 0.17664184 -0.09293681 0.7056616 0.32035324 0.45333695 0.19463553 0.4895637 -0.07102422 0.15120941 -0.15618585 0.15770239 0.12986812 0.07339122 0.10440949 -0.2281277 0.51243496 -0.029288286 -0.096735194 0.24832597 0.29432073 -0.02273162 0.33502576 0.0928807 0.5265925 -0.58918697 -0.10405759 -0.06935422 0.36996 0.0515966 0.36555296 -0.5289849 0.10382753 0.018114127 -0.28028527 -0.07100155 -0.32239774 -0.15170968 0.26640716 -0.4744867 0.00977384 0.046441566 0.15597007 -0.15895885 0.19993621 -0.24188676 -0.418506 -0.01881071 0.053302757 -0.2803133 -0.008233537 0.053865556 0.16480559 0.13501313 0.18311341 0.021468898 0.22893935 0.3816147 0.14441118 -0.0032146908 0.54272777 0.0390162 0.14758669 0.11843664 0.4055142 -0.072185874 0.21275519 0.06569471 -0.13608606 0.5050819 -0.47903576 -0.14874455 -0.15308857 -0.3129453 -0.10578871 -0.0060126525 -0.11063285 0.20523882 0.59952503 0.42642328 -0.095677815 0.5252337 -0.15840466 -0.06816633 -0.11450567 0.2788646 -0.17822263 0.04258144 -0.64438325 0.25202075 -0.31832117 0.15373701 0.2636556 -0.028617794 0.00084145897 0.10194916 0.282005 1.0124604 0.26497933 0.08378418 -0.41486406 -0.14996582
2401 0.13047965 0.40614948 0.1299762 0.12332499 0.079736926 -0.7545751 0.16986822 -0.07723571 0.084565334 0.2610166 -0.014032725 -0.105236396 0.17173204 -0.13496253 0.22100586 -0.12495549 0.3854955 -0.07596894 0.07937485 0.12990992 0.49924445 -0.22830577 -0.2883884 0.004940534 -0.30930093 0.075353324 -0.08733741 0.11549421 0.17546558 0.09836917 -0.47574672 -0.030326754 -0.27040467 0.0320952 -0.16615857 -0.29788986 -0.17634483 0.29821485 0.18163693 0.22828023 -0.03869692 -0.36493042 0.3483121 0.3295775 0.08090821 -0.18153329 -0.21498877 -0.15458742 0.3226728 0.0831067 0.5129607 -0.11316695 0.275099 -0.18316258 -0.57422143 0.21263929 -0.19669354 0.5334078 -0.14012823 -0.22254926 -0.42733875 -0.10277959 -0.008886637 -0.14834574 0.62858915 0.20441222 0.3257421 -0.11633001 0.18705812 -0.19410487 -0.09506213 -0.026039325 -0.215629 -0.09481882 0.47239992 -0.16850244 -0.23701136 -0.22169603 -0.015151784 -0.09165695 0.0543312 -0.057571422 -0.03162434 0.1555714 0.26286727 -0.29998875 0.38418418 -0.04530139 0.2401589 0.09269147 -0.30309892 0.22267641 -0.01303655 -0.29154575 0.20602617 0.5765863 -0.20023781 -0.6676276 0.02945309 -0.110796206 -0.116137125 -0.112459674 0.05554676 0.16846424 -0.63535106 0.07586629 -0.21972711 0.11209774 -0.05632382 0.31305125 -0.3552119 -0.028308446 0.13186932 -0.1653124 -0.21132524 -0.12580882 -0.14015406 0.3803761 0.5150759 0.31174394 0.3154967 -0.039149992 -0.22786522 0.20544188 -0.12802576 -0.121417716 -0.025341524 -0.29577166
1739 0.073612064 0.29592046 0.095896184 0.057905175 0.060501415 -0.78856605 0.07194718 -0.07685969 0.06590681 0.2792644 -0.045796886 -0.18063453 0.16012518 -0.13511334 0.2763006 -0.131448 0.3483446 -0.15681583 0.10122679 0.06473408 0.54159075 -0.19604658 -0.32685566 0.06549608 -0.24748892 0.047209352 -0.14228454 0.17541125 0.18534142 0.16434288 -0.5222732 -0.026906066 -0.27535713 -0.0014678338 -0.21039146 -0.21719955 -0.1541374 0.3435885 0.17507483 0.18878937 -0.033967208 -0.38763884 0.38180086 0.32999724 0.0964407 -0.22805578 -0.19256777 -0.16693206 0.28139985 0.10220884 0.45656636 -0.063178845 0.24565546 -0.1933745 -0.50092787 0.24857405 -0.20263498 0.5578924 -0.14882086 -0.2779995 -0.42461196 -0.16033077 -0.06244581 -0.07887667 0.59792817 0.24934171 0.35941485 -0.18054897 0.19368385 -0.2618582 -0.12204499 -0.022075184 -0.26436827 -0.032092884 0.40034935 -0.2168678 -0.18542896 -0.1808343 0.028185692 -0.0436612 0.08900908 -0.016855232 0.0062022344 0.12302424 0.16424766 -0.31919247 0.39721984 -0.07632554 0.20971283 0.09697827 -0.3235093 0.2200224 -0.04366364 -0.3194338 0.27042812 0.5541486 -0.21889469 -0.64668614 0.0479829 -0.15352793 -0.14031829 -0.022417055 0.071601994 0.21879508 -0.5630431 0.16892141 -0.24994768 0.13796325 -0.11203899 0.28974742 -0.29174906 -0.020675696 0.22040305 -0.18790045 -0.22441053 -0.13040674 -0.20190553 0.4388267 0.5246466 0.3690914 0.28874922 -0.049314514 -0.26024285 0.11800996 -0.07073091 -0.14205328 -0.06649396 -0.27795538
2815 0.080220655 0.3088305 0.13824543 0.0908259 0.06763185 -0.8096049 0.1555589 -0.14924738 0.02742951 0.28367376 -0.047143303 -0.17686352 0.14345935 -0.119427636 0.29645804 -0.20008026 0.3816915 -0.084691204 0.019648887 0.14125608 0.5383674 -0.2632408 -0.28854164 0.036812853 -0.34521264 0.03487643 -0.15580125 0.10721334 0.16486394 0.16879258 -0.46815386 -0.01774238 -0.20162107 -0.035977684 -0.16292128 -0.2292602 -0.1941636 0.31275526 0.2177493 0.19861078 -0.03713698 -0.31622443 0.40091726 0.26762068 0.079160936 -0.158561 -0.17948924 -0.12170723 0.28939712 0.07525298 0.57971126 -0.12983236 0.31221184 -0.16561383 -0.6146754 0.18185286 -0.20417838 0.5356747 -0.18649226 -0.24862894 -0.41829884 -0.13770081 -0.022179024 -0.10583228 0.58259267 0.21443398 0.28527 -0.17562923 0.16979772 -0.18527085 -0.07132585 -0.08993376 -0.2329212 -0.007631258 0.43696797 -0.19422416 -0.22762765 -0.21464796 -0.020823067 -0.060211074 0.056029275 0.027102087 -0.042132866 0.098203436 0.18621868 -0.3018294 0.39424124 -0.13776769 0.26069936 0.10445591 -0.3678219 0.16924872 0.0016818627 -0.32867903 0.24908143 0.5766258 -0.19596882 -0.6521676 0.034034636 -0.107853025 -0.15719374 -0.049374845 0.07270961 0.2121438 -0.6238854 0.10785265 -0.22215892 0.07092638 -0.052971665 0.3962045 -0.4141613 -0.07869598 0.18873401 -0.19441925 -0.14984074 -0.056345925 -0.24133746 0.37313387 0.50484407 0.35645702 0.273714 -0.04989246 -0.19108321 0.15982953 -0.056473322 -0.15570788 -0.06559626 -0.28229147
247 0.112422094 0.38601762 0.12616232 0.06699361 0.020409798 -0.8069498 0.0698755 -0.13546665 0.0598398 0.30548194 -0.06299023 -0.1760337 0.16495301 -0.14189762 0.2651428 -0.15358493 0.38320956 -0.08531413 0.044720784 0.11717966 0.5726034 -0.2328981 -0.34142992 0.06939826 -0.3161281 0.11311549 -0.08954546 0.10478782 0.1614944 0.1522839 -0.44620577 -0.069934174 -0.22534682 0.05220053 -0.21118613 -0.1649821 -0.19096866 0.39600167 0.28360868 0.14208378 -0.022599367 -0.34284785 0.31204858 0.2435488 0.111937515 -0.1975656 -0.21799515 -0.21878003 0.32786846 0.04039694 0.53163964 -0.09638336 0.27315766 -0.0869126 -0.6011816 0.23851116 -0.17451736 0.4761678 -0.09446319 -0.23918408 -0.34085953 -0.100233145 -0.030425085 -0.10394282 0.6798663 0.23715658 0.3284427 -0.15945674 0.20579366 -0.21996115 -0.060831103 -0.016747363 -0.27156097 -0.017192189 0.4742354 -0.15715341 -0.2034607 -0.19435269 -0.0041108923 -0.08000176 -0.00425353 -0.05703904 -0.0067969356 0.13845247 0.26207617 -0.34207535 0.42304796 -0.04209948 0.2617503 0.06994369 -0.32507548 0.24653038 -0.0429336 -0.3571632 0.32618383 0.63862926 -0.1844416 -0.6306718 0.041694935 -0.15007931 -0.16964097 -0.071301974 0.03642077 0.20728199 -0.5719426 0.13305302 -0.24649322 0.09675216 -0.1203516 0.29869315 -0.3114587 -0.03736816 0.19158663 -0.2483952 -0.20520742 -0.120719604 -0.14584103 0.39354423 0.4681813 0.36615264 0.29969528 -0.028009323 -0.2914915 0.121204555 -0.060620245 -0.1613279 0.0381894 -0.31927848
336 0.4482513 -0.20897064 0.09854027 0.2801291 0.22858216 0.3489336 0.61538666 0.5500746 -0.003622079 0.29225257 0.25571278 0.5179728 0.6792387 -0.5113036 0.45349956 0.2959982 -0.31861356 -0.28643882 -0.19563238 0.008574367 0.5148606 -0.44742593 -0.17153125 -0.301251 0.019322513 0.5708537 -0.36155012 -0.086207084 -0.21849936 -0.027525028 0.27484187 0.19010636 -0.2415027 0.28677174 0.62848955 -0.1960558 -0.027691785 -0.44273907 -0.055724084 0.22773722 0.055109695 -0.38747776 0.25884 -0.5824547 0.68704253 -0.31880486 -0.11460194 -0.44751137 0.0126174865 -0.71978503 -0.033623695 -0.13629937 0.5321346 0.30014753 -0.31219596 -0.28186366 0.122821435 -0.6934863 -0.1751397 0.47315276 -0.53280216 0.30374858 0.24115579 -0.14854227 -0.07491182 -0.4981596 0.26633173 0.3864914 -0.36491895 -0.30211797 -0.33114925 -0.31786674 0.07168384 0.0541462 -0.18671302 0.18443663 0.21659717 -0.5214522 0.274438 -0.34710562 0.48010245 -0.3032022 -0.07591588 -0.09498538 0.051845822 0.013929571 0.757607 -0.0023867784 0.5478054 0.3365257 -0.22014023 0.33608544 0.23855932 -0.5276309 -0.37946472 0.29475582 -0.9445456 -0.45223725 -0.16032755 0.051591985 -0.8199874 -0.27999166 0.020411309 0.7733072 0.7477241 0.5220384 0.12837756 0.11748824 -0.43950292 -0.34617668 -0.33820003 0.57734 -0.32294035 0.1598468 -0.51621515 0.07952376 -0.67146504 1.0091791 -0.14187934 -0.23430023 -0.5191725 0.16322628 -0.02464265 -0.5459067 0.87890345 -0.27258915 -0.24089646 -0.11317425
51 0.15731399 0.3051693 0.106403306 -0.03516348 0.06982428 -0.16710992 0.048194163 -0.062995575 0.14326172 -0.06969167 -0.10256756 -0.09053743 -0.08024125 -0.06402547 0.3609597 0.111445025 0.21806982 -0.0024987275 0.1602588 0.06405152 0.13764709 0.40771428 0.002800813 0.04681739 -0.14872935 0.044313822 -0.022226801 -0.11679937 0.291754 -0.26421645 -0.49133515 -0.006264561 -0.2520621 0.03530322 0.068498634 -0.02742873 -0.017610619 0.12111605 0.037876148 0.097461045 -0.09202374 -0.043919012 0.085246205 0.0660922 0.20836635 -0.037722748 -0.15413207 -0.1810323 0.0040469775 0.1328493 0.21983686 -0.008071044 0.111574665 0.017160557 -0.24074242 -0.033816677 -0.053455457 0.31276473 -0.042772394 0.07028463 -0.2861073 -0.053103138 0.17030895 0.050803676 0.25197846 -0.072828256 0.18756011 -0.13230254 0.064435646 -0.23659013 0.047889516 0.19525306 -0.22123021 -0.104638964 0.32036534 -0.09522536 0.12721121 -0.08942493 -0.16464688 0.11804823 -0.033477277 -0.010468099 -0.12806357 0.16050674 0.0055213477 0.1140792 0.24463053 -0.012779329 0.27277565 0.1761906 -0.10102902 -0.11976321 -0.03478038 -0.08020331 -0.1067835 0.1003264 -0.014114961 -0.050907 0.15422176 -0.075405225 -0.03014284 -0.20687397 0.18624957 -0.120930895 -0.25357443 -0.047167182 -0.039839987 0.06819903 -0.052306566 0.11681292 -0.13153449 0.01579612 0.13568258 0.029199217 -0.34613475 -0.010107932 -0.16208108 0.20891723 0.22705604 -0.14620905 -0.21162981 -0.058720335 -0.13762583 0.16212481 0.08011735 -0.16780071 -0.15591495 -0.026744789
2 0.06832079 0.3165133 0.065438986 0.001976919 0.064367145 -0.18629679 0.01058669 -0.07309184 0.10531432 -0.0624249 -0.16531384 -0.15291299 0.041632127 -0.01667931 0.35929778 0.036860075 0.17981908 -0.027901901 0.11058413 -0.03758694 0.13083066 0.4208837 -0.071398936 0.012579115 -0.19339398 0.016343882 -0.048766695 -0.090645984 0.25972116 -0.2872857 -0.50285685 0.049167734 -0.32792512 -0.039343435 0.080532625 -0.04407139 -0.020567732 0.056507047 0.04718138 0.08265601 -0.037603702 -0.059331413 0.104281306 0.098573804 0.21448267 -0.107854985 -0.15624997 -0.24789435 0.09805613 0.117655136 0.19744435 -0.044773497 0.06704315 0.07907194 -0.23938322 -0.1408594 -0.073547736 0.3195564 0.030121861 -0.0034366334 -0.263138 -0.07198144 0.17181 0.009395406 0.2418768 -0.091589406 0.21434855 -0.08586815 0.03646651 -0.164183 0.03423064 0.15461302 -0.20692466 -0.12649147 0.275969 -0.08756972 0.16122776 -0.11185399 -0.16794571 0.08254071 -0.0077766823 -0.06910632 -0.029382074 0.10501416 0.010189627 0.101241305 0.20691285 -0.031956114 0.2175909 0.17743906 -0.102565646 -0.13011947 -7.857407e-05 -0.007765875 -0.070477 0.15646145 0.03137183 -0.089842215 0.11325581 -0.14595526 0.026593897 -0.11944724 0.15880913 -0.13207717 -0.20486462 -0.037475966 0.0032230688 0.09545119 -0.031687994 0.12653513 -0.09968642 0.041536305 0.064360276 0.002151746 -0.28688163 -0.04789818 -0.19296403 0.26433626 0.24768023 -0.096646786 -0.2694956 -0.09749296 -0.10889881 0.15310411 0.14138608 -0.15811448 -0.19430147 0.022871325
9 0.112087496 0.2813715 0.09224951 -0.0119104935 0.08542181 -0.2410027 -0.025452165 -0.114214115 0.11950398 -0.06033182 -0.0910581 -0.13426878 -0.0076782126 -0.08808323 0.3371687 0.036144506 0.1924739 -0.022224423 0.14036529 -0.012892564 0.06332077 0.44581679 -0.04134197 0.05076707 -0.14011502 0.040893525 -0.06646792 -0.09252893 0.26172408 -0.2890469 -0.489549 0.08339069 -0.34124222 0.0026605825 0.060221806 -0.03978875 -0.0034190712 0.05485589 0.10707087 0.02769342 -0.040371593 -0.06754612 0.031310026 0.07029109 0.19384377 -0.05300609 -0.16203475 -0.19538136 -0.048358377 0.124150634 0.23072541 -0.03592734 0.030472992 0.026641723 -0.26039106 -0.121382765 -0.07861182 0.27783093 -0.10254001 0.060026933 -0.3343454 -0.097797364 0.17832623 0.06960439 0.24851714 -0.032544814 0.23279403 -0.17829832 0.061531994 -0.14915626 0.051214825 0.21218324 -0.19674467 -0.1446923 0.24637847 -0.07750818 0.08100455 -0.11236083 -0.15521783 0.07870131 -0.06479275 -0.08612536 -0.08772629 0.1522472 0.07402559 0.10273006 0.26452267 0.045081396 0.19789344 0.17227733 -0.10752153 -0.1455553 0.01834028 -0.0016415352 -0.09371683 0.13267554 -0.0031575372 -0.04468356 0.12970522 -0.08321282 -0.05163159 -0.16686147 0.16900447 -0.06358164 -0.2528415 -0.07328667 -0.029132154 0.09779367 -0.047508184 0.086784564 -0.18804814 0.106229395 0.112226434 -0.015087461 -0.33785713 0.053396627 -0.14068395 0.23310222 0.20835862 -0.08040906 -0.24783422 -0.08317753 -0.12077209 0.15319146 0.043505117 -0.20972675 -0.16249469 0.06372797
1 0.10079709 0.3021531 0.111951835 0.02343461 0.1062678 -0.23546837 0.013368931 -0.07347099 0.08442579 -0.037788402 -0.14137304 -0.10889875 0.028673247 -0.09085566 0.3454897 0.06217383 0.25132445 -0.005168164 0.1143687 0.02755635 0.1301199 0.36424014 -0.028948676 -0.02914495 -0.1768907 0.045763645 -0.048439134 -0.15920718 0.26125 -0.2503811 -0.55353045 0.010710327 -0.32378426 -0.032727625 0.043420292 0.018154377 -0.027293317 0.011575375 0.045745604 0.02199493 -0.09424888 -0.065793954 0.02284512 0.06308346 0.24722435 -0.09635134 -0.17804559 -0.1276326 -0.04825156 0.1495492 0.23747057 0.015048464 0.055646308 0.08017949 -0.21291697 -0.10749055 -0.0731586 0.27827066 -0.011905555 0.01863755 -0.33158916 -0.122561544 0.1928863 0.033104427 0.22265702 -0.12953582 0.21633823 -0.13510114 0.03264588 -0.24304518 0.032365143 0.21903984 -0.23881374 -0.12477513 0.25991237 -0.063885696 0.033945244 -0.11655389 -0.09953723 0.15961231 -0.012458785 -0.14010976 -0.03732879 0.15471694 0.045757987 0.089354254 0.18662617 -0.036750548 0.23710106 0.16608736 -0.085526824 -0.13839737 0.040429287 -0.020752521 -0.09775947 0.12003718 -0.033423066 -0.10186962 0.121052586 -0.08802451 0.029741919 -0.21284716 0.1756619 -0.115314856 -0.23518658 -0.060062077 0.01020933 0.09869697 0.009766887 0.0917743 -0.19588049 0.034767594 0.1142137 -0.02526307 -0.27224794 -0.06444836 -0.18975481 0.21445942 0.21746741 -0.07931205 -0.21467665 -0.038637646 -0.15611695 0.19988027 0.061131448 -0.24967127 -0.14367786 -0.043205563
77 0.1706536 0.29238775 0.08111539 -0.025887823 0.074226715 -0.18468422 0.028622024 -0.12626758 0.1362028 -0.018913468 -0.084690385 -0.1484157 -0.001495381 -0.031719144 0.34241873 0.07941163 0.20625854 -0.12435829 0.16141489 -0.01998033 0.08157034 0.37666902 -0.035031363 0.02224743 -0.18909526 0.03305956 -0.05541295 -0.094687946 0.22023347 -0.20802961 -0.5184574 0.047214072 -0.29491195 -0.086814806 0.032206297 -0.003915952 -0.007513116 0.111319095 0.08068936 0.05160037 -0.062313188 -0.051253088 0.08952924 0.11322378 0.18549766 -0.057951078 -0.1495556 -0.1942874 0.006186514 0.1224262 0.26325753 -0.040093586 0.015549622 0.066887416 -0.18566342 -0.06972544 -0.039019402 0.2384106 -0.074621335 0.021104142 -0.334253 -0.16393156 0.17869595 0.081500284 0.2647838 -0.12700176 0.25164226 -0.11789926 0.028683519 -0.23836005 0.08310599 0.13062182 -0.18385074 -0.12203688 0.27379632 -0.049688153 0.12011413 -0.14874168 -0.20014396 0.034403637 -0.0698773 -0.10066788 -0.05635094 0.16886249 0.053344443 0.10848216 0.26814577 0.022634214 0.19760346 0.228031 -0.11588856 -0.10143942 -0.0835398 -0.059904125 -0.13242131 0.11409475 0.00433036 -0.09591822 0.103056386 -0.07907459 -0.05985906 -0.1676527 0.077931575 -0.048890777 -0.33746424 -0.07301571 -0.018220488 0.0640489 -0.019810008 0.107720815 -0.062046282 0.056789752 0.11959325 -0.002702862 -0.28990394 -0.023772843 -0.18085758 0.18985704 0.21690845 -0.09243451 -0.2238259 -0.09619306 -0.11642467 0.14613274 0.07387848 -0.18368654 -0.18085994 -0.019793313
44 0.08983919 0.26680556 0.12337524 -0.019206228 0.10302197 -0.24190941 0.06661044 -0.11536209 0.11784068 -0.0058673676 -0.19241853 -0.18797718 0.03375975 -0.029951403 0.35206836 0.06805625 0.23328704 -0.0898492 0.14846285 -0.006923733 0.159581 0.37680486 -0.07382228 0.017803641 -0.20862271 0.05749366 -0.09002473 -0.14465828 0.2778747 -0.2524398 -0.48469308 0.019317271 -0.31755155 -0.090749934 0.045799803 0.002350034 0.011257552 0.036520533 0.021028604 0.078885406 -0.046420664 -0.03561823 0.043728255 0.09705635 0.20436774 -0.017324958 -0.1004433 -0.17752618 -0.011619734 0.14264329 0.22520617 -0.06767782 0.009140967 0.09668938 -0.19034651 -0.09740938 -0.042393792 0.34898955 -0.085065484 0.052559167 -0.29553 -0.09880861 0.19031413 0.04111782 0.25635728 -0.18010369 0.22808057 -0.12858719 0.09342651 -0.23043762 0.0370335 0.16595611 -0.24026407 -0.12924425 0.3279864 -0.0690824 0.082521096 -0.058011755 -0.15445296 0.122331254 -0.014590729 -0.11920307 -0.09547126 0.14971855 0.10718012 0.060615215 0.2319648 0.006694748 0.20177692 0.19591759 -0.15706176 -0.089174874 -0.02532965 -0.07327766 -0.11076187 0.11124121 -0.020937474 -0.06515213 0.11381628 -0.033819 -0.048477985 -0.19333598 0.17299578 -0.07995121 -0.2355457 -0.08545616 -0.014684607 0.066137716 -0.021951126 0.052708823 -0.17478897 0.07597475 0.11988486 0.07068956 -0.36317402 -0.011092806 -0.17150977 0.16063873 0.20765805 -0.11589629 -0.23317106 -0.065435804 -0.07702598 0.13228163 0.09614234 -0.16442053 -0.15619068 -0.009919767
78 0.08673178 0.300876 0.054048955 -0.022777822 0.09841331 -0.19521455 -0.011506379 -0.09870606 0.14257535 -0.064290084 -0.12983215 -0.13402802 -0.006333566 -0.073974945 0.3868819 0.0778136 0.22790681 -0.04898477 0.10179176 -0.007011766 0.1138513 0.33116993 -0.05492564 -0.0031223912 -0.19862643 0.038761977 -0.061852355 -0.118602306 0.21538989 -0.22984469 -0.49870494 0.0043895743 -0.342743 -0.0446328 0.061975196 0.010785537 -0.0075503355 0.05134 0.07667732 0.06734219 -0.031922184 -0.06960281 0.08351349 0.09427392 0.21216597 -0.05923637 -0.23044115 -0.20693989 0.072269894 0.121672615 0.25272164 0.02561131 0.10959052 0.05953934 -0.22713035 -0.08131171 -0.0044901893 0.31547466 -0.10265178 0.028233811 -0.2570808 -0.08983653 0.1672878 0.019976553 0.20695238 -0.12174025 0.28906754 -0.091408916 0.036067743 -0.19807659 0.11471396 0.16009404 -0.1761062 -0.10097551 0.3419379 -0.056009248 0.14207065 -0.08350306 -0.18656665 0.10294691 -0.025251837 -0.076101586 -0.018372068 0.15634133 0.039152876 0.046419755 0.22688572 -0.020008622 0.22066167 0.13766526 -0.141509 -0.06630709 0.015469951 -0.014883476 -0.0732803 0.07467486 0.050760817 -0.06485148 0.13446236 -0.09543445 -0.0236369 -0.14360705 0.17580478 -0.13751435 -0.20051502 -0.12277895 -0.061076604 0.12860535 -0.029979168 0.109635726 -0.104919404 0.10626765 0.1373226 0.028420677 -0.3118832 0.014510502 -0.17409158 0.1689276 0.26518717 -0.13790698 -0.2433892 -0.08241466 -0.10946549 0.18418063 0.10542572 -0.23006405 -0.17471062 -0.008094093
45 0.09359431 0.3041208 0.11681595 -0.04562798 0.1419794 -0.17962621 0.010564232 -0.07978343 0.11402597 -0.07711588 -0.12522396 -0.13698117 0.006194832 -0.040385824 0.39371368 0.059024014 0.23685893 -0.050126333 0.1102668 -0.002198056 0.1539581 0.41778943 -0.03333046 0.007658047 -0.21048707 0.08380731 -0.047324564 -0.12192878 0.24811439 -0.25722036 -0.48528355 -0.024942249 -0.3442179 -0.06795559 0.07361165 -0.0013999019 -0.040204033 0.03883294 0.08544527 0.05330564 0.002063073 -0.03805889 0.044859573 0.09353899 0.13627513 -0.048083182 -0.2144331 -0.21119371 0.12307184 0.121820785 0.2471886 0.0029572533 0.094539836 0.06376205 -0.15887591 -0.060470175 -0.072960354 0.26299086 -0.028109338 0.015236552 -0.21078 -0.10061253 0.26454404 0.06324462 0.21492973 -0.11230664 0.19957818 -0.097931944 0.02431274 -0.24825673 0.071358435 0.17615473 -0.20473154 -0.113209754 0.2753732 -0.057775803 0.13644898 -0.06814134 -0.17684248 0.08426524 -0.042578414 -0.10932692 -0.07808804 0.14899646 0.05438828 0.10769981 0.23934516 -0.045076083 0.23100589 0.12658352 -0.13093834 -0.14883395 0.012744019 -0.019151513 -0.08866883 0.12630041 -0.015933534 -0.068354644 0.14361212 -0.05664595 0.0023171701 -0.12529132 0.14144959 -0.042394444 -0.2860353 -0.032020383 -0.042864934 0.08615624 -0.08114053 0.09057136 -0.13047357 0.09270311 0.14880565 0.029371846 -0.2973326 -0.010806714 -0.13364787 0.28416985 0.2439439 -0.1109451 -0.22411141 -0.053423844 -0.10705242 0.20359024 0.13051954 -0.21794136 -0.18450095 0.034162786
28 0.08456638 0.32300347 0.07399076 0.027891163 0.06581014 -0.20973583 0.029596468 -0.059659224 0.12480436 -0.0127467625 -0.11328956 -0.20160407 -0.02638346 -0.04577345 0.3778381 0.054427266 0.2192909 0.009096622 0.16138244 0.028327147 0.10937441 0.387272 -0.08699012 -0.0034047707 -0.14939673 0.09942761 -0.010534042 -0.12332079 0.2768268 -0.28460616 -0.4525767 0.07760112 -0.3302317 0.014500394 0.09207337 -0.036290076 -0.01154826 0.044836853 0.06677813 0.110390276 -0.03661138 -0.073256694 0.076746106 0.098161586 0.15940854 -0.03252642 -0.16257617 -0.16875441 0.002845509 0.1039326 0.22432604 -0.04884206 0.04619706 0.06553076 -0.25925925 -0.118433066 -0.076743186 0.33959535 -0.0936362 0.02962555 -0.2848059 -0.103709586 0.19703333 0.05319397 0.21018659 -0.07907338 0.2152231 -0.18763311 -0.0065191193 -0.2564275 0.09929027 0.18912624 -0.18717629 -0.11374981 0.26897898 -0.032425847 0.14654322 -0.056136098 -0.16513287 0.06980092 -0.011459926 -0.14215663 -0.06180561 0.17175545 -0.02242862 0.107734114 0.22930248 -0.017853083 0.17526402 0.22949028 -0.11253493 -0.110288225 0.01368885 -0.052030947 -0.11933855 0.115022324 0.022679014 -0.049671024 0.15169738 -0.10220748 -0.002738851 -0.17933092 0.15410195 -0.091956615 -0.22569615 -0.0352812 -0.025347035 0.12073648 -0.034140702 0.14304584 -0.16600904 0.02800672 0.08885139 -0.018379886 -0.31405094 -0.014063092 -0.20719662 0.27343187 0.19916625 -0.1016108 -0.24641158 -0.121030316 -0.12436698 0.16000448 0.10715793 -0.20464773 -0.2332047 0.020490583
74 0.11323152 0.27841628 0.10001019 -0.043935362 0.10909566 -0.1796288 0.068334274 -0.071681425 0.19425298 -0.024952054 -0.15695687 -0.1779248 -0.016340947 -0.04432456 0.38441533 0.030209405 0.20431075 -0.091880195 0.15225703 0.033647902 0.117328 0.41014734 -0.05892781 -0.025611905 -0.20915666 0.05342747 -0.063270986 -0.053545598 0.1799048 -0.21325168 -0.48679048 -0.024593577 -0.33385637 0.025881976 0.07868762 -0.013050126 0.035088778 0.09636777 0.057119876 0.05749605 -0.058632933 -0.06475563 0.060668405 0.010524861 0.19747646 -0.06247509 -0.18285032 -0.13068515 0.08267997 0.12279795 0.27050194 0.023197178 0.10983336 0.100997135 -0.22162493 -0.09631724 -0.038119216 0.30153087 -0.038362976 0.050353006 -0.2729649 -0.0627194 0.15824722 0.06122143 0.23300242 -0.0824156 0.22490832 -0.18401994 0.06383185 -0.15774485 0.053689763 0.15734881 -0.20333879 -0.10119166 0.29315123 -0.083667554 0.14486487 -0.09518097 -0.1471068 0.0471494 -0.066096485 -0.1344338 -0.061811287 0.15856296 0.02692852 0.093923055 0.20004159 -0.06536317 0.20769916 0.17325646 -0.079062805 -0.13182792 -0.013478579 -0.015754908 -0.07527601 0.08720037 -0.004233328 -0.06163561 0.14349422 -0.022454187 -0.022098249 -0.17291594 0.21707034 -0.087903485 -0.22981429 -0.08327173 -0.04397853 0.070231445 -0.0036164683 0.14379366 -0.15488522 0.06805453 0.08638396 0.023400309 -0.32050273 -0.056999408 -0.21051897 0.24182513 0.21600787 -0.083072245 -0.21606429 -0.083645135 -0.17747417 0.22104082 0.13691895 -0.21733624 -0.18048447 -0.034021385
31 0.08524204 0.30016288 0.10955409 -0.009736102 0.10823008 -0.22276743 0.052033316 -0.09994096 0.15111357 -0.040364772 -0.10492338 -0.189456 0.009271274 -0.07808512 0.38447556 0.052380722 0.19223034 -0.083190925 0.16136795 -0.032306157 0.15651728 0.3891256 -0.06197472 0.082536526 -0.18096396 0.030154249 -0.04036161 -0.13129212 0.20806974 -0.26550528 -0.48697355 -0.00842196 -0.26843333 0.024747351 0.080978796 -0.035546537 0.023171049 0.06690899 0.042574614 0.016327742 -0.060507003 -0.05479704 0.06791899 0.07558838 0.16318794 -0.06783013 -0.17553382 -0.16826163 -0.0086322995 0.093869455 0.22052056 0.037451923 0.027837116 0.037761405 -0.18314095 -0.12307186 -0.04872204 0.25930646 -0.049580857 0.014226057 -0.34068936 -0.11663794 0.22501867 -0.035893496 0.28277817 -0.058480978 0.21671104 -0.14351007 0.03630933 -0.21413074 0.035333145 0.19244789 -0.22834355 -0.10055613 0.30952588 -0.025340844 0.18846004 -0.0653504 -0.11999012 0.09546736 -0.04345623 -0.14724943 -0.060264327 0.13630435 0.026397323 0.08793671 0.19092008 0.013525894 0.25811782 0.16858953 -0.13695742 -0.08533928 0.01393967 -0.034610372 -0.10714306 0.09640714 -0.0027145182 -0.06114218 0.16559246 -0.10719624 -0.0009932803 -0.14291672 0.21764843 -0.11796425 -0.22781275 -0.0011055475 -0.029144183 0.1402513 -0.0763329 0.101392575 -0.12184958 0.033502042 0.10089517 0.0277416 -0.36065668 0.006819642 -0.14721788 0.24392934 0.20262018 -0.10030608 -0.20937295 -0.019388247 -0.13392293 0.19050436 0.039062154 -0.18489893 -0.17546345 -0.043474555
61 0.081935644 0.27312025 0.10324243 -0.07690947 0.044146642 -0.237306 0.03603092 -0.008955734 0.11612216 -0.034116082 -0.14170958 -0.13364445 -0.051659144 -0.071492195 0.3151351 0.05296704 0.22764607 -0.06400357 0.13623016 -0.033705927 0.12187851 0.43565875 0.005525707 -0.005661889 -0.14350098 0.042187832 -0.03671212 -0.042191684 0.25040656 -0.24803865 -0.48817047 0.018733747 -0.32176274 -0.008287369 0.078945965 0.0043353136 0.018046644 0.09350812 -0.007923896 0.056631207 -0.088530354 -0.07910335 0.07572019 0.067833915 0.21817139 -0.04474436 -0.1901191 -0.22628173 0.06855532 0.09250247 0.22749291 0.010455054 0.097201236 0.015940748 -0.22146419 -0.11417452 -0.040878396 0.3094141 -0.08944301 0.037554264 -0.30834296 -0.062428392 0.18919972 0.06102441 0.24358335 -0.06585554 0.20361294 -0.11848506 0.015466584 -0.23098406 0.12234517 0.15047874 -0.19909377 -0.14462827 0.3051415 -0.08531596 0.124303214 -0.05810994 -0.14053132 0.08821686 -0.063013054 -0.121619456 -0.04313209 0.16376565 0.036880486 0.087039486 0.24655062 -0.028438337 0.2499462 0.12287485 -0.11281609 -0.12292579 -0.026236739 -0.029259942 -0.08883264 0.10494898 0.0011081861 -0.11403138 0.12484619 -0.064844176 -0.06994226 -0.20796578 0.20975472 -0.11926876 -0.25690797 -0.07841163 -0.05310073 0.08711888 -0.027390184 0.13029899 -0.15916704 0.083511926 0.12727483 -0.003932991 -0.27997833 -0.038702417 -0.19481744 0.19065745 0.20585047 -0.09312318 -0.27055764 -0.095936984 -0.10541819 0.18711488 0.105648056 -0.19108345 -0.14601436 0.029373225
8 0.14434329 0.26382348 0.02775526 -0.055149186 0.091473445 -0.20946747 0.07108332 -0.07745189 0.15052381 -0.00817544 -0.10978624 -0.14776269 -0.043301225 -0.033134777 0.34509367 0.08091744 0.25860325 0.0013000722 0.096906446 0.0020533258 0.093319036 0.3962057 -0.067429915 0.04671349 -0.19407587 0.02089525 -0.061611645 -0.07336047 0.20467368 -0.30705935 -0.47350487 -0.01335261 -0.34704834 -0.049173944 0.10131215 -0.033430506 0.049306367 0.009490847 0.06455246 0.1394389 -0.06107947 -0.08025906 0.07573522 0.09117108 0.21232016 -0.017483972 -0.19830525 -0.18505336 0.037315976 0.15782568 0.22763526 0.014767511 0.09446746 0.03469601 -0.30047977 -0.10996374 -0.096821316 0.26092497 -0.008052738 0.029788943 -0.26817247 -0.08866636 0.22653532 0.06553809 0.30316308 -0.12527078 0.2660248 -0.1504037 0.028370228 -0.13174225 0.037358664 0.17278665 -0.14889161 -0.11817156 0.286666 -0.07515519 0.101991035 -0.07333307 -0.17043853 0.11624015 -0.067747116 -0.086829506 -0.056517206 0.21574852 0.026422065 0.09647303 0.27865183 0.013325691 0.28869396 0.09788118 -0.12877768 -0.081323296 -8.3873034e-05 -0.027520385 -0.036885377 0.11665656 -0.018672513 -0.036324505 0.13406175 -0.092696294 -0.052698027 -0.1491963 0.19345269 -0.12798667 -0.21514018 -0.029231137 -0.04173738 0.09349429 -0.038504098 0.13502909 -0.11084005 0.07110582 0.09326243 -0.02088759 -0.28459153 -0.04361471 -0.17958805 0.19227189 0.25923747 -0.04749267 -0.24477209 -0.02987383 -0.026269019 0.2190876 0.15509588 -0.21042012 -0.17357653 0.017124651
57 0.04994287 0.35366896 0.08516122 -0.036947377 0.02197483 -0.20316263 0.015046817 -0.03713513 0.13986729 -0.047241412 -0.19583656 -0.1696556 0.01398916 -0.0713179 0.38804725 0.09051746 0.23929971 -0.046238784 0.18908592 0.00086312165 0.13443519 0.35939553 0.000987386 -0.002206995 -0.16405024 0.018394405 -0.08094379 -0.05956045 0.30719766 -0.25292483 -0.4687183 -0.016293706 -0.30486438 -0.029112047 0.14161922 -0.04183678 0.0031640795 0.028244056 0.01295472 0.059063412 -0.0703565 -0.04704423 0.056371972 0.068752944 0.18832646 -0.02375564 -0.18806477 -0.19541295 0.07866199 0.13712119 0.25208202 0.029114394 0.056603562 0.021708412 -0.21061422 -0.092661574 -0.010729887 0.26319882 -0.025745055 -0.00399386 -0.29003274 -0.1439062 0.18448083 0.051523644 0.2044006 -0.117972486 0.24238218 -0.16658382 0.085925825 -0.22216919 0.057650365 0.18585469 -0.17461877 -0.10487086 0.28436276 -0.0348677 0.114420064 -0.109695435 -0.17111033 0.0920193 -0.07100785 -0.11205204 -0.07214384 0.14872797 0.09751402 0.088884674 0.25597972 -0.032130446 0.24426182 0.19597185 -0.100994706 -0.16197476 -0.029970316 -0.06554822 -0.07058116 0.11115529 -0.01432018 -0.10188 0.18039921 -0.1806494 -0.008820262 -0.17729336 0.13864772 -0.054163814 -0.26710802 0.03148394 -0.055308983 0.07423772 -0.0002617544 0.041371457 -0.11711747 0.023576748 0.044037685 -0.016422274 -0.26866022 -0.020870928 -0.16743003 0.20326966 0.2099956 -0.034753136 -0.23327717 -0.034800515 -0.14175873 0.19346774 0.12183301 -0.14484085 -0.16379413 -0.010334286
30 0.030163374 0.27698222 0.121252894 -0.011006134 0.1552825 -0.18317789 0.028201178 -0.073429845 0.15612756 -0.007935441 -0.09395986 -0.19144213 -0.033693563 -0.08966365 0.36565298 0.11357178 0.21555021 -0.089947335 0.17411388 0.0017093805 0.08826796 0.37840453 -0.071750805 0.032138202 -0.20964026 0.056134365 -0.04247725 -0.0693653 0.22483577 -0.23828602 -0.5402986 0.027358646 -0.31002545 0.04225344 0.06698645 0.0042405133 -0.05251455 0.035794348 0.00981956 0.047772232 -0.059435654 -0.060321566 0.032626912 0.06849954 0.17081665 -0.052864246 -0.12800902 -0.24727164 0.050299093 0.15325065 0.23284382 0.054802056 0.09381926 -0.003867401 -0.23342368 -0.08666269 -0.028738072 0.31503743 -0.019484505 0.0639249 -0.27417636 -0.07669732 0.15887757 0.029811954 0.23388597 -0.083782785 0.20860423 -0.19550191 0.007396637 -0.21763748 0.055473763 0.21076404 -0.14780048 -0.1420219 0.2944708 -0.06645042 0.1371291 -0.100224614 -0.1257878 0.122385144 -0.028125009 -0.07877456 -0.019148275 0.15794341 0.079058275 0.13261674 0.1973193 -0.039018206 0.23669785 0.15640342 -0.09331633 -0.12107866 0.002862224 0.010095832 -0.08912152 0.11423374 0.007725773 -0.067226395 0.10547494 -0.07173447 -0.05320298 -0.13195665 0.16519055 -0.11490783 -0.22909038 -0.05701325 -0.036202755 0.060321696 -0.05189612 0.08273782 -0.20399705 0.052563194 0.07997589 0.030679887 -0.3769954 0.005369147 -0.16213553 0.27356374 0.23461264 -0.07487716 -0.20236768 -0.045633726 -0.15409979 0.1666528 0.06490772 -0.20793416 -0.2140843 0.0072472524
20 0.074515775 0.2992467 0.08596952 -0.02314164 0.050670035 -0.24424271 0.00019928203 -0.0806827 0.13380823 -0.041103803 -0.1062167 -0.18737225 0.0071412264 -0.094984315 0.31112766 0.030756632 0.21332653 -0.04372512 0.10256465 0.06626809 0.14322925 0.3820004 -0.054057382 -0.0029489505 -0.14250065 0.012973743 -0.12406164 -0.12119148 0.274563 -0.23384228 -0.5299509 -0.009036365 -0.24880302 -0.06820026 0.1014641 -0.015679613 -0.00901622 0.039867446 0.05014523 0.035696294 -0.007965633 -0.0649345 0.12937467 0.07412922 0.20540096 -0.07507111 -0.18270615 -0.16714521 0.0067202533 0.095093876 0.29303762 -0.00101005 0.08982901 0.07480002 -0.2832619 -0.084631875 -0.05696441 0.31090218 -0.03824935 0.08775857 -0.2878548 -0.13039294 0.2269135 0.0120523 0.21081096 -0.08305703 0.22217461 -0.12246027 0.004157335 -0.23113622 0.059133377 0.19006953 -0.19508334 -0.09696479 0.2907518 -0.10400455 0.1712884 -0.113643385 -0.14281963 0.07979447 -0.09358732 -0.14499535 -0.059767853 0.1738659 0.0073148203 0.09559834 0.26557165 0.018228792 0.2382957 0.08125485 -0.10676083 -0.11926035 0.037590906 -0.06650733 -0.12132679 0.1649162 0.056070626 -0.043342594 0.16827317 -0.09027918 -0.058511816 -0.19090298 0.16819048 -0.14373279 -0.19595991 -0.071446404 0.0011545842 0.097292945 -0.026977208 0.09657707 -0.07610168 0.10070454 0.11457939 0.028975932 -0.3192252 -0.061986506 -0.15089226 0.18267375 0.1934231 -0.11930589 -0.22790784 -0.065800436 -0.13051364 0.19381322 0.06883568 -0.20140627 -0.13253258 0.028015262
75 0.10237066 0.31623998 0.13067532 -0.03585768 0.11901879 -0.19436955 0.04829945 -0.055725697 0.15325175 0.02752842 -0.13330524 -0.14910404 0.03144159 -0.10538781 0.3710773 0.073032424 0.23411201 -0.08805602 0.15429267 -0.029580018 0.20357455 0.39624825 -0.06561167 0.060300753 -0.18363993 0.0115112 -0.0011758347 -0.1309771 0.28669733 -0.22372822 -0.4941586 0.026537666 -0.2829841 -0.024167383 0.076419756 -0.010592989 -0.03908343 0.024697626 0.048261497 0.07200457 -0.072084844 -0.079225086 0.07664837 0.07611322 0.13384935 -0.024967922 -0.16552359 -0.15978709 0.086989135 0.10304933 0.15439886 -0.0028071648 0.042356126 0.04450071 -0.19186024 -0.13140124 -0.049352065 0.31311297 -0.031131428 0.007975142 -0.2682205 -0.06725341 0.16151613 0.034364026 0.273246 -0.13779028 0.27999863 -0.19091012 0.030357221 -0.20574026 0.050518848 0.19819103 -0.22650388 -0.17094296 0.2525328 -0.09705485 0.16247563 -0.05780491 -0.10669505 0.15679657 -0.047870077 -0.07656023 -0.056957018 0.12792088 0.019081198 0.09076856 0.24440351 0.016868653 0.21919204 0.162681 -0.12654713 -0.11068245 -0.011053058 -0.03943971 -0.057142742 0.12890023 0.020682545 -0.04113068 0.14697313 -0.06946365 0.014958087 -0.16365764 0.1781693 -0.12631322 -0.21173495 -0.021445837 -0.033383306 0.08973325 -0.0045403787 0.11223596 -0.1362952 0.07980489 0.09735377 0.022502324 -0.35983294 -0.0069282292 -0.16884443 0.21925513 0.22028182 -0.08856847 -0.21801205 -0.10740568 -0.16413112 0.1852414 0.105443284 -0.15755968 -0.1753737 0.033882096
56 0.08208036 0.28507015 0.07044115 -0.049567755 0.10159419 -0.21821317 -0.0059047253 -0.088628955 0.1470561 -0.011293454 -0.09851738 -0.10543723 0.021364098 -0.041800063 0.34198764 0.08881048 0.23996584 -0.024849929 0.14815024 0.023703964 0.15158276 0.44771406 -0.05451756 0.057783023 -0.13243872 0.03695623 0.009725284 -0.13593942 0.28303576 -0.23274164 -0.5165099 0.05133547 -0.31099537 -0.032218408 0.02264304 -0.059262685 0.00946763 0.05530301 0.113593094 0.07098735 -0.05515103 -0.06749286 0.053557232 0.05630391 0.15994586 -0.055275124 -0.12717196 -0.13786201 0.025953993 0.15394388 0.24698709 -0.024174286 0.038504843 0.0754501 -0.20384352 -0.106322005 -0.09605736 0.259134 -0.072278075 0.054801997 -0.31926203 -0.107751384 0.24302898 0.04216113 0.20042422 -0.077805616 0.26615024 -0.1298394 0.08625388 -0.15615223 0.05893969 0.15184158 -0.19912116 -0.1366309 0.3072395 -0.085365914 0.12761275 -0.064829186 -0.13122928 0.05592424 -0.011957508 -0.12377389 -0.09486346 0.16025981 0.055692457 0.081130736 0.21653314 0.028084552 0.19208235 0.18543753 -0.041397884 -0.08369939 0.012693173 -0.05257602 -0.061943863 0.13075395 0.004701154 -0.09127243 0.09557565 -0.08140111 -0.011171944 -0.17391068 0.18069685 -0.08352586 -0.22503757 -0.008343016 -0.015054266 0.10482006 -0.032991815 0.106663875 -0.1660912 0.08312435 0.074941896 -0.010747079 -0.3261177 -0.029595854 -0.12604713 0.22249447 0.19334237 -0.094423324 -0.24106511 -0.06028821 -0.13584284 0.15879244 0.11929732 -0.21240422 -0.16148503 0.010582557
21 0.11598073 0.20723392 0.08632443 -0.06140102 0.07341597 -0.24447997 -0.02102922 -0.050802305 0.05509765 -0.06039696 -0.17265557 -0.13970044 -0.06414751 -0.040711388 0.3656632 0.059383824 0.21208817 -0.049258325 0.14920779 -0.0047662486 0.17561379 0.4403497 -0.06868011 0.021472126 -0.12726615 0.0026736858 -0.018103385 -0.12945846 0.21736999 -0.26290143 -0.5404742 0.027655512 -0.32004172 0.016851395 0.04453306 -0.019834816 -0.05235426 0.037004896 0.07677252 0.07113344 -0.116233625 -0.031367708 0.07060473 0.10108266 0.20135291 -0.042431388 -0.1474986 -0.2313308 -0.015712589 0.12806156 0.24124296 0.01047437 0.09933381 0.06405282 -0.18557826 -0.14668651 -0.038904395 0.31080946 -0.07296428 0.014011376 -0.2864705 -0.050457433 0.18041274 0.06718846 0.22784245 -0.08817599 0.24332729 -0.19034229 0.08587597 -0.17595676 0.10638024 0.20386699 -0.16980514 -0.116576165 0.30123925 -0.046773348 0.08066079 -0.0965907 -0.17694534 0.0064863455 -0.0882051 -0.1272305 0.004735496 0.11199483 0.08020941 0.06770245 0.2778926 0.0052175084 0.21907307 0.21220814 -0.16515915 -0.078113124 0.009306035 -0.021512225 -0.08110921 0.15067087 -0.020375827 -0.12079396 0.027739802 -0.06261374 0.015084327 -0.19186784 0.17228433 -0.114652604 -0.23670542 0.0021942724 -0.057923593 0.027951643 -0.036135808 0.065940075 -0.1441999 0.051760796 0.16673349 0.016885888 -0.31158975 -0.031564437 -0.19631135 0.24789843 0.16423076 -0.13107403 -0.21641709 -0.052508388 -0.10830696 0.1704463 0.1164023 -0.14245537 -0.14447197 -0.0038957517
62 0.10928186 0.24091211 0.022266705 -0.05387438 0.09994848 -0.23851033 0.060645826 -0.038322855 0.097390085 0.028917849 -0.13666558 -0.11964279 -0.020743886 -0.0858297 0.34887537 0.09221781 0.21520127 -0.06646264 0.09786233 0.015983047 0.15564142 0.3499191 -0.040172208 -0.0043169395 -0.25201344 -0.01036273 -0.05106304 -0.118557505 0.24977984 -0.27368736 -0.52204084 0.03144243 -0.3278825 -0.025069688 0.040594544 0.02035411 -0.018839862 0.082745016 0.08398577 0.045649588 -0.08013656 -0.036854524 0.040208172 0.06224638 0.17792667 -0.031093681 -0.14492176 -0.19624865 0.063980274 0.12356115 0.23655717 0.0141126 0.11945519 0.050123267 -0.21889275 -0.07311948 -0.060617227 0.31866106 -0.03352658 0.021827027 -0.26445958 -0.0791492 0.19374083 0.08833404 0.25473875 -0.1289908 0.21270917 -0.13849598 0.014979794 -0.22344996 0.056036774 0.18340501 -0.22457346 -0.1531025 0.2788882 -0.08900492 0.08986257 -0.0766408 -0.1982152 0.0767409 -0.115621716 -0.14933334 -0.054729592 0.14045964 0.0019397277 0.042781454 0.24880002 -0.015695233 0.20723566 0.13942534 -0.11190392 -0.055088814 -0.009106632 -0.0143468045 -0.12100249 0.046274163 0.0032662558 -0.06270459 0.16968232 -0.054989435 0.0021323268 -0.1651662 0.14579488 -0.11144728 -0.24706241 -0.035449907 -0.04378324 0.1041032 -0.031070882 0.103199236 -0.16155303 0.026994288 0.09797735 0.019847088 -0.32907188 0.0067615025 -0.22401832 0.19456127 0.21605755 -0.080984674 -0.25826055 -0.07591652 -0.17690913 0.18491642 0.14676866 -0.15905435 -0.15881582 0.056306858
50 0.11739796 0.24986634 0.06569475 -0.01300458 0.109901644 -0.18184225 0.041568454 -0.09499763 0.16126889 -0.068261266 -0.1580253 -0.17680524 0.0072665145 -0.05548206 0.38473412 0.09521393 0.18613204 -0.049196165 0.0950321 0.013477137 0.14636911 0.38693303 -0.021857731 -0.013640797 -0.14471021 0.054041944 -0.015303182 -0.07622493 0.265904 -0.23555358 -0.51971877 0.01832089 -0.26531106 -0.040450472 0.049544215 -0.020020708 0.0064664157 0.027984848 0.056323923 0.044682153 -0.09758936 -0.1135976 0.0810277 0.09464873 0.19568814 -0.08881444 -0.12758954 -0.18297361 0.05559293 0.17349693 0.20674232 0.011629957 0.060089767 0.0073092505 -0.2527801 -0.14037178 -0.083230466 0.3101885 -0.05032924 0.067750335 -0.25831774 -0.098042354 0.18053249 0.048315033 0.24937868 -0.12385328 0.2362453 -0.18270685 0.048563536 -0.21555412 0.027478237 0.18354726 -0.22831282 -0.14742845 0.25124568 -0.0050957887 0.09765768 -0.0625974 -0.14816505 0.09832172 -0.032120027 -0.11881601 -0.07322385 0.18392922 0.08457339 0.047301933 0.27437082 -0.0032848262 0.23858544 0.16604142 -0.12455756 -0.1388382 -0.030884046 -0.013779563 -0.08570806 0.124519534 0.03190639 -0.043179896 0.112534605 -0.08656141 0.021482974 -0.17956258 0.15836966 -0.119116746 -0.1844745 -0.009565124 -0.0056537692 0.059203476 -0.07164359 0.122582816 -0.10725885 -0.011477556 0.060863636 -0.042583972 -0.3262584 -0.028325861 -0.17007436 0.23175251 0.2192913 -0.1085212 -0.2419701 -0.036930706 -0.15523925 0.17369337 0.098648645 -0.16888064 -0.19533312 -0.00240763
27 0.14805335 0.2792174 0.075072505 -0.054848444 0.12270048 -0.23732686 0.007938794 -0.06366586 0.14024124 -0.036300108 -0.17333974 -0.18407468 -0.035508245 -0.056249324 0.32921043 0.10903897 0.20204143 -0.07077195 0.11455605 -0.058087803 0.09553121 0.41551575 -0.09955629 -0.0037690094 -0.15659027 -0.0020917587 -0.052464392 -0.050725915 0.29027912 -0.2754812 -0.5531881 0.02271959 -0.34094125 0.0018776134 0.028026981 -0.016353954 -0.068716265 0.0735967 0.05606549 0.05991401 -0.06890001 -0.08014477 0.0031132202 0.11543902 0.1907028 -0.07105163 -0.11312574 -0.18876167 0.0144336615 0.09497349 0.22646435 0.06455596 0.04926537 0.030157289 -0.24025856 -0.086194694 -0.031306 0.2706608 -0.04881397 0.023506962 -0.29585168 -0.11507696 0.21820669 0.014819225 0.2642428 -0.03947504 0.22039534 -0.21270326 0.01920852 -0.19464995 -0.0094399145 0.18541111 -0.2267861 -0.113501 0.30918512 0.0006259266 0.112345144 -0.0856984 -0.1265148 0.041256297 -0.085159756 -0.12749435 -0.031002449 0.15044221 0.020327386 0.12695026 0.19848503 -0.010898011 0.2343785 0.15487634 -0.07472124 -0.09105595 0.008226445 0.048668496 -0.14162737 0.08714985 -0.05371001 -0.10551875 0.17845483 -0.14145662 -0.010227861 -0.14349729 0.13352348 -0.06088828 -0.23530489 -0.060011234 -0.009401939 0.033475693 -0.028155176 0.090777904 -0.12871546 0.10344587 0.09704103 0.09022802 -0.2979039 0.040600978 -0.15123656 0.25562996 0.216271 -0.14095084 -0.2134396 -0.07074363 -0.046367303 0.1908133 0.12496501 -0.18984331 -0.19554494 -0.00027674588
338 0.45576295 -0.25789833 0.010598882 0.29289785 0.26457486 0.3329209 0.6889918 0.4710552 0.03632904 0.315871 0.2813726 0.6322932 0.6062741 -0.5211598 0.41512874 0.30299148 -0.35448956 -0.33433753 -0.27391216 -0.054555714 0.58696556 -0.48339796 -0.19381927 -0.32214394 -0.038014743 0.6393605 -0.40334642 -0.043256674 -0.18005076 0.0001256455 0.32462078 0.30096984 -0.22380243 0.32853356 0.6930678 -0.18301879 0.047059417 -0.46261445 -0.10562587 0.20682211 -0.048387375 -0.3678955 0.2924712 -0.54953736 0.7220983 -0.36583328 -0.14392623 -0.3018599 -0.0022277832 -0.64372516 0.043317806 -0.15768541 0.6025863 0.3113203 -0.3843399 -0.18836555 0.09962676 -0.7583748 -0.12837145 0.47517356 -0.5504004 0.24253812 0.29786474 -0.17029224 -0.06298702 -0.48016706 0.24307033 0.38971168 -0.37699983 -0.3534565 -0.32053047 -0.24478517 0.08903551 0.017533395 -0.14170079 0.19258212 0.18946986 -0.5711192 0.29593897 -0.35106054 0.5135067 -0.2505813 -0.033336822 -0.19967608 0.1287316 0.009737803 0.73370457 -0.024503874 0.64002156 0.34397623 -0.26250306 0.36007562 0.2401004 -0.4189134 -0.5099677 0.33110926 -1.0257965 -0.3544674 -0.24237843 0.10595905 -0.78507364 -0.31201667 0.034100983 0.75119215 0.77162033 0.5494309 0.15825239 0.1697368 -0.4604954 -0.32015505 -0.36762688 0.6166037 -0.3074183 0.06909899 -0.5705482 0.099792965 -0.5894176 1.0568787 -0.16572717 -0.20655113 -0.45953214 0.1320154 -0.014434983 -0.4611196 0.8519771 -0.30962658 -0.2672238 -0.24210203
172 -0.30447233 -0.39420992 0.2652304 0.23186116 -0.3186545 0.1471543 0.14137116 0.009171847 -0.11667894 0.30875096 -0.1941142 -0.34603173 0.5779017 -0.5369242 0.37264287 0.27063462 0.2829194 0.16178975 -0.07203723 0.092569865 -0.46664837 -0.073146775 -0.0012110171 -0.15786943 0.26271638 0.28306437 -0.24506807 0.084846005 -0.034309547 0.42150784 0.36822668 0.3692416 -0.19946858 0.31065032 -0.04006756 -0.11925358 0.0015401777 0.16100486 0.284533 0.07475116 0.2289647 0.27492973 0.16271771 0.03354688 0.2896821 -0.25689632 0.06754044 -0.20799184 0.10488871 0.28559878 0.3015282 -0.12136499 0.055769145 0.05334541 -0.014325969 -0.3208442 -0.26681682 -0.47581407 0.045868848 0.09340053 -0.3548687 0.064645775 -0.14228877 -0.13597162 0.012736988 -0.21853022 -0.04268429 -0.08362616 -0.030590704 -0.07222672 -0.06809752 -0.31162965 -0.28070807 -0.103383176 -0.2683245 -0.24834493 -0.11640289 -0.05128312 0.088836506 0.07819042 -0.2752876 0.041319072 0.37131697 0.07634493 0.017009562 -0.07693764 0.17909408 0.17773333 0.029159134 0.27610493 0.55895144 -0.33652893 0.16412388 0.014131667 -0.120626226 0.44591427 -0.15868671 -0.11384822 -0.32681385 0.122966066 0.2420947 -0.042792883 -0.38256282 0.29691026 0.34548146 0.08158823 0.09177701 0.19185336 -0.39686096 -0.05420594 0.050627917 0.07791971 -0.015442379 0.11080054 -0.4207321 0.028548252 0.051033992 -0.111144975 0.26526734 -0.22420496 -0.2114827 0.1886886 0.32453367 0.7262607 0.29410258 0.23407552 -0.3445032 0.18646197
171 -0.29564643 -0.48064107 0.28393653 0.27100268 -0.33805934 0.1391306 0.11093836 0.07212913 -0.14122137 0.39029777 -0.30320236 -0.24030264 0.616425 -0.47568518 0.4096042 0.30096918 0.34226084 0.1787668 -0.1096524 -0.0014201712 -0.44508564 -0.07317836 -0.01075736 -0.20898582 0.23644206 0.36399323 -0.1827068 0.093817465 0.018497687 0.3305939 0.46703604 0.26774645 -0.19799261 0.3746446 -0.046929043 -0.11047073 0.017726868 0.20378111 0.30094048 0.12195262 0.27656627 0.2863115 0.09608119 0.009716151 0.24279733 -0.1329548 -0.025833495 -0.14550532 0.075874366 0.27133554 0.3069132 -0.17711365 0.073630154 -0.04897448 0.00025974432 -0.3414956 -0.27273494 -0.46980238 0.11032137 0.022051984 -0.31197894 0.03151811 -0.06993228 -0.1686907 -0.021550238 -0.19071917 -0.053804174 -0.069836296 -0.113060966 -0.09917713 -0.106875114 -0.29762954 -0.21535589 -0.08857579 -0.2454783 -0.2201104 -0.08184833 -0.038894933 -0.0009513961 0.09809824 -0.25567308 0.05162866 0.35305545 0.0945221 0.023827884 -0.012131432 0.20215966 0.092823334 0.11083187 0.29212266 0.50982124 -0.2968734 0.13150479 0.111493476 -0.11840453 0.41810435 -0.09342349 -0.084170915 -0.27422252 0.041477222 0.14813377 -0.061065946 -0.35040995 0.2959134 0.34943143 0.10057667 0.13665284 0.19992171 -0.36039403 -0.042131204 0.08141985 0.050907366 -0.010707592 0.00421826 -0.4498497 0.07412061 0.09318793 -0.050445773 0.24971513 -0.2500769 -0.16908588 0.2995681 0.44952136 0.7260263 0.34341517 0.24053857 -0.4366378 0.14487743
216 -0.27533475 -0.41838574 0.28973445 0.17801268 -0.10037289 0.054808155 0.18767288 0.24260609 -0.26738644 0.19759049 -0.12309142 -0.1753889 0.57277876 -0.594628 0.39174008 0.3953781 0.40011325 0.07135943 -0.18034716 0.099440016 -0.49430138 0.061459396 -0.031556655 -0.27202728 0.18891858 0.26038766 -0.16976346 0.24716137 0.038017325 0.4379654 0.42302126 0.2579001 -0.022791304 0.27434418 -0.09417479 -0.03078349 0.0008668264 0.064232975 0.33021316 -0.02524445 0.21143371 0.11330839 0.055438906 -0.025003947 0.117430195 -0.048411906 0.3178945 -0.01621313 0.16400005 0.12840697 0.3054661 -0.28898787 -0.0143995425 0.019849908 0.15953347 -0.1786816 0.0513438 -0.48971915 -0.00458304 -0.0049840817 -0.3848767 0.14475806 -0.17349364 -0.23950887 0.097219504 -0.17705804 0.04995231 0.06191383 -0.05918454 -0.1780174 -0.095558375 -0.061467387 -0.34421736 -0.033842113 0.042638175 -0.19534676 -0.09088098 -0.013811084 -0.11402194 -0.2118949 -0.40486747 -0.007903573 0.17868681 0.106158316 0.038302705 -0.000115110786 -0.027660538 -0.078568995 0.17678666 0.0911172 0.21701325 -0.22249651 0.09103721 -0.05407321 -0.020694735 0.27451044 -0.34418187 -0.0624119 -0.24144481 -0.0030661854 -0.0968389 -0.12520853 -0.15651342 0.13063864 0.46204373 0.10180265 -0.0319967 0.30007988 -0.2611277 -0.095106184 0.09097949 0.1151519 0.05161562 0.19902107 -0.35504368 -0.0826205 -0.08547314 -0.039767228 0.24001539 -0.06841435 -0.077369384 0.25578064 0.2307668 0.41391093 0.19990799 0.20500731 -0.44247556 0.1368758
82 -0.26776022 -0.43019778 0.27030647 0.2154513 -0.11959928 0.023964584 0.12766996 0.1808411 -0.24691953 0.0830123 -0.15727232 -0.07435873 0.61526716 -0.6521233 0.41114947 0.32756096 0.46058476 0.019710125 -0.13895017 0.12221659 -0.46004516 0.06454962 -0.052330174 -0.18912502 0.10836859 0.26214486 -0.114438854 0.25530818 0.038008064 0.41653863 0.4201896 0.28855118 -0.022234704 0.32527113 -0.1284542 -0.044593778 -0.026025496 0.02356527 0.21760279 0.03200679 0.20742393 0.13558704 -0.037463017 -0.033504557 0.16671109 -0.022041926 0.30479226 -0.114057355 0.21003117 0.1695614 0.2954279 -0.3225964 -0.020758245 -0.022420865 0.22662014 -0.16523582 0.06087593 -0.4418818 0.063100725 -0.03478248 -0.3103176 0.19206631 -0.21664824 -0.2276763 0.17207919 -0.24453339 0.05326208 0.028344627 -0.028730178 -0.12451239 -0.107369 -0.095090345 -0.31105652 -0.05193912 -0.057467055 -0.18123144 -0.24617314 0.00068854116 -0.07880262 -0.08680635 -0.3799146 0.044644713 0.2602226 0.121601775 0.005294666 0.007662171 0.011362533 -0.062408436 0.11491295 0.13148716 0.1850266 -0.2863556 0.085958585 -0.12738495 -0.020280015 0.24898924 -0.32530388 -0.09728353 -0.21011457 -0.02636832 -0.0759327 -0.14140095 -0.17976998 0.19268082 0.413464 0.1131553 -0.018183831 0.29310158 -0.25506574 -0.030562913 0.14293246 0.13119204 0.015854917 0.2748584 -0.298343 -0.077235654 -0.12053386 0.011182433 0.2903541 -0.07555601 -0.09744281 0.21221216 0.3195848 0.37036213 0.21247937 0.19293186 -0.4105937 0.1816899
32 -0.28160664 -0.4422181 0.21028283 0.22559543 -0.13019887 0.00036347273 0.11376027 0.22343975 -0.2746563 0.12355029 -0.16772622 -0.15208766 0.5802565 -0.6088972 0.40814775 0.36980143 0.42957002 0.105264075 -0.21523903 0.14538768 -0.4370613 0.031615734 -0.002304691 -0.2621833 0.11055115 0.28186998 -0.13842064 0.26365837 0.037836332 0.4372885 0.34302697 0.24214344 -0.0040214555 0.25312933 -0.10804434 -0.018790644 0.0001510612 0.06148607 0.24195561 -0.026256852 0.2197067 0.13279638 0.05858373 -0.04836088 0.14124212 -0.10387805 0.3401975 -0.06324147 0.18342733 0.1282943 0.35973826 -0.3090101 -0.011481846 0.0017498226 0.25294444 -0.17964002 0.089544825 -0.41678545 0.011078418 0.0322756 -0.37843654 0.18825671 -0.12551738 -0.20038034 0.07361327 -0.21881345 0.02285779 0.08279025 -0.06472979 -0.09403024 -0.14657032 -0.12343138 -0.34107396 -0.053198047 0.023174845 -0.17003345 -0.16859375 -0.031267993 -0.061148133 -0.16285998 -0.39356163 0.04055348 0.25461674 0.12651579 0.026426964 -0.026074925 -0.019605463 -0.033379287 0.18411905 0.04432691 0.20131315 -0.22056971 0.12229485 -0.047771387 0.06843877 0.21697345 -0.22849463 -0.12717737 -0.21061507 0.019417617 -0.015152606 -0.18720491 -0.15240842 0.17773925 0.5403516 0.19549091 0.016447838 0.2798778 -0.2578644 -0.005634396 0.08026711 0.08189022 0.028790642 0.20588228 -0.32998857 -0.0480461 -0.11522503 -0.054617427 0.27705553 -0.055958267 -0.13135087 0.23353486 0.3071289 0.43301272 0.27968 0.17900096 -0.3310107 0.12664169
148 -0.26315495 -0.43535468 0.30361784 0.22161771 -0.13320333 0.07990894 0.12811823 0.24780947 -0.3061262 0.14712304 -0.15214306 -0.104887486 0.5333677 -0.5307297 0.45590988 0.38496003 0.43741634 0.0623534 -0.17677028 0.032225396 -0.45869827 0.048923284 0.02624609 -0.1906982 0.14430153 0.32665646 -0.106609784 0.26535305 -0.0018100999 0.376091 0.4574201 0.27132133 -0.0793353 0.2981465 -0.11219433 -0.034667104 -0.0025039378 -0.0036987297 0.27115896 0.0403576 0.2288908 0.03016884 0.042775407 -0.078534804 0.17653464 -0.10534308 0.3631924 -0.055640996 0.21863542 0.21808857 0.28430602 -0.29251343 0.0153354835 0.013737313 0.27612984 -0.22618817 0.07105601 -0.43443277 -0.0069440845 0.092816256 -0.30094612 0.16984814 -0.2519731 -0.21725897 0.1327069 -0.24982263 0.031735238 0.018296298 -0.08239238 -0.15897878 -0.1006909 -0.11393551 -0.36385906 -0.018484706 -0.00096678914 -0.1699104 -0.17268312 0.021818083 -0.100893445 -0.11744843 -0.3401783 0.065925606 0.1595568 0.11376387 0.08351861 -0.042939454 0.0065875873 -0.041825693 0.16071284 0.08811636 0.2740173 -0.2108402 0.1806469 -0.14921214 0.082767665 0.22684947 -0.29477978 -0.10310414 -0.2194661 0.017924545 -0.06434359 -0.19951479 -0.16627294 0.16491075 0.42635432 0.08385812 -0.0383571 0.3164464 -0.24406467 0.026775375 0.109660745 0.09811653 0.069635935 0.21267793 -0.27972108 -0.11642154 -0.11132421 -0.022960065 0.25535595 -0.0710202 -0.10708909 0.15955848 0.22162695 0.45549792 0.20347723 0.17020501 -0.37785453 0.16354889
93 -0.29048988 -0.4272799 0.285219 0.22377954 -0.1279509 0.012564947 0.13616082 0.24445042 -0.29065543 0.13664441 -0.20410134 -0.14043525 0.5264896 -0.5675273 0.3933063 0.40440065 0.42127362 0.03456578 -0.18365234 0.09468081 -0.38546488 0.08466023 -0.035181113 -0.24699056 0.11947246 0.29886657 -0.16550657 0.21610351 0.024647286 0.39174733 0.4166356 0.2756346 -0.019182483 0.2700814 -0.0659364 -0.045669876 0.041231636 0.04107999 0.2951965 0.03787316 0.2095411 0.05226474 0.047650687 -0.02756943 0.0868303 -0.081270665 0.38264707 -0.028266547 0.14744754 0.12408117 0.27578628 -0.2789964 0.011098212 -0.03797292 0.2500572 -0.185051 0.059278946 -0.48350757 0.016598733 0.022075789 -0.39182228 0.11987542 -0.178452 -0.24765676 0.13492225 -0.24026899 0.036148924 0.040870253 -0.0763421 -0.13137661 -0.09485337 -0.11663511 -0.30489177 -0.009599297 -0.059171427 -0.17926192 -0.11030025 -0.025117727 -0.12641588 -0.11699102 -0.38048708 0.0066052102 0.18876714 0.12377337 -0.040028688 -0.04409522 0.0037068184 -0.001342981 0.13632108 0.1253961 0.26554665 -0.21742107 0.18166706 -0.06457025 -0.06515291 0.22524235 -0.25105533 -0.14356713 -0.23298323 0.002434887 -0.12471234 -0.21497747 -0.19011658 0.14007498 0.4009246 0.13302785 -0.052340545 0.3273327 -0.33684757 0.00069896795 0.13814242 0.0987258 0.008289221 0.19971506 -0.33067948 -0.09457721 -0.08161243 -0.042227637 0.23609093 -0.011919967 -0.07082756 0.25956666 0.27188256 0.4484259 0.24468304 0.17738888 -0.36977795 0.16507168
95 -0.30973113 -0.36980665 0.26859793 0.17731208 -0.16769204 0.062219206 0.054121096 0.27837452 -0.2444528 0.17062648 -0.12158496 -0.07523277 0.5724694 -0.58946633 0.4743577 0.37228915 0.45245028 0.04835086 -0.19379155 0.07408563 -0.463099 0.09073599 0.073337175 -0.29614732 0.16626011 0.3035137 -0.11957066 0.25580835 0.059106838 0.399211 0.44998777 0.2832648 -0.03896255 0.30306676 -0.11377359 -0.05712627 0.010732097 0.074744694 0.2554943 -0.042809643 0.23198475 0.088100925 0.0082346555 -0.049521822 0.05821693 -0.121307395 0.34243143 -0.05610755 0.18421763 0.12387523 0.2525004 -0.3040185 0.026797133 -0.04224592 0.19400187 -0.15732257 0.11076674 -0.42995733 0.042129286 -0.033881534 -0.41612396 0.11314248 -0.16202295 -0.12626438 0.14502801 -0.29480374 0.046860628 0.050290406 -0.07681668 -0.13900049 -0.079222776 -0.08603531 -0.31123257 -0.05581967 -0.007933517 -0.19975168 -0.11856065 -0.039997905 -0.071571216 -0.100562215 -0.38774872 0.024277462 0.27211908 0.09539217 0.019031454 -0.009194897 0.0072063445 -0.06721486 0.2063506 0.079805404 0.22407429 -0.27351773 0.23213322 -0.098480575 -0.050424498 0.30139518 -0.31510064 -0.10149959 -0.25039306 0.032790948 -0.11287427 -0.1458835 -0.19783893 0.17457932 0.47192696 0.09995063 -0.078798175 0.33063868 -0.28443795 -0.019279191 0.11424699 0.10312185 -0.05626789 0.19831231 -0.32667023 -0.08260311 -0.03549322 -0.11858687 0.31905797 -0.05457372 -0.12559442 0.17064154 0.2179067 0.36380097 0.16765267 0.15362638 -0.3699479 0.21361765
94 -0.2812076 -0.4381966 0.28248486 0.22370192 -0.13714339 0.040032357 0.15521914 0.20979042 -0.29904863 0.10561666 -0.16274011 -0.1108311 0.4919182 -0.6218269 0.37524116 0.44451612 0.45745608 0.05732834 -0.16100676 0.13694182 -0.42360276 0.031516984 -0.005212057 -0.1719157 0.1122207 0.30539876 -0.19377226 0.25032207 0.008787144 0.39017904 0.40050927 0.30603364 -0.02024091 0.29982042 -0.11286547 -0.12307018 -0.025532702 0.053332932 0.24398668 0.030095438 0.23468414 0.11583183 0.02679398 -0.049516775 0.11177477 -0.038194656 0.34834304 -0.060547404 0.24518389 0.15879592 0.32832292 -0.25896546 0.044773564 0.006658599 0.18760477 -0.13716547 0.0835857 -0.5051269 -0.0012854289 0.09579559 -0.33450195 0.1363659 -0.2600572 -0.15797608 0.16902545 -0.24884056 0.036877356 0.12364565 -0.095180586 -0.12698472 -0.08499872 -0.07647591 -0.34879145 -0.033086803 -0.0697684 -0.17320083 -0.08884207 -0.024125732 -0.1378015 -0.18877284 -0.42436457 0.035976417 0.20684962 0.1737639 0.0043237894 -0.027210621 -0.012847016 -0.038995657 0.15857077 0.07890645 0.2479268 -0.26155046 0.122188225 -0.07588886 -0.005701855 0.22276072 -0.29208517 -0.116709016 -0.22006874 -0.03871811 -0.09034432 -0.14159894 -0.17058362 0.182518 0.4621195 0.15689571 0.0015699859 0.28493115 -0.24756406 -0.023496015 0.13738959 0.077894896 0.030217052 0.22226894 -0.29317695 -0.1178885 -0.03722579 -0.0791034 0.32615232 -0.1269524 -0.10564354 0.27218783 0.24250352 0.41491538 0.22376063 0.10374152 -0.38633266 0.13294707
150 -0.2917371 -0.42382312 0.2881659 0.19087964 -0.14367093 0.03775262 0.09308668 0.3126303 -0.30168584 0.12371567 -0.24521218 -0.17651205 0.5329665 -0.6220966 0.37827927 0.41244942 0.41194108 0.04233439 -0.2112959 0.13060069 -0.42167503 0.086861655 0.076098435 -0.24045686 0.13715838 0.31180546 -0.07464459 0.25554845 0.04015086 0.39725316 0.4140283 0.29537466 0.0040036635 0.33600584 -0.10295164 -0.025962126 0.029408587 0.040639177 0.28930876 0.043186806 0.26010182 0.16457619 0.040667303 0.0023088106 0.16342972 -0.12702389 0.34049344 -0.08010721 0.15353703 0.1104647 0.2802234 -0.26943675 -0.061890744 0.032307025 0.18494831 -0.21764529 0.098711066 -0.47355187 -0.0045088422 -0.0034781583 -0.39149025 0.1432514 -0.19615962 -0.20450515 0.11257794 -0.26753783 0.092901394 0.031217735 -0.12882064 -0.1479368 -0.08636319 -0.10147989 -0.30360988 -0.00025727486 -0.03555036 -0.17895664 -0.07241794 -0.09634538 -0.058776513 -0.10806167 -0.33519468 0.051314108 0.26466802 0.1616294 0.04306509 -0.024298606 -0.0021333317 -0.020276414 0.17951907 0.08767224 0.2221244 -0.15527019 0.16039746 -0.14353271 0.0091071045 0.28372523 -0.27798936 -0.13159804 -0.25339365 0.038057767 -0.04749121 -0.16246687 -0.1551567 0.14971817 0.4254181 0.08897947 -0.022453327 0.3565556 -0.32112116 -0.02598998 0.15348455 0.14642799 0.067553595 0.1665812 -0.28204146 -0.11767774 -0.06714358 -0.06183469 0.30902886 -0.021340253 -0.12332162 0.23118748 0.20308135 0.3760463 0.2262511 0.1905978 -0.36239007 0.10422028
49 -0.29005644 -0.45309493 0.27842882 0.28968096 -0.05956134 0.037179843 0.10088592 0.2276646 -0.36393085 0.079503655 -0.19434504 -0.073137276 0.5505793 -0.48976144 0.42992032 0.4213413 0.4019816 0.045023058 -0.20703061 0.124934696 -0.41772243 0.11608964 -0.030595455 -0.17703353 0.1360985 0.33234322 -0.04445212 0.21884409 0.0221095 0.43873203 0.42962068 0.2489136 -0.066902004 0.32705596 -0.1919151 -0.051423658 0.029764216 0.021500291 0.22976828 -0.0033205524 0.17706135 0.0866164 0.018109394 -0.03778347 0.07629937 -0.19568248 0.3722461 -0.06455979 0.21755493 0.10895176 0.28760946 -0.2887815 0.020033088 0.015107488 0.1961153 -0.18562342 0.054559927 -0.43043974 -0.0050144303 0.01801179 -0.40411434 0.21437559 -0.1893951 -0.2635444 0.1371531 -0.30433425 0.088747144 0.009857994 -0.05756321 -0.11047477 -0.04765474 -0.11643608 -0.32159674 -0.025850944 -0.046814524 -0.13255139 -0.12785669 -0.04015838 -0.07420406 -0.18145905 -0.3865611 0.029642506 0.17816389 0.15559256 -0.008128182 -0.042849705 0.013726758 -0.081222124 0.124461375 0.13626623 0.22515582 -0.18608662 0.19749287 -0.078758866 -0.03037012 0.28191078 -0.22177948 -0.101070315 -0.29134753 0.016773574 -0.09205596 -0.1701297 -0.18688658 0.15047486 0.4432485 0.072654955 -0.0029189447 0.24140832 -0.2611678 -0.03684738 0.103038706 0.12536234 0.027088845 0.19373545 -0.2733425 -0.071680725 -0.09541567 -0.06041244 0.27939585 -0.10797299 -0.10064933 0.1903018 0.29970592 0.39184353 0.1701866 0.12757279 -0.40575373 0.09284807
33 -0.30809888 -0.423182 0.23261626 0.204388 -0.120278396 0.107462175 0.030278973 0.23137882 -0.30052966 0.13728125 -0.18197627 -0.17314795 0.55099636 -0.5614718 0.4425234 0.39957067 0.40586445 0.05918655 -0.20079051 0.11523349 -0.43921065 0.10875911 -0.0024216352 -0.25002283 0.15586117 0.34629238 -0.16119255 0.2409252 0.046113376 0.4516197 0.38305777 0.34030905 -0.026844239 0.3451273 -0.098302916 -0.090455316 0.047687177 0.029294757 0.25069863 -0.0078167785 0.24011585 0.070168845 0.035810217 -0.047321524 0.15266845 -0.06264558 0.40052366 -0.026523724 0.21835057 0.13863376 0.3178811 -0.26782748 -0.013543734 0.0002671252 0.23395614 -0.21330455 0.12620646 -0.444239 0.027573485 -0.017795268 -0.3705068 0.1894715 -0.21445554 -0.1649108 0.11165566 -0.19690081 0.052868526 0.095897585 -0.06306491 -0.098217785 -0.08618692 -0.10059743 -0.2674221 0.0014218702 -0.023960132 -0.18513593 -0.123388164 -0.026337275 -0.06603707 -0.14054932 -0.34404486 0.014770148 0.17356096 0.20666505 -0.00056780234 0.013166258 0.003469497 -0.02624771 0.11657663 0.07095991 0.1796148 -0.22782068 0.13035084 -0.11298886 -0.027704746 0.23317637 -0.28169966 -0.12950538 -0.26128116 0.0009444604 -0.046791 -0.2059934 -0.19674134 0.15899438 0.38314754 0.12324364 0.0070453733 0.27709672 -0.29828432 0.042915624 0.12218713 0.13786931 0.04824737 0.19458349 -0.3118701 -0.06502171 -0.076159835 -0.008329097 0.30009258 -0.0863215 -0.1498789 0.24135542 0.2618523 0.40596393 0.252175 0.12926462 -0.37739038 0.12515107
81 -0.32535017 -0.44985467 0.34335846 0.2732667 -0.1590771 0.022832392 0.11725634 0.31048438 -0.34677836 0.11262324 -0.14620705 -0.12401328 0.48037907 -0.5108088 0.4788277 0.49418694 0.39036894 0.059308097 -0.26273268 0.096669264 -0.41569477 0.05768432 0.070060074 -0.20518671 0.14525057 0.31481105 -0.1794705 0.21133514 0.068585806 0.42196307 0.3667353 0.25182375 -0.03413892 0.29864085 -0.09668341 -0.010466945 0.013489243 0.08952428 0.23898377 -0.020563949 0.19660154 0.13681418 0.051404264 0.018940346 0.05449552 -0.069010295 0.29689673 -0.039597873 0.2147165 0.10523209 0.3255908 -0.27321103 -0.022275312 0.004073048 0.17763396 -0.22337241 0.05755202 -0.38310894 0.07664853 -0.009578914 -0.37949893 0.22206004 -0.22213088 -0.25312728 0.18655187 -0.26340392 0.034135453 0.10650648 -0.10381959 -0.12985133 -0.08935444 -0.0444377 -0.30409697 -0.019683408 -0.04990911 -0.18292743 -0.129525 -0.08310213 -0.06532714 -0.13112313 -0.37784937 -0.008520357 0.1871515 0.16229744 0.050782908 -0.04121127 -0.02417353 -0.031416044 0.15310305 0.09550186 0.18234186 -0.21967961 0.14516735 -0.11032192 -0.004046067 0.25039718 -0.29011753 -0.06562609 -0.23557988 0.015589501 -0.037727945 -0.22171266 -0.18660605 0.19189759 0.41900015 0.17871568 0.07878556 0.27756456 -0.23519847 -0.027842766 0.12828498 0.07360178 0.0048082485 0.2144643 -0.35963604 -0.02213817 -0.047626387 -0.076021716 0.23131162 -0.07792298 -0.10552402 0.2572206 0.26462492 0.4322007 0.2699156 0.15460669 -0.3579166 0.1031578
48 -0.31062368 -0.4522816 0.29820934 0.2055129 -0.16986293 -0.043269973 0.1426544 0.30200064 -0.29577747 0.05245345 -0.19768001 -0.085826114 0.49566418 -0.5853144 0.42748126 0.42547083 0.32787845 0.049253028 -0.20928177 0.08420245 -0.45449176 0.10238394 0.01691642 -0.2508218 0.21208458 0.2982385 -0.10536325 0.26030853 0.029932572 0.510084 0.35874948 0.27136353 -0.093919665 0.24065194 -0.09533835 -0.1032661 0.019635532 0.034522187 0.18779664 0.028933633 0.20604704 0.1338267 -0.0037369619 -0.01311025 0.10755041 -0.044137463 0.3190551 -0.060692884 0.22734123 0.11389125 0.33664587 -0.32979566 -0.026070945 0.11661259 0.20421886 -0.1861092 -0.014084246 -0.49008274 0.0390369 -0.0046219258 -0.36281872 0.13082518 -0.23428093 -0.15835753 0.18813895 -0.28235072 -0.039797306 0.07311267 -0.010207171 -0.122897714 -0.06730154 -0.16286793 -0.30754155 -0.02038472 0.015025137 -0.155512 -0.15143335 -0.04049087 -0.118674755 -0.14624107 -0.3818077 0.032507382 0.21487616 0.16496308 -0.00095861836 -0.04174845 0.027258545 -0.04521949 0.19607584 0.09339516 0.1580117 -0.17914699 0.11045801 -0.12822437 0.06767793 0.23147655 -0.26858968 -0.0914505 -0.27328804 0.020362007 -0.123209424 -0.21883301 -0.20561066 0.101233386 0.41675115 0.13021538 -0.01857925 0.30033952 -0.29038587 -0.013149466 0.15851063 0.1168844 -0.013735864 0.22545831 -0.3352907 -0.10001132 -0.07893927 -0.08606668 0.24311057 -0.06878858 -0.111775644 0.20411372 0.25314403 0.3858582 0.29022098 0.20293309 -0.40214095 0.08905249
149 -0.24761313 -0.39659026 0.22346838 0.23381363 -0.13757649 0.012813387 0.11621221 0.21551509 -0.29855156 0.12895331 -0.20387588 -0.0949779 0.5694346 -0.58649343 0.3815913 0.3500658 0.3972339 0.062001977 -0.22918248 0.07956245 -0.45474714 0.13204032 0.0059700455 -0.2473404 0.112542816 0.2868408 -0.18868017 0.29244736 0.046709638 0.40220603 0.4217717 0.26864257 -0.063150905 0.2549027 -0.09123221 -0.044744335 0.009220216 0.029813722 0.20506196 0.015945334 0.2095457 0.09256625 -0.0015369682 -0.03712758 0.074205965 -0.07573737 0.3534379 -0.082035005 0.12251166 0.13771124 0.3913298 -0.34463316 -0.0034916005 0.045134712 0.22962636 -0.1906643 0.072348006 -0.47072676 -0.0018907815 -0.045383926 -0.39901167 0.13443197 -0.22615287 -0.18772842 0.1668455 -0.28853682 0.0006374394 0.044366136 -0.102290235 -0.0946668 -0.085860774 -0.08730069 -0.38781482 -0.0092554055 -0.09440078 -0.20776539 -0.21236248 -0.0454183 -0.08010754 -0.14063695 -0.3566555 0.016392589 0.27382928 0.12708236 -0.027018948 -0.02242494 0.021572094 -0.003230873 0.0479357 0.06674037 0.1858352 -0.22163844 0.10510528 -0.050905272 -0.054838035 0.28346583 -0.3122828 -0.11815998 -0.22257386 0.016971326 -0.035792883 -0.16519663 -0.14496963 0.16612932 0.43329167 0.11284156 -0.024565237 0.30550867 -0.18217911 0.017578848 0.08197616 0.15204576 0.0064521763 0.24780393 -0.2497659 -0.10209429 -0.059761323 -0.02250621 0.26463598 -0.068351075 -0.09529285 0.19601181 0.23553425 0.39926597 0.2774387 0.20937023 -0.3970788 0.1144296
217 -0.2663005 -0.43622947 0.30057067 0.2218938 -0.09775735 -0.032878928 0.16101426 0.24814978 -0.30063504 0.09238898 -0.2563792 -0.14776544 0.532669 -0.57603157 0.37169388 0.41373283 0.33878028 0.10785826 -0.19284226 0.09445951 -0.45005944 0.06630263 0.08215612 -0.24860886 0.11316161 0.2748675 -0.1534967 0.3649644 0.043172527 0.39220706 0.41529042 0.29859546 -0.010473852 0.31572315 -0.13283405 -0.021299778 -0.021458324 0.04729528 0.19611622 0.015218964 0.23339689 0.040594734 0.023535721 0.012677621 0.107787676 -0.09186128 0.31603646 -0.118805535 0.12675512 0.15157437 0.26394936 -0.27461925 -0.020580165 -0.0008298581 0.24033204 -0.20375305 0.048091035 -0.4828482 0.07126397 -0.0021941466 -0.40014336 0.15921612 -0.20209123 -0.2322155 0.12138285 -0.35629365 0.0437635 0.10059689 -0.082329996 -0.15371712 -0.060298096 -0.08864581 -0.2917331 -0.06435711 -0.0032653457 -0.18827556 -0.15719797 -0.018084738 -0.06403667 -0.114460334 -0.34276447 0.09850311 0.2001867 0.12135219 -0.02875846 0.0041184085 -0.017703097 -0.02883043 0.17053825 0.09268542 0.2224856 -0.24163675 0.12261224 -0.097035475 0.04090166 0.18271357 -0.2740446 -0.15866789 -0.24857605 0.06446666 -0.062276747 -0.14171366 -0.20498282 0.16786055 0.4111402 0.17765786 -0.010062156 0.2990307 -0.2332575 0.038298123 0.10264437 0.13466275 0.03745801 0.18641753 -0.33532307 -0.10465006 -0.06971276 -0.028596122 0.28610253 -0.12748773 -0.11258747 0.19771202 0.27605423 0.43569404 0.21156885 0.16828385 -0.38878915 0.10007294
34 -0.22309384 -0.45597914 0.29599285 0.19795153 -0.14854957 -0.019700928 0.10285728 0.30962384 -0.28300032 0.13037539 -0.18253388 -0.18885915 0.5448015 -0.56208783 0.3873277 0.4315751 0.3861254 0.08722275 -0.1374391 0.06586887 -0.4772504 0.13294996 0.020958569 -0.24830166 0.13898024 0.27058956 -0.13040055 0.26600897 0.07058642 0.3957542 0.42720976 0.24061134 -0.02819106 0.3163638 -0.011706643 -0.03940763 0.019751932 0.086250976 0.23296848 0.05303839 0.19090517 0.08264564 -0.0023696483 0.04183955 0.120443694 -0.049936242 0.32914758 -0.049946457 0.16587701 0.111038916 0.33471593 -0.31587118 0.030428762 -0.0050950483 0.19709201 -0.21918567 0.07207117 -0.4220599 0.058315482 -0.017173337 -0.35379365 0.1491627 -0.24986325 -0.1891227 0.13604315 -0.24857876 0.03951903 0.080322094 -0.06952564 -0.111371025 -0.07808399 -0.14266492 -0.3034129 -0.09127435 0.006142876 -0.2216884 -0.1266229 0.0063284524 -0.016215505 -0.1263052 -0.296616 0.037473224 0.17057063 0.14292203 -0.040315893 -0.041098155 -0.025377233 -0.03326411 0.13052131 0.08538571 0.24612877 -0.16354193 0.15875241 -0.099988915 -0.026070803 0.25070956 -0.28473374 -0.112378225 -0.30681562 -0.019762646 -0.09322092 -0.15561059 -0.11659521 0.20501809 0.41551378 0.13501096 -0.10205458 0.28312418 -0.21128091 0.05182881 0.15116562 0.13121608 0.034331433 0.18617137 -0.3436378 -0.10797485 -0.08961134 -0.016740812 0.31052446 -0.04728421 -0.11170947 0.23290433 0.28571633 0.42622772 0.21018156 0.22773659 -0.40812904 0.11793719
218 -0.2763527 -0.39793283 0.31269002 0.18401611 -0.031081593 0.04268319 0.14959274 0.26247203 -0.27698088 0.11099103 -0.17727368 -0.123300105 0.5463061 -0.5714157 0.4822532 0.3832118 0.40978873 0.03630127 -0.1488717 0.116972126 -0.39212295 0.029817672 0.00970063 -0.20853627 0.17508197 0.24100445 -0.10962108 0.3146173 0.027062496 0.351459 0.35627484 0.36736727 0.03426455 0.31509277 -0.12387099 -0.011950181 0.0028264194 0.047831737 0.29192734 0.020805947 0.23635139 0.07059571 0.025702845 -0.09933014 0.101568714 -0.1320548 0.3260397 -0.056131244 0.182839 0.20884052 0.33709583 -0.28531 0.01654906 -0.012440712 0.2085584 -0.15578973 0.042694736 -0.41387346 0.0322218 -0.037927363 -0.34787798 0.15620102 -0.20887612 -0.1859919 0.07778799 -0.25231817 -0.015831398 0.0046337256 -0.11104978 -0.12566787 -0.011824531 -0.11904479 -0.2267886 -0.061916593 -0.023609784 -0.19341913 -0.14779742 -0.031763792 -0.12490341 -0.11600078 -0.4463971 0.05787993 0.20245324 0.19741586 0.0011995495 -0.04507966 -0.02709374 -0.084555626 0.088393904 0.08013107 0.24029759 -0.24313319 0.22355117 -0.08880171 -0.03007295 0.22004092 -0.31842253 -0.13809012 -0.26148582 -0.032393884 -0.13890931 -0.18911162 -0.16474354 0.20632818 0.49687383 0.11650614 -0.0031229374 0.31194276 -0.2721837 0.005182907 0.041786473 0.15577355 -0.006464396 0.2215676 -0.32638794 -0.11261638 -0.08798242 -0.100356504 0.20249087 -0.04468489 -0.10113004 0.20512679 0.26994535 0.3962948 0.19524753 0.16359387 -0.40816602 0.15864569
83 -0.31751588 -0.3823024 0.22748543 0.18997331 -0.14130235 -0.035697374 0.105884016 0.26805222 -0.22312957 0.11171821 -0.18296644 -0.1544611 0.49903455 -0.62916887 0.44515505 0.36098307 0.35122368 0.028936192 -0.21862173 0.12283327 -0.48511258 0.0657982 0.008028441 -0.24373312 0.105377 0.2591925 -0.1680513 0.32422355 0.067784354 0.46914357 0.4075724 0.24790703 0.0051763626 0.29712787 -0.08308241 -0.051577684 0.027841507 0.103758425 0.21404326 0.036188446 0.2430565 0.119614825 0.008858854 -0.07614017 0.18307362 -0.09625537 0.34042975 -0.10605667 0.16460489 0.16252282 0.276928 -0.26041067 -0.04992374 -0.0060985126 0.2415672 -0.22298892 0.044062108 -0.43957677 0.017072497 0.0028574225 -0.34301367 0.13985823 -0.21643259 -0.24239336 0.17859116 -0.25332528 0.049230397 0.06716217 -0.08466533 -0.11806668 -0.10645782 -0.11618957 -0.31258708 -0.05162995 -0.020421658 -0.15932763 -0.07849037 0.0062401006 -0.048246693 -0.12656522 -0.44742936 -0.017641187 0.19158022 0.15113014 0.08305319 0.0090066735 0.04116817 0.011576762 0.15962534 0.11164908 0.31007794 -0.24048246 0.14711861 -0.14796253 -0.06161269 0.26490146 -0.25756067 -0.0914439 -0.2569906 0.019150427 -0.11071561 -0.16898705 -0.17497332 0.15474357 0.4552652 0.19687796 -0.0015590788 0.2555567 -0.22390245 -0.002060027 0.12531719 0.088910304 0.018057257 0.185912 -0.30445686 0.0030040934 -0.068113536 -0.066919394 0.29068038 -0.065699115 -0.011727561 0.2561133 0.18931678 0.43781075 0.23152319 0.22260863 -0.40970838 0.17192556
47 -0.27556968 -0.42163634 0.27307504 0.20050083 -0.079481274 0.002593342 0.066259414 0.2868308 -0.32944557 0.1379268 -0.18995304 -0.09010447 0.5469349 -0.5462415 0.40591812 0.33180502 0.41737363 0.054207247 -0.2192086 0.07581914 -0.44393757 0.124802865 0.06207168 -0.24848974 0.14070034 0.31810328 -0.14363608 0.32672933 0.010615504 0.4418243 0.37535462 0.32106838 -0.007368408 0.31434804 -0.088987604 -0.026892116 0.06932393 -0.004278139 0.27518848 0.008552999 0.230417 0.101832315 0.03695204 -0.04545083 0.13027355 -0.14181453 0.28901812 -0.12596032 0.22367996 0.1470252 0.26193264 -0.30008107 -0.066506766 -0.03450807 0.2123893 -0.19695902 0.05014683 -0.4715985 -0.039205104 -0.039039914 -0.40293214 0.10141049 -0.16666804 -0.24467766 0.18488666 -0.23868799 0.049999945 0.088896915 -0.08222362 -0.1130495 -0.0555447 -0.08322537 -0.3209007 -0.023103977 0.013377759 -0.1675472 -0.13982598 -0.002624878 -0.12026193 -0.20043936 -0.4000196 0.048811052 0.16696616 0.0806118 0.0012161203 -0.057181712 -0.07645971 -0.0036373725 0.16822025 0.06676733 0.274945 -0.2402907 0.19574986 -0.11558333 -0.011383586 0.22587886 -0.27289012 -0.08622647 -0.24649453 0.049267653 -0.07960969 -0.14888409 -0.15237524 0.17888959 0.433903 0.11688415 0.013707268 0.28344047 -0.18545412 -0.0046178917 0.14726412 0.19065216 0.016895339 0.15098923 -0.3044325 0.00070599886 -0.027738042 -0.08280709 0.30475798 -0.09912362 -0.08443704 0.23476833 0.21498539 0.421295 0.24869019 0.13949281 -0.40432483 0.09946538
551 -0.06431543 0.3595753 -0.12368823 -0.22711158 -0.056822423 -0.18675122 0.67864215 0.22066456 -0.38193715 0.009254932 -0.3749739 0.67597187 0.73233765 -0.7188108 0.026258113 0.3602676 0.7788124 0.11853256 -0.47295222 0.40356332 -0.2173706 0.52226216 0.20169276 0.30337262 -0.14872052 1.270722 -0.3131461 -0.29062432 -0.36129123 0.74191844 0.16743551 0.0070242155 0.059968796 0.07055679 -0.1839866 -0.5693618 -0.6466742 0.55601865 -0.16057628 0.16148745 0.3010517 -0.24836902 0.70143706 -0.51591444 0.7157765 -0.0231618 -0.172246 -0.3496865 0.42310512 -0.08282507 0.2745246 -0.004119167 -0.26931596 -0.1598918 -0.49372074 -0.5788807 -0.29124826 0.07290388 0.1722008 -0.12448836 -0.8201806 -0.0013065652 -0.79147863 0.31113452 -0.1799031 -0.41808367 0.263203 -0.28260055 0.05051235 -0.42484108 0.27374575 0.1268816 -0.14466454 -0.09626604 -0.1301434 1.0827988 -0.12531781 0.07774674 -0.19238472 -0.5411673 -0.05118311 0.32474855 0.0040040226 -0.5379623 0.2266349 -0.38046944 -0.2476748 0.02438029 -0.07589576 -0.04341614 0.113124214 0.08393126 0.41498622 -0.15875334 -0.50204796 0.0067003984 -0.28016976 0.55561167 0.23208235 -0.5580433 -0.02285274 -0.2514547 -0.24112664 0.39058903 0.108450346 0.47115362 0.30692837 0.3838514 -0.44361216 0.5127786 -0.18070768 0.57867104 -0.023138054 0.24935994 -1.2154326 -0.06889417 -0.6245425 0.1234031 0.19269687 0.5243692 -0.118133225 -0.025702802 0.47165656 0.12573199 0.15997443 0.35179713 -0.40882835 -0.4259891
552 -0.0833844 0.349699 -0.105234005 -0.025777658 -0.060990963 -0.12993747 0.737816 0.10846222 -0.28845483 -0.07762603 -0.33179766 0.7366702 0.68739206 -0.77964085 0.016850684 0.3508311 0.725212 0.026238732 -0.5259054 0.30378368 -0.32551706 0.53996027 0.28857842 0.31000662 -0.21546671 1.4035827 -0.22293937 -0.31575263 -0.3545796 0.8356837 0.083962075 -0.046401963 -0.049972497 -0.111702375 -0.1662573 -0.45047945 -0.7212955 0.5531328 -0.1491232 0.20098346 0.24718328 -0.2206861 0.6982574 -0.58885956 0.68596256 -0.03394337 -0.14838532 -0.34851778 0.40578946 -0.048051506 0.48992229 -0.08502766 -0.22199143 -0.03147594 -0.4843402 -0.5599975 -0.24802268 0.0138039775 0.06484529 -0.09883633 -0.76658326 0.024954796 -0.65549 0.25867513 -0.19053802 -0.33014652 0.21008463 -0.46849567 0.1562571 -0.40367216 0.289442 0.1766302 -0.10279727 -0.10325244 -0.24602176 1.1580799 -0.06438181 0.08271045 -0.15953504 -0.549706 -0.09031235 0.4015136 0.025107505 -0.5002321 0.39751282 -0.40637463 -0.20300318 0.049969938 -0.0067018033 -0.05250925 0.096478045 0.057563215 0.37758714 -0.10357199 -0.42572737 0.13988616 -0.1876677 0.39575875 0.30500644 -0.4280984 0.043600045 -0.3456623 -0.30947167 0.47709605 0.23126963 0.41012493 0.19284911 0.3016741 -0.5232997 0.54447967 -0.25436106 0.56841224 0.007451618 0.30469614 -1.0996752 -0.08751959 -0.56189656 0.1465787 0.05621728 0.40529117 -0.14991452 0.10556359 0.72677076 0.04449716 0.18800433 0.29862708 -0.41364068 -0.4351559
288 -0.114036344 0.40592155 -0.22945248 0.058204193 -0.08248308 -0.1845924 0.5383439 0.06596658 -0.4222942 0.024655333 -0.33301574 0.77116895 0.69579506 -0.78020346 0.038864776 0.32426018 0.71668184 0.02049848 -0.49224776 0.39765462 -0.23794156 0.52477986 0.2959334 0.3070045 -0.2576287 1.311201 -0.24228252 -0.24840677 -0.3942402 0.7173993 0.22136956 -0.0250605 -0.019221453 0.054910727 -0.09104179 -0.4802428 -0.6899861 0.4889281 -0.17291132 0.18223444 0.3394515 -0.19487214 0.77392536 -0.5729209 0.71066356 -0.016869482 -0.1705893 -0.43849716 0.49565288 -0.12295706 0.44278258 -0.027055936 -0.25509948 -0.15790951 -0.43875375 -0.64661026 -0.26972243 0.027119242 -0.003626212 -0.12756373 -0.7717557 0.00745654 -0.72809374 0.20465378 -0.2632169 -0.39245665 0.25875816 -0.38220298 0.11026817 -0.4296173 0.24714237 0.14869234 -0.044089373 -0.24153577 -0.2020775 1.1599212 -0.10921567 0.013319174 -0.11073369 -0.6042388 -0.14617726 0.25025308 0.085691996 -0.44043237 0.2820606 -0.34208804 -0.23652452 0.0058658193 -0.08232057 -0.043566488 -0.122770235 -0.00422244 0.3744129 -0.118346915 -0.5713727 0.13046186 -0.18113193 0.41317087 0.3340472 -0.5051252 0.035280455 -0.2624105 -0.30654103 0.37853298 0.118811 0.32987553 0.15870987 0.16546996 -0.48169884 0.53051585 -0.2572353 0.75853646 0.1352418 0.29640138 -1.0653765 0.0030719633 -0.62059367 0.13859698 0.12482052 0.46763006 -0.08459136 0.19182928 0.49884275 0.17927349 0.23230259 0.37825486 -0.40693513 -0.33604598
285 -0.052729942 0.39709634 -0.15340139 -0.09179078 0.027849576 -0.22562209 0.6916686 0.15473709 -0.35770798 0.062067214 -0.25311488 0.6650029 0.6957868 -0.6781645 0.019585352 0.43958837 0.70974994 0.016078724 -0.48308742 0.33267367 -0.30291232 0.52200735 0.1703003 0.3715567 -0.22013032 1.2479322 -0.27565163 -0.25470084 -0.3452813 0.7251178 0.031628776 0.01945637 0.0039976207 0.003292346 -0.10588403 -0.5675146 -0.6822999 0.5639186 -0.23879233 0.13743903 0.2750492 -0.118009895 0.80290544 -0.60999596 0.68618953 0.1066986 -0.22251792 -0.34278622 0.49191895 -0.03175925 0.4572204 -0.058605343 -0.27664974 -0.18783005 -0.4809919 -0.5140694 -0.22586352 -0.024890792 0.17496797 -0.14140683 -0.7937572 -0.01266128 -0.7456113 0.14624648 -0.32401776 -0.3326756 0.32837126 -0.3703382 0.0460993 -0.37508348 0.2795598 0.27642652 -0.13672523 -0.20186676 -0.20873703 1.183628 -0.19897655 0.12976563 -0.028509917 -0.54717034 -0.08569119 0.3531569 0.108682305 -0.41243204 0.2471327 -0.5172408 -0.1796259 0.033607293 0.051041383 -0.09026096 0.030963914 0.048594203 0.401999 -0.05964318 -0.54441684 0.033022996 -0.24757989 0.41283396 0.3158912 -0.6200434 0.035098568 -0.29610646 -0.28992492 0.35887837 0.25274053 0.37820545 0.26771018 0.29234877 -0.47000253 0.5723649 -0.23935172 0.6615299 0.009054552 0.26634896 -1.1430461 -0.0769447 -0.3794732 0.06988382 0.15235083 0.37128356 -0.117232464 0.18400575 0.5693473 0.07617933 0.24387862 0.44638327 -0.30776834 -0.3480439
549 -0.06776779 0.3869025 -0.18588245 -0.12950751 0.037755415 -0.24308671 0.55536556 0.13172531 -0.34897864 -0.045600966 -0.34935585 0.7913863 0.8017169 -0.7478588 0.08640905 0.34367904 0.66523063 0.09907276 -0.5892006 0.40574518 -0.27885857 0.4855195 0.11775639 0.2908486 -0.28403556 1.2423576 -0.2671205 -0.27021098 -0.3346371 0.78425163 0.09327358 0.0019883225 -0.002615861 0.05867099 -0.060279995 -0.6188016 -0.70462656 0.60777414 -0.18232264 0.14159037 0.29236865 -0.22996163 0.7695439 -0.5429481 0.68341696 0.020392792 -0.2845032 -0.3745063 0.32747442 -0.1383699 0.39066488 -0.053791072 -0.19348006 -0.030368287 -0.43194935 -0.66899085 -0.17888711 0.0038132665 0.25677943 -0.12429256 -0.7690542 0.12495372 -0.89405197 0.186841 -0.25584018 -0.30657572 0.3659523 -0.37639728 0.111474164 -0.35539418 0.39742994 0.18584393 -0.12251289 -0.1474643 -0.23263185 1.1193868 -0.15526927 0.059866052 -0.16216384 -0.5423252 -0.05623355 0.3669224 0.007888743 -0.42731476 0.23906793 -0.4122316 -0.22350305 -0.063304126 -0.073198296 -0.12992243 -0.059814736 0.043332074 0.31475386 -0.09045358 -0.46436864 0.10125545 -0.23441157 0.40494868 0.27904105 -0.48892626 0.10184009 -0.20528749 -0.22726215 0.42559642 0.20372342 0.5060739 0.25541434 0.3129765 -0.48007998 0.55542487 -0.25986338 0.6988937 -0.034873784 0.2514322 -1.1559138 -0.023186134 -0.47475696 0.19673198 0.17648938 0.30255586 -0.08847065 0.084339224 0.4791994 0.14141732 0.13111271 0.36462104 -0.3942856 -0.3479861
287 -0.021561548 0.33407253 -0.14305162 -0.115028955 0.07462216 -0.19484432 0.6240245 0.09621308 -0.52874964 0.107894935 -0.27836475 0.72765213 0.7566522 -0.7763428 0.03281733 0.34295523 0.70604753 0.057887953 -0.57357574 0.32826504 -0.26638636 0.54941136 0.22867323 0.36718175 -0.27739123 1.1454723 -0.39611673 -0.2910733 -0.2362666 0.78267276 0.20444253 0.048162237 0.044562083 0.029189412 -0.19791554 -0.62428486 -0.5883758 0.62427485 -0.23579037 0.19649477 0.28493455 -0.29359674 0.7140308 -0.6205518 0.6138666 0.015120178 -0.2541187 -0.3108307 0.31633285 -0.002138027 0.41000623 -0.04291597 -0.26200747 -0.07122109 -0.5780928 -0.61406326 -0.29702288 0.019459795 0.19876185 -0.11941753 -0.74755543 -0.008481844 -0.7215037 0.36346844 -0.17696811 -0.41192695 0.36266664 -0.44761685 0.027463617 -0.31439596 0.328271 0.20430475 0.017067265 -0.11039586 -0.14425135 1.1591306 -0.1233788 0.08582544 -0.13489044 -0.53141 -0.069231376 0.3442173 -0.0417746 -0.37730816 0.17811684 -0.3566865 -0.2626194 0.02294647 -0.044015136 0.012353957 0.13043287 0.073291086 0.46234998 -0.17426482 -0.48432428 0.08888989 -0.18861677 0.39767393 0.29744372 -0.49121132 -0.0395423 -0.31507394 -0.29044425 0.466848 0.18576132 0.35878834 0.17778662 0.38278246 -0.4531892 0.5121585 -0.39233634 0.68343216 0.010068109 0.3622431 -1.1447942 -0.15462764 -0.534487 0.09112254 0.17265779 0.43504632 -0.15543726 0.09828615 0.5426637 0.0873281 0.17693794 0.34827068 -0.28457144 -0.41185045
550 -0.122411214 0.36205468 -0.15347601 -0.16511519 0.062789805 -0.12936541 0.65969217 0.08573539 -0.44846696 0.10381122 -0.35624066 0.72350895 0.8106218 -0.77478004 0.018987142 0.3303993 0.7504715 0.11478029 -0.56464505 0.3020332 -0.14939666 0.4691575 0.32321027 0.30360076 -0.18536344 1.2901995 -0.25795457 -0.1577068 -0.26613173 0.77792567 0.05976382 -0.07302507 0.078694895 -0.004975923 -0.10791458 -0.5503122 -0.6024233 0.6310069 -0.23277064 0.11427469 0.3271731 -0.13423091 0.72274673 -0.46907476 0.5785717 -0.0578918 -0.30719408 -0.37044242 0.46200344 -0.12581824 0.39011392 -0.021815198 -0.28781936 0.004288678 -0.36705378 -0.77071136 -0.33540213 0.06698554 0.14218318 -0.11494133 -0.7908137 -0.046495683 -0.61327225 0.24801642 -0.28757164 -0.36285198 0.2934718 -0.33162576 0.025815234 -0.29785734 0.27531537 0.23874074 -0.08045477 -0.04896876 -0.17378058 1.2225169 -0.221657 0.08859748 -0.1293625 -0.49555317 -0.038248684 0.34876147 0.11057335 -0.42902815 0.31332186 -0.4146209 -0.21184707 0.04322743 -0.0018827383 -0.09828751 0.10250846 0.002028879 0.4323304 -0.06614513 -0.5005823 0.0895785 -0.20874076 0.37253973 0.2570776 -0.55234766 -0.044381533 -0.30202788 -0.21975273 0.42471963 0.15228859 0.43018976 0.23744968 0.31027654 -0.4080453 0.5309504 -0.2743659 0.7050369 0.052689143 0.19608018 -1.1092664 -0.1393756 -0.48547268 0.13811085 0.13903137 0.423569 -0.10449358 0.19240311 0.51936024 0.1633185 0.21737352 0.31964916 -0.34783533 -0.4622085
286 0.003928567 0.3112614 -0.22240153 -0.18788561 -0.024193935 -0.27634346 0.6512735 0.18760052 -0.45321253 -0.0005623411 -0.35667184 0.7016881 0.6697586 -0.67297065 0.08712661 0.35986486 0.71993667 0.07542696 -0.5109117 0.31011382 -0.32506862 0.4590386 0.23828733 0.27933636 -0.10210107 1.3246865 -0.22703509 -0.28700924 -0.34470603 0.76823837 0.19238581 0.055561073 0.0072041764 -0.043052338 -0.12525912 -0.5738771 -0.6594044 0.58552444 -0.23329988 0.18006934 0.34354448 -0.20686391 0.6087516 -0.5715136 0.7196173 -0.0294668 -0.18298154 -0.33730805 0.3778909 -0.10755246 0.4177692 0.14060213 -0.23817961 -0.11508059 -0.49273092 -0.6314424 -0.2544709 0.085586436 0.036695004 -0.22209144 -0.84964067 -0.00622205 -0.6168399 0.22368322 -0.22468463 -0.5068153 0.27276185 -0.3444293 -0.057094757 -0.3105794 0.2501158 0.19103055 -0.03524494 -0.11381225 -0.12858154 1.0657464 -0.2048446 0.12248605 -0.10960606 -0.5279702 -0.010497016 0.38450763 0.010638451 -0.54351366 0.3394289 -0.42204317 -0.078422435 -0.04236309 -0.095369875 -0.054687444 0.024542587 0.045723014 0.2814384 -0.09311298 -0.56794 0.15217206 -0.30705482 0.44059044 0.19695638 -0.6792553 -0.10048808 -0.34294912 -0.19873706 0.33109358 0.14822474 0.35403332 0.30003354 0.109304085 -0.5173645 0.4402929 -0.1800696 0.631207 -0.01707239 0.23206009 -1.2395399 -0.032302286 -0.63982797 0.027762469 0.12786178 0.33870336 -0.09829238 0.13135207 0.6013604 0.075702615 0.09366724 0.3168801 -0.3435605 -0.51460916
291 0.19739401 -0.13875596 -0.06640892 0.08210723 0.22807166 0.33546764 0.96814805 0.46669242 -0.5690224 0.010811669 -0.110609755 -0.23818883 0.69902503 -0.38287055 0.02963612 0.6804448 0.21042047 -0.62449193 -0.039627858 -0.5932482 0.016148122 -0.11359631 -0.48371193 -0.4443013 0.29792804 0.42057097 -0.13248101 0.0025283077 0.3060178 -0.22746234 0.46388778 0.23117915 0.11118777 0.17501426 0.17582731 -0.09682089 0.13249153 -0.33980587 0.48615775 0.027079867 0.68479794 -0.016096309 -0.18736461 -0.6853129 0.4210353 0.048461705 0.01702431 -0.52010185 0.046562836 -0.35069147 -0.053115834 -0.10775245 0.19896787 0.46437907 0.03757971 -0.16763523 0.22319493 -0.4912897 0.16066737 0.1778471 -0.6025725 0.39796403 0.21052653 0.3759069 -0.424858 0.12152896 0.43429592 0.46836457 -0.22678843 -0.46111205 -0.19129002 -0.37180066 -0.014388589 -0.06307357 -0.038771342 0.5510484 -0.23966889 -0.39285225 0.17182606 -0.09481338 0.17821051 -0.15074362 0.18536991 -0.028053282 -0.070002645 0.49888876 0.5998302 0.3374745 0.6975555 0.24830097 -0.48649865 0.021884415 0.2773897 -0.5172241 0.00054075924 0.31262907 -0.4193978 -0.4302577 0.32363954 0.07977289 -0.6636826 -0.3375653 0.5016572 0.28320545 0.35945597 0.1442241 0.26668042 -0.3582226 -0.2017894 0.4571519 -0.35352433 0.105673194 -0.29100958 0.6391879 -0.06971491 0.34062776 0.03685821 0.7536952 0.041982066 -0.35980818 -0.25396958 -0.22891867 -0.38920146 0.22807491 -0.055866633 -0.43259758 0.016911691 0.1094756
210 0.4096736 -0.26260787 -0.0049316227 0.27904004 0.24658056 0.309103 0.6378487 0.5849722 0.01996209 0.3769044 0.25189096 0.6368223 0.56572986 -0.39908355 0.40016723 0.3495728 -0.36133304 -0.41215116 -0.24360217 -0.046778608 0.44626567 -0.50428224 -0.253952 -0.29010344 0.018622601 0.5938366 -0.46584803 0.012139855 -0.14234072 -0.028136117 0.29085433 0.32410267 -0.20705777 0.3505606 0.6542502 -0.14637437 -0.016266739 -0.46682283 -0.107789725 0.2445061 0.051658962 -0.36972332 0.29041407 -0.50454724 0.71011144 -0.33271542 -0.1556918 -0.4559486 0.05134959 -0.7048789 0.16031286 -0.16546284 0.54631627 0.2463094 -0.37812608 -0.22263612 0.1152733 -0.76074344 -0.19373706 0.48279452 -0.5407227 0.22778939 0.24366583 -0.14416187 -0.08007694 -0.44499138 0.16840842 0.35114583 -0.3191818 -0.37074852 -0.26849318 -0.38945952 0.1500946 0.09595916 -0.09670482 0.115063526 0.22843896 -0.61827207 0.41588244 -0.40405512 0.49896082 -0.28811833 -0.023041056 -0.18177544 0.03488001 0.0051638656 0.7176366 0.02182758 0.53720796 0.49163908 -0.19875893 0.3609339 0.20782903 -0.45875254 -0.41924497 0.32238793 -1.0967274 -0.3595134 -0.19248806 -0.025567139 -0.86659026 -0.28094295 -0.008614279 0.71186066 0.7925731 0.54706806 0.03848571 0.1603971 -0.4567378 -0.3045005 -0.35006472 0.6341297 -0.20564662 0.07463062 -0.6097711 0.14574274 -0.5760274 1.0829169 -0.13395289 -0.24959947 -0.5519738 0.16705993 -0.005768796 -0.5621513 0.8273238 -0.27061778 -0.25254455 -0.0040616225
2110 0.43577558 -0.25910416 0.015856963 0.27825296 0.2721439 0.26843044 0.62617815 0.53470635 -0.05274597 0.3806131 0.24982402 0.61395127 0.5680047 -0.42746785 0.4414754 0.33536425 -0.4090564 -0.40054396 -0.21901011 -0.0828783 0.45011696 -0.5040776 -0.19901548 -0.3367118 0.048383363 0.60815364 -0.38249984 0.012840781 -0.23422198 -0.053420626 0.2779768 0.21390173 -0.28649962 0.31032348 0.73296535 -0.1459519 -0.13177307 -0.35705242 -0.04826959 0.22948213 0.072172254 -0.42087582 0.2516425 -0.46827912 0.7310711 -0.29815748 -0.2185408 -0.3939794 0.02973093 -0.621144 0.1267038 -0.1413113 0.540051 0.22359575 -0.3624069 -0.18725213 0.16109736 -0.72649693 -0.2279951 0.4201195 -0.47685692 0.281435 0.21584272 -0.1425496 -0.09112442 -0.5326907 0.22131251 0.40776563 -0.32502916 -0.40260386 -0.34736994 -0.37669793 0.10886016 -0.018889995 -0.07261668 0.09639215 0.20376982 -0.6421204 0.40421182 -0.3903721 0.45306134 -0.30956975 -0.029969908 -0.20799886 0.06572063 0.032646857 0.7206576 0.04376043 0.63679266 0.35918674 -0.23882955 0.45870686 0.32524052 -0.48875767 -0.44140485 0.32580283 -0.9975683 -0.3485796 -0.20689902 0.03114376 -0.8121008 -0.2971886 -0.025136659 0.68981314 0.82113063 0.56627697 0.08976625 0.17949675 -0.52404535 -0.24503507 -0.3616152 0.59282005 -0.28507462 0.064072154 -0.5589752 0.17374724 -0.58642334 1.1189716 -0.16055822 -0.32573238 -0.5036207 0.21978551 0.062187403 -0.48298392 0.8017716 -0.2671961 -0.2562991 -0.14643145
104 -0.24493818 -0.47933996 0.23681745 0.21176842 -0.1663893 0.033111677 0.069125324 0.2553392 -0.21557634 0.17617375 -0.20912509 -0.12829827 0.44680735 -0.50536245 0.40297443 0.46690023 0.40999457 -0.006087641 -0.22050145 0.15370406 -0.46677724 0.13997743 -0.02784359 -0.23122483 0.11128225 0.35236302 -0.08878771 0.34586808 0.16734912 0.4059447 0.41258803 0.34086353 0.07162684 0.28713918 -0.12765586 -0.02489211 -0.0048613213 0.026005138 0.26376894 0.13085844 0.17068614 0.07043557 0.07444085 -0.030812979 0.089729995 -0.094272785 0.2962294 -0.09657364 0.20295969 0.18828872 0.34139267 -0.27228296 -0.04037955 0.04023957 0.24430275 -0.13159887 0.13189568 -0.46694675 0.1045838 0.15974832 -0.31825894 0.13921578 -0.11409508 -0.1966704 0.12028103 -0.3037744 -0.012619148 -0.018070808 -0.088411584 -0.22754759 -0.062166113 -0.06360784 -0.105886795 -0.047571305 0.0017915865 -0.11723582 -0.05718804 0.006325091 -0.23927456 -0.1847526 -0.47259218 0.12211675 0.22026707 0.0641199 0.12960334 -0.010079644 -0.011362707 -0.049975894 0.15666825 0.110665895 0.33081776 -0.19306558 0.05971824 -0.022630056 -0.007429264 0.28604308 -0.3394517 -0.040969223 -0.34830523 -0.027758133 -0.10618822 -0.14623037 -0.16652977 0.17749049 0.44925654 0.20199995 -0.096992545 0.2652679 -0.31625342 0.038596775 0.09137871 0.06321588 -0.06732156 0.121829785 -0.30282322 -0.066312954 0.066602126 0.013558082 0.33507696 0.00096513995 -0.11993041 0.2337034 0.13983534 0.45475978 0.22529264 0.20583764 -0.3751759 0.19064687
92 -0.19661742 -0.43682024 0.3255032 0.20031628 -0.2555202 0.029161068 -0.017904198 0.21158184 -0.2107757 0.21191782 -0.25206113 -0.15543592 0.5330849 -0.5238144 0.4148855 0.42772093 0.40568957 0.008820032 -0.24435806 0.14307977 -0.4242105 0.080721915 -0.051135745 -0.20174168 0.20794679 0.34177357 -0.09013947 0.42319372 0.047921244 0.46212083 0.3199562 0.388466 0.0070039337 0.23646815 -0.115614526 -0.049849 0.06263352 0.022692261 0.23720762 0.10597613 0.1525839 0.047924202 -0.0049423715 0.007808508 0.10471539 -0.004007511 0.3662914 -0.03841052 0.21317853 0.07812191 0.41434878 -0.26376697 0.037634254 0.021302672 0.18329372 -0.18441649 0.059217397 -0.49270752 0.08386585 0.12831795 -0.3271871 0.13807985 -0.15807775 -0.21211438 0.0607862 -0.2745237 0.057013914 0.016228817 -0.07413083 -0.25195843 -0.0038972474 -0.030414777 -0.15599518 -0.05128982 0.025808785 -0.07826613 -0.24000444 0.0037822593 -0.16629913 -0.15740092 -0.43109718 0.081564546 0.18953583 0.122170106 0.09135773 -0.009394427 0.036280993 -0.10645625 0.1589721 0.13810745 0.32598618 -0.20206617 0.08324389 -0.030188901 -0.0027609898 0.20856245 -0.33495906 -0.04601501 -0.31659535 -0.05493177 -0.068950415 -0.101835094 -0.16430824 0.1718856 0.4303899 0.14439628 -0.02030047 0.359177 -0.42193776 0.05244911 0.11598343 0.13661937 -0.09414999 0.25811237 -0.2608207 -0.057119235 0.070364855 0.041840237 0.26465142 -0.01387082 -0.12113278 0.19131069 0.23421937 0.3939953 0.15673934 0.16396362 -0.3473979 0.11396228
272 0.3090891 -0.18076952 -0.117672116 0.6252381 0.10853839 0.13173223 0.81387836 0.30024877 -0.3367096 0.13032523 0.080660306 -0.27937162 0.52251035 -0.4780901 0.4999264 0.53171694 0.08077215 -0.2965924 -0.1354958 -0.3477714 0.17442557 0.14487803 -0.15252657 -0.31619143 0.2228874 0.5956075 -0.5356579 -0.17765671 0.059984162 0.049951013 -0.060900725 0.16240276 0.09188649 0.2719707 0.39208132 0.0066479 0.18446612 -0.25398904 0.29320014 0.19839002 0.20650044 0.1296736 0.22198439 -0.68642116 0.7127131 -0.1667969 -0.15056309 -0.49373102 0.14685093 -0.17038539 -0.02807624 -0.12122677 0.27436844 0.043325722 -0.26270753 -0.18693958 -0.059540268 -0.5604282 -0.0067090844 0.19799417 -0.31996122 0.24343109 -0.013484677 -0.047332704 -0.4866713 -0.07666974 0.25963947 0.31958684 -0.15418041 -0.41533044 -0.19679312 -0.2134288 0.21836938 -0.24841638 -0.28530043 0.17534727 -0.09139446 -0.29912692 0.02186066 0.0006470431 0.15618207 -0.22303465 -0.083905004 -0.017457258 -0.21202016 0.41643852 0.4304602 0.27787945 0.4498623 3.3588003e-05 -0.1719602 0.34715623 0.21981727 -0.18956788 -0.10299139 0.107637264 -0.42838138 -0.06994815 -0.013118821 0.03398648 -0.41666904 -0.09503061 0.2607885 0.46726048 0.35227877 0.2524487 0.09085174 -0.078292325 -0.080392085 -0.31164753 -0.2569862 0.08082515 -0.29916734 0.2930959 -0.012125034 0.1973076 -0.15456772 0.3733803 -0.044196468 -0.33208337 -0.3057857 -0.33523628 -0.18310262 -0.22414899 0.21154837 -0.25182408 -0.014451421 0.051382914
155 0.31828234 -0.29643622 -0.17965189 0.5366102 0.04101615 0.118143 0.87080514 0.31949672 -0.24810258 0.059789322 0.018130967 -0.14092168 0.5090151 -0.44094494 0.49458453 0.4605609 0.16044337 -0.25733295 -0.16743179 -0.36233062 0.20583452 0.19485886 -0.22188807 -0.27928227 0.25153187 0.55061543 -0.5151508 -0.19661939 0.096477136 0.036447775 -0.070661925 0.118375994 0.018346684 0.26260424 0.4583088 0.03128964 0.1359307 -0.23293255 0.27347055 0.23854464 0.2810456 0.1273206 0.14082886 -0.56329465 0.67081755 -0.10674239 -0.12085722 -0.5686766 0.06782133 -0.1998018 -0.13375108 -0.102532186 0.24004385 0.049145002 -0.32875535 -0.25620934 -0.062459633 -0.6143385 0.015544232 0.24206325 -0.33641484 0.23087588 -0.025235424 -0.06279582 -0.45310953 -0.23809406 0.18543264 0.280566 -0.047161188 -0.45019433 -0.18283856 -0.21892104 0.104498535 -0.22410274 -0.26247916 0.29884496 -0.08356879 -0.3074533 0.1004939 -0.08649184 0.22890764 -0.24097267 0.1343387 0.093378454 -0.17463642 0.4164615 0.4676103 0.27991346 0.47922432 0.016173491 -0.063620485 0.2712976 0.20362996 -0.20459306 -0.006059771 0.10208842 -0.44940117 -0.14583878 -0.044831164 0.0759577 -0.29642454 -0.07199727 0.30560488 0.4173574 0.38690752 0.23866428 0.18386407 -0.0636943 -0.13929556 -0.14642674 -0.21829799 0.17728016 -0.29648137 0.24089798 0.08362721 0.24530177 -0.06818817 0.37051493 -0.114603676 -0.31890154 -0.36692572 -0.3474476 -0.2593752 -0.30250096 0.22776222 -0.25926214 -0.11709806 0.013578893
281 0.34118032 -0.22372364 -0.19952108 0.47707856 0.112992965 0.19994168 0.886445 0.31720963 -0.23768306 0.050064478 -0.009795933 -0.20295028 0.528934 -0.43882075 0.5602368 0.5110738 0.1749934 -0.32478833 -0.14338522 -0.41606528 0.18968023 0.13429804 -0.120182805 -0.36710742 0.25416002 0.67993504 -0.52109224 -0.19970259 0.11621551 0.04515517 -0.027115611 0.0859604 0.02896323 0.32427984 0.43180376 0.02897442 0.22319576 -0.29471016 0.22617362 0.18540788 0.280473 0.12812115 0.24761562 -0.618287 0.6466827 -0.1393529 -0.14682703 -0.48151594 0.027967373 -0.13891232 -0.1429592 -0.17600518 0.22889878 0.11742696 -0.2766335 -0.21586865 -0.04998741 -0.6203511 0.026364207 0.16012534 -0.3418849 0.21403594 -0.039567687 -0.050835196 -0.45231676 -0.14237969 0.18728118 0.29924673 -0.11077972 -0.4587982 -0.2232812 -0.22624585 0.1266819 -0.18370408 -0.20456809 0.20716245 -0.03807633 -0.34447455 0.08771703 -0.05758895 0.14520596 -0.219952 -0.018509854 -0.03589233 -0.21156105 0.37247896 0.44714537 0.3593325 0.4444698 0.024441833 -0.12511118 0.2718098 0.24863325 -0.25090626 -0.010350686 0.14923508 -0.44830686 -0.13311304 -0.05426072 0.014841208 -0.4035601 -0.009008199 0.36559883 0.40519646 0.36527845 0.11436615 0.1465697 -0.11516694 -0.07646923 -0.072807275 -0.21907356 0.16957214 -0.22921132 0.18527466 0.046316326 0.20283896 -0.14094819 0.4112284 -0.09932441 -0.34463778 -0.39344582 -0.31847948 -0.2398913 -0.2709605 0.19257706 -0.22757086 -0.14961001 -0.02983336
178 0.2686833 -0.22962014 -0.1468053 0.5034668 0.13602103 0.19892944 0.8736692 0.3310204 -0.32160938 0.03413283 0.06536871 -0.18660086 0.55643433 -0.42957705 0.595536 0.45792395 0.116020605 -0.28215623 -0.10647535 -0.3145853 0.16547972 0.11015707 -0.08490521 -0.35914493 0.121040605 0.5659569 -0.51546973 -0.2445045 0.10775011 0.051848106 -0.06208892 0.12835044 -0.07427561 0.25039947 0.49483648 0.005412537 0.1307694 -0.24240611 0.24609607 0.23107441 0.28137788 0.13282438 0.18690033 -0.6253448 0.625545 -0.11694176 -0.100600146 -0.50092363 0.1497194 -0.14869383 -0.06647312 -0.14397556 0.21699286 0.06264874 -0.34145862 -0.18390872 -0.037643652 -0.6299154 0.032556593 0.27506846 -0.36827973 0.22253129 0.027052905 -0.024202775 -0.480003 -0.093923196 0.13911138 0.33693635 -0.17539233 -0.43785268 -0.13590512 -0.20525418 0.15021284 -0.23622663 -0.28438547 0.25503948 -0.033890482 -0.27730367 0.07755757 -0.031229401 0.27296296 -0.17238979 0.024750022 0.059676465 -0.1330544 0.48802298 0.41240466 0.3781123 0.387526 -0.06645236 -0.2146141 0.34268284 0.23979716 -0.29046738 -0.036078386 0.14535221 -0.48457623 -0.06590445 -0.08385894 0.07201075 -0.3334592 -0.14981341 0.22670457 0.4232765 0.33527398 0.21522583 0.15231287 -0.07990105 -0.04952836 -0.07932264 -0.19293347 0.2447179 -0.26870543 0.2621746 0.07817513 0.21807815 -0.117917635 0.40096447 -0.0771354 -0.3521858 -0.31938624 -0.34998834 -0.22240263 -0.24203189 0.19187339 -0.21092854 -0.19393955 -0.034822408
