2298 128
72 -0.0080124475 -0.3962076 -0.039180685 0.20927669 0.03756311 -0.26992762 0.25172 0.08362347 0.23614177 -0.26450917 -0.07624572 0.05044785 0.23283191 -0.40370113 0.2423715 -0.20842552 -0.44079795 -0.44881934 -0.33442327 0.31940073 0.047553916 -0.21653503 -0.19492662 0.015011217 -0.3155015 0.24899383 0.6972101 0.032411408 0.37399903 0.059999097 -0.0024744943 0.013610134 -0.46561182 -0.38668585 -0.15535718 0.066259034 -0.067555755 0.3977762 -0.127365 0.10074419 -0.22846882 0.17518076 0.17791522 -0.14790858 0.47459048 -0.19409521 0.03201041 -0.49576935 -0.5883851 0.8052279 0.24378549 0.034092262 -0.34703898 -0.07602921 0.012630183 0.15927544 0.13326688 0.061327945 -0.19265462 -0.16597602 -0.090751834 0.13931072 0.20332062 0.21789886 0.2064213 -0.08440381 -0.04592585 -0.42971623 0.20945096 -0.23011643 -0.51519364 -0.07363114 0.010886945 0.16038047 -0.059805546 -0.00980471 -0.075357676 0.13305026 -0.25747058 0.22747938 0.025585227 -0.14247976 0.31410852 0.1950047 0.11908975 -0.6896577 -0.19261408 0.4412713 0.21763235 -0.15230711 -0.34574607 0.018781638 0.38093424 0.40288186 -0.47594768 0.28260016 -0.21026576 0.24330199 0.2927999 -0.15489759 -0.34432372 -0.59807694 -0.4710349 -0.30111277 -0.3688038 0.08697312 -0.30338287 -0.17182648 0.038974173 0.24859548 0.26146814 0.20666558 -0.27451265 -0.0041916985 -0.23697148 -0.1610294 -0.20427975 0.43009138 0.42302653 0.4932899 -0.23736465 -0.018340066 -0.26122445 0.16063479 -0.09239782 -0.3009979 -0.06064683 -0.32478157
142 -0.05011224 -1.0265025 0.20788385 -0.13681498 -0.0017992463 -0.113363884 -0.15396008 0.33770114 -0.07292874 -0.15656187 0.0093151415 0.18340713 -0.035208505 -0.22690308 0.293648 0.4489437 0.06043136 0.027936392 0.22215107 0.02088729 0.04384945 -0.2062746 0.2347242 -0.56662565 -0.012091033 0.07987811 -0.12384568 0.6254349 0.018367246 -0.10919354 0.20974706 -0.34545314 0.20065485 -0.044474714 -0.50896925 0.32525602 0.1554903 -0.301709 -0.14980124 -0.121271394 -0.27246147 -0.08882128 0.080109835 0.08302991 -0.12601702 0.021621808 -0.016919648 -0.09673045 -0.46894354 -0.24271499 0.11731447 0.30451262 0.7780696 -0.23234084 -0.21663141 -0.36607966 0.607226 0.09048583 0.4129625 -0.09308496 -0.28091925 0.070827335 -0.1494343 0.17358391 -0.1803893 0.0050083324 0.043275222 0.23394212 -0.22995426 -0.41185737 0.36320147 -0.001967825 -0.25700507 -0.4240517 0.030242722 -0.031281486 -0.53136456 0.21820837 0.13022104 0.4767252 -0.28273398 -0.10786813 0.120671704 0.61566067 0.6063752 -0.3859309 -0.381818 0.45959872 -0.09026411 -0.16044468 -0.5534843 -0.13986665 0.19486713 0.42350855 0.43243456 0.08813754 -0.33073318 0.017935425 -0.07148372 -0.41009468 -0.4458151 -0.50949824 -0.3114825 0.012100256 0.029536359 0.1590024 -0.14728788 0.35434446 0.19431014 -0.15026458 -0.0882554 -0.29430404 0.04101017 0.2869128 -0.3864369 -0.20857811 0.100386776 0.14235553 0.014132172 0.07013913 -0.6799965 0.016265394 -0.82613003 0.19153142 -0.11904098 -0.27203906 -0.27618808 0.19557822
247 0.0486008 -0.41659674 -0.087124415 0.012594165 -0.06252836 -0.19677907 0.37171793 0.15565476 0.2719707 -0.36307323 -0.028531473 -0.008460775 0.2750076 -0.45157415 0.34027034 -0.18749997 -0.56381893 -0.46153843 -0.19852458 0.3912504 0.09497962 -0.22794057 -0.096796215 0.101896174 -0.21216962 0.33694422 0.79252565 -0.040662818 0.3858348 0.058661956 0.044960987 -0.04613266 -0.5154966 -0.3154675 -0.16245529 0.14259095 -0.048434023 0.49595776 -0.22557041 0.0015685856 -0.18594693 0.2592685 0.25756177 -0.14737716 0.67375696 -0.30804643 0.061591145 -0.7071219 -0.67944765 0.84180367 0.1924402 -0.05883843 -0.22940516 -0.118943185 -0.09415531 0.18437153 0.2349166 0.19473855 -0.1433352 -0.039778583 -0.20032588 0.100485995 0.0898829 0.33777866 0.32149392 -0.18532102 0.029730756 -0.5291575 0.40981436 -0.20912766 -0.52755463 -0.01498086 0.009037318 0.17846459 0.06781602 -0.09759334 -0.020106815 0.1498374 -0.38438165 0.12491883 0.149701 -0.29840603 0.17728111 0.2925272 -0.03736584 -0.59243673 -0.12713446 0.48004186 0.26249394 -0.13180746 -0.30761367 -0.28072035 0.54792964 0.3973835 -0.36842138 0.50933087 -0.20836407 0.25027278 0.36309803 -0.14803673 -0.45584166 -0.8076387 -0.6144496 -0.17150718 -0.5240048 0.124138735 -0.12222544 -0.18534595 2.4013221e-05 0.45552623 0.15304455 0.20424964 -0.28052777 -0.06015224 -0.18304697 -0.23095831 -0.26648358 0.510005 0.60996354 0.572265 -0.24731746 0.040953126 -0.18739952 0.3390026 -0.046458334 -0.30102524 -0.116991945 -0.3773024
1739 -0.009266887 -0.5855789 -0.090179 0.12346935 -0.037066326 -0.21471295 0.20969039 0.20358407 0.16856888 -0.32086772 -0.004437454 0.18574917 0.29797462 -0.40007317 0.23419747 -0.20731585 -0.56712365 -0.4837606 -0.2661274 0.2728257 0.01751204 -0.27508768 -0.23078442 0.12863366 -0.3934458 0.33159435 0.75313437 0.03783244 0.25049308 -0.0009897426 -0.0926605 0.16126531 -0.5917672 -0.43400103 -0.15575191 0.06564577 -0.034209397 0.42998326 -0.09243889 0.10226612 -0.29718435 0.25959098 0.23054996 -0.26111883 0.5602296 -0.3725245 0.13789684 -0.71557796 -0.8691906 0.8388537 0.15607527 -0.022963662 -0.31136248 0.123172045 -0.07963245 0.24190402 0.03793128 -0.10652791 -0.01075716 -0.124083444 -0.07574304 0.02167205 0.17670451 0.38461554 0.14735194 -0.121521726 0.027737722 -0.4844746 0.2505794 -0.13864219 -0.5768914 -0.164345 -0.019178296 0.22334336 0.12860596 0.08955258 -0.16582754 0.11967135 -0.4243411 0.06477395 -0.021822821 -0.08100377 0.31638652 0.112318285 0.014445194 -0.62652045 -0.26729712 0.3861674 0.21127039 -0.12112612 -0.43096817 -0.10040745 0.24989837 0.34326035 -0.33588618 0.5441041 -0.14004691 0.17513132 0.39439422 -0.29429218 -0.4732394 -0.6322627 -0.5204085 -0.14944324 -0.52654237 0.19308168 -0.341722 0.026775636 -0.06651077 0.25417012 0.33822334 0.14730258 -0.26063886 0.004198104 -0.20334363 -0.17502014 -0.18108962 0.4986553 0.5470909 0.5758703 -0.25790986 0.031955432 -0.29986513 0.11286819 0.13978036 -0.22819212 -0.12859178 -0.30239773
74 0.14170095 -0.20026581 -0.14727914 -0.43951827 0.1427739 -0.15600093 0.10934109 0.10866127 0.03837644 -0.017717402 0.10363918 0.074838765 -0.24955511 -0.03414932 0.5926062 -0.31890148 -0.40395796 -0.26105952 -0.26184985 0.27439392 -0.08842893 -0.041019276 -0.04177382 -0.056975868 -0.42008182 0.2677608 0.43330753 0.28815752 -0.17611504 0.21765403 0.19441691 -0.2334837 -0.60964733 -0.09915457 -0.16007623 0.021216862 -0.4353683 0.31964022 0.033982065 0.024564968 -0.07706988 0.26995012 0.0018452685 0.06799984 0.3434639 0.08753137 -0.23263356 0.10489508 -0.31498224 0.53707933 0.014736898 -0.01731629 -0.10864611 -0.12598619 0.11450345 -0.4434259 0.27146813 0.12711552 -0.39809224 -0.051321838 -0.41473538 -0.13506983 0.34695062 0.040535707 0.17901248 0.002388563 -0.0022611842 -0.5870538 0.16852964 0.16495562 -0.4351112 -0.19436347 -0.18778902 0.091976315 -0.3298851 0.365434 -0.3587613 0.18851623 0.08739025 0.040204473 -0.009432595 0.19085813 0.21393019 -0.06553247 0.47628006 -0.27753153 -0.04171753 -0.08686691 0.1649431 -0.5536419 -0.39831913 -0.23313995 0.24618915 0.07575365 -0.35885447 0.08163075 -0.18099388 0.09052184 0.38788757 -0.16112131 -0.45215967 -0.5179726 -0.09312299 -0.30253598 -0.38294324 0.2460134 -0.22763298 0.091453284 -0.06686327 -0.11749149 0.64391726 -0.24494314 0.19898032 -0.029940367 -0.021311674 -0.09297793 -0.34295768 0.14651582 0.07709115 0.4325848 -0.10902832 -0.23819475 -0.09410155 0.14111778 0.20353323 -0.3255619 -0.3912472 -0.071752384
30 -0.18332936 -0.23439287 -0.2152557 0.041246343 -0.07629005 0.028206646 0.11831485 0.16992494 0.06121338 -0.22738382 -0.05584604 0.11138377 0.13763025 -0.03664123 0.24850866 -0.0729514 -0.21649665 -0.2337293 -0.3040919 0.23278226 -0.21316966 0.19945408 -0.24535471 -0.022097258 -0.39262867 0.17046677 0.27367252 0.13621318 0.03375866 0.42461616 0.019570887 -0.17710221 -0.34140557 -0.053675346 0.047906872 -0.09645191 -0.5244866 0.530928 -0.052073717 -0.3056836 -0.38785958 0.21370655 0.25109357 -0.23470914 0.025548678 0.059937395 -0.23101795 0.27054787 -0.30945092 0.56231433 -0.16720259 0.14580515 -0.17847967 -0.17175621 0.14796741 -0.38947856 0.19616272 0.038212575 -0.11903049 -0.086077735 -0.36428502 -0.15295614 0.09380772 0.09875944 0.30615506 0.1064872 -0.004733215 -0.32729936 0.33365136 0.0734839 -0.3083496 0.028112762 -0.22196415 0.035627168 -0.22908261 0.37664753 -0.49233985 0.06616735 -0.016554879 0.08528645 -0.08061815 0.046017915 0.067755565 -0.15693066 0.38033503 -0.4160414 0.21454343 -0.09520197 0.011100717 -0.42114145 -0.5164411 -0.1513261 0.02119295 0.36672404 -0.56018066 0.15426597 -0.074127905 -0.2623996 0.48906872 -0.11772594 -0.40961716 -0.08949022 -0.19117096 -0.39865863 -0.39230525 0.087414056 -0.18988344 -0.01726464 0.13247254 0.050234452 0.4083264 -0.2560451 0.12287672 -0.573652 0.15403588 0.029285574 -0.13194907 -0.09199127 0.14248067 0.28035286 -0.043695025 -0.24019405 -0.22133312 0.036332674 0.10854195 -0.738698 -0.17430261 -0.16258308
1 0.20564033 -0.3235291 -0.22977588 -0.071922205 0.08098748 -0.13361283 -0.14531869 0.16433588 0.37221614 -0.122016855 -0.15829566 0.22191948 0.06298391 0.18696305 0.24526241 -0.22071418 -0.2679961 -0.21618709 -0.41949183 0.33113268 0.05622287 -0.02307727 -0.25947672 -0.22566983 -0.225289 0.25921404 0.23812531 0.08581678 -0.14239039 0.37135252 0.18982762 -0.060480274 -0.2443425 -0.16601935 0.17165181 -0.2822128 -0.45109925 0.35076976 0.14834066 -0.3153355 -0.077696286 0.3554882 0.0054244995 -0.08332479 0.27450833 -0.045795158 -0.263516 -0.17445908 -0.13934976 0.5132896 0.07195242 0.0327083 -0.18375859 -0.18453789 0.07255565 -0.015444975 0.4273427 0.16912627 0.061629497 -0.37265414 -0.43054622 -0.040602803 0.3742048 -0.12820809 0.0013728365 -0.090376526 0.045765314 -0.17567916 0.2795585 0.06556049 -0.18378626 -0.24677335 0.09999138 -0.13442251 -0.31203035 0.4432869 -0.24166498 -0.027081586 -0.14966707 0.31816077 -0.12702808 0.2937114 0.26474535 0.06516531 0.39427966 -0.31307095 0.25809866 0.1713603 0.41648185 -0.5113797 -0.33700004 -0.04251281 0.36475548 -0.079578355 -0.3905903 0.3319792 0.1710439 0.03673815 0.693044 0.020574296 -0.50720346 -0.16781977 -0.43750417 -0.24252617 -0.4774314 -0.051312193 -0.15399963 -0.06321315 0.31548092 -0.060469285 0.20451441 -0.37719896 0.070953086 -0.11772667 0.13729972 -0.09113951 -0.34598345 -0.12764436 -0.03939456 0.37825373 -0.19933882 -0.0926965 -0.21898347 0.324002 -0.060456835 -0.47149968 -0.22364414 -0.28364956
45 0.19985743 -0.14852922 -0.05339615 -0.20533574 0.003773346 -0.27538842 -0.2088122 0.22987598 0.28485417 -0.09628825 -0.052284822 0.061567266 0.064098455 0.03874245 0.19091968 -0.10309662 -0.19367805 0.09716236 -0.12137946 0.31233495 0.053131763 -0.17471394 -0.47893247 -0.22158101 -0.37950107 0.09517148 0.2956945 0.4091781 -0.06889843 0.22605506 -0.2822483 0.121127814 -0.22244103 -0.056345824 -0.007975742 -0.0735019 -0.40179294 0.3705438 -0.024765067 -0.12040979 0.04498835 0.3340763 0.32480857 -0.15468547 0.3725599 -0.03029106 -0.21296006 0.009199612 -0.20445779 0.60372865 -0.019102015 0.14665325 -0.16534615 0.13034584 -0.0032317294 0.012133226 0.44389045 0.05531397 0.26939476 -0.41865364 -0.2928291 -0.11698395 0.09365248 0.088135876 0.16703366 -0.116858736 0.15176633 -0.52760744 0.21610475 0.102175586 -0.5384474 -0.2672693 0.20960958 0.02423478 -0.31264395 0.15665321 -0.5263951 0.18768296 -0.06551011 0.048009563 -0.012391911 0.07336938 0.2083317 -0.019263763 0.47693014 -0.14493456 -0.12502465 0.2099504 0.060173035 -0.2071884 -0.4860506 -0.24753532 0.46123132 0.22876275 -0.474115 0.06724796 -0.06537453 -0.047427926 0.54909897 -0.051063746 -0.2707772 -0.3460976 -0.07539907 -0.36816037 -0.5545988 -0.01545888 -0.24962991 0.040555578 0.01596921 -0.00803851 0.20662947 -0.47194576 -0.035022188 0.13323463 0.17473245 -0.013409156 -0.5882739 0.40599597 0.030029826 0.3201316 -0.24627799 -0.18957755 -0.12683457 0.45619234 0.25776097 -0.52128565 -0.21347871 -0.02370036
21 0.14883697 -0.2881897 -0.17560549 -0.29988083 -0.09721781 -0.37158048 0.036123212 0.070554994 0.21038689 -0.016805205 -0.13652258 0.01896313 0.017704137 -0.044156183 0.27544057 -0.079278514 -0.41612843 -0.27420646 -0.25606725 0.10226245 0.107042424 -0.2683087 -0.21918902 -0.15716329 -0.15568545 0.3213459 0.44617426 0.25348708 0.118106216 0.31817538 0.099019945 -0.0948451 -0.1566767 0.030592753 -0.0035814047 -0.15171549 -0.3559312 0.26207873 0.06876356 -0.3292627 -0.2328708 0.06879519 0.28449026 -0.16589755 0.43494213 0.016323239 -0.19786276 0.015394308 -0.04703658 0.5077839 -0.12985124 0.32618195 -0.14320737 -0.4012243 -0.0077414163 -0.057341196 0.3805462 0.31763303 -0.07243107 -0.23915751 -0.07697879 0.048136834 0.13808976 -0.12350966 0.1527695 -0.11447655 0.07048025 -0.4877132 0.4020965 -0.0035065003 -0.63950586 -0.18518406 -0.03272992 -0.16099067 -0.32125157 0.20897473 -0.4907332 0.2952472 0.03883064 0.0495784 0.0012893118 0.26778963 0.12444638 0.022614107 0.14820977 -0.20990439 0.30565947 -0.055183098 0.41217536 -0.22275855 -0.4878293 0.06650391 0.09706356 0.20254391 -0.2936503 -0.036285453 0.04416001 -0.07572454 0.3596905 -0.11541271 -0.36090976 -0.29910195 -0.3022015 -0.33167487 -0.40615332 0.11785053 -0.17659837 0.2143488 0.21572699 0.14046675 0.45934618 -0.2762156 0.08626377 -0.027276644 0.3319771 -0.07784504 -0.26170892 -0.15269566 0.010569587 0.4218935 0.1336644 -0.28137532 -0.13011946 0.18825665 -0.13475448 -0.41004065 -0.10366669 0.24805525
9 0.20867638 -0.23798144 0.24968335 0.011745969 0.013483999 0.012469068 0.34352773 0.26702046 -0.012836548 0.2992825 -0.35427547 0.057623733 -0.100587375 0.016312415 -0.0652429 -0.1506069 -0.3536376 -0.15127009 -0.40663847 0.17939119 -0.021303942 -0.19210319 0.13372633 -0.06686876 -0.47450915 0.31811142 0.28437418 0.18584114 0.021377511 0.47166875 -0.108460456 0.052216705 -0.05928003 -0.06281047 0.09066775 0.014593288 -0.4142782 0.039625943 -0.050494082 -0.3011697 -0.23209518 0.23691307 0.31774545 -0.08825794 0.3465154 -0.09040329 -0.056158885 -0.23778054 -0.10403013 0.56487346 0.07750529 0.3108342 0.16519886 -0.06650926 0.080982044 -0.376069 0.1833257 0.22664922 -0.11694515 -0.041506782 -0.3532326 0.019802969 0.42526165 -0.06455809 0.13893811 -0.14168134 -0.010813033 -0.32760584 0.28174913 -0.008326009 -0.4001213 -0.051123854 0.0889743 0.33790258 -0.13796678 0.34973136 -0.29327607 0.36126065 0.10282404 0.07559057 0.14640966 0.0117854215 0.27478302 -0.075869 0.45732683 -0.55964386 0.3593839 0.029618615 0.12270898 -0.12196076 -0.48181194 -0.012759754 0.30847886 -0.077168554 -0.2727738 0.106712095 -0.089761004 -0.05577735 0.44575584 -0.25973773 -0.22792943 -0.3764516 -0.16998115 -0.54866755 -0.46207836 0.1738231 -0.20256549 -0.12798838 0.0040687993 -0.14447184 0.15905818 -0.277819 0.16232923 0.06464841 0.16949761 0.13367854 -0.073543794 0.079704225 -0.043354046 -0.02657878 -0.17276207 -0.26067665 -0.27033114 -0.048104614 -0.12914135 -0.7347077 0.13080415 -0.21157256
27 -0.05371783 -0.08233523 -0.2060922 -0.17514192 -0.11885937 -0.25187728 0.033178393 0.121026516 0.069395795 0.11962566 -0.18999031 -0.21470395 -0.14903331 0.0639429 0.45928144 -0.36765486 -0.20061505 -0.35100105 -0.33613694 0.25728884 0.11874722 -0.364649 -0.35361254 -0.020287432 -0.29935932 0.19771554 0.40866786 0.12610042 -0.117298156 0.29852444 -0.08339124 0.15127058 -0.34464112 0.073772825 0.10672885 -0.12657878 -0.41766536 0.29520798 0.17789456 -0.13214499 0.0070860814 0.2764485 0.08439371 -0.32991976 0.38954148 0.023678392 -0.28013816 -0.02044231 -0.16035457 0.4974402 -0.18577059 0.20290336 -0.11074578 -0.34186706 -0.04470784 -0.37597036 0.0891278 0.24172229 -0.1270169 -0.15296899 -0.11384242 -0.21430755 0.12406209 0.13572523 -0.097640395 -0.0805043 0.120149575 -0.5192051 0.24502647 0.007969581 -0.56450284 -0.097722925 0.14599068 0.070489526 -0.035682134 0.35977453 -0.30934334 0.31458843 -0.09639172 0.14735872 0.1568689 0.0070504732 -0.020723555 0.1560975 0.46915832 -0.33839172 0.30941483 0.018142313 0.09553269 -0.21428317 -0.33477384 -0.060940675 0.33138028 0.13538224 -0.3097614 0.18054579 -0.032238543 0.025522042 0.65795815 -0.16688372 -0.17134833 -0.35712436 -0.26814628 -0.33468863 -0.4171595 0.091507874 -0.064280815 -0.084821075 -0.0067024454 0.05939711 0.4482172 0.09135239 0.23303632 -0.11480237 -0.028105041 -0.15546809 -0.13452372 -0.089963436 0.0037470926 0.23519471 -0.22758329 -0.2476355 -0.19316867 0.22744174 0.12819286 -0.6901462 0.18754064 -0.009379098
62 -0.07220993 -0.11703733 -0.12083247 -0.119323745 0.01429582 -0.22416061 0.24682707 0.25892946 0.3286615 0.045269687 -0.129435 -0.15432091 -0.115193166 0.22332352 0.4248508 -0.15218213 -0.35306448 -0.23369358 0.012612753 0.51062024 -0.20854063 -0.408314 -0.06343239 -0.33334813 -0.5698801 0.049670137 0.5414382 0.09402029 -0.018138427 0.3094924 0.022734724 -0.12649052 -0.1426959 0.014676169 -0.017563662 -0.23165396 -0.4108463 0.33905035 0.18140104 -0.122724146 -0.23992391 0.30234855 0.16218589 -0.2417109 0.08548242 -0.20067632 -0.23758167 -0.1934581 -0.19494364 0.41602805 0.19725305 -0.08705366 0.16772841 -0.10883692 0.30131796 -0.374232 0.11718011 -0.040672153 -0.2378563 -0.16177803 -0.31903768 -0.1054011 0.153228 -0.21364015 0.08783245 0.00079203397 -0.11134251 -0.4258695 0.15541449 0.075648785 -0.5495431 0.0948565 -0.11614116 -0.0089157 0.01977706 0.41951388 -0.4492478 0.103082925 -0.07365295 0.345455 -0.102252916 0.32145804 0.2394306 0.10163544 0.26398268 -0.56754315 0.3200075 -0.16958526 0.45515049 -0.3893413 -0.57833725 0.011629462 0.4322073 0.29843336 -0.28588495 0.16556749 -0.18592939 -0.43631887 0.4348985 -0.06327081 -0.3802899 -0.49845883 -0.46173662 -0.3037908 -0.19720954 0.20706017 -0.016848065 -0.14160405 -0.15583083 0.26880375 0.31295305 -0.2767366 0.06860501 0.11992581 0.3866247 -0.31110498 -0.16683209 0.08209537 0.20594335 0.42123905 -0.25214285 -0.59492123 -0.37999642 0.31211588 0.015605495 -0.68485814 -0.042607944 -0.1303752
61 0.30013174 -0.23641886 -0.18992707 -0.16018689 0.03819279 -0.121877655 0.23367763 0.022582535 0.36946738 -0.28778818 -0.31270698 -0.11660083 -0.2093499 -0.010874353 0.35754573 -0.00416068 -0.29976463 -0.15678991 -0.26882753 0.10898179 -0.24996549 -0.15596941 0.014949791 -0.14596796 -0.4962127 0.37147298 0.7236725 0.17991225 0.106183566 0.38552362 -0.12540542 -0.10677152 -0.24939927 0.094871916 0.24002934 -0.16117582 -0.3142988 0.20811093 0.19268282 -0.3943998 -0.052869856 0.39946622 0.062001146 -0.24383172 0.51870596 0.31258163 -0.18600827 -0.18617153 -0.12867473 0.66913503 0.1453523 0.1714317 -0.10160886 -0.11624679 0.09765918 -0.41455868 0.19228566 -0.04287434 -0.07659871 -0.3198292 -0.45871043 -0.16463253 0.09918313 -0.0024136268 0.15616994 0.35715467 0.20822394 -0.36298344 0.41635078 0.06635414 -0.27810967 -0.22765265 -0.09522495 -0.19016246 0.05104355 0.31370026 -0.3097851 0.15418166 0.0061148517 -0.089242816 0.037145186 0.003070957 0.1561874 -0.2108292 0.2908594 -0.31161323 0.22339964 0.092639565 -0.057900473 -0.018582549 -0.49979582 -0.1318948 0.19802846 0.25359023 -0.58374006 0.032659076 -0.10148243 0.06348474 0.71718013 0.08273682 -0.16831058 -0.29368597 -0.3454346 -0.47638917 -0.23568636 0.113187335 0.03637 -0.040086277 -0.19454381 -0.0522175 0.17097187 -0.35814214 -0.05090849 0.12691906 -0.07835791 -0.1079679 -0.18103357 0.09179528 0.24598226 0.550169 -0.10449517 -0.15301402 -0.23213723 0.3264274 0.06921473 -0.4564129 -0.063283525 -0.29940647
8 -0.19957513 -0.006139864 -0.26856238 -0.13783573 0.038677618 -0.3481821 -0.06751275 0.1244111 -0.06116977 0.095924295 -0.1441384 0.013909755 -0.26120463 -0.17829955 0.2959945 -0.11434431 -0.1658557 -0.45983517 -0.28529316 -0.09067832 -0.079870336 -0.24734986 0.014621891 -0.13993895 -0.18341002 0.19603565 0.4683446 0.26179513 -0.30564457 0.29932913 0.037111044 -0.11633172 -0.49274713 -0.16986553 0.07383166 -0.06266928 -0.537238 0.49001858 -0.05788172 -0.47893068 -0.51634717 0.41690692 0.03350976 -0.19694647 0.46752596 0.019817233 -0.272918 -0.1721111 -0.1219353 0.4309181 0.009714677 0.05109256 -0.119609945 -0.21420962 -0.1783356 -0.1521227 0.22644585 0.12117544 0.12702107 -0.15363005 -0.2638288 0.25959203 0.19794774 -0.044503175 0.49776483 0.11290125 0.027533114 -0.11510176 0.16964746 0.106452644 -0.5539553 -0.117943555 -0.06546918 -0.062406704 -0.18301398 0.30889672 -0.44153044 0.039534546 0.08977986 0.22948834 -0.26121646 0.08360752 0.17894654 -0.12832037 0.36055064 -0.31935173 0.17215475 0.1309104 0.28139693 -0.21131489 -0.40577912 0.014460739 0.24184138 0.017502993 -0.4428232 0.14830703 -0.33998987 0.14970303 0.897803 -0.17257243 -0.217516 -0.09672216 -0.25886065 -0.31809568 -0.30023548 -0.12219467 -0.11793585 -0.002877104 -0.11468711 -0.32422364 0.21684976 -0.30558705 0.14561924 0.042172477 0.0885913 -0.22139749 -0.22705662 0.032615982 0.071868 0.001969437 -0.06735949 -0.21343325 -0.13209485 -0.0495043 0.20971641 -0.38600546 0.11274154 -0.49034566
50 -0.07251538 -0.17255431 -0.14370596 -0.26351243 0.017098736 -0.0165704 -0.0750006 0.21948327 0.46016577 -0.10625708 -0.023935812 0.07405982 -0.27864596 0.028072078 0.33517766 0.02503322 0.17927411 -0.2759805 -0.4349435 0.0008057989 -0.075099334 -0.24258962 0.104569525 -0.16584912 -0.3089025 0.35854524 0.4712446 0.45849872 0.1028205 0.1816748 -0.043250218 -0.19276056 -0.28848583 0.06580385 -0.099206805 -0.068185106 -0.24606472 0.3741818 -0.053898484 -0.1220047 -0.03057343 0.3906563 0.021554828 -0.12954316 0.3023402 0.37513196 -0.11356732 -0.11946492 -0.17142765 0.46787274 -0.22297728 0.058881298 -0.18199578 -0.21455303 0.074727714 -0.3155234 0.34296367 0.12811743 0.24173878 0.0863389 -0.40788597 0.0570134 0.21649903 0.008623287 -0.1277172 0.19750448 0.06663563 -0.29152864 0.4823895 0.010071622 -0.5313474 -0.07916068 -0.07058585 -0.12458721 -0.10537617 0.55993557 -0.30556694 0.27655298 0.011395 0.20518696 -0.15194115 -0.041554414 0.056916382 -0.1992031 -0.1066252 -0.34374705 0.13300903 -0.018047076 0.09101473 -0.17563578 -0.31129766 -0.13713515 -0.12733047 0.13977121 -0.2468119 0.22818696 -0.30504435 0.038645707 0.56723475 -0.02641242 -0.4440396 -0.563614 -0.31885076 -0.482074 -0.4626745 0.12369079 -0.09853292 -0.20733863 0.019866206 -0.24428862 0.27094427 -0.23254515 0.073395275 0.0050387867 -0.038198873 -0.0401486 -0.21127456 0.026259683 0.13654716 0.54474866 0.07212628 -0.35601115 -0.21464227 0.2910447 0.10885881 -0.46451527 0.027984867 -0.34133586
56 0.021572977 -0.124280035 -0.29008812 -0.24859989 -0.13275665 -0.07899261 0.16153717 0.082977936 0.41221082 -0.030760095 -0.03141596 -0.0049155685 0.049549684 -0.06862261 0.3364863 0.08388625 -0.11613186 -0.33818844 -0.08633877 0.4356588 -0.0492019 -0.07958082 0.044887267 -0.41123793 -0.028917208 -0.08224532 0.3610332 0.19992489 -0.0229567 0.52266306 -0.18766406 0.033268355 -0.24985206 -0.06833149 -0.17049485 -0.28197885 -0.38373336 0.5255756 0.09445374 -0.10729337 -0.12689286 0.30316952 0.0063377954 0.08157577 0.37504506 -0.20025611 -0.24371415 -0.12230993 0.020085188 0.52531767 0.08884775 0.56338644 0.021810248 -0.3014246 0.0717987 -0.3469099 0.246385 0.052861996 0.20113082 -0.2460009 -0.42068714 -0.02825249 0.57927907 0.0019692779 -0.061854478 0.114630155 0.19642013 -0.2597416 0.5037649 0.32100442 -0.45912683 -0.33646148 -0.112740755 0.14824155 -0.13417225 0.37861902 -0.7280216 0.013776362 0.005383637 -0.01753776 -0.12112472 -0.14403333 0.3418905 -0.2980052 0.23452401 -0.25359216 0.15984255 0.15595527 0.16305679 -0.21383592 -0.31061155 -0.15594214 0.057334766 -0.07240306 -0.31080168 0.26381773 -0.3053621 0.2943476 0.43972343 -0.016535401 -0.536955 -0.36171445 -0.30369523 -0.30043685 -0.49674746 0.046457857 -0.11250178 0.0006070547 -0.013999976 0.12826854 0.084426045 -0.43274826 -0.05287417 -0.015569866 0.11542776 -0.09966179 -0.39866552 -0.018831 0.019551028 0.33628035 0.009389222 -0.27367422 0.010213207 0.31451383 0.1035836 -0.7662866 0.3160786 -0.061375797
20 0.13644487 -0.2879418 -0.04317805 -0.17969821 -0.14683132 -0.20852646 0.0665717 0.17094901 0.328664 -0.2258695 -0.24675448 0.094870344 0.039134633 -0.25205123 0.4605685 -0.020709839 -0.26445127 -0.5211007 -0.23265597 0.2655784 0.023393627 -0.2585039 0.09199667 -0.109891504 0.048046604 0.04987403 0.59564817 0.18133177 0.14826465 0.13509424 -0.005920328 -0.07349513 -0.39397734 -0.46157843 -0.0055062175 -0.060343817 -0.37689757 0.18577284 0.15742284 0.09121013 0.032512415 0.40974236 0.010740245 -0.29320544 0.26414415 -0.20506817 -0.29698563 -0.16337185 0.03462479 0.40988672 -0.20364928 0.07847033 -0.3072262 -0.11171497 -0.12834774 -0.3834175 0.21461163 0.10662635 -0.31934488 -0.06941212 -0.40682232 0.25663024 0.35223567 0.11051192 -0.2303459 -0.14990802 0.10964009 -0.41674992 0.21542528 0.39483932 -0.49854594 -0.02978047 0.088899575 0.18624023 -0.17810595 0.4236992 -0.35881472 0.21082787 -0.08959998 0.23774984 -0.20423377 0.098348506 0.13584878 0.12544112 0.32370156 -0.23412779 0.19095814 -0.097926304 -0.0345207 -0.33845213 -0.47291622 -0.034391217 0.28308994 0.14920568 -0.53234184 0.2547226 -0.19270644 -0.24798769 0.42032546 -0.16385442 -0.25442412 -0.024603866 -0.23384094 -0.34531444 -0.4664736 0.08724696 -0.17503121 -0.134788 -0.010389417 0.079153016 0.1807408 -0.33914968 -0.025113514 0.09537489 0.27245307 -0.21509714 -0.18552901 -0.118768156 0.021555215 0.030767009 0.06541309 -0.5238013 -0.20874758 0.024830073 0.15701255 -0.5460519 0.00012524799 -0.14576465
2 0.120165855 -0.06548132 -0.1644312 -0.074298166 -0.1447828 -0.32333624 -0.11897339 -0.02496203 0.2834127 -0.019858778 0.050964706 0.019427953 -0.13772641 -0.17753378 0.16647369 -0.13544284 -0.16422531 -0.7110565 -0.51698816 0.1136921 0.094638735 -0.35470772 -0.34217036 -0.31322747 -0.29346704 0.1739646 0.39708808 0.12903224 -0.1671271 0.29716274 0.0031748936 -0.0037536994 -0.30914903 -0.19312567 0.088599525 -0.10814254 -0.54749453 0.1770803 -0.08183894 -0.34074634 0.011161258 0.342955 0.27619344 -0.18034294 0.42263865 -0.07273482 -0.19327155 -0.13207346 -0.17616904 0.4941222 0.19526705 -0.097591594 -0.1352846 -0.11076547 0.09364045 -0.32206014 -0.013114491 0.11515579 -0.06728319 -0.19359566 -0.22666514 -0.03285492 0.25443354 -0.094401866 0.0057063103 -0.0167947 0.2798811 -0.4996157 0.22111502 0.26720697 -0.43352032 -0.059600458 -0.04938083 0.17783813 -0.17742926 0.30333412 -0.289352 0.105107106 0.03868172 0.32263583 0.15563066 0.14708784 0.21478426 0.005167581 0.25773713 -0.46777877 -0.081363305 0.14384702 -0.14110962 -0.36854753 -0.18512481 0.06759438 0.07118428 0.25536716 -0.3839952 0.09343469 -0.08658072 0.077124596 0.7509059 -0.19367881 -0.5123353 -0.45712614 -0.31327412 -0.52411354 -0.24701723 0.21007548 -0.2352847 -0.2007086 0.010968305 0.05513838 0.24793114 -0.15438817 0.13638549 -0.13563302 0.13536564 0.06624897 -0.28177047 0.13536096 -0.10105879 0.03826022 -0.013920847 -0.10682475 -0.2594425 0.24122928 0.31538457 -0.66178703 0.22493646 -0.18190944
31 -0.14727774 -0.29958117 -0.06309314 0.010900151 0.025111213 -0.041235864 0.099551745 -0.0049380325 0.3681301 -0.070758425 -0.13113575 0.045486346 -0.04964338 0.12375995 0.23968142 -0.30204403 -0.31397146 -0.30303252 -0.2650333 0.09090735 -0.13939849 -0.2023597 -0.21696323 -0.31975353 -0.19079193 0.096402094 0.12461547 -0.04021986 -0.15075645 0.3334535 -0.21094629 -0.23631892 -0.3857332 -0.33624086 -0.07091016 -0.21867418 -0.17697445 0.28804266 0.12160765 -0.26975226 -0.072102726 0.23216018 0.25870878 -0.12675795 0.33832678 -0.20130567 0.07860107 0.10779919 -0.021513345 0.38837147 -0.13912262 0.18352328 -0.15195994 0.12441259 0.27093548 -0.20559713 0.2396737 0.22548811 0.020105721 0.06095743 -0.45586926 -0.14111604 0.05101171 0.18635377 0.02963937 -0.15352564 0.19267112 -0.3689051 0.3778531 0.17163517 -0.45903096 -0.23448761 -0.11844878 -0.18616875 -0.12213546 0.49167636 -0.4236336 -0.17027575 0.07419805 0.18204027 -0.08401391 0.3267591 0.17491984 -0.10938044 0.44070834 -0.15137555 0.011479512 -0.11188503 0.006992709 -0.49206743 -0.5677594 -0.27037054 0.18215513 0.13982895 -0.46596208 0.31213441 -0.08513784 -0.03724446 0.51732934 -0.015145104 -0.57208467 -0.29259002 -0.13249005 -0.27923328 -0.30746758 0.06245122 -0.28538573 -0.1848174 -0.15962633 0.120886914 0.21101874 -0.08198583 0.14725275 -0.056237347 0.029662333 -0.017937642 -0.16821675 -0.23439983 -0.120224856 0.17536603 0.14396101 -0.26852316 -0.35137472 0.16292493 0.085193045 -0.5676358 0.009587051 -0.097693905
75 -0.016326873 -0.152266 -0.009348467 -0.13874328 -0.10525878 -0.234685 -0.033687588 0.2386925 0.19155979 -0.38682988 -0.15071511 -0.21176398 -0.19895314 0.039941035 0.44603863 -0.06359533 -0.004475273 -0.40563828 -0.27187324 0.124432325 0.050015904 -0.037666578 -0.20236278 -0.3364529 -0.25281933 0.2031863 0.6519158 -0.081012726 0.22945054 0.33029836 -0.0015716385 -0.0072850026 -0.3023886 -0.005260676 0.12602603 -0.19720376 -0.6121361 0.19167522 0.109928705 -0.27220955 0.036934942 0.44404304 0.14221172 -0.18631369 0.28312445 0.07078827 -0.28226125 0.20500422 -0.1602657 0.5898789 0.11772651 0.0796518 -0.10557094 -0.22354189 0.22344974 -0.10121874 0.16130659 0.11365833 -0.09931382 -0.19311401 -0.25870568 0.010060385 0.35328525 0.16533595 -0.08976695 0.15145785 0.085066296 -0.4507411 0.377975 -0.016735015 -0.402485 -0.20713674 0.11251854 0.03493447 -0.093165606 0.32486063 -0.20029972 0.15862396 0.07201341 0.15980312 -0.25994074 -0.035207734 0.18823539 -0.041023403 0.27096206 -0.18260527 0.006159432 0.19537538 0.093023494 -0.3602988 -0.38061464 -0.09259164 0.3068965 0.19848093 -0.29934427 0.24923645 -0.13857219 -0.02752763 0.56438947 -0.017261874 -0.19080405 -0.3546216 -0.54053193 -0.3245456 -0.17894332 0.3550455 0.02762245 -0.057481963 0.064131245 -0.0026401768 0.42558938 -0.43582928 0.2668339 -0.13247475 -0.093782626 0.04024381 -0.0962342 -0.21396779 0.12405109 0.4114142 0.09521681 -0.21242826 -0.24254566 0.21459442 -0.16229163 -0.48998758 -0.22109997 -0.10467637
28 0.16934824 -0.31041807 -0.12453869 -0.18991908 -0.25825447 -0.074431434 0.10932934 0.015112005 0.22270185 0.017627135 -0.19577117 -0.030098582 -0.3031147 -0.04596335 0.49920583 -0.007696327 -0.31041032 -0.44958955 -0.19606109 0.22713417 -0.04467894 -0.39056718 -0.08692688 -0.48692808 -0.14441508 0.070813686 0.5738566 0.103492334 0.12207862 0.35876188 -0.34177366 -0.11764319 -0.09452849 -0.05841685 0.029430509 -0.26976347 -0.48894787 0.40026706 0.10422011 -0.3302214 -0.3871734 0.5530296 0.09217109 -0.12082568 0.44850993 0.04147172 -0.003433898 0.015697643 -0.01662424 0.55342185 -0.28858826 -0.02854931 -0.23181836 -0.100891136 0.006923713 -0.40839705 0.24715498 0.32602504 0.029480457 -0.17740569 -0.2633065 0.23692453 0.18128546 0.20325775 0.22757433 -0.11474255 -0.007505823 -0.5268914 0.29684806 0.14148952 -0.4535686 -0.23161307 0.021893417 -0.024481386 -0.20468456 0.3688547 -0.207008 0.04612662 -0.059091583 0.38159055 -0.009616977 -0.030442 0.2878514 0.22369893 0.4158827 -0.20340323 0.18921448 0.20078993 0.1261462 -0.094811946 -0.45757422 -0.047427177 0.24856211 0.009320483 -0.50556993 -0.010717519 -0.20594996 0.27115315 0.4934347 0.039129123 -0.29075092 -0.2231528 -0.2946571 -0.22227353 -0.39339 0.2831401 -0.2214714 -0.10911038 0.12756911 -0.0019937232 0.26277435 -0.21684122 0.14818095 -0.03126517 0.209042 0.08673337 -0.18687746 -0.13320781 -0.14860943 0.2894582 -0.13869843 -0.18809813 -0.36280942 0.21028504 0.14097583 -0.6317092 -0.06509023 0.012444619
57 0.1873174 -0.21658778 0.07659182 -0.2635752 0.06406926 -0.20724764 -0.14670628 0.10204056 0.14857723 -0.05950313 0.058812313 -0.1675451 0.2039437 -8.3349645e-05 0.37134886 0.020186078 -0.1793437 -0.09279717 -0.36802328 0.32882002 -0.3559268 -0.0058762096 -0.21321926 -0.010694487 0.003281273 0.41012025 0.14170916 0.1669484 0.025244359 0.4172369 0.26036763 -0.27607936 -0.2647343 -0.18306495 -0.095575124 -0.018830147 -0.5295058 0.18446133 0.1962628 -0.19067746 0.008384213 0.33949095 0.2887826 -0.34453362 0.35279414 0.076478176 -0.061366342 -0.16287622 -0.21325815 0.593236 -0.044817846 0.05066 -0.18891427 -0.19460456 0.018223796 -0.40540594 0.29529193 0.19633517 -0.09566338 -0.23172739 -0.11526725 0.017991193 0.29272795 -0.03054741 0.007408455 -0.16610654 0.11950882 -0.31057426 0.662155 -0.067192666 -0.35783258 -0.21295747 -0.052604135 0.05382746 -0.13858813 0.3406974 -0.5245414 -0.032149196 0.13219799 -0.2654018 0.028920908 0.13799521 0.1749813 -0.03631269 0.31198907 -0.1451084 0.078961566 0.0673349 0.12779482 -0.2209638 -0.3334384 -0.08010906 0.36220458 0.18702845 -0.28006753 0.16512333 -0.20375387 -0.09936731 0.42704654 -0.1012516 -0.37702525 -0.27285138 -0.23611054 -0.2054175 -0.30593434 -0.020711884 -0.040940933 -0.27315557 0.17879687 -0.05969242 0.24763447 -0.38180852 0.10546348 -0.19766754 0.05997065 0.13355038 -0.2002537 -0.13587996 0.039130062 0.34366414 0.109718874 -0.21001683 -0.14644939 0.28851333 -0.23478225 -0.6537224 0.13469407 -0.25476938
51 -0.049588703 -0.21366408 -0.17785662 0.33361268 0.24343973 -0.5831849 -0.16724148 0.427189 0.22786799 -0.15698077 0.15564549 -0.08149764 0.012006885 0.16771515 0.40437934 -0.28618246 -0.20005223 -0.20487207 -0.123859316 0.18550149 -0.22513986 -0.3599669 -0.22617662 0.05696926 -0.12395554 0.2320179 0.44603598 0.30225265 -0.12633973 0.5061705 0.16125584 -0.16497777 -0.28100663 -0.11425574 0.10784321 0.039064568 -0.3856284 0.4877399 0.02656924 -0.31494448 -0.19437127 0.39034685 0.19078997 -0.1282376 0.032750897 -0.33051425 -0.08407523 -0.08147924 -0.059844464 0.3069398 -0.1935366 0.120191574 0.038451836 -0.27779102 0.08831742 -0.08504407 0.38886422 0.11514346 0.14171274 -0.2588523 -0.14281583 -0.1251492 0.3339142 0.035828784 0.10483012 -0.061424557 -0.101247184 -0.3917588 0.41892165 0.30770206 -0.59295875 -0.09671914 -0.08062654 0.040100742 -0.03586354 0.48016453 -0.23069292 0.0666848 -0.0890695 0.21908417 -0.1692234 0.11108951 0.22924945 -0.07189308 0.6054983 -0.17071673 -0.12752284 -0.018109664 0.049964663 -0.14214544 -0.50201803 0.0059034936 0.27038673 -0.0072262846 -0.08262573 0.25193778 -0.11508289 0.005482249 0.5770426 0.14995122 -0.23638682 -0.1897518 -0.2489553 -0.38516748 -0.32794946 0.37952116 -0.09439992 -0.13305242 0.105351724 -0.017369092 0.5422776 0.015734524 -0.006238628 -0.046900075 0.580948 -0.087644055 -0.45987117 0.09302279 0.034609936 0.123994425 -0.04386642 -0.33304873 -0.32335705 0.42810178 0.15166721 -0.5692758 -0.21344075 -0.11230971
44 -0.07896641 -0.054653257 0.29972905 -0.024887266 0.03848963 -0.2662434 0.2299037 0.143773 -0.07808506 0.12860376 0.0080229305 0.082000285 -0.17058462 -0.16560781 0.16640037 0.08474011 -0.020248767 -0.35278064 -0.28269768 0.17485267 0.060019523 -0.29550523 -0.1306351 0.15513298 -0.28630704 -0.077695616 0.2887509 0.01819944 0.049568728 0.35755962 -0.32955527 -0.10154714 -0.2537973 -0.054351285 -0.07965277 -0.19791625 -0.6144485 0.28082106 -0.1578202 -0.30110025 -0.10553157 0.3246687 0.116028935 -0.39630413 0.107767925 -0.010064974 -0.29454726 0.017634429 -0.107290536 0.25831223 -0.01338242 0.182544 -0.017420022 -0.23675305 0.17501345 -0.27216613 0.23806694 0.2094474 -0.106833056 -0.45628986 -0.24539006 -0.1856355 0.18190034 0.28805694 0.05531803 -0.07264185 0.13921493 -0.25952703 0.2893867 0.3040359 -0.43566495 -0.22758579 -0.09884569 0.3039155 -0.16355458 0.53898597 -0.3502353 -0.080985755 -0.06609941 0.13013658 0.10440004 -0.14698604 0.15999576 0.18624435 0.57865644 -0.16388948 0.14812796 0.14886984 0.059586674 -0.119493775 -0.3764456 -0.09584091 0.08138187 0.061299004 -0.50462645 0.07263789 0.016227864 0.24395034 0.48604953 0.17833078 -0.17291433 -0.16537023 -0.37680268 -0.24602266 -0.4096218 0.1797259 -0.21557033 -0.20901453 -0.13293074 0.12445083 0.4815294 -0.45558655 0.062742576 -0.07128008 0.0869329 -0.08624895 -0.1206885 -0.034816533 0.07421012 0.26927727 0.31020176 -0.46735454 -0.40351164 0.11879402 -0.1603816 -0.2938832 -0.09323299 -0.2107268
93 0.19331902 -0.8414832 0.33339372 -0.37808305 0.65512955 0.041756637 -0.29330558 0.18628472 -0.11098779 0.08315453 0.18703157 0.2556169 -0.103286296 -0.25861254 0.35939863 0.65469784 0.11907497 -0.33492655 0.38010627 0.3002712 -0.03634429 0.040739104 -0.15108706 -0.5185037 0.010447733 -0.44681883 -0.38395652 0.4923485 -0.25460646 0.005207708 0.21368201 -0.44218263 0.07551552 -0.4900009 -0.16539069 -0.028541554 0.0038524568 0.5644623 -0.09027362 0.090759486 -0.21299401 0.16085082 -0.12231754 -0.42499128 -0.1356673 -0.09917802 -0.06766126 -0.025988713 -0.18328951 -0.47052604 -0.19923307 0.040727057 0.6916871 -0.43673655 0.19631442 -0.53429484 0.496673 0.00043953396 0.22478618 -0.13001947 -0.14530693 0.2916109 -0.47289637 0.230283 0.0956508 0.027991762 0.084698856 0.62338215 -0.2643367 -0.41856542 -0.079097144 0.17331576 0.1024957 -0.03766641 -0.13201657 -0.26091436 -0.44389826 0.078228384 0.0878596 0.1637663 -0.04770407 -0.018612832 0.07639517 0.5954131 0.5873363 -0.33612227 0.10611001 0.19431064 0.095329165 -0.345949 -0.45820886 -0.36170068 0.11519957 0.3401559 -0.22571029 -0.02699998 -0.23719682 0.03891755 -0.5097828 -0.24836329 -0.11770563 -0.59730804 -0.22620426 -0.206378 -0.082579136 0.13024455 0.25770086 0.43359095 -0.09430916 0.010092579 0.09819062 0.34030485 0.2015733 0.26397958 -0.5378683 -0.6948682 -0.048820205 0.121676356 0.13770641 0.1926569 -0.4924817 -0.2892897 -0.5208894 -0.19191381 -0.032801144 -0.2628628 -0.120469645 -0.13059628
33 0.32995713 -0.701424 0.12773614 -0.030784361 0.12434041 -0.04223471 -0.31740707 0.41284734 -0.14555389 0.0677437 0.009667767 -0.24817698 0.08402781 -0.24920487 0.22207479 0.71504116 -0.16519964 -0.18359219 0.5037307 0.3553667 -0.13391447 -0.009262845 -0.068766065 -0.34623477 0.16568772 -0.36756095 -0.068181805 0.3713573 -0.36792943 0.18757975 0.40364945 -0.255594 -0.04449753 -0.27658927 -0.0074164243 -0.19288316 -0.08692017 0.13916135 -0.16028753 -0.052429378 -0.21472603 -0.09030225 0.01257503 0.102035515 0.12490727 -0.05767422 -0.07361383 0.085213624 -0.19079816 -0.33735257 0.097182244 0.32448274 0.6720855 -0.36299655 0.45684236 -0.20737657 0.52277577 -0.16704285 0.15076791 -0.11615451 -0.25471365 0.011518765 -0.3448661 0.53971004 0.14224288 -0.23877853 -0.18352777 0.4040258 -0.1671517 -0.4089048 0.31428394 -0.09906025 -0.54068583 0.033693746 -0.1351629 -0.13250381 -0.81452024 -0.077590585 -0.041134804 0.06729592 0.059759915 0.104655504 0.30641592 0.61843395 0.27701986 -0.32784063 -0.316696 0.372231 0.06121961 -0.51462525 -0.5196424 -0.25363868 0.15176186 0.48482156 -0.05035697 0.23472178 0.005263392 -0.18688387 -0.2715876 -0.27467853 -0.37910447 -0.4073624 -0.26715317 -0.4200427 -0.32883278 0.17281406 0.34019634 0.5970739 0.040467646 -0.08845103 -0.18793195 0.1321027 0.04387324 0.56937355 -0.3525645 -0.4132228 -0.17451091 -0.19171456 -0.040216833 0.2046635 -0.32449475 -0.35564166 -0.65210557 -0.16431722 0.009354683 -0.1670075 -0.11576312 -0.018472161
47 0.017830245 -0.9257503 0.21239981 0.1290603 0.2501667 -0.23933682 -0.17192829 0.26932567 -0.34456515 -0.24122149 0.34784362 -0.08596735 -0.14777197 -0.26623493 0.12834753 0.7506963 -0.020891726 -0.09990185 0.20120248 0.136058 -0.053803556 0.103934005 0.0031802729 -0.34746864 -0.27071792 -0.10455461 -0.17480144 0.63610876 -0.22050169 0.51374906 0.16795145 -0.20984587 0.0466122 -0.21383196 -0.23930755 -0.16095966 0.012026489 0.37162477 -0.30425903 -0.006130118 -0.127759 -0.22507325 0.2009322 -0.25557894 -0.15300629 0.22493896 -0.2886255 0.232077 -0.29009274 -0.25765723 -0.22782823 0.20720008 0.45625278 -0.65444285 0.16729608 -0.52663016 0.21687034 -0.032991704 0.18946958 -0.12272691 0.086401254 -0.03320635 -0.3373453 0.17425638 0.025483318 0.27551487 -0.18570521 0.5121635 -0.33729017 -0.27688956 -0.065488696 -0.3019405 -0.13944626 0.3243226 -0.09379933 0.14038129 -0.7759058 -0.10771249 0.3765645 0.49770838 0.044696793 -0.034577556 0.39243662 0.66269815 0.6375334 -0.6033766 0.072808824 0.4331246 0.07479825 -0.5148752 -0.47000077 -0.34401608 0.016224153 0.5535032 -0.13089898 0.10768525 -0.08301469 -0.11444636 -0.3786563 -0.33801514 -0.20961073 -0.22848463 -0.0009173453 -0.5210649 0.007996827 0.27731746 0.20344684 0.28593537 -0.18101048 -0.08876213 0.18316053 -0.079818435 0.09890461 0.14742537 -0.22300126 -0.46055955 -0.20365441 5.025789e-05 0.33706218 0.21454264 -0.14211941 -0.041776434 -0.5486703 -0.3871525 0.16231373 -0.017231159 -0.10431663 0.038804837
217 0.056165922 -0.9491985 -0.15620843 -0.025817413 0.050848298 -0.15270221 -0.14057389 0.36684203 0.10793996 -0.27488738 0.1729825 0.0064531714 -0.31565952 -0.4195066 0.17170644 0.91061115 0.03846051 -0.4322367 0.20521884 -0.0029376764 -0.137933 0.07892381 -0.10504964 -0.37065127 0.012891039 -0.54898965 -0.45441613 0.3574 -0.30680218 0.38562685 0.29829317 -0.42730644 0.09972566 -0.050154787 -0.26195565 -0.23713899 -0.010234788 0.45785573 -0.22614846 0.106240384 -0.20843318 -0.04678256 -0.09527001 -0.207187 0.107932344 0.023739498 0.07013845 0.207501 -0.20157503 -0.17613767 0.014514208 0.14088224 0.42171827 -0.38136294 0.2831507 -0.2706771 0.54471475 0.22747676 0.35837942 -0.15447305 -0.09871848 0.4262278 -0.4546961 0.489936 -0.12503028 0.016785147 0.0669809 0.03898622 0.16559246 -0.5113461 -0.06414765 0.2403939 -0.17067187 0.034819644 -0.21018295 0.028495938 -0.73084223 -0.1511575 -0.055977143 0.28653598 0.006981563 -0.02193051 0.23951446 0.5030568 0.41586918 -0.04623429 0.13429365 0.2578633 0.19986762 -0.53771377 -0.6825888 -0.24195676 -0.2158817 0.54752666 -0.22524723 -0.18905905 0.267462 -0.104264826 -0.3129356 -0.2512073 0.0092663355 -0.47612283 -0.15711847 -0.2925647 -0.14489253 0.08430317 -0.063976206 0.33236378 0.022756666 0.100726664 -0.035327457 -0.25640878 0.10056753 0.33089235 -0.45809054 -0.51368433 -0.12268159 0.017094381 0.046885163 0.10367778 -0.3147261 -0.1260221 -0.7106866 0.0627543 0.4833152 -0.2325157 -0.20812422 -0.026314713
95 0.19744335 -1.1250291 0.085578606 -0.2250853 0.09694219 0.0710744 -0.29091087 0.044569675 -0.5847877 0.09842089 0.087225266 0.13725248 -0.24810272 -0.28865713 0.021769762 0.52692074 -0.006328579 0.053638518 0.44211653 0.024710312 -0.06653434 -0.07980537 -0.17340495 -0.55705196 0.056675315 -0.3300973 -0.33076027 0.26911247 -0.0103324335 0.383996 0.11861162 -0.45705205 0.0047758445 -0.12439551 -0.38077384 -0.24244225 0.014030188 0.36159533 -0.38829148 0.059974328 -0.5333442 -0.11229712 -0.1995713 -0.061288074 0.14742702 -0.02952028 -0.16332035 -0.0016444847 -0.1744945 -0.24446994 0.2519355 0.21273886 0.5094002 -0.5950453 0.059523206 -0.19734636 0.28565136 0.1659348 0.30744833 -0.2143143 -0.0063734427 0.47457206 -0.0031556543 0.16549483 0.084955305 0.1718863 0.13229117 0.52789855 -0.3804457 -0.49197775 0.028519455 -0.100833945 0.010973126 0.18063635 -0.17373447 -0.28167257 -0.9306863 0.100000456 0.35094687 0.11396654 0.22101048 -0.023861922 0.32630312 0.5652174 0.54145366 -0.16090532 0.026836492 0.3633523 0.12904608 -0.7006359 -0.6949781 -0.41690755 0.07032495 0.59554964 -0.22083843 -0.10588643 -0.23386708 -0.38942114 -0.14979823 -0.16642813 -0.25372183 -0.038544677 0.091668114 -0.5611205 -0.10172864 0.18661773 0.14279652 0.53635436 0.07402784 0.020114388 -0.0031524003 -0.15101184 0.10886285 0.38750625 -0.4016546 -0.63646746 -0.21218848 0.1950811 0.12869596 0.4245121 -0.51010996 -0.3013016 -0.4767617 -0.25230163 0.08368102 -0.23499471 0.043556727 -0.12289485
94 0.17366906 -0.8488756 0.28684705 -0.15437454 0.4426126 -0.095531896 -0.345924 0.50838846 -0.017951423 -0.31208158 0.27101386 -0.2736237 -0.1408478 0.09812799 0.11570187 0.58184314 -0.092203334 -0.27048743 0.19635695 0.063416705 -0.06530609 -0.12702298 -0.4661307 -0.557629 -0.15198548 -0.25984243 -0.13341404 0.44044927 -0.16669467 0.45723122 0.09351814 -0.48998922 0.17954373 -0.56107527 -0.0672199 -0.34939986 0.29239684 0.00344038 -0.540063 0.076156124 -0.33568403 -0.051824287 0.21889558 -0.45524567 0.024438847 0.23851326 -0.102858946 0.15480638 -0.25258642 -0.50435853 -0.050745357 0.037240073 0.55289865 -0.6575394 0.20081429 -0.36544123 0.44826806 -0.09316184 0.102100655 -0.2578483 -0.095997445 0.028510064 -0.22815317 0.19374007 -0.2463097 -0.14224733 -0.005257584 0.28985614 -0.25336468 -0.24106377 0.016420329 0.21865314 0.02300825 -0.11280726 0.037600346 -0.33031857 -0.61813194 0.19897464 0.25907412 0.37889183 0.096219786 -0.10529239 0.48302546 0.48843604 0.34049785 -0.2805061 -0.12690891 0.44003588 -0.10390938 -0.2924309 -0.6601018 -0.21903858 0.14477149 0.47340477 -0.17104518 0.14796636 0.02235414 -0.10806467 -0.36330697 0.058118057 -0.27421308 -0.59846723 -0.21638003 -0.44141975 -0.02861608 0.40880007 0.03588681 0.28853518 -0.12196091 0.25876534 0.08688914 0.011852758 0.16362871 0.49219656 -0.21105911 -0.6195005 -0.1840455 -0.0858432 0.11165894 0.32904062 -0.48183477 -0.289295 -0.53306115 -0.10386058 -0.00041411072 -0.44543114 -0.09427996 -0.004464254
82 0.10381014 -0.8251345 0.26417544 -0.14140262 0.37256217 -0.18088931 -0.07317021 0.38647008 -0.21615142 -0.34692556 -0.00057847984 -0.19980735 -0.11767943 -0.59495753 0.51587474 0.6258811 -0.10831453 -0.396854 0.37457407 0.042472344 -0.15150133 0.16979426 -0.11157767 -0.54211533 0.25291634 -0.1692542 -0.046496417 0.49635443 0.15203239 0.46051505 0.35335535 -0.5929378 0.12964086 -0.2536226 -0.041471995 -0.08701375 0.06724795 0.24057359 -0.40165484 0.056162104 -0.32836175 -0.04454027 0.009444386 -0.06704208 -0.22956333 -0.21398932 -0.0881242 0.14600947 0.08092345 -0.27443874 0.058255807 0.5499844 0.5098414 -0.466052 0.35236967 -0.36440885 0.4962981 -0.14855929 -0.23774298 -0.16656597 0.040927306 0.27390605 -0.28222686 0.16197497 -0.016079668 0.15152663 0.07656197 0.37248212 0.10196169 -0.5190442 -0.24848855 -0.12037261 0.035602532 0.43924248 -0.050090566 -0.020301696 -0.4032435 0.05073689 0.14987296 0.2859123 -0.13205583 0.111087754 0.4445485 0.81194764 0.58545727 -0.23191684 0.22981891 0.20389403 0.2642975 -0.5239754 -0.5951711 0.024104275 0.24144188 0.45744634 -0.30145723 0.35698146 -0.16944551 -0.43951494 -0.1956452 -0.20488816 0.053022318 -0.34017152 -0.34079155 -0.1898611 0.23837906 0.49848267 0.20037407 0.3557745 0.17469922 0.2829544 0.15555024 0.30939564 0.29281873 0.48681438 0.033203818 -0.61583555 0.00020164996 -0.36926037 0.09117505 0.16875573 -0.59746706 -0.2804039 -0.5665016 -0.1450458 -0.016794097 -0.44153568 0.14207889 0.32076117
49 0.14629623 -1.1209385 0.39800173 -0.19303575 0.51253855 -0.50315326 -0.22516689 0.57011855 0.09955996 0.05502908 -0.025290465 -0.02978459 0.05628951 -0.10798924 0.11168164 0.5929519 -0.11050631 -0.32803452 0.36983603 0.105165616 -0.03753688 0.2931285 0.1582702 -0.23472002 0.06740916 -0.37874934 -0.36186284 0.46621606 -0.22813551 0.45917338 0.42284006 -0.56506634 -0.19954345 -0.31237352 -0.16920045 -0.11532792 -0.06515059 0.35715723 -0.60837394 0.5659441 -0.2948559 0.13488205 0.033213466 -0.035759 -0.26943454 0.021549292 -0.4310314 -0.19001348 -0.18595967 -0.58328485 -0.111177325 0.24918577 0.7123374 -0.5011111 0.05404008 -0.5055939 0.58334 -0.068841614 0.034746036 -0.20738892 -0.43789145 0.3205899 -0.2528117 0.33013564 -0.0036074594 0.3422172 -0.13227628 0.19046748 -0.19878866 -0.29877004 0.1526182 -0.18544394 -0.13405478 0.043270662 0.09423251 0.05336274 -0.86307514 0.113771334 0.044286907 0.012491588 0.03356133 0.25220487 0.27220264 0.53293514 0.6390362 -0.28543565 -0.035452172 0.425939 -0.13126741 -0.43042094 -0.39724815 -0.09596063 -0.13362297 0.46636707 0.026645638 -0.22615983 0.09997636 -0.09452853 -0.19665918 -0.18868563 -0.2136007 -0.28802258 -0.36041802 -0.18409197 0.08747248 0.18735947 -0.11170204 0.3952319 -0.20662059 0.22562814 -0.034434363 -0.08918987 0.074330024 0.3652048 -0.12165664 -0.50134915 0.10303362 0.065936 0.19507015 0.10969931 -0.32811338 -0.38120174 -0.4655919 -0.24397832 -0.22880921 -0.17555305 -0.42306423 -0.22312725
148 0.21166556 -0.6021428 0.31839746 -0.28526735 0.3277179 -0.36631525 -0.18903013 0.3983904 -0.1343075 0.17502981 0.21556893 -0.32096145 -0.015829086 -0.24108244 0.012537383 0.7569207 0.07577565 -0.24426752 0.3773654 0.43360806 0.01930834 0.07940048 -0.21839534 -0.4203332 -0.023298398 -0.28522366 -0.2210849 0.5362539 -0.06438676 0.5048386 0.24112466 -0.370469 0.104408994 -0.28610662 -0.25179142 -0.5003935 -0.059318602 0.4189179 -0.4708826 0.071881175 -0.17672934 -0.038155347 0.017243773 -0.3156938 -0.007010538 -0.3847674 -0.1467267 0.19564575 -0.09031297 -0.31287134 0.047411326 0.4525438 0.54433405 -0.5554929 0.11784754 -0.49804282 0.53651965 -0.1434001 0.4956376 -0.30813107 0.05479736 0.38446492 -0.213686 0.20703648 0.022409825 -0.030142218 -0.109502465 0.5841469 0.084433265 -0.275538 -0.07895334 -0.19339707 -0.14104383 0.083701715 -0.027795551 -0.30457723 -0.8786882 0.12421671 0.21874064 0.02336462 -0.113757014 -0.34747803 0.37472367 0.58168375 0.41697747 -0.44926968 0.26661345 0.60020554 0.15494013 -0.43160856 -0.3341593 -0.02370463 0.015507869 0.20915197 0.1689392 0.13087118 0.030248955 -0.062070206 -0.33482736 -0.33237773 -0.30011842 -0.5278327 -0.18614514 -0.29990923 0.18271914 -0.0072283335 0.22956984 0.23512319 -0.048553735 -0.17949232 0.07245293 -0.22277935 -0.08954498 0.8841482 -0.35048753 -0.49650386 0.2229056 -0.22248909 0.27833056 0.0040772334 -0.2648731 0.0041018575 -0.695309 -0.0703447 -0.12951635 -0.26004755 0.023404334 -0.035246752
48 0.25189874 -0.8134267 0.15058044 -0.2556376 -0.11970279 -0.001763843 -0.4480031 0.5111866 -0.17573412 -0.00828658 0.3435572 -0.06473662 -0.10130259 -0.32876316 0.12627307 0.9306042 0.0641714 -0.255176 0.31589726 0.10411287 0.033091627 -0.2064935 0.045454137 -0.41470128 0.10592054 -0.51908004 -0.07908963 0.5153969 -0.42713642 0.301622 0.16146433 -0.34035885 -0.0042853877 -0.09657882 -0.06029687 -0.3462974 0.161224 0.36973608 -0.3805676 0.09273496 -0.34190297 0.34642166 -0.050903764 -0.34303093 0.05455306 -0.04092051 -0.16721141 -0.20221415 -0.067072496 -0.297055 -0.22007069 0.19781746 0.7729707 -0.24586266 0.051430367 -0.17092788 0.30156258 0.01344952 0.06395829 -0.2578747 0.031335764 0.25221235 -0.101408675 0.49074775 0.021334644 0.012044828 0.06728923 0.07449071 -0.25032663 -0.15263125 -0.25066477 -0.14372775 -0.11626894 0.26901132 -0.18873706 -0.29906595 -0.8418074 0.25614357 0.035828996 0.2220855 -0.020581387 -0.12607573 0.46501517 0.55960655 0.6323186 -0.3222447 -0.28021547 0.60866076 0.14699847 -0.32532015 -0.5332161 -0.2063175 0.16078836 0.43615386 -0.27691215 -0.27955654 0.059251525 -0.011995101 -0.32418734 -0.14679246 -0.31104493 -0.19482376 -0.07923956 -0.22052142 -0.02511917 0.30472076 0.1097257 0.5578065 -0.0507811 -0.12833112 0.10937891 0.07131715 0.04767265 0.44434938 -0.20050037 -0.5233618 -0.55021375 -0.03754606 0.15763366 -0.0676817 -0.3733728 -0.2546393 -0.4663967 -0.033155926 -0.04172751 -0.03593327 -0.12573415 0.18496281
216 -0.46939063 -0.65692943 -0.0758789 -0.19165342 0.13792156 0.0015767841 -0.47068834 0.33647147 0.07645576 0.092387035 0.15938078 -0.38334972 -0.007581981 0.016269283 0.07769512 0.44010687 -0.04370138 -0.17444818 0.20730409 0.106783524 -0.114022344 -0.124183804 -0.15812442 -0.14272277 -0.07839237 -0.21831569 -0.5485329 0.15933773 -0.40873057 0.45201764 0.45888776 -0.4430883 -0.18550803 -0.12287703 -0.05503064 -0.28173116 0.16209906 0.5109036 -0.36037683 0.16482729 -0.26996675 0.060387284 -0.17941065 -0.032141678 0.053479422 -0.042762224 -0.12847185 -0.2229783 -0.1766599 -0.3662935 -0.27315396 0.4352963 0.8360447 -0.8045799 0.21885166 -0.3663531 0.24959491 0.06459494 0.35610026 -0.071249954 -0.19905482 0.06429595 -0.26964104 0.29716793 0.04237908 0.26347873 0.008995522 0.3570726 -0.21538754 -0.44568282 -0.06221184 -0.032448508 -0.35122222 -0.098481305 -0.13145347 -0.07189201 -0.74428296 -0.067797355 -0.007144898 0.23554191 -0.2703094 -0.12812987 0.24049583 0.8045451 0.4833901 -0.3867339 0.0650464 0.5023678 0.25131503 -0.5999466 -0.7374996 -0.29690105 -0.009372655 0.40868348 -0.1351998 0.024864398 0.16293591 -0.38659024 -0.02004112 -0.20838785 -0.22176287 -0.24940419 -0.15943706 -0.39979276 -0.01753708 -0.07863866 0.009602711 0.2716441 -0.1219395 -0.15530053 -0.028199386 0.24258935 0.04819812 0.28119293 -0.48786318 -0.83227444 0.087165564 0.19825074 -0.018509481 0.008093059 -0.28010327 -0.11453836 -0.74438405 -0.19052266 0.07155801 -0.24057832 0.17164332 0.29432547
83 0.057452645 -0.7801006 0.33933818 -0.092508495 0.17581823 0.14201424 -0.23190272 0.6932152 -0.03602617 0.00022304058 0.23938875 0.042144485 0.06982966 -0.43140954 0.13269617 0.6953771 -0.22189717 -0.2380199 0.37327603 0.12743372 -0.05652186 -0.23412797 -0.27556527 -0.2618732 -0.076455876 -0.36445308 -0.37045538 0.022631124 -0.6415553 0.33578616 0.2569605 -0.29755047 0.49247378 -0.11080899 -0.087796204 -0.28670922 0.12272484 0.32195872 -0.4856755 -0.013487406 -0.39960063 0.02837126 0.04587265 0.0041715726 0.007100744 -0.13893032 -0.23104809 0.19605422 -0.22031769 -0.24183886 0.040766187 -0.07027919 0.7943275 -0.3374666 0.42525113 -0.39022428 0.17811584 0.30469328 0.32743716 -0.085648455 -0.3728717 0.23149516 -0.17877051 0.4287207 0.30120906 -0.015528276 -0.03834408 0.4903985 -0.04029187 -0.24611853 -0.09579441 -0.014120225 -0.11587666 0.110252954 -0.0027169187 -0.16682081 -0.74274623 -0.027811436 -0.11647187 0.38469723 0.2227708 -0.0047887564 0.6510161 0.56509304 0.6570195 -0.33455634 -0.12735885 0.795064 0.09847428 -0.42258593 -0.7570084 -0.49376342 0.07532365 0.45082167 -0.2219166 0.23721442 -0.031159949 -0.12276951 -0.26189643 -0.06274811 -0.11999372 -0.5235608 -0.023417294 -0.22449175 0.1440841 0.4391608 0.23584 0.31649143 -0.08448203 -0.22905847 0.13952401 0.16276345 0.041628 0.3291263 -0.5298399 -0.29089266 -0.35590887 -0.095003515 0.34612495 0.14328894 -0.3633204 -0.025216125 -0.71305263 -0.15387064 0.051914707 -0.29061595 -0.13266072 0.04076365
150 0.32598805 -0.68866503 0.07240683 -0.074592665 0.08167975 -0.1970153 -0.26332542 0.4891624 -0.1467818 -0.06603951 -0.04242888 -0.1849364 -0.305936 -0.24931765 0.25507307 0.8412311 0.057207417 -0.109673806 0.10772526 0.025539715 -0.18232155 -0.011840679 0.074906565 -0.51593083 -0.14664218 -0.42957634 -0.1697919 0.22724757 -0.15102386 0.502104 0.23524049 -0.59999317 -0.19337958 -0.07218188 -0.29473808 -0.45324257 0.10349147 0.25452444 -0.27200723 0.0024535898 -0.082224734 0.07441425 0.1897049 -0.0029107556 0.05715658 -0.12749796 -0.07205496 -0.07791588 0.03592892 -0.70942986 0.04644849 0.076546595 0.65327984 -0.4476361 0.5372139 -0.39836028 0.2568272 -0.09871336 0.24941655 -0.05704023 -0.21740054 0.09787862 -0.29856426 0.33005935 0.28086576 0.16094589 -0.26543838 0.17844047 -0.27520376 -0.44602466 -0.120010115 -0.03850612 -0.12548503 -0.25313556 -0.29941216 0.005991416 -0.4025733 0.12366821 0.11809679 0.44745857 0.17094663 -0.028495472 0.30466014 0.37459746 0.52183914 -0.22782058 -0.18731323 0.5821195 0.69945705 -0.31967568 -0.48586708 -0.27045357 -0.15784264 0.4009298 -0.12594286 -0.2376337 0.07419196 -0.19643806 -0.40700564 -0.09399788 -0.012883771 -0.7118618 -0.25610015 -0.45630306 0.057579327 0.26533034 0.19285747 0.4755739 -0.021781117 -0.09722484 -0.098661676 0.022702046 0.01644858 0.54524 -0.28424463 -0.2940374 -0.24763593 0.04548961 0.115614355 0.33409515 -0.3007502 -0.13822134 -0.6208783 -0.41886234 -0.22421801 -0.24284413 -0.3569569 0.0045372285
81 0.20636442 -0.63958526 0.17499001 -0.24832563 0.2919352 -0.19815873 -0.3630798 0.73119545 -0.15734257 -0.022818599 -0.07923924 -0.19833604 -0.15355563 -0.1855458 0.2088026 0.76889336 -0.008180544 -0.40478584 0.4176959 0.29365534 -0.0959208 -0.10504232 -0.43432707 -0.48427352 0.08846404 -0.44940406 -0.36067557 0.34344053 -0.3242371 0.3366602 0.23417528 -0.3636432 -0.022192894 -0.15338056 -0.2934238 -0.09278355 0.0081178695 0.2754586 -0.26926318 0.10693651 -0.098143205 -0.050781295 0.0729945 -0.06318407 -0.13954787 -0.059301525 -0.04921627 -0.0836317 -0.6377835 -0.39625743 -0.13594997 0.27623835 0.5359895 -0.38949463 0.27268356 -0.4339922 0.19439754 0.058745794 0.18523943 -0.17183194 -0.30906805 0.2161996 -0.119381085 0.41960245 -0.04661065 -0.2592873 -0.049154963 0.09848893 -0.43473285 0.03780186 -0.003641514 0.09480588 0.053991362 0.175443 -0.21751185 -0.09740186 -0.79785264 0.10448364 0.059199173 0.5345465 0.04005714 -0.11140896 0.19846167 0.3387773 0.5942962 -0.11876693 0.11167393 0.609846 -0.13552928 -0.1846071 -0.45538828 -0.33225244 -0.015279256 0.35415587 -0.21492651 0.016788177 0.17612182 -0.38440764 -0.08633149 -0.19812107 -0.06058133 -0.16993196 -0.29805103 -0.2585929 -0.17147808 0.2590518 -0.075556025 0.44311047 -0.044930816 -0.0031645913 0.08782774 -0.24931139 0.32304567 0.31457725 -0.32721594 -0.4599504 -0.22014986 -0.17247361 0.2029616 0.20691755 -0.3499337 -0.013839964 -0.7196197 -0.39174673 0.21938911 -0.25661817 0.00422363 0.22645363
32 -0.021616474 -0.8662007 0.27414125 0.08158497 0.29717892 0.040932875 -0.21063434 0.32511643 -0.09989179 -0.049184956 0.44206148 -0.41646883 -0.22062679 -0.22666436 0.17454714 0.6942972 0.05906573 -0.09855969 0.5367186 0.45787716 -0.15314008 -0.051190898 0.043077663 -0.6284496 -0.09688016 -0.2846543 0.016476952 0.42571026 -0.31304604 0.11157962 0.328681 -0.32236296 0.16729146 -0.41617623 -0.23821793 -0.16845761 0.1665948 0.45537478 -0.31343952 -0.030587494 -0.56438494 0.009742167 0.003496564 -0.13468847 -0.15921867 -0.11429318 -0.26668772 0.08006607 -0.05292382 -0.560758 -0.17544672 0.027215153 0.83994716 -0.4170307 0.29645586 -0.33250606 0.184304 0.025110584 0.042691108 0.056055024 -0.2262516 0.26179948 -0.14214885 0.3177121 0.13805497 -0.054867487 -0.04996413 0.3374389 -0.3988454 -0.22809328 -0.083702564 0.06234399 -0.17793638 0.23391119 -0.07718839 -0.10990484 -0.55991775 -0.12981549 0.20601457 0.18303782 0.14157005 0.077114955 0.2551712 0.7039295 0.61219424 -0.09822879 -0.02573666 0.4999842 -0.099049486 -0.63336414 -0.342204 -0.11001712 -0.00070001185 0.50611323 -0.07283475 0.18926632 0.15103868 -0.26762155 -0.17367077 -0.33171272 -0.3262413 -0.35149527 -0.3018229 -0.45609006 0.039669886 -0.100409664 0.13375583 0.23162726 -0.13786352 0.09603461 -0.20303577 -0.15337262 0.021687727 0.3025234 -0.03184509 -0.59861016 -0.1723701 0.2309535 0.36576933 0.034904227 -0.32941994 -0.33193445 -0.5364084 -0.11995542 0.17572391 -0.13954046 0.025245985 -0.034542866
34 0.065650046 -0.8365058 0.3831512 -0.008427873 0.253308 -0.17240895 0.21168381 0.40242976 -0.2109964 -0.034091428 0.24332914 -0.20416227 -0.47438815 -0.22186019 0.1091661 0.6395905 -0.102928236 -0.29296565 0.28406698 0.023254268 -0.08392267 0.0635703 0.05084747 -0.18419188 -0.02890411 -0.18721904 -0.17171077 0.43906975 -0.2069105 0.38568664 0.67766213 -0.33210784 0.11807068 -0.18019055 -0.22625926 -0.16198231 0.25180244 0.59859824 -0.5292682 0.035937548 -0.33069795 0.015895993 0.048600018 0.15576392 0.23267296 -0.028285634 -0.14942081 -0.17601794 -0.18883644 -0.42059246 -0.10587806 0.2791264 0.6543896 -0.4357359 0.0012312392 -0.11373876 0.2709201 -0.10631555 0.15749535 -0.2358759 -0.40392712 0.19859818 -0.12994862 0.17107621 -0.20887113 -0.06992681 0.087843224 0.3648327 0.0014283606 -0.20381884 -0.17972857 0.029506743 -0.23747726 0.08506116 -0.23352736 -0.24964134 -0.732291 -0.012914637 0.1470015 0.17703103 -0.1813479 0.13046023 0.28031677 0.54308724 0.636479 -0.18468443 0.047093615 0.35468835 0.186288 -0.5094106 -0.57462627 -0.26726443 -0.04092237 0.57689434 -0.24340376 0.15136805 -0.23271772 -0.38637054 -0.44515362 -0.15497768 -0.062425453 -0.29245418 0.011812419 -0.51932585 0.54578763 0.014510486 0.19500671 0.39543194 -0.30491894 -0.0480702 0.01960244 -0.123559445 -0.18628508 0.78294945 -0.21954387 -0.7242377 -0.27648538 0.11854011 0.16999526 0.32604182 -0.22148305 -0.31120077 -0.57331896 -0.2769482 -0.13786572 -0.038321957 0.31415918 0.08315034
149 0.4681789 -0.8374332 0.5123631 -0.12206061 0.3420986 -0.39279532 -0.22590263 0.30138308 -0.09944538 0.10011728 -0.05806254 -0.10455553 -0.16840994 -0.1793553 0.19403312 0.612558 0.03322868 -0.18105641 0.19818781 0.12416585 -0.16111365 0.027159318 -0.09691352 -0.48086154 -0.056363963 -0.25810584 -0.16951215 0.3337602 -0.029271757 0.35817143 0.59695554 -0.22384524 -0.0007031299 -0.37874722 0.09843546 -0.25843048 -0.08381509 0.39325538 -0.2563664 0.19990015 -0.3176669 0.12026936 0.21035795 -0.16012076 0.11430959 0.17051521 0.17881535 -0.0031688958 -0.42257994 -0.35629374 0.0730075 0.1522613 0.5985661 -0.28251198 0.2256691 -0.49040592 0.010324724 -0.030715706 0.16431428 -0.097336575 -0.3793698 -0.1041739 -0.29439056 0.2968129 0.044876434 0.05495092 -0.0018702205 0.31420746 -0.14769284 -0.5077526 0.1549401 -0.21757378 -0.09418802 0.035693403 0.021257006 -0.23146206 -1.0133778 0.07190676 -0.014463241 0.1359611 0.15247384 0.026886515 0.3472377 0.7006427 0.6532346 -0.52447265 -0.06496251 0.52023065 -0.057419576 -0.3393123 -0.3404861 -0.6048518 0.05342902 0.6553892 -0.39477855 0.027296364 0.35239023 -0.19412261 -0.22991718 -0.10411135 -0.21222898 -0.35792857 0.021293566 -0.51413804 0.03750796 0.06736182 0.13070802 0.24835724 -0.1763504 -0.13930564 -0.21454218 0.04918 -0.32704774 0.29164255 -0.20732138 -0.45777968 -0.1391244 -0.028032824 0.32927263 0.34949452 -0.5670563 -0.26951253 -0.8375447 0.045747884 0.154382 -0.49341583 -0.090066545 -0.16397354
171 0.06289341 -0.6177995 0.29541165 -0.20738901 -0.05678964 0.045069307 -0.104700506 0.22872776 -0.074517205 -0.20610282 0.11309604 0.018789366 -0.05761116 -0.13926266 0.15937576 0.6145769 -0.027313344 -0.32952946 0.3875493 0.17979099 -0.044974457 0.22799662 -0.009486653 -0.1928271 -0.034068376 -0.22050773 0.23548934 0.3019237 0.2887645 0.3078894 0.5487997 -0.5532479 -0.30056357 -0.2569441 -0.21238613 -0.1392583 -0.061922543 0.4560374 -0.27813798 -0.2062043 -0.24686821 0.15379593 0.009039344 0.20827152 -0.03974945 0.31288868 -0.15310085 0.14793275 -0.5015185 -0.51678073 -0.2851115 -0.23091838 0.38172278 -0.48323143 0.13518882 -0.3798811 0.29965234 0.27600828 0.42869127 0.012085326 -0.029583339 0.27394348 0.14752802 0.802468 -0.13857226 -0.09823954 -0.1636709 0.2731498 -0.177619 -0.29653743 0.00024778582 0.22222474 -0.20695548 0.2747479 -0.11347251 -0.2307971 -0.50979716 -0.025879344 0.06626513 0.0396965 0.10333562 0.047460772 0.50388473 0.6205393 0.77841794 -0.43321323 0.045775626 0.4319442 -0.007976875 -0.2801305 -0.39613226 -0.18675405 0.0010382459 0.27516305 -0.23912504 -0.017030874 -0.27485397 0.16753387 0.0051512755 -0.12908041 -0.10617968 -0.2556269 -0.19274306 -0.4417366 0.053270426 0.2156676 0.21441486 0.68114364 -0.11235254 -0.29758522 -0.038193602 -0.2848415 0.12649882 0.45626318 -0.22622433 -0.6553142 -0.07513752 0.017680947 -0.15225686 0.19348116 -0.07906215 -0.24216095 -0.7263076 -0.23545197 0.11071141 -0.4639586 -0.0064763837 0.046090096
172 0.13206963 -0.66932905 0.12314124 -0.37516642 0.054778762 0.1504852 -0.12547192 0.103571415 0.021496125 -0.011738792 -0.15472625 -0.06040877 0.13611415 -0.23541212 0.2999986 0.51331425 -0.025214601 -0.3602947 0.35715786 0.16956127 0.14601016 0.04541083 -0.12624393 -0.24318416 0.016532347 -0.08648893 0.10973509 0.53354174 0.1716412 0.2456021 0.3624826 -0.57577425 0.06037447 -0.022659015 -0.13119124 -0.04035017 0.24370739 0.42835644 -0.39853615 -0.07192993 0.021512028 0.15818478 -0.2676794 0.032833613 0.090371124 0.023948811 -0.2017686 0.038420454 -0.3001183 -0.5778303 -0.32718903 -0.37242898 0.6381217 -0.34672156 0.19176829 -0.43792582 0.02983589 0.21807674 0.28491035 0.083914876 -0.14286944 0.1422694 0.014457602 0.5987146 -0.15762246 -0.084088795 0.11341639 0.4165719 -0.14564097 -0.26081243 -0.038835876 0.164576 -0.22642551 0.25097576 -0.14519854 -0.2803841 -0.5110724 0.0829929 0.0014426932 0.027009353 0.12916082 0.045052208 0.40065163 0.5667465 0.6765717 -0.27074787 -0.06301073 0.5164878 0.11798013 -0.34998226 -0.35506666 -0.23524974 -0.2562281 0.4185533 -0.28033084 0.20376807 -0.078041695 0.30534783 -0.08007119 -0.029389072 -0.21255624 -0.54886365 -0.28121823 -0.2890718 0.0090826005 0.1154308 0.22365613 0.8193131 -0.21626058 -0.040609226 0.119533 -0.11776556 0.012750277 0.5412177 -0.29425538 -0.54096854 -0.18122387 -0.006750308 0.16996598 0.1348905 -0.10051662 -0.15573981 -0.91547656 -0.27289113 0.1735185 -0.3702041 0.22208934 0.040325284
190 0.47067547 0.16173631 -0.8934709 0.078620665 0.06997596 0.21182206 0.38316548 0.24965599 0.045543306 0.4244473 0.1586715 0.010501359 -0.34482273 -0.26461118 0.076475486 -0.5347527 -0.08457594 -0.22331221 -0.25257754 0.32228345 0.03415727 0.41595685 -0.09027535 -0.36019397 -0.41576892 -0.043769732 -0.22386491 0.035507467 0.31952062 -0.18518072 0.47711974 -0.2533838 0.22375293 -0.18897142 0.024457987 -0.095128536 -0.24385172 -0.42123163 -0.31478617 -0.17826313 -0.4173116 -0.002289854 -0.04236347 -0.04285694 -0.20925422 -0.044602092 -0.3223729 -0.70562553 -0.25806683 0.17884848 -0.3773024 0.026889924 0.011676683 -0.063848756 0.2756265 0.09964931 -0.08073256 0.68220466 0.10908544 0.24086165 -0.32868925 -0.23748367 -0.019001007 0.355274 -0.0022110865 0.3383448 0.12852456 -0.44166166 0.18731354 0.5114257 -0.40859288 0.45772016 0.4263777 0.015485037 -0.16535658 0.13558245 -0.1387692 -0.23835665 0.5489987 -0.20844297 0.36287904 -0.21948549 0.15327048 0.13988806 -0.13456026 -0.21080264 -0.60819143 0.36240268 -0.36844754 -0.36856222 -0.24056074 0.049412392 0.48444712 0.6687776 0.30850342 -0.61154306 -0.29365423 0.30189246 -0.07236438 0.051386774 0.046326656 -0.13114236 -0.34634486 0.095594436 0.36612934 -0.10173834 0.3216462 0.019855961 -0.18466112 -0.027798403 0.28664407 0.3212674 0.06948483 -0.0887015 0.12108801 -0.41106737 -0.02510121 0.10289809 0.58362395 -0.022503562 0.08215274 -0.4386607 -0.7615322 0.2583354 -0.17832959 -0.201745 -0.022116994 0.017251909
281 0.27098694 0.11701788 -0.7069104 0.19610429 -0.02749328 0.24823695 0.4942705 0.04832414 0.34391016 0.24445641 -0.08795957 -0.17363508 -0.5484451 -0.48835507 0.3336675 -0.3041968 -0.647417 -0.6826892 -0.017745197 -0.28789797 0.101135 0.36392376 -0.35367054 -0.34166294 -0.32824957 0.049616523 -0.08685874 -0.12568331 0.55158633 -0.26555398 0.12444185 0.35717565 -0.21102911 -0.26666573 0.17160803 0.20801622 0.0021931306 -0.21133508 -0.14091733 -0.04411328 -0.52807665 -0.14224182 -0.12466684 -0.40318954 -0.1880993 -0.2821389 0.33537513 -0.49324352 -0.21510816 0.012326397 -0.012153294 -0.050558668 0.14746004 -0.55091393 0.54047674 0.3144914 0.22967373 0.5464009 -0.16306147 0.13575478 -0.3005954 0.07254517 -0.25395 0.18654455 -0.2409645 0.7029135 -0.040569678 -0.35034788 0.23277444 -0.06770836 -0.4552955 0.097957805 0.66273606 0.015334786 -0.035757124 0.4923361 -0.48975295 -0.52219385 0.26130882 -0.083770834 0.1000014 0.24061425 0.17949954 0.35490385 -0.10075356 -0.31705114 -0.49394092 0.48476022 -0.43430892 -0.53069174 -0.15878816 -0.13342257 0.2953134 0.63392806 0.050320864 -0.4291056 0.2733416 0.32464314 0.11303144 0.042374805 -0.06588578 0.01905533 -0.31148252 0.09222338 0.20252103 0.012810802 -0.04095827 0.21873328 0.11536896 -0.029878497 0.25774038 0.22512572 0.054885134 0.14499828 0.0068246927 -0.36776274 0.017921241 -0.11192943 0.38587064 -0.21933736 -0.16226578 -0.55730224 -0.38583115 0.18799478 -0.11506052 -0.1980786 -0.02158641 -0.20028855
291 0.19137508 0.17998306 -0.6328819 0.010038432 0.17960228 0.41807687 -0.39576972 -0.18355677 0.2408436 0.060097337 -0.20274964 0.05291602 -0.33528432 0.09273416 -0.085616186 -0.42674538 -0.47111568 -0.6393976 -0.35310495 -0.016658718 -0.11339344 0.35882586 -0.13468203 -0.105247706 -0.34076267 -0.2821772 -0.27829444 -0.2851654 0.30170512 -0.4464113 0.013795 -0.14798641 0.07501697 -0.09896523 -0.17713869 0.016396724 0.1226538 -0.36840692 -0.22413567 0.077428 0.036628366 -0.3796386 0.123598 -0.70185864 -0.10491545 -0.13167188 0.164366 -0.43922353 -0.025410954 -0.25438476 -0.31155288 0.19672206 0.25200093 -0.4297995 0.63230234 0.3927293 -0.30122903 0.21178162 -0.12992096 0.31586266 -0.29415295 -0.6963325 -0.26428664 0.29281837 -0.029224288 0.6022297 -0.17496523 -0.19639625 0.5543526 0.22978991 -0.71846414 0.16266915 0.040629756 0.3128559 -0.24829304 0.37160733 -0.5410586 -0.14110547 0.4147509 -0.17731056 0.43987688 -0.018243827 0.17399393 -0.08785217 0.056082584 -0.37456262 -0.42444566 0.33624953 0.094073564 -0.65359133 -0.2161735 0.12883903 0.29933962 0.8541827 0.059452266 -0.27192467 -0.18841688 0.23351943 0.29879212 0.0018199012 -0.16203108 0.25074473 -0.4961204 0.14381312 0.41129205 -0.14851575 0.5540589 -0.01790262 -0.27210212 -0.015237022 -0.062066384 -0.21603815 -0.10820508 -0.04345733 -0.07248142 0.18016723 -0.15143834 0.33841878 0.31288815 -0.0737646 -0.18752627 -0.23068291 -0.90585744 0.43701318 -0.49273214 -0.6849325 -0.29072082 -0.51663536
170 0.20138508 0.15725501 -0.86497027 -0.03350838 0.18796316 0.54897994 0.19144066 0.05636128 0.17332467 0.022479136 0.1024549 0.1184126 -0.23843119 -0.14508104 -0.09903322 -0.6622399 -0.5799234 -0.5017862 -0.27498382 0.20510367 0.3634352 0.5618888 -0.31854072 -0.057633914 -0.2911011 -0.36250234 -0.5662011 -0.10374517 0.38949934 -0.29668394 -0.029750213 -0.33669794 0.38389516 -0.22271648 -0.03553977 0.03679879 -0.17009199 -0.20708616 -0.15482385 0.18083447 -0.029606275 -0.40802258 -0.27295652 -0.7006037 -0.26714018 -0.01800175 0.016880289 -0.26055473 0.15690185 -0.4104215 -0.17950648 0.04772226 0.23321794 -0.37878096 0.6633179 0.33411905 -0.10842534 0.41990358 -0.46544227 0.2276712 -0.3524011 -0.7545024 0.022951283 0.37533113 -0.32417968 0.42371523 -0.30438828 -0.4606906 0.29682752 0.30460992 -0.4975052 -0.13906378 0.12894362 0.21181533 -0.2706174 0.07027651 -0.9045621 -0.11597978 0.017225096 -0.2313148 0.30848682 0.017608926 0.20398311 -0.015438329 0.010439669 -0.05488287 -0.44715458 0.19420654 -0.2875751 -0.47068813 -0.25510272 0.008215959 0.44931883 0.91901124 0.38702297 -0.49924463 0.39730942 0.37543106 0.017513797 0.11099106 -0.2809524 0.02966877 -0.2644767 0.049658097 0.090695 -0.08026208 0.63508326 -0.09245318 0.08881641 -0.08764135 0.25185567 0.19004112 -0.029749272 -0.2891323 0.1263095 -0.04476663 -0.3851539 0.39457753 0.3191671 -0.10679525 -0.38753873 -0.48223317 -0.9914189 0.3737353 -0.11217343 -0.71022284 0.0038612355 -0.29264742
179 0.27693835 0.22187082 -0.71605384 0.084902525 -0.0624964 0.3711436 0.49278128 -0.024597341 -0.013272064 0.33627397 -0.2549899 0.027204348 -0.6914308 -0.5071595 0.27866518 -0.3717069 -0.35275304 -0.53721833 0.10208224 0.23096348 -0.16042006 0.58056605 -0.28564018 -0.27243954 -0.43283027 0.03834352 -0.31315127 0.18806526 0.33856806 -0.115367934 0.1480562 -0.19493307 -0.11943418 -0.244548 0.13081001 0.14844596 -0.06656256 -0.29799974 -0.61583817 0.15766078 -0.16334164 -0.0874715 -0.20133951 -0.32706282 -0.021650441 -0.24638444 -0.24428731 -0.4137135 -0.34550053 0.19608614 -0.093461 0.25434715 0.04615167 -0.093960315 0.3091787 0.2914859 -0.005410943 0.37763423 0.032754302 0.074135296 -0.21238275 -0.19518316 -0.22223593 0.31174374 0.059625894 0.6566545 -0.015262204 -0.22406924 0.4499502 -0.107120305 -0.04664021 0.18547282 0.060157217 0.39489815 -0.027426388 0.615969 -0.29431802 -0.2531136 0.36698648 -0.08688578 0.25613025 -0.102806725 0.05194386 0.27034763 -0.11931198 -0.07683781 -0.5383365 0.23984379 -0.38752413 -0.43887842 -0.17798527 0.25748357 0.4112934 0.7528659 0.4150776 -0.5987121 -0.09913272 -0.05027038 0.26031226 0.29740226 0.15593515 -0.33959952 -0.3192965 -0.50949115 0.38378853 0.038231976 0.3455527 -0.13040262 0.0968024 0.02183682 -0.11091943 0.13045539 0.53569746 -0.123319075 0.16576496 0.24155675 0.033820342 0.16570672 0.4964338 -0.0765021 -0.19590499 -0.29907337 -0.56245756 0.25078556 0.1707923 -0.042186618 -0.08711134 -0.1636323
270 0.27868602 0.26529744 -0.67839015 0.2150639 0.10868026 0.23008949 0.31651163 -0.18927899 -0.20541374 0.41187277 0.22168979 -0.15208268 -0.19477418 0.003932819 0.32597405 -0.25397658 -0.4941992 -0.6618472 -0.04990925 0.094010346 0.2937089 0.25376463 -0.21829931 -0.29634696 -0.4969522 -0.23538822 -0.18494628 0.28215045 0.29834634 0.039095342 0.49612048 0.044021174 0.113346666 -0.34449333 0.106573544 0.2637942 0.2208146 0.13252947 -0.48779434 0.2584463 -0.17694706 -0.28389433 -0.2677278 -0.093036555 -0.031602904 -0.17942841 0.109238416 -0.41380382 -0.2827646 0.20462836 -0.83899033 0.417786 0.48645094 -0.2529473 0.084215865 0.05136396 0.22490036 0.7822573 -0.067485794 0.11733973 -0.11602687 -0.38748538 -0.2897006 0.31221813 -0.10389048 0.41601092 -0.08651083 -0.26541242 0.50504297 0.3916015 -0.62542796 0.07984102 0.6741902 0.21392912 -0.08786334 0.08542214 -0.51468873 -0.36783916 0.29959366 -0.10205787 0.3194625 0.035019662 0.123637095 -0.26081997 0.064774826 -0.38531512 -0.5972289 0.5721181 -0.21529408 -0.270698 -0.021138787 0.32008716 0.38504642 0.55366236 0.4483456 -0.63034016 -0.0055844784 0.061567403 -0.24675117 0.11188575 -0.2648081 -0.15089576 -0.27301696 0.07814378 0.19031516 -0.14166814 0.2806188 -0.0317299 -0.051728304 0.09245152 0.56682587 -0.09903943 0.24202138 0.0330303 0.4431519 -0.18205094 0.21958572 0.36267427 0.08258945 -0.082878634 0.065634035 -0.074037164 -0.71830773 0.0194194 -0.16418391 -0.40752816 -0.055461414 -0.23896973
282 0.24280454 0.15516445 -0.7217515 -0.3187863 0.2587628 0.02261132 0.15589178 0.01745917 0.18800172 0.07263767 0.08738126 -0.11622493 -0.3067578 -0.43252435 0.13975011 -0.45342916 -0.34222257 -0.545841 -0.07859563 -0.049942102 -0.0003708303 0.4677549 -0.0007081055 -0.5293951 -0.47729915 0.22108746 -0.20489968 0.04002501 0.5668832 -0.17786542 0.14671978 0.14513023 0.22066972 -0.28375107 -0.043693986 -0.008669555 -0.051618695 -0.29194808 -0.30320024 0.061301526 -0.19787312 -0.09687832 0.1427787 -0.048035882 -0.20142616 -0.12895203 0.21246693 -0.08952153 -0.3392921 -0.06525457 -0.35783005 0.14877513 0.14838743 -0.3494299 0.28835955 0.25214395 0.39134878 0.41288275 -0.09623303 0.21724407 -0.37559718 -0.29389483 -0.1955257 0.48322633 -0.09034779 0.31765276 0.013453571 -0.27136308 0.4367551 0.08858239 -0.27153128 0.11344858 0.43086046 0.29067826 -0.2123779 0.09197152 -0.1725904 -0.14062084 0.38160336 -0.23167893 0.2327261 -0.10751434 0.51835245 0.15239735 -0.31187207 -0.2874313 -0.5037981 0.50941014 -0.5744622 -0.41955152 -0.10084532 0.068653114 0.74666995 0.4649911 0.12950845 -0.52522665 -0.15779327 0.11821245 -0.03287034 0.2813238 -0.05968298 0.077118166 -0.37807262 0.15486862 0.43090487 0.00016242266 0.28074044 0.083022356 -0.031170174 0.0070817843 0.31870705 0.4483735 0.16879791 0.27188474 0.26566774 -0.1584357 -0.12030738 0.04904443 0.2285425 -0.014790047 0.036232613 -0.13288759 -0.44354743 0.08591376 -0.11480737 -0.5664644 -0.20182338 -0.7139508
271 0.30560806 0.26139456 -1.0932708 -0.0059000803 0.2715775 -0.004074283 0.18154776 -0.06527971 0.12159473 0.2738725 -0.055897687 -0.07434108 -0.3692792 -0.11476865 -0.06814383 -0.4084541 -0.38422394 -0.10231387 -0.29747286 0.083824225 0.20517614 0.2218035 -0.41003722 -0.40472782 -0.8100629 0.14892331 -0.25899845 0.14746425 0.20972922 -0.14151534 0.23500675 -0.40966925 0.14026198 -0.15997162 0.029187508 0.21544084 -0.15134735 -0.073534146 -0.5164376 0.0037797168 -0.36957094 -0.09310274 -0.20699765 -0.14017028 -0.24992147 0.08666527 -0.028422788 -0.76608765 -0.13470593 -0.28500974 -0.2573774 0.18722057 -0.048538662 -0.5152581 0.14691314 0.7075846 0.33995587 0.49289423 -0.15972424 0.15513295 -0.21534324 -0.18824713 -0.2518138 0.28752056 -0.07499406 0.69839656 -0.11819397 -0.35618958 0.18274395 -0.06919854 -0.24844693 -0.09511948 0.47578406 0.24450243 -0.27001843 0.43855077 -0.35940433 -0.15805557 0.3710348 -0.06220341 0.26309347 0.05346011 0.075807154 0.21146941 -0.14367992 -0.17263436 -0.45296675 0.28809378 -0.3434201 -0.42555845 0.03233003 0.14951149 0.25422361 0.47982007 0.31019783 -0.46609384 -0.1603005 0.18677926 -0.016849115 0.13153948 0.3078641 0.45808774 -0.41229728 0.0016622096 0.13979112 0.08943488 0.35309526 0.427286 0.26606166 -0.32373387 0.23697147 0.06892756 0.3981229 -0.09003874 -0.08593713 -0.40510297 -0.15559459 0.46789175 0.21464032 -0.11682614 0.12439746 -0.025712661 -0.5843279 0.2443634 0.052640714 -0.35442466 -0.24822032 -0.37748262
178 0.058502108 -0.06599522 -0.89209425 0.06482467 0.22500375 0.20021379 0.41444153 0.049451787 0.16792305 0.30428678 0.07666582 -0.18137857 -0.59476656 -0.1704731 -0.029995091 -0.44236046 -0.45348775 -0.2450667 -0.040973682 0.0748793 0.09710471 0.2765817 -0.5580708 -0.21463153 -0.48710433 0.0944937 -0.119638614 0.26280636 0.3376068 -0.16965473 0.35522625 0.12484619 0.18321678 -0.5285931 0.3101865 0.08950346 -0.096783474 0.340638 -0.2524751 0.22344378 -0.28797805 -0.3285414 -0.2083665 -0.19007353 -0.21925054 -0.11487917 -0.061864853 -0.44823396 -0.15024197 0.25021186 -0.18377759 0.038596697 0.1586011 -0.26794443 0.3914755 0.15426481 0.09869371 0.4697675 -0.04758139 0.25619876 -0.5028694 -0.29955703 -0.14141056 0.34068626 -0.15450498 0.42114905 -0.08150533 -0.14851756 0.3544895 -0.15567587 -0.2519204 0.17450255 0.33279645 0.4877045 -0.09960143 0.5798874 -0.36417836 -0.14423652 0.47306466 -0.30520225 0.36932313 -0.19190772 0.55834013 -0.13341184 0.07954148 -0.44842798 -0.755363 0.37535143 -0.636414 -0.3608846 0.00697916 0.22921282 0.5990147 0.66284454 0.20331669 -0.18926196 -0.12139092 0.32691708 0.38119698 -0.06478655 -0.15100326 0.026933558 -0.37775055 0.07628876 -0.033237584 0.13847873 0.40744284 -0.05661591 -0.11223266 0.043152772 0.06462238 0.04185994 -0.06794382 0.02737258 0.22436571 0.10712165 0.22038953 -0.11071923 0.043420985 -0.15041596 -0.087888464 0.11805757 -0.75347936 0.4355682 -0.27951527 -0.15743065 0.017559305 -0.00072943047
191 0.3765624 0.025858343 -0.79889786 0.39485615 0.11956344 -0.16980568 0.3471222 -0.11762159 -0.07137315 -0.03456139 0.14899072 -0.4977511 -0.64389825 -0.19802794 0.1433899 -0.46637097 -0.32907006 -0.33343425 -0.1749089 0.11219092 -0.07612795 0.09985494 -0.3955229 -0.19348852 -0.32289582 -0.012754291 -0.4511327 0.04481132 0.6103533 -0.3233884 0.23797932 -0.38769713 0.3747471 -0.2179577 -0.08082317 0.02463803 -0.23223688 -0.32345545 -0.52856684 0.008729342 -0.059769943 0.0375283 -0.12538958 -0.13849959 -0.35721633 -0.06372702 -0.1574575 -0.2298952 -0.06728213 -0.048493426 -0.20953982 -0.022302948 0.10443929 -0.23641342 0.2664885 0.118055336 0.109693736 0.87205243 -0.00407017 0.56078684 -0.087553784 0.2283034 -0.6938643 0.3572295 0.02506546 0.42204595 -0.1984478 -0.50323045 0.37086678 0.15267313 -0.1870157 0.16648889 0.36930296 0.16563207 -0.33054465 0.2891835 -0.41402194 -0.23424911 -0.103775464 -0.4398982 -0.040707737 -0.18252599 0.16778651 0.14742906 -0.17072254 -0.19505669 -0.5648724 0.3059845 -0.3791167 -0.38457745 -0.08540146 0.38017142 0.29630917 0.81545365 -0.04456172 -0.69292307 0.058015987 0.28981304 0.3450388 -0.20114985 -0.14380501 -0.3875449 -0.24722022 0.2759705 0.34000278 0.07048514 0.41301998 -0.17371288 -0.033861607 -0.20116553 0.050509147 0.15513586 0.07999136 -0.040562127 0.050067075 0.12127673 0.09398161 0.13464403 0.1985878 0.04332941 -0.24008763 -0.20337366 -0.75464624 -0.00028161332 -0.18849584 0.01825168 -0.20320398 -0.01700808
154 0.15624583 0.14614812 -0.47432035 0.078332454 0.4506839 0.45826384 0.35138378 0.15622693 0.2580473 0.10868239 -0.24921212 0.025773792 -0.45200866 -0.2153005 0.20167047 -0.48492208 -0.35910892 -0.31069016 -0.23285814 -0.04907129 0.018521793 0.29025388 -0.11163928 -0.23307782 -0.405594 0.28349453 -0.17877847 0.25345525 0.23204254 -0.054017663 0.022242472 -0.11717579 0.19151953 -0.13946289 -0.07277831 0.36852163 -0.30341876 -0.16074596 -0.5078806 0.2750349 0.0021403395 -0.060268257 0.13290319 -0.25967476 -0.45979673 -0.2411783 -0.25405806 -0.6048883 -0.25489363 -0.05612963 -0.23861367 0.0007836744 0.24573255 -0.4311356 0.19368815 0.12429063 0.106638506 0.48998266 -0.17936876 0.3737843 -0.3731328 -0.29091772 -0.51515925 0.41115463 -0.20055762 0.6726643 0.05389844 -0.15423152 0.31354076 -0.21512248 -0.5789384 0.35050368 0.19901477 0.0967802 -0.07114176 0.21242681 -0.36021602 -0.16788295 0.4600447 -0.066877 0.5196366 -0.06338477 0.3915335 -0.21951509 -0.28422606 -0.35503656 -0.5382352 0.34950072 -0.5097649 -0.31961423 -0.06732713 0.13620475 0.6983816 0.3491846 0.1478118 -0.5484327 -0.111870214 0.1565248 0.21134911 0.0625282 -0.19408377 0.3995294 -0.15105632 0.31204233 0.48072755 0.0492163 0.20494373 -0.03540024 -0.23922968 0.10942555 0.33179057 -0.1152436 0.42698735 0.36039618 0.14840654 0.040944744 -0.35520703 0.034869097 0.14846575 -0.09726561 -0.2695487 -0.24861813 -0.5026562 0.21517219 -0.20154756 -0.11400695 -0.052334096 -0.30404657
141 0.10148075 0.12973815 -0.8594846 0.05885447 0.015147423 0.7538462 0.19376999 -0.06737676 -0.019302463 0.18620789 0.21690358 -0.18209083 -0.40973303 -0.09678129 0.045451343 -0.26103237 -0.38658962 -0.4135465 -0.247409 0.028323095 0.22460756 0.6636189 -0.25241184 0.09703792 -0.42836264 -0.027506324 -0.31925607 0.082247965 0.34911615 -0.32340854 -0.048598617 -0.3576634 0.16792521 -0.21764469 -0.07605665 0.17398325 -0.3104711 -0.37741148 -0.017249823 0.37128037 -0.30618703 -0.19517125 0.17317766 -0.7603866 -0.1264637 -0.37046316 0.19288662 -0.11183891 -0.070259005 -0.11053132 -0.44719368 0.10174413 0.32266313 -0.33839864 0.061437722 0.4780312 -0.35479414 0.49083775 -0.33926475 0.27281696 -0.35741848 -0.48771435 -0.18827142 0.29966155 -0.15924469 0.5743352 -0.23158947 -0.5248558 0.40017924 -0.098654434 -0.8812245 0.03488619 0.19464967 0.4405936 -0.40173197 0.08221143 -0.46931037 -0.09974032 0.21061507 -0.15395865 0.30149138 0.057202794 0.09294459 -0.097234115 0.012484111 -0.26906574 -0.50629264 -0.00909327 -0.14950196 -0.44161466 -0.036421996 0.1570577 0.40295148 0.8554288 0.17361309 -0.4207881 0.13930842 0.48025337 0.08979466 -0.1003566 -0.17970458 0.009136751 -0.46073592 -0.16526559 0.43166977 -0.26768225 0.5783335 -0.23336104 -0.24490777 -0.23559755 0.043583684 -0.05121156 -0.2209987 0.01044089 0.097561225 -0.07100917 -0.3424955 0.5995227 0.35863465 -0.08735615 -0.23925209 -0.38726443 -0.9088881 0.22924937 -0.115881704 -0.5329819 -0.02036253 -0.44027978
192 0.06043731 0.19438986 -0.567639 -0.0154567575 -0.026861686 0.07207365 0.32491297 0.07751012 0.27709258 -0.07132959 -0.05741515 -0.19841394 -0.51394546 -0.039415915 0.044172943 -0.4960276 -0.40086788 -0.45095548 -0.17251268 0.21025613 -0.035342682 0.23844244 -0.24790278 -0.39714834 -0.568756 0.06808622 -0.5199295 0.13416821 0.22246794 -0.3546788 -0.044202786 -0.114367455 0.31515265 -0.34266356 0.24456501 0.11900911 -0.1330096 -0.022021227 -0.55680656 0.20987055 -0.15361844 -0.62611187 -0.30383694 -0.48768258 -0.05593714 -0.050470594 -0.19059414 -0.4606143 -0.2769965 -0.027008405 -0.33753842 0.042325392 0.3317636 -0.19084387 0.1445485 -0.1993554 0.20393786 0.33257204 0.015405968 0.2559338 -0.38017446 -0.11578716 -0.26374173 0.29703218 -0.12539051 0.50338894 0.020421948 -0.39390272 0.62968856 0.049909476 -0.53642726 -0.019889118 0.55752575 0.25127664 -0.07245901 0.29244128 -0.38863105 -0.023433728 0.2632625 -0.24795096 0.33621782 0.46876886 0.09706725 -0.01156202 -0.3069153 -0.492516 -0.829391 0.18608338 -0.16633943 -0.1478131 -0.22359031 -0.01690249 0.39233935 0.3523772 0.3076349 -0.5842961 -0.14787793 0.033073556 0.2507016 0.037918422 -0.008638978 -0.19488618 -0.4181834 0.15698932 0.59885454 -0.15541431 0.34270433 -0.22636525 -0.10644769 0.1516495 -0.10240801 0.23367949 -0.116009384 -0.0529552 0.062007662 -0.12609068 0.3583237 0.042563334 0.18037553 -0.10496981 -0.11801979 -0.37118462 -0.7767893 0.28397393 -0.08080279 0.1707153 -0.18065324 -0.45716494
273 0.2850737 0.13410275 -0.5545701 0.19342743 0.12242797 0.48497897 0.5051644 0.25464278 -0.18234886 0.32222527 -0.36418736 -0.06937436 -0.34039575 -0.4575583 -0.033233423 -0.2702104 -0.30292654 -0.4769253 -0.16763243 -0.059005685 0.21723832 0.25710243 -0.37085056 -0.25917304 -0.54589146 -0.09460051 -0.43868417 -0.043642536 0.14359862 -0.19582635 0.53559774 0.015678722 0.109773 -0.431031 0.1578517 -0.032228187 -0.30274966 -0.116274714 -0.5270825 0.15403882 -0.16351515 -0.24761426 -0.013721935 -0.23112434 -0.17863189 0.017621443 0.07235308 -0.38167185 -0.38510174 0.22461283 -0.29591855 0.14254409 -0.09565966 0.0230911 0.31568122 0.36289158 0.18538488 0.5107905 -0.037993208 0.39791757 -0.33913457 -0.29346642 0.030496163 0.13393149 0.18235075 0.61536527 -0.10282904 0.041170366 0.5624228 -0.22164972 -0.24297978 0.06060887 0.6846571 0.3079288 -0.18899946 0.45124614 -0.31246227 -0.23932661 0.29689813 -0.19731814 0.21531536 -0.09450581 0.48329476 -0.07676336 -0.2951308 -0.3806836 -0.6417835 0.3418365 -0.28771836 -0.2751155 -0.17101689 0.07722249 0.5159296 0.8478196 0.20467171 -0.34889212 -0.19573867 0.30976433 -0.15079378 -0.0037371777 0.107934915 -0.10677841 -0.22471616 0.1787093 0.21785592 0.012294756 0.17092073 -0.15748836 -0.13608906 0.15566179 0.1911143 -0.03612322 0.043424614 0.10388473 0.12822944 -0.022650309 -0.1969836 0.016995654 0.28418925 -0.007978052 -0.008275105 -0.19065116 -0.52255416 0.005224662 -0.19008309 -0.42592317 -0.3104395 -0.08700311
193 -0.14171088 0.17404681 -0.58729434 0.08763704 -0.015295938 0.17157334 0.20241162 -0.11984761 0.18173468 0.21381918 0.06650339 -0.3159092 -0.23452695 -0.30843404 0.22844988 -0.565696 -0.22082677 -0.5044874 -0.15450689 -0.06031871 0.026871853 0.39190957 -0.234602 -0.6450081 -0.15600947 -0.05920793 -0.4078055 0.02852521 0.52124393 0.08890172 0.25351515 -0.15760832 0.03769899 -0.2312971 0.3230787 0.15138295 -0.36742628 -0.010492951 -0.1757271 -0.0016664304 -0.23746225 -0.052087747 -0.124427706 -0.37524515 -0.122558884 -0.5354905 -0.2562742 -0.40006673 -0.443694 -0.06026969 -0.32686108 0.08039896 0.12860896 -0.4316663 0.16739102 -0.046176486 0.3625595 0.48447967 0.09152211 0.39599383 -0.5231571 0.109567635 -0.21776858 0.133974 0.20903537 0.58553606 -0.32207307 -0.25947225 0.26850516 0.07620442 -0.44427815 0.59149194 0.47365287 0.063415505 -0.21100314 0.28891647 -0.38587683 -0.29556 0.33315393 -0.24858038 0.26906928 -0.16720185 0.116353415 0.011134714 -0.2790586 -0.068441905 -0.6632259 0.5118874 -0.38323882 -0.5146312 -0.08354783 0.5122936 0.45657018 0.5332331 0.075404726 -0.564445 0.20067593 -0.19733526 0.084058926 0.071526065 -0.12034589 0.19481446 -0.1386335 0.14038444 0.26028663 -0.051775858 0.5295311 0.051940247 -0.030758262 0.24002507 0.0458768 0.1959251 0.08302885 0.012641944 -0.14051218 -0.33761024 0.022167558 0.32592112 0.21249184 -0.1629652 -0.15899633 -0.37987012 -0.5077189 0.31409347 -0.102454975 -0.31097937 0.06600274 -0.22928497
177 0.3353984 0.08411681 -0.5574704 0.14182962 -0.016506493 0.085217305 -0.10972456 -0.073561236 -0.1467459 0.34953967 0.17458236 0.13316905 -0.52542186 -0.24937311 0.26664475 -0.4127441 -0.32638568 -0.3979265 -0.15484634 -0.14991559 -0.08667904 0.31547058 -0.069858365 -0.2129659 -0.6014645 0.13220146 -0.3151766 0.05975781 0.32502276 -0.2989228 0.15237905 0.13953859 0.0480043 -0.12799971 0.09724441 0.0988963 -0.1481023 -0.20392108 -0.22537456 0.28693148 -0.22574893 0.023457315 -0.44015557 -0.21276289 -0.39830714 0.14088807 -0.2236062 -0.60446423 -0.56507385 0.07129851 -0.36844426 0.009603091 -0.0093437545 -0.33378255 0.28826934 0.17454486 0.06276913 0.45813835 -0.38480172 0.41261852 -0.18729803 -0.3092984 -0.35248607 0.15018786 0.06818282 0.3053671 -0.26964453 -0.4997397 0.31065935 -0.18039207 -0.51375425 -0.042435866 0.23345166 0.30391318 -0.17428076 0.4296859 -0.42274126 -0.26341194 0.24008885 0.07457388 0.028395101 0.074469805 0.12214061 0.07852552 -0.37308457 -0.20928696 -0.540733 0.36055863 -0.52981615 -0.5572708 -0.31418738 -0.012091155 0.68322015 0.6614843 -0.07764198 -0.5389278 -0.50453264 0.2262953 0.05333075 0.076192364 0.22921589 0.19114606 -0.2620439 0.19144085 0.058497608 0.08750578 0.4926027 -0.081686184 -0.30733615 0.016209055 0.22222167 0.2913261 -0.057435647 0.20056349 0.5214485 -0.1191435 -0.013078155 -0.13957535 0.110552505 0.18407929 -0.15928292 -0.39276022 -0.9166758 0.20956609 -0.020605743 -0.031843524 -0.050586883 -0.17737204
272 0.40380734 0.0017478243 -0.7853707 -0.12522873 0.20590587 0.20411967 0.44961536 -0.20041044 -0.1146978 0.19582364 0.15043649 -0.09434812 -0.3029409 -0.48549044 0.16020864 -0.3724894 -0.6253365 -0.17833057 -0.2411151 0.006670492 -0.16021685 0.34228665 -0.31996843 -0.14571433 -0.3528322 0.024028301 -0.29811478 -0.14342782 0.15887937 -0.3803814 0.32480332 -0.13228203 0.09007838 0.0048047155 -0.072867 0.21863931 -0.16041617 -0.20198447 -0.34662873 0.14481854 -0.37151375 -0.22923365 -0.4105448 -0.16506854 -0.39204478 -0.4377283 -0.2816952 -0.18261513 -0.15699518 0.06721048 -0.16086476 0.2639203 0.18257931 -0.4971537 0.39267075 0.27230296 0.11948115 0.4463796 -0.11139724 0.39474854 -0.08935891 -0.34832886 -0.16845162 0.249902 0.1957093 0.6321664 -0.015513793 -0.086302534 0.54065925 0.17385438 -0.3949233 -0.21436262 0.32630002 0.034817286 -0.17663372 0.2561864 -0.25184166 -0.36647832 0.35214818 -0.122377865 0.022030216 0.010114297 0.19078885 -0.19474334 -0.21486893 0.005342511 -0.41358536 0.12718058 -0.026367698 -0.6161678 -0.05955049 0.10963643 0.63862264 0.65460014 0.25954172 -0.37220442 -0.1878959 0.030970149 0.0043667294 0.11836875 0.11234755 -0.22281297 -0.53169334 0.25033778 0.27483043 -0.02985878 0.44729987 0.041689895 -0.1571924 0.092729025 0.03263198 0.006058447 -0.102109134 0.024028296 -0.030318439 -0.20600566 -0.23755984 0.049717315 0.24694394 -0.10781629 -0.09656042 -0.43383482 -0.5149063 0.3704881 -0.5201076 -0.17656419 -0.22144154 -0.1095545
280 0.12307058 0.10771034 -0.66296846 0.011783618 0.020148097 0.0037510842 0.17826444 0.062263586 -0.18980946 0.28636947 -0.23436645 0.1647611 -0.4054035 -0.21929671 0.22337477 -0.27799708 -0.31960368 -0.44146228 0.002356222 0.15686098 0.18300246 0.1600166 -0.6742054 -0.2897082 -0.53200495 0.07697033 -0.40703067 -0.11046065 0.47622034 -0.14227949 -0.039964713 0.073334515 -0.059146397 -0.30732316 0.21758015 0.13522735 -0.00953264 -0.23450842 -0.46446985 0.09819289 -0.34242305 -0.19639231 -0.18133286 -0.4407568 -0.07558454 -0.34849405 -0.039065897 -0.49950176 -0.12653704 -0.15226589 -0.16486594 -0.05162338 0.28491074 -0.44343624 0.35738647 0.25886682 -0.1555244 0.25928375 0.19101909 0.22288242 -0.22596887 -0.35024065 -0.28193554 0.3596119 -0.0024954826 0.3288315 0.026368655 -0.5199145 0.291879 0.14002535 -0.38569435 0.03810996 0.6966988 0.073178165 -0.026481722 0.23538643 -0.33800775 -0.56693375 0.2691561 -0.05057121 0.49307206 -0.28698593 0.26129523 0.05174341 -0.20429067 -0.33093464 -0.5885254 0.20995654 -0.46229306 0.02021011 0.06618932 0.084565766 0.48947695 0.5780816 0.16236147 -0.43059334 0.00024706498 0.09758529 0.11193231 -0.22041065 -0.0022101868 -0.09169301 -0.6685291 0.027755369 0.3851778 -0.20392105 0.32651576 -0.029615931 -0.0071952585 0.0823341 0.1376103 -0.00078200176 0.040675122 -0.08368934 0.42266226 -0.07486631 -0.31940192 -0.031086989 0.2089422 0.102365404 -0.02626469 -0.2026111 -0.7097025 0.34554112 -0.22505322 -0.29266798 -0.15315665 -0.0558323
180 0.1787177 0.09486122 -0.76643586 -0.0001218766 -0.117950216 0.34229484 0.4574824 0.30111963 -0.16910844 -0.17677163 -0.25515276 -0.07664135 -0.49791962 -0.12109202 0.24020728 -0.7174232 -0.4512603 -0.6102589 -0.0930602 0.029044453 -0.26219907 0.21686509 -0.43272707 -0.12665583 -0.5535742 -0.07662408 -0.11296442 0.39798683 0.24554017 -0.17501768 0.28142586 -0.11626579 0.20223404 -0.22167006 0.2894901 0.2011711 -0.18122582 -0.13402139 -0.40117034 -0.016274154 -0.16201743 0.022656314 -0.10238383 -0.34161368 0.19760913 -0.1102874 -0.1395054 -0.3980946 -0.3192619 -0.3551938 0.09750558 0.33806044 -0.049722668 -0.3815312 0.15522751 0.05824218 -0.09442836 0.5653854 0.09759821 0.35360658 0.08762978 -0.11785762 -0.39228696 0.4697892 -0.13381754 0.5559778 0.06552069 -0.44228873 0.7167648 -0.04318291 -0.264869 0.1850273 0.37175688 -0.06003028 -0.37378493 -0.05739741 -0.36324936 -0.23686422 0.4349053 -0.2537424 0.5044524 -0.107776195 0.1466384 0.002979913 -0.21682584 -0.39971882 -0.5167579 0.2580649 -0.33039588 -0.4119737 0.0010052323 0.3493221 0.32212108 0.52125025 0.3473687 -0.29382545 -0.11108354 0.29205 -0.04112033 0.18723327 -0.3066149 0.24948502 -0.443758 0.16043971 -0.07869209 -0.10682142 0.41403824 0.2296922 -0.13040464 -0.062334202 0.26599777 0.19442841 0.1794283 0.21962503 0.17375581 0.036184058 0.09692156 0.09478373 0.09859123 -0.0088266805 -0.1828251 -0.5806821 -0.57899165 -0.08435763 -0.091985375 -0.118723154 -0.12331844 -0.27941492
279 0.5330438 0.22392765 -0.57935417 -0.071936905 0.013078511 0.10305549 0.22497754 -0.19990401 0.020235289 0.44556767 0.05264479 -0.29415965 -0.59120536 -0.31252205 0.2041467 -0.23922825 -0.44806996 -0.52250373 -0.027383335 -0.21524927 -0.011106059 0.090222225 -0.20072086 -0.24250492 -0.38561296 -0.17066026 -0.13475028 0.11666421 0.32023954 -0.2453869 0.17531793 -0.1704439 0.32128847 -0.42903376 0.27801168 -0.012579747 0.040080793 -0.08838891 -0.3099289 0.17869759 -0.14166394 -0.082008906 -0.31224582 -0.3099468 -0.1476414 -0.19777133 -0.22985326 -0.6949812 -0.222657 -0.064893596 -0.31277707 -0.16538224 0.040127665 -0.27121955 0.22234115 0.2501544 0.34301677 0.6580362 -0.14905217 0.03372141 -0.2709419 -0.21294683 -0.090621874 0.09902888 -0.12668735 0.54647446 -0.14547573 -0.27575836 0.22065048 -0.02230233 -0.39087635 0.050508086 0.53499204 0.22648886 0.057393443 0.062222406 -0.3206586 -0.27677524 0.33606374 0.0039226785 0.42106307 -0.34192887 -0.044165578 -0.18577039 -0.23349328 0.11889023 -0.5685748 0.59474206 -0.20363201 -0.20043719 -0.05723792 -0.14531226 0.720294 0.57776827 0.20571098 -0.5267519 0.073111825 0.2616098 0.20890287 0.13023774 0.039086096 0.03387592 -0.28071037 -0.064900815 0.22297302 0.31298667 0.1312646 0.060577787 0.076868355 -0.14053255 -0.20684013 -0.027306868 -0.06336347 0.22208565 0.3212475 0.0051641073 -0.10203035 0.21516573 0.51832294 0.08900088 -0.06955644 -0.098078236 -0.57512796 0.33426112 -0.059735805 -0.3270641 -0.13985644 -0.40893656
155 0.3952131 0.1871543 -0.7411411 0.075907536 0.22565433 -0.0065670684 0.54798794 0.09915497 0.116616145 -0.03870954 -0.39186144 -0.17090692 -0.27413446 -0.34256506 0.09533025 -0.3672442 -0.31117558 -0.5378262 -0.082932904 -0.013983171 -0.038712576 0.20784682 -0.2989981 -0.43247193 -0.3318282 -0.3333276 -0.2586837 -0.1323384 0.1031747 -0.12376843 0.072505966 0.109010786 0.08282691 -0.26823735 0.1647571 0.12744664 -0.21567985 -0.07662773 -0.5403526 -0.02631867 -0.28057063 -0.11326431 -0.15678768 -0.044944115 -0.34129146 -0.27000725 -0.11517265 -0.47911358 -0.5614791 0.07693369 -0.29821795 0.20207652 0.26729095 -0.33697927 0.054788984 0.058620688 -0.15637337 0.38095108 -0.011967152 0.34393534 -0.14498916 -0.40541953 -0.053658523 0.26342565 -0.24179432 0.33403897 0.034867417 -0.29118487 0.3423661 0.01999905 -0.1297811 -0.081890866 0.57183254 0.206287 -0.36164445 0.28411385 -0.7009322 -0.20120648 0.3560058 -0.33697188 0.03955982 0.17894655 0.3066641 -0.14593117 0.082344435 -0.2908501 -0.7018888 0.44866046 -0.40734643 -0.4903256 -0.20079038 0.29382876 0.26706904 0.55630815 0.16917661 -0.58849263 -0.15321033 -0.016780943 0.12623596 0.055972315 0.11218394 -0.08141853 -0.4020012 0.2636919 0.23003116 -0.23079026 0.4062627 -0.060169145 0.04091361 0.034418672 0.013315648 0.1953273 0.49249104 0.15509266 0.12925737 -0.0076119304 -0.25463647 0.18697365 0.2716549 -0.21835223 -0.036940716 -0.34926495 -0.7748966 0.17356436 -0.31469494 -0.09318128 -0.29287785 -0.09291606
549 0.30705303 -0.20402478 -0.15307115 0.24076077 0.06357823 -0.3326524 0.8171735 0.14427856 -0.048337527 0.70309865 0.4560449 0.3385716 0.4345073 -0.31390515 0.0832975 0.7620076 -0.78525674 -0.9330753 -0.62253785 0.3118434 0.14358795 -0.0154583305 -0.4944695 -0.7567706 -0.61833453 0.5109534 -0.2794593 0.013793722 -0.32638365 -0.047945097 0.6047758 0.04068481 -0.07173175 0.077108204 -0.7122618 0.075980425 0.2661487 -0.23929429 0.033153243 0.123570636 -0.28520706 0.008157264 -0.3943781 -0.23894663 -0.16210705 0.30566585 0.11871408 -0.090705715 -0.67452264 0.075257674 -0.3942658 0.02344002 -0.21610259 -0.70654476 0.022575958 0.038703587 0.1868433 -0.11155027 -0.22059187 0.43380967 -0.42570257 0.11567108 -0.09243761 0.7388805 -0.2126519 0.19777618 0.52451664 -0.34418064 -0.118934885 -0.37778676 -0.97476614 0.07426334 -0.013994778 0.38131642 -0.40886596 0.17694971 0.18292001 -0.19227429 -0.15693116 -0.21816374 0.16591373 -0.099356115 -0.1868187 -0.27504638 -0.077150494 0.49305835 -0.16153601 0.29037476 -0.27377748 0.38362843 -0.6686899 0.09045382 0.25686365 0.12720351 -0.19810593 -0.069764316 -0.18503916 -0.42321745 0.678313 0.2013208 -0.53578705 -0.16261485 -0.2231562 -0.32979158 -0.19180612 -0.51124644 0.5632443 0.28270572 0.601339 0.33213508 0.16347829 0.03511165 -0.16840112 0.38327414 0.048066225 0.117267326 -0.049368784 0.010120012 0.5327952 0.11568196 -0.5564575 -0.045009777 0.08429642 -0.0916977 -0.0936258 -0.23651537 -0.31493673 0.039116446
285 0.274023 -0.11984431 -0.12646627 0.19454992 0.19269161 -0.38529152 0.85135925 0.09407951 -0.11282865 0.67192733 0.46673325 0.3335494 0.4637857 -0.36428452 0.28332514 0.84969276 -0.5561862 -0.887895 -0.5962823 0.25069034 0.09185755 -0.112886414 -0.4216068 -0.7709281 -0.65466547 0.27715573 -0.117731564 0.031179642 -0.30925414 -0.059674844 0.50409997 0.19232005 -0.12699819 -0.16027772 -0.5673745 0.12074099 0.14797199 -0.11595146 -0.07139014 0.09937416 -0.29268122 0.061696045 -0.4915223 -0.41642284 -0.1491571 0.29263473 0.11148688 -0.044478398 -0.7047819 -0.007739707 -0.20891067 0.05983918 -0.15748805 -0.8389267 0.010516889 -0.0071826763 0.1760298 -0.17359227 -0.15767568 0.29897138 -0.35802588 0.11358833 -0.07410118 0.6407361 -0.29661822 0.2738072 0.3147626 -0.48039973 -0.22115786 -0.505351 -0.9947979 -0.0108614825 0.09402674 0.20151086 -0.33630234 0.04186328 0.023204401 0.081435844 0.10650084 -0.24841562 0.14539964 -0.034890786 -0.36487925 -0.24361536 0.003997205 0.52390826 -0.21254396 0.38358086 -0.3381803 0.46215242 -0.5712837 -0.08106878 0.30669522 0.23201762 -0.20927873 -0.23821284 -0.10193654 -0.49555874 0.78725624 0.29842436 -0.47748908 -0.15295963 -0.28587702 -0.25586566 -0.113283426 -0.46434 0.6127856 0.55995506 0.47178108 0.20719641 0.35825336 -0.015682928 -0.21579887 0.267461 -0.081558675 0.1501282 -0.11046695 0.12140821 0.5984609 0.35948542 -0.6516566 0.03859963 0.13991249 -0.1299248 -0.113390535 -0.20997727 -0.29466334 0.121098556
550 0.22745746 -0.10075535 -0.20037319 0.19727449 0.12163178 -0.5397272 0.8483018 -0.086964116 -0.13564186 0.52916527 0.39974165 0.283395 0.44180954 -0.4308653 0.17444187 0.82210743 -0.7337421 -1.1286135 -0.41583577 0.1924211 0.04562878 0.091484964 -0.50436175 -0.6229259 -0.66269606 0.3725071 -0.22996174 0.086171634 -0.37481606 -0.123956166 0.66457456 0.0009833314 0.0013736829 0.14900354 -0.596251 -0.01103122 0.13856255 -0.2816043 0.08208904 0.25849256 -0.32837644 -0.08331159 -0.3902964 -0.30316514 -0.18951038 0.3109417 0.16115347 -0.12971546 -0.79487085 0.037786152 -0.23138453 0.09434655 -0.22925328 -0.98094416 0.11152851 -0.04427524 0.20822163 -0.045551393 -0.1986255 0.27039373 -0.31458956 0.001714705 -0.13588642 0.61256474 -0.27195993 0.2428228 0.3773606 -0.28097042 -0.09842707 -0.41504014 -0.9956517 -0.011901949 0.13499692 0.21649167 -0.52311647 0.16864718 0.16245657 -0.09882566 0.061593764 -0.19506183 0.03789949 -0.092375055 -0.29977274 -0.30520752 -0.08398947 0.38458884 -0.078544356 0.26279867 -0.20583613 0.3215387 -0.5832223 -0.057787776 0.47736517 0.28622365 -0.3441835 -0.010560472 -0.20813099 -0.47904816 0.73130846 0.010044418 -0.49163997 -0.27779227 -0.30302942 -0.26972172 -0.2821858 -0.58222735 0.6651679 0.27597 0.6231131 0.21832523 0.21294346 0.1561879 -0.26738802 0.29270935 -0.113223575 -0.017700493 0.12513004 0.035658415 0.49853313 0.11360502 -0.653062 0.003414601 0.028242089 -0.11051105 -0.1399634 -0.0032217763 -0.186468 0.052281342
